tree
version=v4
num_class=1
num_tree_per_iteration=1
label_index=0
max_feature_idx=21
objective=binary sigmoid:1
feature_names=jyo_cd boat_no racer_win_rate motor_2ren boat_2ren exhibition_time tilt temperature water_temperature wind_speed wave_height wind_direction weather racer_win_rate_diff motor_2ren_diff exhibition_time_diff is_course_1 course_advantage is_inner_course is_outer_course wind_course_interaction motor_exhibition_ratio
feature_infos=-1:1:2:3:4:7:8:11:23:17:15:13:14:20:12:19:10:18:22:21:6 -1:1:2:5:6:4:3 [0.80000000000000004:8.4399999999999995] [0:85.709999999999994] [0:75] [6.4800000000000004:7.5899999999999999] [-0.5:3] [5:19] [6:18] [0:8] [0:20] -1:15:13:17:5:12:4:14:3:1:2:11:7:16:6:10:8:9 -1:1:2:3 [-4.0183333333333335:3.1450000000000005] [-46.544999999999995:51.384999999999998] [-0.29666666666666686:0.293333333333333] [0:1] [0.048000000000000001:0.48599999999999999] [0:1] [0:1] [-20:20] [0:12.697777777777777]
tree_sizes=1607 1835 1632 1633 1849 1732 1658 1659 1868 1642 1648 1773 1846 1739 1651 1848 1762 1758 1746 1425 1738 1532 1801 1792 1869 1841 1653 1617 1528 1739 1721 1536 1655 1891 1773 1740 1853 1880 1646 1440 1346 1549 1545 1564 1512 1549 1351 1416 1429 1454 1325 1427 1237 1633 1636 1715 1420 1024 1662 1105 1210 1447

Tree=0
num_leaves=14
num_cat=1
split_feature=1 2 19 2 2 15 15 8 5 2 15 15 15
split_gain=1512.81 166.35 100.094 78.5514 50.6701 38.2819 26.3368 20.2433 19.5634 13.5421 12.3624 8.57991 3.27857
threshold=0 4.3400000000000007 1.0000000180025095e-35 5.5150000000000006 5.5950000000000006 -0.0016666666666664829 0.019166666666667002 12.500000000000002 6.8950000000000005 5.7550000000000008 0.0083333333333333055 -0.036666666666667506 -0.043333333333333439
decision_type=1 2 2 2 2 2 2 2 2 2 2 2 2
left_child=1 7 3 10 6 -5 -3 -1 -6 12 -2 -11 -4
right_child=2 4 9 5 8 -7 -8 -9 -10 11 -12 -13 -14
leaf_value=-1.5887358399657816 -1.6216152339147478 -1.3813592017715963 -1.6491531268224267 -1.5480116796400842 -1.307375779109389 -1.6090698844486575 -1.4944484814223364 -1.4710600912428249 -1.4083985130508125 -1.6004636691575682 -1.6511284893531901 -1.6510666532289211 -1.6747775194647085
leaf_weight=21.785557568073273 182.43647563457489 48.912090539932251 34.575788140296936 125.93457794189453 82.785118758678436 122.70188230276108 16.725686132907867 14.898510336875914 13.492990493774412 25.721013128757477 162.33754187822342 95.8564532995224 239.9222372174263
leaf_count=155 1298 348 246 896 589 873 119 106 96 183 1155 682 1707
internal_value=-1.59152 -1.40095 -1.63129 -1.61147 -1.35747 -1.57814 -1.41018 -1.54094 -1.32153 -1.66198 -1.63551 -1.64036 -1.67155
internal_weight=1188.09 198.6 989.486 593.41 161.916 248.636 65.6378 36.6841 96.2781 396.075 344.774 121.577 274.498
internal_count=8453 1413 7040 4222 1152 1769 467 261 685 2818 2453 865 1953
cat_boundaries=0 1
cat_threshold=2
is_linear=0
shrinkage=1


Tree=1
num_leaves=16
num_cat=0
split_feature=16 13 13 19 19 13 3 13 13 3 13 3 13 3 20
split_gain=1202.8 146.702 109.721 53.2232 38.2803 33.0276 28.9163 21.9775 19.1132 11.1784 9.64748 8.39084 5.62394 4.61 4.15097
threshold=1.0000000180025095e-35 0.98000000000000009 0.077499999999999694 1.0000000180025095e-35 1.0000000180025095e-35 -0.6063333333333335 40.560000000000009 1.2675000000000003 -0.6849999999999995 30.155000000000005 1.7158333333333335 39.495000000000012 -0.81083333333333341 32.440000000000005 -5.4999999999999991
decision_type=2 2 2 2 2 2 2 2 2 2 2 2 2 2 2
left_child=1 3 8 5 6 -1 -3 11 13 -10 -6 -4 -5 -2 -9
right_child=2 4 7 12 10 -7 -8 14 9 -11 -12 -13 -14 -15 -16
leaf_value=-0.066581439207262089 0.074373529143198988 0.04093000268435399 0.17411341811472758 -0.091605013805512031 -0.041249399666606887 -0.021930302970491911 0.15111687247723335 0.23017924588715502 0.067091406936934453 0.14124976787253718 0.037094108622111405 0.22396971848470873 -0.069062725069959793 0.012264410649169163 0.28557742007965931
leaf_weight=141.48225176334381 13.753232374787332 82.571958184242249 77.196645438671112 94.205589443445206 39.21242156624794 344.13825219869614 17.463437423110008 15.14334788918495 17.594158753752708 40.901273161172867 12.560714542865751 27.784645810723305 231.80961716175079 15.256515130400656 17.818744480609894
leaf_count=1036 92 584 473 707 289 2479 123 91 113 263 92 170 1730 104 107
internal_value=-0.000280276 -0.0381331 0.161482 -0.0512622 0.032061 -0.0349391 0.0601656 0.204709 0.0933396 0.118945 -0.0222424 0.187309 -0.0755766 0.0417097 0.260127
internal_weight=1188.89 963.444 225.449 811.636 151.809 485.621 100.035 137.943 87.5052 58.4954 51.7731 104.981 326.015 29.0097 32.9621
internal_count=8453 7040 1413 5952 1088 3515 707 841 572 376 381 643 2437 196 198
is_linear=0
shrinkage=0.077797


Tree=2
num_leaves=14
num_cat=0
split_feature=16 17 2 2 15 2 8 15 2 15 9 15 15
split_gain=950.161 86.72 76.506 62.3119 30.8944 19.8189 19.7719 15.8944 13.119 11.7272 11.3349 8.03015 3.4456
threshold=1.0000000180025095e-35 0.092000000000000012 4.285000000000001 5.5150000000000006 -0.0016666666666664829 5.5950000000000006 12.500000000000002 0.019166666666667002 5.7550000000000008 0.0083333333333333055 3.5000000000000004 -0.036666666666667506 -0.043333333333333439
decision_type=2 2 2 2 2 2 2 2 2 2 2 2 2
left_child=1 8 6 9 -5 7 -2 -4 12 -3 -7 -10 -1
right_child=2 3 5 4 -6 10 -8 -9 11 -11 -12 -13 -14
leaf_value=-0.052206815026023361 -0.021113698610844504 -0.026202727104303731 0.14337106267839791 0.037835229616266029 -0.016674036212354998 0.18802263866654514 0.095352292881288367 0.065230774447072551 -0.0051703167055799316 -0.05577076908767075 0.13758738039375915 -0.055204123455361215 -0.079733873261295149
leaf_weight=31.558307856321335 20.037098273634911 174.49218113720417 63.205638185143471 130.44874320924282 121.58703330159187 88.046482965350151 15.762169763445852 20.98628132045269 24.84171362221241 151.8215489834547 38.878472745418549 88.86138191819191 215.15109375119209
leaf_count=246 136 1298 364 896 873 472 99 129 183 1155 213 682 1707
internal_value=-0.000466294 -0.0361833 0.135328 -0.0175174 0.0115389 0.15316 0.0301655 0.123893 -0.0661363 -0.0399596 0.172574 -0.0442728 -0.0762127
internal_weight=1185.68 938.762 246.916 578.35 252.036 211.117 35.7993 84.1919 360.412 326.314 126.925 113.703 246.709
internal_count=8453 7040 1413 4222 1769 1178 235 493 2818 2453 685 865 1953
is_linear=0
shrinkage=0.077797


Tree=3
num_leaves=14
num_cat=2
split_feature=1 13 2 20 13 13 13 1 5 2 13 13 15
split_gain=744.308 125.419 55.3602 40.4474 29.8796 27.1497 22.3018 20.1394 19.0609 11.2937 8.61757 7.94202 7.46717
threshold=0 0.98000000000000009 4.285000000000001 1.2500000000000002 0.20833333333333351 1.7525000000000002 0.34416666666666679 1 6.8950000000000005 6.9750000000000005 -0.47549999999999976 1.2675000000000003 -0.015999999999999567
decision_type=1 2 2 2 2 2 2 1 2 2 2 2 2
left_child=2 3 12 4 -2 7 8 -3 -4 -7 -5 -8 -1
right_child=1 5 6 10 -6 9 11 -9 -10 -11 -12 -13 -14
leaf_value=0.061574701253595827 -0.045656793403046098 0.031873622052773547 0.11808441508599998 -0.082126638185066256 -0.0015489533508565049 0.11982109385637923 0.13824124024321419 -0.031192468547599082 0.027721503927792178 0.033779003330611665 -0.056935785092649467 0.17929412443331366 -0.0088859803938058039
leaf_weight=18.678095519542694 281.93971549719572 76.624586269259453 75.066484227776527 138.51778180897236 138.67482560127974 23.544830873608589 94.312139824032784 38.630965158343315 17.403853446245193 15.189306184649466 202.12308426946402 40.885733053088188 17.757461726665497
leaf_count=120 2166 520 404 1147 1019 160 479 302 97 106 1620 198 115
internal_value=-0.000581326 -0.0339293 0.112028 -0.0472526 -0.0311146 0.0297316 0.130519 0.0107944 0.101077 0.0860803 -0.0671794 0.150656 0.0272345
internal_weight=1179.35 915.245 264.104 761.255 420.615 153.99 227.668 115.256 92.4703 38.7341 340.641 135.198 36.4356
internal_count=8453 7040 1413 5952 3185 1088 1178 822 501 266 2767 677 235
cat_boundaries=0 1 2
cat_threshold=2 28
is_linear=0
shrinkage=0.077797


Tree=4
num_leaves=16
num_cat=1
split_feature=16 13 13 20 13 13 1 3 13 7 13 13 7 7 3
split_gain=629.883 110.712 42.1989 38.4294 26.9078 21.1766 17.5103 9.3775 8.84757 8.95295 8.59905 8.36222 8.31059 4.0662 1.87502
threshold=1.0000000180025095e-35 0.98000000000000009 0.077499999999999694 1.2500000000000002 0.20833333333333351 1.7525000000000002 0 34.555000000000014 -0.66833333333333333 11.700000000000001 -0.47549999999999976 1.2675000000000003 10.450000000000001 12.900000000000002 34.555000000000014
decision_type=2 2 2 2 2 2 1 2 2 2 2 2 2 2 2
left_child=1 3 8 4 -1 6 -3 -7 13 -10 -5 12 -4 -2 -13
right_child=2 5 11 10 -6 7 -8 -9 9 -11 -12 14 -14 -15 -16
leaf_value=-0.043524010984207488 0.0010677485054609798 0.029131416480970569 0.075322011057093241 -0.080602576929047515 -0.0014300030223290512 0.038534366983312605 -0.029798535057815635 0.11306621709194009 0.12288511020161427 0.060058724491782817 -0.054775371504432221 0.16862577137734189 0.12440810094379585 0.056479977589257081 0.13625573246765105
leaf_weight=273.10783097893 16.614453613758087 78.189896389842033 25.931850776076317 130.47734409570694 138.53019600361586 20.891918584704399 37.794029042124748 19.996249154210091 18.88849838078022 50.247690111398697 194.07679103314877 24.04569074511528 107.06660024821758 15.485267072916029 19.706404909491539
leaf_count=2166 106 520 125 1147 1019 139 302 127 103 270 1620 109 518 93 89
internal_value=-0.000663612 -0.0324965 0.101603 -0.0451408 -0.0293579 0.0268426 0.00987123 0.074984 0.061552 0.0772233 -0.0651584 0.124543 0.114837 0.0277992 0.154046
internal_weight=1171.05 893.064 277.986 736.192 411.638 156.872 115.984 40.8882 101.236 69.1362 324.554 176.751 132.998 32.0997 43.7521
internal_count=8453 7040 1413 5952 3185 1088 822 266 572 373 2767 841 643 199 198
cat_boundaries=0 1
cat_threshold=28
is_linear=0
shrinkage=0.077797


Tree=5
num_leaves=15
num_cat=2
split_feature=16 13 13 1 3 13 0 14 5 5 5 14 13 13
split_gain=522.255 98.2739 32.8842 32.081 31.3518 23.635 20.0867 12.5074 11.6185 10.7965 8.9459 6.65942 14.7549 6.07576
threshold=1.0000000180025095e-35 0.75333333333333352 0.077499999999999694 0 40.560000000000009 -0.6063333333333335 1 -5.6224999999999996 6.8750000000000009 6.785000000000001 6.6450000000000005 2.0316666666666685 0.76916666666666667 0.84250000000000036
decision_type=2 2 2 1 2 2 9 2 2 2 2 2 2 2
left_child=1 3 7 5 6 -1 -3 -2 -9 -6 -5 12 -4 -13
right_child=2 4 11 10 9 -7 -8 8 -10 -11 -12 13 -14 -15
leaf_value=-0.059352512484031027 -0.0027339197814077055 -0.028052844230178502 0.067956376949939154 0.0031989434509218672 0.047080212736885861 -0.008705649844849889 0.022730674192569821 0.082129487760943767 0.011344693042358614 0.1316891149231012 -0.063662928613840403 0.15203824418386769 0.12305122824483845 0.10466911446006089
leaf_weight=77.92810869961977 18.676599532365799 72.609549857676029 52.87489777803421 12.517130285501478 24.996776416897774 196.10082605481148 99.830080695450306 68.024750903248787 17.682657137513161 14.37863355129957 373.60649037361145 34.38301382958889 66.321170791983604 31.313809439539909
leaf_count=654 104 518 248 108 168 1509 709 371 97 99 3275 158 296 139
internal_value=-0.000716664 -0.030767 0.089864 -0.0455611 0.0153409 -0.022295 0.0010385 0.0549546 0.0675256 0.0779767 -0.059943 0.109573 0.0986114 0.12946
internal_weight=1161.24 871.968 289.277 660.153 211.815 274.029 172.44 104.384 85.7074 39.3754 386.124 184.893 119.196 65.6968
internal_count=8453 7040 1413 5546 1494 2163 1227 572 468 267 3383 841 544 297
cat_boundaries=0 1 2
cat_threshold=12 13272404
is_linear=0
shrinkage=0.077797


Tree=6
num_leaves=14
num_cat=2
split_feature=1 19 15 14 15 15 0 5 7 15 10 9 10
split_gain=424.624 71.0164 35.651 18.7789 11.9076 11.5086 10.1685 9.96162 7.44997 6.21274 5.34926 2.73552 2.52329
threshold=0 1.0000000180025095e-35 -0.00083333333333346349 6.5175000000000027 0.036333333333332891 -0.038166666666667119 1 6.8450000000000006 10.450000000000001 -0.046333333333333108 1.0000000180025095e-35 3.5000000000000004 1.5000000000000002
decision_type=1 2 2 2 2 2 9 2 2 2 2 2 2
left_child=4 2 3 -2 8 9 -4 -6 12 -3 -10 -7 -1
right_child=1 5 6 -5 7 11 -8 -9 10 -11 -12 -13 -14
leaf_value=0.041109405405324179 -0.001844978236949027 -0.042568535747106749 -0.0064475864046572946 0.051206723311545084 0.077189505506098058 -0.071348954175078708 -0.041305789797060392 -0.00075944694229442239 0.056899344788839026 0.016552337546929453 0.096946393629650338 -0.053438571102203153 0.076587244001712296
leaf_weight=24.310653105378151 218.65956473350525 40.882485434412956 89.323493465781212 49.530345410108566 21.138050630688667 178.31298840790987 188.41784930229187 18.702191472053528 22.623354256153107 14.599689163267611 187.47965832054615 72.637461297214031 24.222661539912224
leaf_count=116 1622 353 711 371 102 1660 1518 96 108 127 878 678 113
internal_value=-0.000757158 -0.0287652 -0.0122787 0.00795281 0.07759 -0.0590757 -0.0318145 0.040598 0.0862882 -0.0270114 0.0926342 -0.0661648 0.0588162
internal_weight=1150.84 852.364 545.931 268.19 298.477 306.433 277.741 39.8402 258.636 55.4822 210.103 250.95 48.5333
internal_count=8453 7040 4222 1993 1413 2818 2229 198 1215 480 986 2338 229
cat_boundaries=0 1 2
cat_threshold=2 54290
is_linear=0
shrinkage=0.077797


Tree=7
num_leaves=14
num_cat=2
split_feature=16 2 15 2 11 0 2 14 20 9 15 14 14
split_gain=366.115 55.8291 34.3952 32.0593 22.1723 21.1047 8.64844 33.0803 8.54574 6.25974 4.85585 4.23045 2.75251
threshold=1.0000000180025095e-35 4.6150000000000011 -0.016666666666667048 4.285000000000001 0 1 5.5950000000000006 -5.6224999999999996 1.2500000000000002 3.5000000000000004 -0.015999999999999567 -9.4174999999999986 -4.6383333333333292
decision_type=2 2 2 2 1 9 2 2 2 2 2 2 2
left_child=1 8 4 10 -3 -4 7 -5 11 -8 -2 -1 -10
right_child=3 2 5 6 -6 -7 9 -9 12 -11 -12 -13 -14
leaf_value=-0.0014844879812673936 0.033348071431092086 -0.0066264715820855118 -0.0059117279933907016 -0.018842871902219199 0.045752142618184506 -0.044245549854731829 0.10337804096412496 0.087304618068249032 -0.050983748193446941 0.069922534883009785 -0.020134886570020834 -0.049217533641990996 -0.079943492019075149
leaf_weight=12.36991576105356 21.737763747572899 146.87369068711996 166.96237183362246 22.629743084311485 62.763146452605724 206.5515012294054 111.38185086846352 82.736469522118568 25.419866725802422 48.626807048916817 19.483447909355164 122.76772794872522 90.882120795547962
leaf_count=109 120 1121 1360 109 472 1738 472 384 255 213 115 1068 917
internal_value=-0.000802792 -0.0275107 -0.0142983 0.0718993 0.0109215 -0.028453 0.0818141 0.0645071 -0.0581536 0.0932109 0.00806904 -0.0448483 -0.0736138
internal_weight=1141.19 834.59 583.151 306.596 209.637 373.514 265.375 105.366 251.44 160.009 41.2212 135.138 116.302
internal_count=8453 7040 4691 1413 1593 3098 1178 493 2349 685 235 1177 1172
cat_boundaries=0 1 2
cat_threshold=193328 63578
is_linear=0
shrinkage=0.077797


Tree=8
num_leaves=16
num_cat=1
split_feature=17 13 17 13 13 17 11 13 13 14 8 13 15 6 14
split_gain=309.052 87.1102 41.528 25.7388 23.1651 17.1745 18.8603 10.9244 8.02533 10.0148 7.05153 6.45295 6.37589 2.85505 2.76332
threshold=0.33150000000000007 0.98000000000000009 0.092000000000000012 -0.6063333333333335 -0.13916666666666663 0.092000000000000012 0 1.7891666666666668 1.2675000000000003 2.0316666666666685 12.500000000000002 -0.81083333333333341 0.0016666666666664833 -1.0000000180025095e-35 -1.4991666666666672
decision_type=2 2 2 2 2 2 1 2 2 2 2 2 2 2 2
left_child=1 2 11 -4 10 7 -7 -3 9 -6 12 -1 -2 -12 -10
right_child=4 5 3 -5 8 6 -8 -9 14 -11 13 -13 -14 -15 -16
leaf_value=-0.085368515106442763 0.031925387830133496 -0.034011341166798076 -0.055597505913924483 -0.012131920495626473 0.05551718998826545 0.071914140123342379 0.0049618473831285802 0.054727429973856261 0.1257308105017737 0.09282894577529717 0.031720119563922754 -0.056524300488081568 -0.029959383671088028 0.073901315555645761 0.088502669223235506
leaf_weight=64.293401099741459 25.007942169904709 35.975405439734459 112.31970776617527 310.12500628829002 111.64808724820614 50.952812686562538 59.232599005103111 10.952771872282026 22.359601333737373 71.37157242000103 19.244705379009247 173.94537505507469 16.875936105847359 19.606090933084488 26.216266721487045
leaf_count=707 131 305 1036 2479 490 324 383 76 91 306 95 1730 95 98 107
internal_value=-0.000812079 -0.025954 -0.0383359 -0.0236886 0.065019 0.0261132 0.0428994 -0.0133002 0.0775284 0.0700675 0.0291344 -0.0643085 0.00699065 0.0530069 0.105639
internal_weight=1130.13 817.797 660.683 422.445 312.33 157.114 110.185 46.9282 231.596 183.02 80.7347 238.239 41.8839 38.8508 48.5759
internal_count=8453 7040 5952 3515 1413 1088 707 381 994 796 419 2437 226 193 198
cat_boundaries=0 1
cat_threshold=69758
is_linear=0
shrinkage=0.077797


Tree=9
num_leaves=14
num_cat=3
split_feature=17 17 3 0 0 17 3 14 3 11 4 4 3
split_gain=261.432 59.7882 15.0262 21.0367 9.12652 5.77737 5.82593 4.91782 10.4332 9.7559 3.57176 7.15444 2.21894
threshold=0.33150000000000007 0.092000000000000012 40.560000000000009 0 1 0.05850000000000001 46.855000000000011 -5.4041666666666659 20.950000000000003 2 1.0000000180025095e-35 28.015000000000004 20.145000000000003
decision_type=2 2 2 9 9 2 2 2 2 1 2 2 2
left_child=1 5 4 -4 -3 12 -7 8 -2 -10 -9 -12 -1
right_child=7 2 3 -5 -6 6 -8 10 9 -11 11 -13 -14
leaf_value=-0.032099665214535084 0.088041439240358219 -0.028853129738238472 -0.022572157621228071 0.041472484829387653 -0.0051238930389624236 -0.047177723511221244 0.014926761138753462 0.039613303322343002 -0.017636270668210594 0.044562530287773218 0.095444571079238247 0.060473558482368732 -0.068310746727662894
leaf_weight=11.156398043036459 19.572910040616989 175.31020969152451 46.580919578671455 64.393205128610134 241.46705341339111 126.94944927096367 9.8515303134918195 31.625831052660942 22.60237979888916 24.602903410792351 44.445908263325691 174.0943388491869 124.973333761096
leaf_count=113 88 1435 368 493 1926 1308 101 148 105 110 195 767 1296
internal_value=-0.000761579 -0.0244347 -0.00914664 0.0162931 -0.0159204 -0.0539964 -0.0427054 0.0590428 0.0402861 0.0204852 0.0640496 0.0675858 -0.0653431
internal_weight=1117.63 800.682 527.751 110.974 416.777 272.931 136.801 316.944 66.7782 47.2053 250.166 218.54 136.13
internal_count=8453 7040 4222 861 3361 2818 1409 1413 303 215 1110 962 1409
cat_boundaries=0 1 2 3
cat_threshold=4096132 13514000 155674
is_linear=0
shrinkage=0.077797


Tree=10
num_leaves=14
num_cat=0
split_feature=17 13 3 17 2 15 13 20 8 13 14 2 13
split_gain=221.932 78.8228 25.5124 25.3384 23.9126 21.6025 18.1165 13.1071 11.3424 8.56327 15.1245 9.19276 4.98715
threshold=0.33150000000000007 0.43449999999999994 40.335000000000008 0.092000000000000012 4.285000000000001 -0.016333333333333307 1.7525000000000002 1.0000000180025095e-35 12.500000000000002 0.57750000000000024 -6.4616666666666616 5.5950000000000006 -0.81083333333333341
decision_type=2 2 2 2 2 2 2 2 2 2 2 2 2
left_child=1 3 6 12 8 -5 -3 -4 -2 10 -6 -11 -1
right_child=4 2 7 5 9 -7 -8 -9 -10 11 -12 -13 -14
leaf_value=-0.08407778027862213 -0.036934133935818104 -0.011214435039866721 0.088231886841485155 -0.00026547701375901245 -0.012065375001279653 -0.042902071047727301 0.051560828411792645 0.014277356612061306 0.042928078688305449 0.030594034708872855 0.059355421275318877 0.085495023623050823 -0.056205210030212921
leaf_weight=57.388679057359695 23.304852455854416 194.22884280234575 32.587265640497208 108.11196906119585 20.98008094727993 214.86068744957447 32.476764097809792 26.138990052044392 20.000661641359329 22.146045580506325 124.07082211971283 110.87841336429119 120.29308778047562
leaf_count=707 136 1549 209 888 98 1945 208 210 99 94 536 450 1324
internal_value=-0.000742242 -0.0230103 0.00961628 -0.0416113 0.0537247 -0.0286299 -0.00222155 0.0553148 -4.97527e-05 0.0620991 0.0490252 0.0763551 -0.0652077
internal_weight=1107.47 786.086 285.432 500.654 321.381 322.973 226.706 58.7263 43.3055 278.075 145.051 133.024 177.682
internal_count=8453 7040 2176 4864 1413 2833 1757 419 235 1178 634 544 2031
is_linear=0
shrinkage=0.077797


Tree=11
num_leaves=15
num_cat=1
split_feature=17 13 17 13 13 11 15 5 13 15 13 10 13 13
split_gain=189.032 70.3604 34.548 23.2041 18.0791 14.1747 12.1704 8.24923 7.94697 7.5906 6.83715 4.99371 3.15867 1.30111
threshold=0.33150000000000007 0.98000000000000009 0.092000000000000012 -0.6063333333333335 0.34416666666666679 0 -0.040833333333333492 6.8950000000000005 -0.66833333333333333 0.016666666666667055 -0.81083333333333341 3.5000000000000004 1.4483333333333337 0.93749999999999967
decision_type=2 2 2 2 2 1 2 2 2 2 2 2 2 2
left_child=1 2 10 -4 7 9 -7 8 -2 -3 -1 12 -6 -13
right_child=4 5 3 -5 11 6 -8 -9 -10 -11 -12 13 -14 -15
leaf_value=-0.083364578646564075 0.0049979848927622882 0.011983752142472137 -0.052031880322103395 -0.0094587841044290206 0.068698778330125068 0.097464872850791112 0.030924740438698566 -0.012141914868326281 0.048724379643373672 -0.044301823375304146 -0.051091456264889312 0.033157025952414557 0.099151723858896396 0.059117483140936226
leaf_weight=53.529539495706558 33.61666302382946 49.713853880763054 104.27518286556005 301.60301727801561 93.288561835885048 22.290583878755569 65.588539384305477 23.636201232671738 99.950841039419174 20.473303027451038 154.11675048619509 24.631010949611664 26.461849957704544 22.230401694774628
leaf_count=707 180 342 1036 2479 381 142 452 112 442 152 1730 102 106 90
internal_value=-0.000740203 -0.0216764 -0.0336009 -0.0203963 0.0491469 0.0246075 0.0429188 0.0302224 0.0377192 -0.0038815 -0.0594112 0.0670027 0.0754281 0.0454723
internal_weight=1095.41 771.591 613.524 405.878 323.816 158.066 87.8791 157.204 133.568 70.1872 207.646 166.612 119.75 46.8614
internal_count=8453 7040 5952 3515 1413 1088 594 734 622 494 2437 679 487 192
cat_boundaries=0 1
cat_threshold=187136
is_linear=0
shrinkage=0.077797


Tree=12
num_leaves=16
num_cat=3
split_feature=17 17 2 15 2 15 11 11 2 2 5 4 4 2 11
split_gain=161.211 48.1416 29.0267 19.0907 18.4564 11.6663 10.4929 10.3159 7.14348 6.03923 5.80182 5.08984 4.49271 3.4658 3.0791
threshold=0.33150000000000007 0.092000000000000012 5.1850000000000014 -0.0019999999999993352 5.0150000000000006 -0.038166666666667119 0 1 4.6250000000000009 4.9650000000000007 6.7650000000000006 27.710000000000004 23.435000000000006 4.285000000000001 2
decision_type=2 2 2 2 2 2 1 1 2 2 2 2 2 2 1
left_child=1 5 6 -4 7 8 -3 10 -1 -7 -2 12 -6 -9 -13
right_child=4 2 3 -5 11 9 -8 13 -10 -11 -12 14 -14 -15 -16
leaf_value=-0.065784934061654324 0.06352629454816866 -0.0057119922198243271 0.027694871540692396 -0.011695110584243237 0.059438252952197387 -0.073344819297495797 -0.042437460997526801 -0.037934377754026506 0.0036384642374641678 -0.045684944028101186 0.01240761722362211 0.02267094483523082 0.10341554539053971 0.0049450966905668107 0.060751699499884133
leaf_weight=12.056417152285574 34.179916217923164 94.313947625458241 155.33174315840006 143.05000551044941 34.256295844912529 82.051726914942265 121.71575659513474 18.969777703285217 35.04936396330595 114.3678492680192 22.143718078732491 65.193585991859436 23.8473931401968 28.621953666210175 98.589259177446365
leaf_count=154 159 887 1054 1129 140 1102 1152 106 326 1236 108 272 98 127 403
internal_value=-0.000731869 -0.0204043 -0.00691395 0.00881055 0.0450336 -0.0489007 -0.0286327 0.0179762 -0.01413 -0.0572395 0.0368809 0.0577052 0.0774878 -0.0100374 0.0506872
internal_weight=1083.74 757.937 514.411 298.382 325.802 243.525 216.03 103.915 47.1058 196.42 56.3236 221.887 58.1037 47.5917 163.783
internal_count=8453 7040 4222 2183 1413 2818 2039 500 480 2338 267 913 238 233 675
cat_boundaries=0 1 2 3
cat_threshold=143140 64672 133862
is_linear=0
shrinkage=0.077797


Tree=13
num_leaves=15
num_cat=0
split_feature=16 13 17 3 17 15 13 13 4 3 13 10 4 4
split_gain=138.684 60.546 21.488 22.8335 21.3929 18.9484 14.0706 10.2045 7.82712 8.1248 5.28361 4.2523 4.77005 1.2737
threshold=1.0000000180025095e-35 0.43449999999999994 0.05850000000000001 40.335000000000008 0.092000000000000012 -0.016333333333333307 0.34416666666666679 1.4483333333333337 22.875000000000004 30.155000000000005 -0.81083333333333341 3.5000000000000004 26.615000000000006 32.885000000000012
decision_type=2 2 2 2 2 2 2 2 2 2 2 2 2 2
left_child=1 4 7 -4 10 -6 8 -3 -2 -10 -1 12 -8 -13
right_child=6 2 3 -5 5 -7 11 -9 9 -11 -12 13 -14 -15
leaf_value=-0.082168595419133655 -0.021798612198852426 -0.068450681572808134 0.0050678328318863883 0.062702017188835016 0.0017722825017923009 -0.038873511391979351 0.087951837238524067 0.019383589290303108 0.0022652504344795148 0.043378865817392344 -0.050827820669075527 0.025624048978103702 0.054568619241187985 0.051225755893110396
leaf_weight=47.005480349063873 19.057716965675354 28.80794183909893 192.64312303066254 53.064215712249279 105.98505155742168 201.19266004860401 37.71208555996418 11.086324684321879 41.146171659231186 99.29860508441925 105.91281398385763 25.372335195541382 82.746400892734528 21.924181237816811
leaf_count=707 98 303 1441 347 888 1945 153 85 195 441 1324 103 334 89
internal_value=-0.000691335 -0.0192202 0.00891622 0.0175148 -0.0366857 -0.0248496 0.041529 -0.0440422 0.0249854 0.0313338 -0.0604616 0.0572587 0.0650199 0.0374917
internal_weight=1072.96 745.698 285.602 245.707 460.096 307.178 327.257 39.8943 159.502 140.445 152.918 167.755 120.458 47.2965
internal_count=8453 7040 2176 1788 4864 2833 1413 388 734 636 2031 679 487 192
is_linear=0
shrinkage=0.077797


Tree=14
num_leaves=14
num_cat=2
split_feature=1 13 15 13 13 6 1 2 2 13 15 15 9
split_gain=115.629 53.6107 19.2573 25.042 18.9696 17.1849 17.1667 14.8454 6.86817 6.4483 5.3936 3.00267 1.64057
threshold=0 0.41583333333333311 -0.016333333333333307 -0.59416666666666662 1.7525000000000002 -1.0000000180025095e-35 1 4.285000000000001 5.6450000000000005 1.2675000000000003 0.041666666666667414 -0.015999999999999567 2.5000000000000004
decision_type=1 2 2 2 2 2 1 2 2 2 2 2 2
left_child=7 2 3 -2 6 -6 -3 11 -4 10 -9 -1 -11
right_child=1 4 8 -5 5 -7 -8 9 -10 12 -12 -13 -14
leaf_value=0.014836940749195136 -0.059700115008313653 -0.046205259791700745 -0.052837102439655927 0.009240479826714167 0.0073401376601315137 0.10333386557305763 0.0078556724806407678 0.043282646775258754 -0.023306137089723011 0.083552802555733052 0.0042341853331294213 -0.025912929836585535 0.054994078355472938
leaf_weight=23.869628563523293 46.443483337759972 32.210253551602364 232.59170499071479 101.76121897995472 23.175342611968517 22.003855779767036 215.45660096406937 211.48423382639885 59.952816888689995 26.347483620047569 23.820395722985268 20.210567787289619 22.631589651107788
leaf_count=120 546 348 2750 910 139 127 1616 876 604 107 104 115 91
internal_value=-0.000681348 -0.0178248 -0.0352107 -0.0123637 0.00773318 0.0540925 -0.000723644 0.0370338 -0.0467852 0.0446753 0.0393297 -0.00384669 0.0703568
internal_weight=1061.96 733.595 440.749 148.205 292.846 45.1792 247.667 328.364 292.545 284.284 235.305 44.0802 48.9791
internal_count=8453 7040 4810 1456 2230 266 1964 1413 3354 1178 980 235 198
cat_boundaries=0 1 2
cat_threshold=2 64
is_linear=0
shrinkage=0.077797


Tree=15
num_leaves=16
num_cat=2
split_feature=17 17 2 2 0 2 0 5 5 4 4 2 7 4 4
split_gain=101.505 39.0167 21.1354 13.0831 10.791 10.6083 7.15993 6.40488 5.81178 3.7861 4.04019 3.75348 3.34524 3.05145 2.65435
threshold=0.33150000000000007 0.092000000000000012 4.6150000000000011 5.0150000000000006 0 4.7150000000000007 1 6.7650000000000006 6.7550000000000008 27.710000000000004 23.435000000000006 4.5750000000000011 12.100000000000001 19.555000000000003 34.460000000000001
decision_type=2 2 2 2 9 2 9 2 2 2 2 2 2 2 2
left_child=1 5 8 6 -4 13 11 -7 -3 10 -5 -2 -8 -1 -11
right_child=3 2 4 9 -6 7 12 -9 -10 14 -12 -13 -14 -15 -16
leaf_value=-0.034691114061566677 -0.030021893392021316 -0.0090144829830519999 -0.014001326390757671 0.04573748566202273 0.013130011701381519 -0.011035313457168126 0.05650955680545372 -0.044586541539497308 -0.044700466239816807 0.028909373185296711 0.087360442123495113 0.014287046821850793 0.018093399831572526 -0.076795386208536917 0.048731169764455323
leaf_weight=12.712002418935297 28.705536723136902 41.380265057086945 124.95705913007259 34.362704947590828 252.78822654485703 53.590426869690418 22.658999383449554 96.349926214665174 83.068729840219021 74.596537888050079 23.952984690666199 19.385379046201706 34.772191137075424 57.727237094193697 90.48537003993988
leaf_count=198 153 417 1013 140 1886 574 105 1131 906 305 98 83 159 915 370
internal_value=-0.000696065 -0.0170043 -0.00502873 0.0351301 0.00413198 -0.0442939 0.0125544 -0.0325949 -0.0328346 0.0457937 0.062834 -0.0100676 0.0283192 -0.0691969 0.0397742
internal_weight=1051.49 722.574 502.194 328.92 377.745 220.38 105.522 149.94 124.449 223.398 58.3157 48.0909 57.4312 70.4392 165.082
internal_count=8453 7040 4222 1413 2899 2818 500 1705 1323 913 238 236 264 1113 675
cat_boundaries=0 1 2
cat_threshold=8262912 8423622
is_linear=0
shrinkage=0.077797


Tree=16
num_leaves=15
num_cat=1
split_feature=16 19 2 14 0 2 2 21 14 21 4 2 14 4
split_gain=86.7858 35.17 18.499 13.8718 11.9362 10.556 10.341 9.6596 6.95217 6.54996 4.09432 4.06036 6.26853 3.05432
threshold=1.0000000180025095e-35 1.0000000180025095e-35 4.6150000000000011 -6.3216666666666645 0 4.7250000000000005 4.7150000000000007 7.0152027310044405 -3.362500000000002 5.1142217877701759 31.385000000000002 6.035000000000001 -0.30333333333333096 19.555000000000003
decision_type=2 2 2 2 9 2 2 2 2 2 2 2 2 2
left_child=1 2 8 -4 11 9 13 -8 -1 -6 -7 12 -2 -3
right_child=4 6 3 -5 5 10 7 -9 -10 -11 -12 -13 -14 -15
leaf_value=-0.0017136816119816939 0.021410615058014174 -0.033005016061955203 -0.028683017279279136 0.010620201636222558 -0.030743833333402502 0.044703809949723373 -0.035611707029277261 0.05389639551294656 -0.042920156310074016 0.01991879346179741 0.020517165870683085 0.08341302820010664 0.071892534941854769 -0.075907975883492143
leaf_weight=34.725212424993515 26.775998622179031 12.337314270436762 65.773379020392895 312.9449961706996 32.608226284384727 72.890239119529724 138.39182617887855 7.7034621126949778 86.532775945961475 29.343909442424774 101.13407099246979 33.028554335236549 33.530250817537308 54.006381649523973
leaf_count=381 117 198 517 2382 166 299 1620 85 942 139 415 134 143 915
internal_value=-0.000673987 -0.0159408 -0.00467332 0.00379427 0.0323534 0.0199834 -0.0424587 -0.030892 -0.0311197 -0.00674725 0.0306478 0.0555367 0.0494785 -0.0679297
internal_weight=1041.73 712.415 499.976 378.718 329.311 235.976 212.439 146.095 121.258 61.9521 174.024 93.3348 60.3062 66.3437
internal_count=8453 7040 4222 2899 1413 1019 2818 1705 1323 305 714 394 260 1113
cat_boundaries=0 1
cat_threshold=8269824
is_linear=0
shrinkage=0.077797


Tree=17
num_leaves=15
num_cat=2
split_feature=18 13 13 13 5 14 3 11 2 11 14 5 13 19
split_gain=72.5911 40.7872 23.4779 14.2814 14.7457 13.761 13.6918 16.8607 12.75 11.9251 7.81743 5.76745 4.01582 2.63555
threshold=1.0000000180025095e-35 0.98000000000000009 -0.019166666666666995 -0.75083333333333335 6.7150000000000007 -6.4616666666666616 23.220000000000002 0 6.0550000000000006 1 4.5321666666666731 6.6650000000000009 -0.14749999999999994 1.0000000180025095e-35
decision_type=2 2 2 2 2 2 2 1 2 1 2 2 2 2
left_child=1 3 9 13 -5 8 -3 -8 -4 12 -11 -7 -2 -1
right_child=2 6 5 4 -6 11 7 -9 -10 10 -12 -13 -14 -15
leaf_value=-0.04779121545751986 -0.045289949337119502 0.095517177353395114 -0.036822253444091117 0.011514652244839857 -0.032327065744018661 0.0048570149324336795 0.039114468455181545 -0.018215406166951775 0.036421736105654801 0.025749149979848066 -0.018796541424835375 0.043759504435057606 0.0043607245053636032 -0.074696595527864784
leaf_weight=49.047087043523788 43.94110219925642 12.748044244945048 30.037037566304207 56.229793086647987 266.47225466370583 25.453135587275028 49.352402985095978 57.506335265934467 27.603278189897537 81.721106670796871 33.66710738837719 245.8381707444787 12.711561970412729 40.010987535119057
leaf_count=583 331 98 163 547 2899 119 331 417 140 546 214 1240 71 754
internal_value=-0.000651422 -0.0206824 0.0205949 -0.0322992 -0.0246878 0.0327749 0.0193094 0.010218 -0.00174656 -0.00269259 0.0117349 0.0401096 -0.029026 -0.059879
internal_weight=1032.34 531.367 500.973 411.76 322.702 328.932 119.607 106.859 57.6403 172.041 115.388 271.291 56.6527 89.0581
internal_count=8453 5629 2824 4783 3446 1662 846 748 303 1162 760 1359 402 1337
cat_boundaries=0 1 2
cat_threshold=76020 8538
is_linear=0
shrinkage=0.077797


Tree=18
num_leaves=15
num_cat=0
split_feature=18 13 13 4 21 14 2 4 13 5 4 14 14 13
split_gain=62.2185 36.1814 19.8079 14.1372 16.122 12.0046 12.9354 11.8827 11.7954 15.6542 4.89043 4.56511 2.6031 0.688137
threshold=1.0000000180025095e-35 0.75333333333333352 0.067499999999999907 19.905000000000005 3.4057712600674859 -6.4616666666666616 6.0550000000000006 22.295000000000005 -0.75083333333333335 6.6450000000000005 28.015000000000004 3.9391666666666691 -3.362500000000002 -0.6499999999999998
decision_type=2 2 2 2 2 2 2 2 2 2 2 2 2 2
left_child=1 8 7 -3 -5 6 -4 13 12 -10 -9 -7 -1 -2
right_child=2 3 5 4 -6 11 -8 10 9 -11 -12 -13 -14 -15
leaf_value=-0.035499224632314454 -0.0631020418584195 0.066078743720706254 -0.041910912104318611 0.074505451283913074 -0.0084120608322133875 0.03102714940331611 0.034595895090596365 0.037776452914226828 0.065903336714099148 -0.02882706320703508 0.0010113837913069373 0.053424848015888031 -0.066439394866361925 -0.037707410062979917
leaf_weight=22.37519022077322 12.406135953962805 24.615158669650555 26.007435671985149 16.191383600234985 114.95001572370529 179.41888675838709 27.537962548434734 26.022797979414463 10.986357025802134 270.74072276055813 138.14691867679358 79.473230883479118 62.231061682105064 13.470779985189436
leaf_count=344 107 167 141 125 867 903 139 164 102 3031 894 380 993 96
internal_value=-0.000620965 -0.0194288 0.0189207 0.0119797 0.00182536 0.0309675 -0.00256408 -0.000884163 -0.032783 -0.0251329 0.00683907 0.0379027 -0.0582569 -0.0498823
internal_weight=1024.57 522.09 502.484 155.757 131.141 312.438 53.5454 190.047 366.333 281.727 164.17 258.892 84.6063 25.8769
internal_count=8453 5629 2824 1159 992 1563 280 1261 4470 3133 1058 1283 1337 203
is_linear=0
shrinkage=0.077797


Tree=19
num_leaves=12
num_cat=0
split_feature=16 17 2 3 2 5 5 5 5 2 10
split_gain=59.7145 28.7067 18.0007 17.2419 8.75253 6.21742 6.11676 5.08787 5.03499 5.37239 2.99426
threshold=1.0000000180025095e-35 0.05850000000000001 4.6150000000000011 40.560000000000009 3.8150000000000004 6.6650000000000009 6.7550000000000008 6.8650000000000011 6.745000000000001 6.910000000000001 1.5000000000000002
decision_type=2 2 2 2 2 2 2 2 2 2 2
left_child=1 8 6 -4 -2 -6 -3 -7 10 -10 -1
right_child=4 2 3 -5 5 7 -8 -9 9 -11 -12
leaf_value=0.0090861954519626167 -0.023087314848978985 -0.0090262627593267405 -0.0078352999896139208 0.028675870038617081 -0.0045935048129338123 0.038826368224717897 -0.043510489342183038 0.012848691422363511 -0.072393948348985049 0.0002363375734147556 -0.044089132749608823
leaf_weight=9.7580377124249953 20.056691825389862 47.171384043991566 354.49998624250293 100.46685651317239 28.60471223294735 222.03485408425331 91.558113668113947 57.434712529182434 59.953496370464563 6.870278261601924 18.674462325870991
leaf_count=133 112 573 3041 781 118 935 1236 248 948 68 260
internal_value=-0.000604833 -0.0136141 -0.00725313 0.000227183 0.0267098 0.0299518 -0.031785 0.0334876 -0.0532597 -0.0649267 -0.0258394
internal_weight=1017.08 688.953 593.696 454.967 328.131 308.074 138.729 279.47 95.2563 66.8238 28.4325
internal_count=8453 7040 5631 3822 1413 1301 1809 1183 1409 1016 393
is_linear=0
shrinkage=0.077797


Tree=20
num_leaves=15
num_cat=3
split_feature=17 17 2 0 0 0 2 2 3 10 20 8 17 7
split_gain=52.8 24.9378 12.7326 17.1214 11.725 9.87254 9.07559 8.36011 7.75312 4.52073 4.459 2.02984 4.62717 1.01621
threshold=0.092000000000000012 0.33150000000000007 6.4150000000000009 0 1 2 4.7150000000000007 4.285000000000001 46.855000000000011 3.5000000000000004 5.5000000000000009 10.050000000000002 0.05850000000000001 10.450000000000001
decision_type=2 2 2 9 9 9 2 2 2 2 2 2 2 2
left_child=6 2 4 -4 -2 9 11 -7 10 -3 -8 12 -1 -13
right_child=1 5 3 -5 -6 7 8 -9 -10 -11 -12 13 -14 -15
leaf_value=-0.082288175021760682 -0.02591718850746105 0.060960451361027533 0.07350664043465982 0.0016728201370360774 0.0015638659749428376 -0.026073473159074354 -0.042734006421596603 0.019409044177578917 0.040354337298548287 0.028414801929618174 -0.012404078875177367 -0.040565920485056105 0.016948447179463148 -0.07606727167898239
leaf_weight=5.9277799390256387 147.94172710180283 62.286124125123024 17.643934473395348 86.997324042022228 236.77324991673231 27.99334579706192 80.626236490905285 193.76003994047642 9.7328184321522695 44.135385289788246 46.118335656821728 5.5936785526573649 5.4660956896841526 38.248235635459423
leaf_count=118 1397 265 99 603 2123 158 1020 803 109 187 576 113 101 781
internal_value=-0.000582202 0.00803479 -0.00309225 0.0209695 -0.00963697 0.0246268 -0.037328 0.0130778 -0.0265595 0.0433862 -0.0316979 -0.0639349 -0.0346804 -0.0715377
internal_weight=1009.24 817.531 489.356 104.641 384.715 328.175 191.713 221.753 136.477 106.422 126.745 55.2358 11.3939 43.8419
internal_count=8453 5635 4222 702 3520 1413 2818 961 1705 452 1596 1113 219 894
cat_boundaries=0 1 2 3
cat_threshold=4106 8286216 8261640
is_linear=0
shrinkage=0.077797


Tree=21
num_leaves=13
num_cat=0
split_feature=19 13 16 13 13 21 13 21 2 2 7 20
split_gain=46.3859 27.0472 15.5067 14.1943 9.41074 8.78385 8.50731 8.67548 7.76334 6.1211 4.1036 0.172775
threshold=1.0000000180025095e-35 0.14183333333333351 1.0000000180025095e-35 1.7891666666666668 1.944166666666667 7.3156880836372009 -0.81083333333333341 6.4204024487043361 4.6250000000000009 6.7250000000000005 11.550000000000002 9.5000000000000018
decision_type=2 2 2 2 2 2 2 2 2 2 2 2
left_child=1 2 5 6 8 -1 11 -8 -3 -6 -4 -2
right_child=3 4 10 -5 9 -7 7 -9 -10 -11 -12 -13
leaf_value=-0.025370809000744551 -0.081451737897679746 -0.037803403698114919 0.034139657923989333 0.048921685966538085 0.088810319351182512 0.051391159814088844 -0.039990350570158796 0.020734917149190683 0.018431917984190603 0.025132283230845671 0.0034582604800772899 -0.065438509501739212
leaf_weight=204.3961818292737 25.040394540876154 15.406001158058642 36.432290941476822 11.292580604553221 18.602513372898102 9.4389803856611234 128.53675093501806 16.012907609343529 417.59527408331633 17.954668551683426 95.661103248596191 4.8713514655828467
leaf_count=2210 591 113 174 76 90 93 1828 207 2432 90 433 116
internal_value=-0.000521452 0.0074704 -0.00903658 -0.0356068 0.0196313 -0.0219824 -0.0410782 -0.0332633 0.0164311 0.0575355 0.0119204 -0.0788439
internal_weight=1001.24 815.487 345.929 185.754 469.558 213.835 174.461 144.55 433.001 36.5572 132.093 29.9117
internal_count=8453 5635 2910 2818 2725 2303 2742 2035 2545 180 607 707
is_linear=0
shrinkage=0.077797


Tree=22
num_leaves=16
num_cat=8
split_feature=17 17 2 0 0 0 11 2 11 17 11 0 8 17 12
split_gain=40.6352 19.2821 10.0883 14.5825 10.2414 8.68058 15.5257 8.50328 6.82322 6.10344 4.87651 3.60472 2.1172 4.53652 1.64569
threshold=0.092000000000000012 0.33150000000000007 6.4150000000000009 0 1 2 3 4.7150000000000007 4 0.05850000000000001 5 6 10.050000000000002 0.05850000000000001 7
decision_type=2 2 2 9 9 9 1 2 1 2 1 9 2 2 1
left_child=7 2 4 -4 -2 10 -7 12 11 -10 -3 -9 13 -1 -14
right_child=1 5 3 -5 -6 6 -8 8 9 -11 -12 -13 14 -15 -16
leaf_value=-0.081742398597878574 -0.024293532758217148 0.00052153974408979727 0.065854504373660527 0.00063580621109379375 0.0015598906188756608 -0.021373302128557998 0.022942163475952907 -0.016751912848328405 -0.052972703069001939 -0.015742967612149786 0.049301979460511826 0.032725808228972843 -0.075057638903932647 0.020386796754951128 -0.02181953610987988
leaf_weight=5.2388075590133649 144.5142657160759 24.844512358307838 18.515703327953815 87.654263913631439 236.37946512550116 58.45521268248558 162.95320710539818 9.1796747595071775 49.770043384283781 57.375560253858566 81.5941511541605 14.152183059602978 35.137817166745663 5.290969505906105 3.9047476127743712
leaf_count=118 1397 105 99 603 2123 254 707 118 683 726 347 178 802 101 92
internal_value=-0.000506737 0.0068834 -0.00293472 0.0182724 -0.00884596 0.0214696 0.0108242 -0.0339547 -0.0235337 -0.0302164 0.0389385 0.0140737 -0.0613836 -0.0304248 -0.0697332
internal_weight=994.961 814.911 487.064 106.17 380.894 327.847 221.408 180.05 130.477 107.146 106.439 23.3319 49.5723 10.5298 39.0426
internal_count=8453 5635 4222 702 3520 1413 961 2818 1705 1409 452 296 1113 219 894
cat_boundaries=0 1 2 3 4 5 6 7 8
cat_threshold=4106 8286216 8261640 67820 8322 66630 266624 2
is_linear=0
shrinkage=0.077797


Tree=23
num_leaves=16
num_cat=8
split_feature=1 1 0 11 3 0 0 19 11 3 11 4 4 3 8
split_gain=37.6305 9.10298 8.7051 18.3551 8.57136 10.431 8.20436 12.3808 11.6641 8.68246 5.45729 3.7104 2.81999 2.24707 1.75365
threshold=0 1 2 3 40.560000000000009 4 5 1.0000000180025095e-35 6 39.945000000000007 7 34.20000000000001 27.880000000000006 44.385000000000005 13.500000000000002
decision_type=1 1 9 1 2 9 9 2 1 2 1 2 2 2 2
left_child=1 2 14 -4 10 -6 9 8 -8 12 -3 -11 -2 -9 -1
right_child=6 4 3 -5 5 -7 7 13 -10 11 -12 -13 -14 -15 -16
leaf_value=0.031620421136189333 -0.082053471361756211 -0.017292284325414027 0.02690198939402328 -0.016177089871002449 -0.024098480628112755 0.03675895915332518 -0.025625279418942014 -0.033011102823015698 0.026397623375967155 0.015784323965777777 0.0047544094685767115 -0.035281545587555148 -0.046915861652390617 0.0035535886155448697 0.0530932246620337
leaf_weight=42.34344907104969 17.229887876659632 116.6953000575304 144.14671796560287 90.941314846277237 17.526746179908514 57.411041811108589 31.659014381468296 97.69737434387207 63.587932646274567 18.62959997355938 142.37997018173337 16.014295592904091 69.930106714367867 11.354553434997795 50.44026044011116
leaf_count=181 235 1012 624 395 144 426 286 1583 588 228 1233 199 932 174 213
internal_value=-0.000400997 0.0102385 0.0193294 0.0102572 0.00101227 0.0242148 -0.021646 -0.0107781 0.00918688 -0.0376738 -0.00566003 -0.0078211 -0.0538619 -0.029204 0.0390816
internal_weight=987.988 661.885 327.872 235.088 334.013 74.9378 326.103 204.299 95.2469 121.804 259.075 34.6439 87.16 109.052 92.7837
internal_count=8453 4228 1413 1019 2815 570 4225 2631 874 1594 2245 427 1167 1757 394
cat_boundaries=0 1 2 3 4 5 6 7 8
cat_threshold=14 2 8269824 192528 2261120 13501460 36112 61456
is_linear=0
shrinkage=0.077797


Tree=24
num_leaves=16
num_cat=4
split_feature=19 15 0 15 0 0 15 3 15 0 14 6 14 10 14
split_gain=30.9227 22.0497 13.9637 12.2685 10.4299 9.67438 9.39273 6.28407 6.27289 5.51212 4.62048 4.44931 2.59818 2.24422 2.1135
threshold=1.0000000180025095e-35 -1.0000000180025095e-35 0 -0.038166666666667119 1 2 -0.086666666666666434 42.640000000000008 0.05333333333333324 3 -10.28833333333333 -1.0000000180025095e-35 4.6358333333333315 3.5000000000000004 -1.7666666666666637
decision_type=2 2 9 2 9 9 2 2 2 9 2 2 2 2 2
left_child=1 4 8 5 6 13 -1 -6 -3 14 -11 -7 -4 -2 -5
right_child=3 2 12 9 7 11 -8 -9 -10 10 -12 -13 -14 -15 -16
leaf_value=-0.041740228755317237 -0.019280644612906551 0.015544633963772234 -0.019725030310012114 -0.018077897543046853 0.023368867237325994 0.018585532832348432 0.0097486267938527507 0.057018681771201216 -0.019518775637089834 -0.0012021653445137485 -0.053615835850070404 0.094441590303698558 -0.041440581326822976 -0.075892568348776196 0.042193158806566523
leaf_weight=23.839408583939075 10.233462903648617 129.68312681093812 124.42903921380639 5.9480021819472304 194.10637408494949 8.9367071501910704 213.34147092700005 40.618163652718067 40.532195530831814 11.240097668021916 107.87333363480866 9.8250062651932222 45.55558680742979 7.2340981550514689 8.6313141733407956
leaf_count=134 129 1013 999 104 1226 130 1329 227 334 186 1900 124 373 97 148
internal_value=-0.000380468 0.00593431 -0.00916367 -0.0305606 0.0168185 0.00959612 0.00438838 0.027999 0.00679597 -0.0414426 -0.0449003 0.0380361 -0.0241255 -0.027171 0.0104419
internal_weight=982.027 812.105 340.2 169.922 471.905 36.2293 237.181 234.725 170.215 133.693 119.113 18.7617 169.985 17.4676 14.5793
internal_count=8453 5635 2719 2818 2916 480 1463 1453 1347 2338 2086 254 1372 226 252
cat_boundaries=0 1 2 3 4
cat_threshold=6353946 2286618 1101850 49216
is_linear=0
shrinkage=0.077797


Tree=25
num_leaves=16
num_cat=4
split_feature=1 2 2 0 11 17 14 11 2 5 2 14 2 14 10
split_gain=29.3419 11.8856 11.1278 10.7055 8.58715 8.43011 7.7231 7.56574 6.51337 6.37922 5.43085 4.66078 5.60687 4.60851 2.17458
threshold=0 4.7150000000000007 4.6150000000000011 1 2 0.05850000000000001 -6.4616666666666616 3 3.8150000000000004 6.9050000000000011 3.8950000000000005 -2.7916666666666639 4.0650000000000004 3.7575000000000007 2.5000000000000004
decision_type=1 2 2 9 1 2 2 1 2 2 2 2 2 2 2
left_child=2 11 4 13 8 -5 7 -4 -1 -8 -6 12 -2 -3 -13
right_child=1 3 6 5 10 -7 9 -9 -10 -11 -12 14 -14 -15 -16
leaf_value=-0.027534840164976936 0.017957190416466887 -0.049675357886314289 -0.028384620407675101 -0.031283462180464003 -0.0051692759706635236 0.011754149849462783 0.022202370286105465 0.013390568696425213 0.023945828396352668 -0.0063624287746540257 -0.049721307718531012 -0.043852375106829211 -0.054100654344905408 -0.0088221271107560839 -0.074196336640302049
leaf_weight=20.525274403393269 13.097429152578117 53.00100975856185 38.579242050647736 35.847896076738834 27.784113727509975 118.94994655624032 377.57489815354347 49.077313341200352 54.028929989784956 54.098256044089794 40.992223966866732 31.554532950744033 13.044998213648794 24.408710740506649 26.131571507081389
leaf_count=191 261 641 232 520 260 1157 2142 299 413 345 346 610 228 282 526
internal_value=-0.00037478 -0.0195212 0.00891659 -0.011074 -0.0101388 0.00167908 0.0143474 -0.006706 0.00861704 0.0186226 -0.0276963 -0.045249 -0.0179995 -0.0325843 -0.0575981
internal_weight=978.696 316.036 662.66 232.208 143.331 154.798 519.33 87.6566 74.5542 431.673 68.7763 83.8285 26.1424 77.4097 57.6861
internal_count=8453 4225 4228 2600 1210 1677 3018 531 604 2487 606 1625 489 923 1136
cat_boundaries=0 1 2 3 4
cat_threshold=14 5112852 56800 78038
is_linear=0
shrinkage=0.077797


Tree=26
num_leaves=14
num_cat=3
split_feature=13 20 13 9 16 21 0 0 14 14 0 21 6
split_gain=30.4905 15.3742 15.009 13.3699 9.37699 8.99667 10.4973 8.75347 6.97041 6.85927 5.7391 3.37045 2.46187
threshold=-0.6063333333333335 1.0000000180025095e-35 1.1458333333333337 1.5000000000000002 1.0000000180025095e-35 5.0188005069517656 0 1 -3.362500000000002 -6.0091666666666663 2 4.6122736447880959 -1.0000000180025095e-35
decision_type=2 2 2 2 2 2 9 9 2 2 9 2 2
left_child=4 5 10 -4 8 6 -2 -7 9 -1 -3 -6 -10
right_child=1 2 3 -5 11 7 -8 -9 12 -11 -12 -13 -14
leaf_value=-0.042511174552976531 0.016336953863749022 -0.0021158081310535233 -0.041148934087749237 0.046423469844897119 0.024308479486095019 0.0018511960604237897 -0.010836806207411755 0.03232522982813138 -0.04562477105742041 0.032829465369455454 -0.032925272942659047 -0.020165954553466064 -0.073803652612092457
leaf_weight=18.790537636727098 168.79106587544084 67.83521405979991 14.235752254724501 40.77203456312418 17.849206477403641 96.747025661170483 156.9659289419651 172.26762982085347 46.8955620508641 11.974779170006512 105.41551345959306 24.426938951015472 31.281925162300467
leaf_count=310 1046 850 111 306 89 574 1025 1002 821 200 1424 126 569
internal_value=-0.000379276 0.00552009 -0.0116437 0.0237602 -0.0324874 0.0121071 0.00341213 0.0226361 -0.0445555 -0.0131863 -0.0228846 -0.00138862 -0.0569003
internal_weight=974.249 823.03 228.259 55.0078 151.219 594.772 325.757 269.015 108.943 30.7653 173.251 42.2761 78.1775
internal_count=8453 6338 2691 417 2115 3647 2071 1576 1900 510 2274 215 1390
cat_boundaries=0 1 2 3
cat_threshold=8274066 1361026 53698
is_linear=0
shrinkage=0.077797


Tree=27
num_leaves=14
num_cat=7
split_feature=16 19 11 0 0 11 14 4 3 11 0 11 14
split_gain=22.5979 11.496 9.64172 12.0973 7.21293 12.5746 6.38722 5.91881 4.55322 3.80358 3.47925 2.70649 2.60374
threshold=1.0000000180025095e-35 1.0000000180025095e-35 0 1 2 3 -5.8216666666666663 26.965000000000007 53.030000000000008 4 5 6 -1.8391666666666671
decision_type=2 2 1 9 9 1 2 2 2 1 9 1 2
left_child=1 2 3 -1 7 10 -4 -2 9 -3 -6 -9 -7
right_child=4 8 6 -5 5 12 -8 11 -10 -11 -12 -13 -14
leaf_value=-0.016884740888237215 0.069745824146682733 -0.0044759345277031034 -0.036713739999226808 0.021993537241358194 0.033582215512263557 -0.03556892169264772 -0.0067573081385782635 -0.0020661955997064913 0.043343821374569901 -0.03621240003784959 0.0047528458956223821 0.030752468475194986 -0.0071880702611298308
leaf_weight=63.82924135774374 21.962093964219093 46.050981728360057 53.295320529490709 141.97723239287734 64.916917324066162 32.282884418964386 224.70794056355953 25.719907015562057 5.3929826896637669 108.2660011574626 59.834561288356781 71.995739415287971 49.661339625716209
leaf_count=600 95 803 492 1198 282 142 1932 110 85 1930 257 307 220
internal_value=-0.000367981 -0.00882488 -0.00285063 0.00971208 0.0163067 0.00619557 -0.0120662 0.0306879 -0.0269227 -0.0293783 0.0211336 0.0250499 -0.0163712
internal_weight=969.893 643.52 483.81 205.806 326.373 206.696 278.003 119.678 159.71 154.317 124.751 97.7156 81.9442
internal_count=8453 7040 4222 1798 1413 901 2424 512 2818 2733 539 417 362
cat_boundaries=0 1 2 3 4 5 6 7
cat_threshold=199532 7222336 8269832 193538 8402 8389010 136198
is_linear=0
shrinkage=0.077797


Tree=28
num_leaves=13
num_cat=4
split_feature=19 16 0 5 5 3 0 0 5 0 3 5
split_gain=19.6782 10.2437 6.21669 6.12838 5.66876 5.27575 14.3303 5.38685 3.38802 4.68983 1.84818 1.08606
threshold=1.0000000180025095e-35 1.0000000180025095e-35 0 6.6350000000000007 6.8650000000000011 40.560000000000009 1 2 6.7650000000000006 3 39.205000000000005 6.8450000000000006
decision_type=2 2 9 2 2 2 9 9 2 9 2 2
left_child=1 5 11 -2 -4 7 -7 -1 9 -5 -10 -3
right_child=3 2 4 8 -6 6 -8 -9 10 -11 -12 -13
leaf_value=-0.017870535760329542 0.055849555019705351 0.032489530179965316 0.013647248546881069 0.01317287077541375 -0.018497177892508397 -0.027124643191765916 0.028649572350346122 0.00095442427145471845 -0.043298192918692475 -0.027665136373272104 -0.017747500994545418 0.052981789344464396
leaf_weight=149.62326838076115 5.4001702927052966 40.449791714549065 220.99976539611816 23.177953684702516 39.07603631913662 32.651331882923841 77.78180031478405 222.68103743344545 73.477360103279352 32.02519241720438 22.344819145277143 25.534305974841118
leaf_count=1435 71 173 958 376 171 276 585 1926 1418 541 412 111
internal_value=-0.000325485 0.00455964 0.0152128 -0.025584 0.00849111 -0.00263594 0.0122971 -0.00706539 -0.0284958 -0.0131439 -0.03734 0.0351001
internal_weight=965.223 808.797 326.06 156.425 260.076 482.737 110.433 372.304 151.025 55.2031 95.8222 65.9841
internal_count=8453 5635 1413 2818 1129 4222 861 3361 2747 917 1830 284
cat_boundaries=0 1 2 3 4
cat_threshold=7213056 4096192 13514000 43332
is_linear=0
shrinkage=0.077797


Tree=29
num_leaves=15
num_cat=0
split_feature=13 15 13 2 2 13 21 21 10 19 2 5 2 21
split_gain=27.2549 22.2313 12.7201 8.93153 11.3623 10.38 8.13891 6.9966 6.95397 8.34819 7.20754 5.90926 7.15077 4.11432
threshold=0.43449999999999994 -0.015999999999999567 -0.59416666666666662 6.6250000000000009 6.4650000000000007 1.8725000000000001 6.0751837075682422 6.4204024487043361 4.5000000000000009 1.0000000180025095e-35 3.7050000000000005 6.7550000000000008 6.7250000000000005 5.8497533903502807
decision_type=2 2 2 2 2 2 2 2 2 2 2 2 2 2
left_child=1 2 6 4 5 -2 -1 -4 9 -3 -10 13 -13 -5
right_child=3 8 7 11 -6 -7 -8 -9 10 -11 -12 12 -14 -15
leaf_value=-0.011922103705897923 0.0082752146634037238 -0.024341362553838102 0.010881084217970939 -0.0065555207068472105 -0.047743800067456786 0.079026006897256099 -0.091759844733299817 0.054966423848365316 -0.07017935405499981 -0.060531774410125569 0.005788409584689241 0.088242027196540077 0.032012824906191228 0.041638949008714038
leaf_weight=46.04823517985642 274.65591835603118 197.75440960004926 139.2320977859199 29.117220260202885 21.018381502479315 13.151482984423636 9.2867152206599695 25.830570422112942 8.6229596659541112 47.926559124141932 61.250826336443424 18.703060444444418 51.054131168872118 16.96864715218544
leaf_count=540 1916 1840 1041 173 133 64 117 170 153 1153 642 108 314 89
internal_value=-0.000335741 -0.0120004 0.00695865 0.0143856 0.00747557 0.0115082 -0.0253211 0.01778 -0.0252422 -0.0314013 -0.00358659 0.032807 0.0470888 0.0111895
internal_weight=960.621 535.952 220.398 424.669 308.826 287.807 55.335 165.063 315.555 245.681 69.8738 115.843 69.7572 46.0859
internal_count=8453 5656 1868 2797 2113 1980 657 1211 3788 2993 795 684 422 262
is_linear=0
shrinkage=0.077797


Tree=30
num_leaves=15
num_cat=5
split_feature=1 1 3 0 0 0 5 5 6 3 21 21 4 3
split_gain=17.5734 9.90879 6.34772 18.5867 6.25088 5.44527 7.22335 5.16937 6.87165 3.05052 3.03226 2.74082 1.76638 1.64602
threshold=0 1 40.560000000000009 2 3 4 6.8450000000000006 6.745000000000001 -1.0000000180025095e-35 35.800000000000004 2.6891566036302885 5.3156757166691957 29.305000000000003 34.955000000000005
decision_type=1 1 2 9 9 9 2 2 2 2 2 2 2 2
left_child=7 5 4 -4 -3 9 -7 8 13 -2 -9 -10 -12 -1
right_child=1 2 3 -5 -6 6 -8 10 11 -11 12 -13 -14 -15
leaf_value=-0.024017455984333774 0.018231184543308489 -0.020106950094088166 -0.031351333970264093 0.028491099302952749 -0.00073735121496759138 0.011352994730531625 -0.029010818643398412 0.0086517644933877709 -0.0028482240041892174 0.042654098001259834 -0.041385903815944369 0.071618662824853768 -0.073726935237201918 -0.085142235724402049
leaf_weight=5.1894643604755419 86.002713233232498 152.69668215885758 36.393771870061755 93.738241570070386 279.43648493476212 158.13364484906197 32.317643269896507 4.1287174057215443 6.7449208330363017 48.357343435287476 16.728380860760808 5.3755599800497293 26.276138698682189 5.48429836332798
leaf_count=96 374 1697 354 789 2791 691 140 74 128 208 358 71 584 98
internal_value=-0.000329155 0.00279202 -0.0034663 0.0115353 -0.00806407 0.0134055 0.00427899 -0.0352777 -0.00990618 0.0251494 -0.0550325 0.0301786 -0.0611466 -0.055424
internal_weight=957.004 887.077 562.265 130.132 432.133 324.811 190.451 69.9275 22.7942 134.36 47.1332 12.1205 43.0045 10.6738
internal_count=8453 7044 5631 1143 4488 1413 831 1409 393 582 1016 199 942 194
cat_boundaries=0 1 2 3 4 5
cat_threshold=64 2 4096128 13505808 7221260
is_linear=0
shrinkage=0.077797


Tree=31
num_leaves=13
num_cat=3
split_feature=17 17 11 14 8 11 7 7 3 10 11 14
split_gain=17.6109 8.7603 7.52374 13.8306 5.73514 5.12733 9.22578 7.56003 2.8277 2.04099 2.8803 0.433784
threshold=0.05850000000000001 0.33150000000000007 0 6.5175000000000027 6.5000000000000009 1 11.900000000000002 10.450000000000001 20.145000000000003 4.5000000000000009 2 0.87166666666666626
decision_type=2 2 1 2 2 1 2 2 2 2 1 2
left_child=8 2 3 -2 -4 6 -3 -7 -1 10 -10 -11
right_child=1 5 4 -5 -6 7 -8 -9 9 11 -12 -13
leaf_value=0.0099767554440647454 -0.0013270717562686074 0.03853608584667479 0.046869790451707707 0.04754606692319762 -0.013311502044864785 -0.0088105384925755391 -0.016227663901611594 0.026846929629067137 0.0041044792601483632 -0.083004180800412289 -0.043573319895345103 -0.054036510673978688
leaf_weight=6.5392143912613383 203.57262985222042 24.70745649933815 9.8950398340821248 42.332688158378005 304.90312236733735 45.032661557197571 75.547680743038654 179.16221667826176 15.443320922553537 7.7016955986618978 32.548410475254059 5.2694326657801867
leaf_count=113 2072 110 96 385 3078 198 323 782 325 168 702 101
internal_value=-0.000337269 0.00258375 -0.0033036 0.00680954 -0.0110682 0.0127581 -0.00248364 0.0188441 -0.0386406 -0.0438555 -0.0364551 -0.0712363
internal_weight=952.656 885.153 560.703 245.905 314.798 324.45 100.255 224.195 67.5021 60.9629 47.9917 12.9711
internal_count=8453 7044 5631 2457 3174 1413 433 980 1409 1296 1027 269
cat_boundaries=0 1 2 3
cat_threshold=199404 67814 50306
is_linear=0
shrinkage=0.077797


Tree=32
num_leaves=14
num_cat=3
split_feature=13 13 6 20 11 21 13 7 11 6 11 14 13
split_gain=23.1771 12.2266 10.7945 9.53656 11.1758 6.81793 6.65438 6.76635 5.60838 4.43437 5.51094 2.47585 0.50064
threshold=-0.6063333333333335 1.830833333333334 -1.0000000180025095e-35 1.0000000180025095e-35 0 5.2104099345764459 -1.3083333333333331 10.450000000000001 1 -1.0000000180025095e-35 2 -3.6649999999999987 -1.2799999999999998
decision_type=2 2 2 2 1 2 2 2 1 2 1 2 2
left_child=5 3 -3 8 -5 6 11 -8 -2 10 -7 -1 -11
right_child=1 2 -4 4 -6 9 7 -9 -10 12 -12 -13 -14
leaf_value=-0.01811407555600485 0.022855975619927815 0.0085366293918309275 0.077898037493188757 0.014336961092762132 -0.023990698376641043 0.019794667910849082 0.056096041793909118 -0.013533009208190581 0.0032550831522029275 -0.064588442906472324 -0.043646524161200871 -0.066559917325140966 -0.091773518898039697
leaf_weight=10.233740307390692 103.44866903871298 29.707447372376919 25.014093488454819 61.517528900876641 135.84661420807242 8.3757295180112106 10.093494692817329 51.780445022508502 452.04697405919433 6.2072180137038258 25.877951666712761 16.975100195035338 12.077868971973656
leaf_count=171 621 162 128 788 1786 128 148 663 2853 103 394 330 178
internal_value=-0.000353783 0.004737 0.0402428 0.00215626 -0.0125333 -0.0293834 -0.0162745 -0.00217442 0.00737536 -0.0516105 -0.0350971 -0.0483386 -0.082545
internal_weight=949.203 807.581 54.7215 752.86 197.364 141.622 89.0828 61.8739 555.496 52.5388 34.2537 27.2088 18.2851
internal_count=8453 6338 290 6048 2574 2115 1312 811 3474 803 522 501 281
cat_boundaries=0 1 2 3
cat_threshold=65766 33032 88096
is_linear=0
shrinkage=0.077797


Tree=33
num_leaves=16
num_cat=2
split_feature=15 0 0 19 14 15 3 15 15 19 15 8 14 10 10
split_gain=18.7942 14.7322 11.5075 8.38638 7.97666 7.69267 5.87654 5.41517 6.2538 4.91787 7.57721 5.27635 4.63053 3.6555 3.00787
threshold=-0.01666666666666616 0 1 1.0000000180025095e-35 -6.4616666666666616 0.0016666666666673715 52.720000000000006 0.053333333333334128 0.029999999999999808 1.0000000180025095e-35 -0.086666666666666434 10.350000000000003 -6.0091666666666663 2.5000000000000004 1.5000000000000002
decision_type=2 9 9 2 2 2 2 2 2 2 2 2 2 2 2
left_child=1 9 7 5 13 -4 -6 8 -2 10 -1 -11 -9 -3 -5
right_child=2 4 3 14 6 -7 -8 12 -10 11 -12 -13 -14 -15 -16
leaf_value=-0.039397013329297695 -6.3105543858781916e-05 -0.017454044470552182 0.0054006681847058348 -0.069913423505443828 0.030607519208248411 -0.024826979125189431 0.082615740161768536 -0.072471350126378911 0.030989210354969727 0.016399293844431045 0.0076721623049801676 -0.058683667507831119 -0.0097509158458751709 0.031426268145117738 -0.031018858746893651
leaf_weight=23.912221416831017 152.64463160373271 29.952694309875369 75.361707706004381 24.371967598795891 149.62032345309854 157.34451756626368 14.416296860203145 8.6830860208719951 52.84276619926095 8.3067329842597264 154.07176692038774 17.810153316706419 39.68340958468616 13.403564896434544 23.771218804642558
leaf_count=136 1450 208 508 530 1119 1353 82 99 528 139 931 298 462 99 511
internal_value=-0.000347676 0.0121509 -0.00996622 -0.0204252 0.026077 -0.0150378 0.0351782 0.00231832 0.00792225 -0.00312445 0.0013484 -0.0348028 -0.0210109 -0.00234272 -0.0507088
internal_weight=946.197 411.494 534.703 280.849 207.393 232.706 164.037 253.854 205.487 204.101 177.984 26.1169 48.3665 43.3563 48.1432
internal_count=8453 3012 5441 2902 1508 1861 1201 2539 1978 1504 1067 437 561 307 1041
cat_boundaries=0 1 2
cat_threshold=4256794 4256794
is_linear=0
shrinkage=0.077797


Tree=34
num_leaves=15
num_cat=1
split_feature=15 17 14 21 15 17 14 11 6 14 8 8 21 8
split_gain=16.0143 9.19992 7.00983 11.5085 19.042 8.02179 6.35806 6.35803 11.9167 6.45312 6.32705 3.42816 2.29071 1.82092
threshold=-0.01666666666666616 0.05850000000000001 -6.3216666666666645 4.2205353371005057 -0.031833333333334039 0.11650000000000001 -10.654999999999996 0 1.0000000180025095e-35 -12.551666666666664 14.500000000000002 12.500000000000002 5.6840609303410163 13.500000000000002
decision_type=2 2 2 2 2 2 2 1 2 2 2 2 2 2
left_child=2 6 5 4 -4 13 -2 8 -3 -9 -5 -7 -8 -1
right_child=1 7 3 10 -6 11 12 9 -10 -11 -12 -13 -14 -15
leaf_value=-0.032848325102437695 0.043716387506428672 -0.00081350751462622801 0.093685498007700971 0.018877223504474603 -0.012181769709161164 -0.017355699333921736 -0.069478138093555103 0.026814049199924552 0.07485706298930693 -0.017802437783696924 -0.0040736177550657815 0.027228401948863078 -0.024360344395959736 -0.08060505275143183
leaf_weight=10.780172439292075 4.2586331740021697 201.18846184946597 26.6872489284724 190.28694450855255 16.728631235659122 19.828718326985836 24.801609894260764 21.244120221585035 13.437087576836346 256.6813276335597 117.64584472030401 22.04105943441391 9.3892618846148235 8.7580336648970825
leaf_count=113 86 1815 194 1386 128 114 645 193 121 2352 856 123 229 98
internal_value=-0.00033719 -0.00927201 0.0111572 0.0153957 0.0528936 -0.0130936 -0.0459232 -0.00641095 0.00374932 -0.0138922 0.0101088 0.00611423 -0.0570882 -0.0542554
internal_weight=943.757 531.001 412.757 351.349 43.4159 61.408 38.4495 492.551 214.626 277.925 307.933 41.8698 34.1909 19.5382
internal_count=8453 5441 3012 2564 322 448 960 4481 1936 2545 2242 237 874 211
cat_boundaries=0 1
cat_threshold=137516
is_linear=0
shrinkage=0.077797


Tree=35
num_leaves=15
num_cat=3
split_feature=17 2 0 11 11 4 5 6 2 2 4 10 21 2
split_gain=13.3025 11.2954 8.28364 8.08119 6.12471 5.21225 4.76381 6.13119 6.07417 4.2554 3.74713 2.69746 1.69415 1.33827
threshold=0.05850000000000001 5.6450000000000005 0 1 2 39.310000000000009 6.745000000000001 -1.0000000180025095e-35 6.910000000000001 5.9850000000000012 32.600000000000009 2.5000000000000004 5.1870051972537157 5.1850000000000014
decision_type=2 2 9 1 1 2 2 2 2 2 2 2 2 2
left_child=6 4 9 -4 10 -6 7 12 13 -3 -2 -9 -1 -8
right_child=1 2 3 -5 5 -7 8 11 -10 -11 -12 -13 -14 -15
leaf_value=-0.018968844529253074 -0.016070984777860082 0.053546109073677975 0.013699567663749147 -0.011558059508680815 -0.0062908833979657443 0.017516993352708576 -0.080393622720476551 0.073412932248616725 0.026531923434661951 0.020884333412626285 -0.053490827990089765 -0.0012105470162434872 -0.084331862901460872 -0.049707968908978217
leaf_weight=4.8222600463777798 44.841733675450087 33.078658498823643 182.00572009384632 118.80985881760716 318.40267902985215 67.444843532517552 14.43757209740579 5.2994059957563859 5.3839167058467856 89.370889939367771 25.354225058108568 6.5621070004999638 4.7780041713267565 21.281813530251384
leaf_count=97 444 225 1210 754 3005 625 508 78 68 538 243 121 97 440
internal_value=-0.000327233 0.00213897 0.0112915 0.00367293 -0.00635569 -0.00207555 -0.034988 -0.0052796 -0.0505 0.0274647 -0.0258974 0.0321292 -0.0514997 -0.0621109
internal_weight=941.874 879.309 423.265 300.816 456.043 385.848 62.5651 21.4618 41.1033 122.45 70.196 11.8615 9.60026 35.7194
internal_count=8453 7044 2727 1964 4317 3630 1409 393 1016 763 687 199 194 948
cat_boundaries=0 1 2 3
cat_threshold=1316952 201148 65680
is_linear=0
shrinkage=0.077797


Tree=36
num_leaves=16
num_cat=5
split_feature=13 15 11 0 11 15 11 15 2 15 5 21 0 15 13
split_gain=19.9814 15.4237 12.4576 10.1813 12.2075 8.5599 8.07177 11.3942 9.76875 8.35007 5.80585 11.5 9.31685 5.28511 2.69043
threshold=0.43449999999999994 0.00083333333333346371 0 1 2 -0.0036666666666667065 3 0.018000000000000242 6.1150000000000011 0.0016666666666664833 6.7750000000000012 5.4515154815360907 4 -0.018333333333333087 -0.044166666666666458
decision_type=2 2 1 9 1 2 1 2 2 2 2 2 9 2 2
left_child=1 2 13 4 -3 -4 10 9 -9 -8 12 -12 -2 -1 -5
right_child=6 3 5 14 -6 -7 7 8 -10 -11 11 -13 -14 -15 -16
leaf_value=-0.012639770603849297 -0.024067983185483869 0.015077417018113099 0.0068463388329647705 -0.035586729719247659 -0.033765409394201487 0.063070471251934157 0.0056212721803277285 -0.053818728253301334 0.0053638177022340182 0.048951582540479162 0.024102901756744552 0.08665999985440806 0.030350155760605763 -0.055474349859545746 -0.060558428044649337
leaf_weight=56.752250522375107 25.673329930752516 64.657996056601405 194.69143932871521 76.486095812171698 43.768490074202418 17.895269010215998 160.85064974799752 33.790190942585468 33.730668496340513 32.327070526778698 79.539971409365535 22.90799605101347 32.073883261531591 25.163830982521176 39.649075947701931
leaf_count=489 153 765 1703 1175 612 191 979 272 234 246 566 140 207 273 448
internal_value=-0.000313626 -0.0105277 0.00118268 -0.0258853 -0.00582526 0.011059 0.0122828 0.00313643 -0.0242535 0.0128723 0.0253868 0.0380911 0.00724474 -0.0229914 -0.040615
internal_weight=939.958 519.064 294.503 224.562 108.426 212.587 420.894 260.699 67.5209 193.178 160.195 102.448 57.7472 81.9161 116.135
internal_count=8453 5656 2656 3000 1377 1894 2797 1731 506 1225 1066 706 360 762 1623
cat_boundaries=0 1 2 3 4 5
cat_threshold=81968 7001224 159782 196792 32786
is_linear=0
shrinkage=0.077797


Tree=37
num_leaves=16
num_cat=3
split_feature=13 15 0 0 13 13 18 20 5 0 4 7 4 13 20
split_gain=18.4069 11.1142 12.7963 12.6188 17.5535 10.2472 7.21166 6.04578 5.74988 5.1284 3.04365 3.3596 2.78075 1.10924 0.00434956
threshold=-0.6849999999999995 -0.015999999999999567 0 1 0.41583333333333311 -0.15499999999999978 1.0000000180025095e-35 -2.2499999999999996 6.7550000000000008 2 12.035000000000002 10.450000000000001 29.395000000000003 -1.0391666666666663 1.0000000180025095e-35
decision_type=2 2 9 9 2 2 2 2 2 9 2 2 2 2 2
left_child=7 2 5 6 -5 -2 -3 9 -4 12 14 -12 -1 -11 -9
right_child=1 3 8 4 -6 -7 -8 10 -10 13 11 -13 -14 -15 -16
leaf_value=-0.0064977307729248831 -0.01128467137436481 -0.035259769061527071 -0.010493297056366303 -0.013263662779962628 0.027503958041928921 0.040466947967998976 -0.004721968225137603 -0.085137622748422764 0.015421212567944431 0.039576264382854734 0.0092278500274224351 -0.043597074798938228 -0.057566860244509389 0.0060053363741081603 -0.081806451899529745
leaf_weight=11.218388043344023 28.081959517672658 94.841237843036652 121.56214851886034 127.72046731971204 127.97222228720784 132.03890359774232 92.407501745969057 5.2337272316217405 90.32391189225018 12.479377869516613 8.4093443863093835 54.587107740342617 15.192004427313803 11.397580519318579 4.3392189424484968
leaf_count=105 238 1249 785 1375 896 821 527 81 613 103 185 1149 125 85 116
internal_value=-0.00031884 0.00391302 0.0138267 -0.00441305 0.00687148 0.0295456 -0.0191658 -0.0283901 0.000528724 -0.00765832 -0.0427563 -0.0365455 -0.0260214 0.0165993 -0.0836277
internal_weight=937.805 814.948 372.007 442.941 255.693 160.121 187.249 122.857 211.886 50.2874 72.5694 62.9965 26.4104 23.877 9.57295
internal_count=8453 6504 2457 4047 2271 1059 1776 1949 1398 418 1531 1334 230 188 197
cat_boundaries=0 1 2 3
cat_threshold=12454212 12454148 2801930
is_linear=0
shrinkage=0.077797


Tree=38
num_leaves=14
num_cat=0
split_feature=13 13 17 6 14 14 14 17 4 20 2 13 8
split_gain=16.0332 8.75406 11.2359 8.46506 7.26701 7.94759 7.06333 6.3432 4.50663 3.47647 3.05167 2.83916 2.3447
threshold=-0.6849999999999995 1.830833333333334 0.05850000000000001 -1.0000000180025095e-35 -3.1691666666666687 -5.6224999999999996 -6.3216666666666645 0.14750000000000002 29.430000000000003 -2.2499999999999996 4.6850000000000014 -1.1083333333333325 15.500000000000002
decision_type=2 2 2 2 2 2 2 2 2 2 2 2 2
left_child=4 2 12 -3 5 8 -4 10 -1 -9 -6 -7 -2
right_child=1 3 6 -5 7 11 -8 9 -10 -11 -12 -13 -14
leaf_value=0.027643669580687157 -0.024003071013582886 0.0052181574549956108 -0.013365972154669668 0.066211787908734665 -0.067869405036871222 0.083830143051726425 0.0072582372594912296 -0.00030529797843916368 -0.050539636880316319 -0.047320276426341984 -0.0090702368835350634 0.012526417332720363 -0.062092682977825428
leaf_weight=6.4217429663985994 29.060120195150375 29.742192231118679 120.98335394077003 25.647283226251602 37.849763276055455 7.0646878853440285 593.71349948272109 26.553138103336096 14.623393403366206 14.838441565632818 6.2201278973370782 6.4797809123992902 14.744102662429212
leaf_count=87 625 162 944 128 953 112 4351 157 244 200 112 84 294
internal_value=-0.00031168 0.00360315 0.00142283 0.0334604 -0.0268524 0.00323397 0.00376699 -0.0390296 -0.0266827 -0.0171597 -0.0595704 0.0497179 -0.0368237
internal_weight=933.942 813.891 758.501 55.3895 120.051 34.5896 714.697 85.4615 21.0451 41.3916 44.0699 13.5445 43.8042
internal_count=8453 6504 6214 290 1949 527 5295 1422 331 357 1065 196 919
is_linear=0
shrinkage=0.077797


Tree=39
num_leaves=12
num_cat=2
split_feature=13 15 13 11 4 11 13 13 14 14 13
split_gain=14.3941 10.0074 11.2055 8.35771 6.85243 5.92906 4.97266 4.71831 3.18599 1.93446 1.33845
threshold=-1.3083333333333331 -0.01666666666666616 0.41583333333333311 0 42.560000000000009 1 -0.13916666666666663 0.31449999999999984 -3.6649999999999987 4.8166666666666673 -1.5525
decision_type=2 2 2 1 2 1 2 2 2 2 2
left_child=8 4 3 -3 6 -4 -2 -6 -1 10 -10
right_child=1 2 5 -5 7 -7 -8 -9 9 -11 -12
leaf_value=-0.0096094445701000002 -0.0081626474437788664 0.00095024214129108703 0.025636117896558491 -0.027584038526369474 0.078253223154463453 -0.0013172402994942845 0.012927118766639932 0.018666118595741465 -0.087350878984908384 -0.027054481095244897 -0.045621424283130062
leaf_weight=10.152113126590846 89.38065442442894 108.35186255630106 60.150092726573348 152.85972835216671 14.418199134990571 170.92409004457295 278.52369171008468 18.189103707671165 13.413704829290511 7.6537387771531931 7.122031599283221
leaf_count=177 826 1254 422 1954 117 1255 1720 111 314 164 139
internal_value=-0.000303214 0.00170129 -0.005728 -0.0167675 0.0108329 0.00675132 0.00780346 0.0450142 -0.0469788 -0.0604369 -0.0728786
internal_weight=931.139 892.797 492.286 261.212 400.512 231.074 367.904 32.6073 38.3416 28.1895 20.5357
internal_count=8453 7659 4885 3208 2774 1677 2546 228 794 617 453
cat_boundaries=0 1 2
cat_threshold=137508 66008
is_linear=0
shrinkage=0.077797


Tree=40
num_leaves=11
num_cat=1
split_feature=17 15 15 11 8 4 4 16 7 8
split_gain=10.0137 8.0648 7.7729 10.2284 8.13186 6.72758 3.31253 3.92107 2.6167 1.27681
threshold=0.05850000000000001 -0.075499999999999887 0.015500000000000293 0 14.500000000000002 22.295000000000005 47.340000000000011 1.0000000180025095e-35 15.650000000000002 14.500000000000002
decision_type=2 2 2 1 2 2 2 2 2 2
left_child=1 -1 6 4 -4 -5 7 -2 9 -3
right_child=2 8 3 5 -6 -7 -8 -9 -10 -11
leaf_value=0.061223834939709086 0.00052423498413304258 -0.038640028944010092 -0.0096841945079723588 -0.098351815134351386 0.027923529809572752 -0.024586979144197951 0.044078469538132443 0.013300844126137377 0.0032398730516967644 -0.066620658591176093
leaf_weight=5.167243465781211 366.18138891085982 31.470747668296099 97.726639600470662 8.164069462567566 54.041885673999786 89.72452287375927 13.847381765022872 241.09634251892567 7.1319742305204263 14.38082822691649
leaf_count=76 3355 796 982 94 515 931 108 1059 174 363
internal_value=-0.000292673 -0.0315495 0.00179465 -0.00979892 0.00347803 -0.0278899 0.00645461 0.0055967 -0.0405972 -0.0474158
internal_weight=928.933 58.1508 870.782 249.657 151.769 97.8886 621.125 607.278 52.9836 45.8516
internal_count=8453 1409 7044 2522 1497 1025 4522 4414 1333 1159
cat_boundaries=0 1
cat_threshold=169020
is_linear=0
shrinkage=0.077797


Tree=41
num_leaves=13
num_cat=3
split_feature=17 15 15 0 0 17 15 14 14 5 14 0
split_gain=8.78763 7.85563 6.82504 10.7558 9.06807 7.21511 5.95527 4.88508 4.51706 3.47957 4.64747 3.77428
threshold=0.05850000000000001 -0.088333333333333361 -0.01666666666666616 0 1 0.092000000000000012 -0.099999999999999187 -8.8991666666666642 -10.28833333333333 6.745000000000001 -9.4174999999999986 2
decision_type=2 2 2 9 9 2 2 2 2 2 2 9
left_child=1 -1 4 8 7 -5 -6 -2 -4 11 -11 -3
right_child=2 9 3 5 6 -7 -8 -9 -10 10 -12 -13
leaf_value=0.081794382466825216 -0.013040629816804634 0.024296090094007551 0.052976827708141591 -0.061108681208973496 -0.040746271116081381 -0.013086264388711149 0.004226153789753071 0.034958597788945792 0.0040475016057134067 0.024612529742966387 -0.062036466709671063 -0.026293801714258352
leaf_weight=3.56444989144802 14.708472739905117 6.3212915249168873 11.962580643594263 20.966759352013469 19.159431800246239 195.47206476517022 255.12658743187785 100.64554743468761 251.49670963175595 4.2596015445888034 31.095904705114663 11.300585944205524
leaf_count=44 93 115 103 456 109 1635 1702 659 2287 93 912 245
internal_value=-0.000280372 -0.0299994 0.00165211 -0.00455842 0.00930127 -0.0169549 0.00104658 0.0265378 0.00603992 -0.0375211 -0.0515971 -0.00927993
internal_weight=926.08 56.5418 869.538 479.898 389.64 216.439 274.286 115.354 263.459 52.9774 35.3555 17.6219
internal_count=8453 1409 7044 4481 2563 2091 1811 752 2390 1365 1005 360
cat_boundaries=0 1 2 3
cat_threshold=4256922 1837316 131392
is_linear=0
shrinkage=0.077797


Tree=42
num_leaves=13
num_cat=0
split_feature=13 13 16 3 9 15 15 20 13 7 7 20
split_gain=12.4818 8.37272 9.61906 7.35149 7.32421 4.90414 2.59464 2.1737 4.69282 1.81341 0.322078 0.00110205
threshold=-1.3083333333333331 0.98000000000000009 1.0000000180025095e-35 22.450000000000006 1.0000000180025095e-35 0.038333333333332671 0.036333333333332891 1.2500000000000002 -1.9063333333333332 11.900000000000002 10.450000000000001 4.2500000000000009
decision_type=2 2 2 2 2 2 2 2 2 2 2 2
left_child=7 2 5 -3 -5 -2 -4 8 -1 -10 -9 -12
right_child=1 3 6 4 -6 -7 -8 10 9 -11 11 -13
leaf_value=0.01760019167865437 -0.0060908588442620667 0.053967213032633042 0.012701779415882623 -0.037527302102012584 0.013935834412167704 -0.027894111438792314 -0.010991561403159721 -0.048481732383523962 -0.025175265072852324 -0.075840767952889049 -0.081342925664651219 -0.079581262556921897
leaf_weight=7.878184791654351 338.61303655616939 25.108772613108158 206.29704914987087 18.350908730179071 190.39064718037844 76.553467168472707 32.362038969993591 2.4256554348394266 7.3473024135455516 10.226959411054848 4.7619180250912887 3.9171617459505796
leaf_count=112 4002 156 892 121 1130 1212 146 95 98 137 155 197
internal_value=-0.000272849 0.00156187 -0.00295676 0.0141956 0.0094116 -0.0101112 0.00948898 -0.0448233 -0.0322929 -0.054659 -0.0735435 -0.0805478
internal_weight=924.233 887.676 653.826 233.85 208.742 415.167 238.659 36.5572 25.4524 17.5743 11.1047 8.67908
internal_count=8453 7659 6252 1407 1251 5214 1038 794 347 235 447 352
is_linear=0
shrinkage=0.077797


Tree=43
num_leaves=13
num_cat=1
split_feature=17 15 14 15 14 15 20 14 5 11 14 14
split_gain=7.48888 6.56292 6.00605 10.6086 9.17368 5.3906 8.28213 5.05833 3.22565 4.52389 4.20725 2.75538
threshold=0.05850000000000001 -0.088333333333333361 -6.3216666666666645 0.035000000000000593 -9.4774999999999974 -0.01666666666666616 -4.2499999999999991 -2.2645000000000013 6.745000000000001 0 -9.4174999999999986 -12.794999999999996
decision_type=2 2 2 2 2 2 2 2 2 1 2 2
left_child=1 -1 3 4 -2 7 -7 -4 9 -3 -10 -5
right_child=2 8 5 11 -6 6 -8 -9 10 -11 -12 -13
leaf_value=0.070811958591165916 0.019345968275373125 0.0222976423608836 0.028873981253906833 -0.020357116076165065 -0.024875096799872876 0.014598870419985012 -0.0096073036084569699 0.0063045533128717112 0.021558009649891578 -0.032510025879481458 -0.060403838839958909 -0.072729706291524296
leaf_weight=3.7710931319743386 57.263058848679066 9.5190334552898985 78.765398958697915 8.9232990778982657 56.31673670001328 126.15618734061718 265.77982242964208 253.65603030659258 4.3594257589429608 7.8873975193128016 29.047038059681654 19.080594317987561
leaf_count=44 466 179 520 90 444 736 2922 1657 93 181 912 209
internal_value=-0.000261274 -0.0282102 0.00150047 -0.0131544 -0.00258034 0.00436493 -0.00181583 0.0116523 -0.0355592 -0.00840444 -0.0497081 -0.0560414
internal_weight=920.525 54.584 865.941 141.584 113.58 724.357 391.936 332.421 50.8129 17.4064 33.4065 28.0039
internal_count=8453 1409 7044 1209 910 5835 3658 2177 1365 360 1005 299
cat_boundaries=0 1
cat_threshold=41090
is_linear=0
shrinkage=0.077797


Tree=44
num_leaves=13
num_cat=4
split_feature=2 0 5 14 3 0 3 3 0 14 0 7
split_gain=6.09851 8.8859 6.49334 6.45464 9.384 8.1817 5.84785 5.80922 15.9734 7.65665 5.79619 2.47299
threshold=3.77 0 6.7250000000000005 -6.3216666666666645 22.450000000000006 1 33.735000000000007 30.545000000000005 2 -4.9949999999999983 3 11.550000000000002
decision_type=2 9 2 2 2 9 2 2 9 2 9 2
left_child=1 -1 6 4 10 -6 -3 8 -5 -9 -2 -4
right_child=3 2 11 7 5 -7 -8 9 -10 -11 -12 -13
leaf_value=0.037844889490334835 0.023741894522347286 0.060943458312939333 -0.035300325121928613 0.040399042763695325 0.0090176893747155248 -0.043393166027770151 -0.039415663677146773 -0.059121120704673583 -0.0079378263292429595 0.0020441167324517571 -0.019975379555621779 -0.077465630148050094
leaf_weight=5.6478829206898808 40.157618006691337 6.1036102762445799 14.902549579739569 75.445896715857089 26.562689084559679 56.35740674007684 8.2826554421335441 12.670861076563595 79.635613651946187 552.31320555415004 20.746196551248431 19.348795252852142
leaf_count=131 349 99 297 644 254 524 121 103 707 4644 203 377
internal_value=-0.000261399 -0.0255543 -0.0337569 0.00132797 -0.0137187 -0.0307494 0.00316335 0.00433335 0.0176708 0.000672368 0.00946854 -0.0591198
internal_weight=918.175 54.2855 48.6376 863.889 143.824 82.9201 14.3863 720.066 155.082 564.984 60.9038 34.2513
internal_count=8453 1025 894 7428 1330 778 220 6098 1351 4747 552 674
cat_boundaries=0 1 2 3 4
cat_threshold=13631492 3047428 8679578 1048984
is_linear=0
shrinkage=0.077797


Tree=45
num_leaves=13
num_cat=1
split_feature=13 11 17 21 13 17 6 2 5 3 2 13
split_gain=10.5895 7.82178 7.10762 6.97848 6.60635 6.92325 6.61478 5.5178 3.39056 3.34016 3.11752 1.57612
threshold=-0.6849999999999995 0 0.33150000000000007 4.0467447399761829 1.830833333333334 0.05850000000000001 -1.0000000180025095e-35 3.9750000000000005 6.7250000000000005 36.805000000000007 4.455000000000001 -0.9750000000000002
decision_type=2 1 2 2 2 2 2 2 2 2 2 2
left_child=1 2 3 -1 5 8 -6 -7 -2 10 -3 -11
right_child=4 9 -4 -5 6 7 -8 -9 -10 11 -12 -13
leaf_value=0.052640673811256172 0.0051880866689262058 -0.022985370990899066 0.044902956532489234 -0.035307715870491939 0.0035856562765797036 0.045109966130415895 0.057406081214745802 0.0016182529176531413 -0.045518931665088649 -0.089318811535798279 -0.083710597234399275 -0.04527445598924968
leaf_weight=6.8945010565221301 11.198932433500884 35.537000522948802 16.962554559111595 26.253050753846765 29.512284696102142 18.117120683193207 25.995504140853882 692.86442908458412 27.776097197085619 11.440485109575095 5.977443002164363 8.6242874087765795
leaf_count=153 176 645 80 622 162 191 128 5104 743 234 83 132
internal_value=-0.000219675 -0.0226687 0.00328838 -0.017015 0.00289321 0.000976397 0.0287909 0.0027265 -0.030949 -0.0381328 -0.0317289 -0.0703876
internal_weight=917.154 111.689 50.1101 33.1476 805.464 749.957 55.5078 710.982 38.975 61.5792 41.5144 20.0648
internal_count=8453 1949 855 775 6504 6214 290 5295 919 1094 728 366
cat_boundaries=0 1
cat_threshold=97824
is_linear=0
shrinkage=0.077797


Tree=46
num_leaves=11
num_cat=1
split_feature=17 15 15 14 3 17 0 15 3 14
split_gain=5.91439 5.40888 5.06778 8.24428 10.2069 4.31513 9.37102 8.9134 3.21542 3.36901
threshold=0.05850000000000001 -0.088333333333333361 0.05333333333333324 -6.2009999999999996 30.715000000000003 0.14750000000000002 0 -0.096666666666666221 43.130000000000003 -9.4174999999999986
decision_type=2 2 2 2 2 2 9 2 2 2
left_child=1 -1 5 -4 -5 6 -2 -7 9 -3
right_child=2 8 3 4 -6 7 -8 -9 -10 -11
leaf_value=0.061843636358485707 -0.019616019796214714 0.011263558294551317 -0.070891790496954002 0.049599600488466636 -0.024460645545376795 -0.047822163787915581 0.0061785378331218107 0.0104734982810507 0.020249352349386764 -0.049862091993119757
leaf_weight=3.9485416151583186 123.71667140815407 6.4451579712331286 14.456233343109487 15.191047275438903 43.556192725896835 16.494641557335854 227.50070250686258 422.14562739804387 6.0307800183072677 35.607252503745258
leaf_count=44 1378 134 164 147 493 85 2308 2469 166 1065
internal_value=-0.000214586 -0.0256871 0.00132109 -0.018261 -0.00530991 0.00313595 -0.00329022 0.00828135 -0.0328751 -0.0404937
internal_weight=915.093 52.0317 863.061 73.2035 58.7472 789.858 351.217 438.64 48.0832 42.0524
internal_count=8453 1409 7044 804 640 6240 3686 2554 1365 1199
cat_boundaries=0 1
cat_threshold=8257666
is_linear=0
shrinkage=0.077797


Tree=47
num_leaves=12
num_cat=0
split_feature=2 4 4 2 4 2 7 14 14 14 21
split_gain=5.0317 7.63454 6.49935 5.67164 5.60414 11.2889 6.92522 5.88976 7.31323 2.59009 0.595307
threshold=6.6250000000000009 36.255000000000003 34.050000000000004 6.745000000000001 39.310000000000009 4.035000000000001 10.950000000000001 -24.339666666666663 -5.6224999999999996 -2.0974999999999997 5.3156757166691957
decision_type=2 2 2 2 2 2 2 2 2 2 2
left_child=4 2 3 -2 7 10 -7 -1 -9 -3 -6
right_child=1 9 -4 -5 5 6 -8 8 -10 -11 -12
leaf_value=0.05287464312922837 0.040704539910781393 -0.038592651916708305 0.060062183947818683 0.0005317789472864665 -0.073085728536794708 -0.031245293524354872 0.029166160228867397 -0.024779850687681935 -0.0027940830418567127 0.00043591354913224294 -0.038520558312692493
leaf_weight=10.207253618165849 31.47828640602529 17.998841611668468 22.385101122781634 65.590080318972468 6.7927302094176394 13.183057637885211 89.149443020112813 111.35572880506516 515.35585383605212 24.03311956487596 5.4235601117834449
leaf_count=99 212 128 159 420 111 112 787 1150 5022 162 91
internal_value=-0.000219302 0.0122397 0.0222738 0.0135594 -0.00289667 0.0129453 0.0213836 -0.00574582 -0.00670057 -0.0162768 -0.0577401
internal_weight=912.953 161.485 119.453 97.0684 751.468 114.549 102.333 636.919 626.712 42.032 12.2163
internal_count=8453 1081 791 632 7372 1101 899 6271 6172 290 202
is_linear=0
shrinkage=0.077797


Tree=48
num_leaves=12
num_cat=3
split_feature=13 13 5 14 11 15 11 11 5 5 14
split_gain=9.31886 6.52647 7.31818 8.0174 7.75556 6.6362 8.27729 3.68092 3.32235 7.1723 3.12624
threshold=-1.3083333333333331 0.57750000000000024 6.7750000000000012 6.0481666666666678 0 0.038333333333332671 1 2 6.705000000000001 6.745000000000001 4.8166666666666673
decision_type=2 2 2 2 1 2 1 1 2 2 2
left_child=8 5 3 -3 -4 7 -7 -2 -1 -10 -11
right_child=1 2 4 -5 -6 6 -8 -9 9 10 -12
leaf_value=-0.089334147766528926 0.011627065463535733 -0.010142085564287657 2.7391829923167681e-05 0.029989968074863448 0.032586549202544945 0.020586655726703297 -0.035424191156876492 -0.0046523242811362889 0.057703060986033665 -0.063069580583144366 0.0077647198163606742
leaf_weight=6.7515600780025116 101.82732838299125 145.83474423550069 82.182402668520808 37.973511952906847 104.67867725715041 16.430418549105525 60.719019040465355 329.07198928296566 4.8142990907654193 16.879333776421849 4.8558946764096609
leaf_count=134 951 907 571 225 706 238 913 3148 105 435 120
internal_value=-0.000209698 0.0013212 0.00917061 -0.00185108 0.0200122 -0.00440568 -0.0254189 -0.00064342 -0.0406057 -0.028214 -0.0472444
internal_weight=912.019 878.718 370.669 183.808 186.861 508.049 77.1494 430.899 33.3011 26.5495 21.7352
internal_count=8453 7659 2409 1132 1277 5250 1151 4099 794 660 555
cat_boundaries=0 1 2 3
cat_threshold=53088 33286 3936
is_linear=0
shrinkage=0.077797


Tree=49
num_leaves=12
num_cat=1
split_feature=17 15 8 15 11 14 14 15 17 14 4
split_gain=5.10367 5.16984 4.60842 4.18939 10.8134 7.43252 4.06482 3.74903 3.91443 2.07377 1.66841
threshold=0.05850000000000001 -0.042666666666666846 12.500000000000002 0.05333333333333324 0 -6.2009999999999996 -9.4174999999999986 0.048333333333333346 0.14750000000000002 -2.6916666666666678 28.475000000000005
decision_type=2 2 2 2 1 2 2 2 2 2 2
left_child=1 2 -1 7 5 -5 -3 8 -2 -8 -6
right_child=3 6 -4 4 10 -7 9 -9 -10 -11 -12
leaf_value=0.063983510758249554 -0.0040112787672255115 0.020783824679220481 -0.028095641738481711 -0.053421408144252253 -0.09399523792863386 0.025395992632571231 -0.081654349208971674 0.045024710153745762 0.0071151513560742709 -0.037417724530594637 -0.052291715162644151
leaf_weight=6.5538094313815218 343.57269392814487 5.8286212664097539 6.6051606414839625 8.953015383332966 9.2234831005334872 37.875736728310585 8.9394330326467735 12.564852013252674 432.00560079142451 22.702805771492425 15.670394893735645
leaf_count=104 3602 122 112 105 99 418 291 127 2511 780 182
internal_value=-0.000182283 -0.0241859 0.0177643 0.00123108 -0.01677 0.00850994 -0.038918 0.00286921 0.00218626 -0.0499153 -0.0483293
internal_weight=910.496 50.6298 13.159 859.866 71.7226 46.8288 37.4709 788.143 775.578 31.6422 24.8939
internal_count=8453 1409 216 7044 804 523 1193 6240 6113 1071 281
cat_boundaries=0 1
cat_threshold=181430
is_linear=0
shrinkage=0.077797


Tree=50
num_leaves=11
num_cat=2
split_feature=13 13 11 13 11 6 14 14 14 13
split_gain=8.22878 5.80957 12.2911 5.94551 5.57812 5.0541 4.94348 3.30208 2.03476 1.55567
threshold=-1.3083333333333331 1.2675000000000003 0 -1.1808333333333332 1 -1.0000000180025095e-35 -1.6965000000000001 -3.6649999999999987 4.8166666666666673 -1.5525
decision_type=2 2 1 2 1 2 2 2 2 2
left_child=7 3 6 -2 -5 -4 -3 -1 9 -9
right_child=1 2 5 4 -6 -7 -8 8 -10 -11
leaf_value=0.0013889087184317615 0.05873603090315288 0.089302312223567937 -0.018010268079258398 -0.012479621972395162 0.0021678898076261518 0.01662090769262816 0.035329608094807424 -0.086469351543681183 -0.017821649640206518 -0.036761970840076409
leaf_weight=8.9366985885426384 9.7496077213436347 15.825675457715986 54.569425936788321 218.56378993485123 500.63905854336917 47.888509407639503 29.262434806674719 10.710368446074428 6.6338200215250245 5.915273253805938
leaf_count=177 175 91 330 2025 4598 284 156 314 164 139
internal_value=-0.000178141 0.00124075 0.0153189 -0.00160878 -0.00242683 -0.00166159 0.0444216 -0.0388055 -0.0542489 -0.0687839
internal_weight=908.695 876.499 147.546 728.952 719.203 102.458 45.0881 32.1962 23.2595 16.6256
internal_count=8453 7659 861 6798 6623 614 247 794 617 453
cat_boundaries=0 1 2
cat_threshold=69656 77840
is_linear=0
shrinkage=0.077797


Tree=51
num_leaves=12
num_cat=0
split_feature=13 3 5 13 15 21 13 5 21 5 5
split_gain=7.49424 5.46663 6.26089 4.79726 4.43227 7.884 5.43512 3.77192 3.55085 3.85933 2.77931
threshold=-0.6849999999999995 32.440000000000005 6.7350000000000012 1.830833333333334 -0.015999999999999567 6.4204024487043361 0.41583333333333311 6.8150000000000004 4.8285275671423271 6.6650000000000009 6.7550000000000008
decision_type=2 2 2 2 2 2 2 2 2 2 2
left_child=1 2 -1 4 5 -2 -6 -4 -3 -10 -5
right_child=3 8 7 10 6 -7 -8 -9 9 -11 -12
leaf_value=0.048074055517788788 0.002596236893785631 -0.094790314639201539 -0.046291806072740492 0.0036402729688680829 -0.013801413995016271 0.037179270178910449 0.0043938366832853206 0.0042023753219584794 -0.093915504290015051 -0.022516637912463933 0.038988054706805934
leaf_weight=12.090357009321449 302.26121046766639 5.5923688984476021 15.1226693643257 22.876489348709583 202.19905368611217 45.964783230796456 195.36539788357913 21.949556954205036 5.0813374929130068 46.627865177579224 32.716859109699726
leaf_count=170 2053 105 248 118 2384 276 1501 405 81 940 172
internal_value=-0.000180109 -0.0195728 -0.000540714 0.00239622 0.000752825 0.00716109 -0.00486017 -0.0163954 -0.0359017 -0.0295328 0.0244426
internal_weight=907.848 106.464 49.1626 801.384 745.79 348.226 397.564 37.0722 57.3016 51.7092 55.5933
internal_count=8453 1949 823 6504 6214 2329 3885 653 1126 1021 290
is_linear=0
shrinkage=0.077797


Tree=52
num_leaves=10
num_cat=2
split_feature=13 0 3 13 13 0 17 16 17
split_gain=6.82016 5.2163 5.15613 4.69038 5.38123 5.9376 4.98075 1.08863 0.00441915
threshold=-1.3083333333333331 0 37.905000000000008 -1.1808333333333332 0.57750000000000024 1 0.14750000000000002 1.0000000180025095e-35 0.092000000000000012
decision_type=2 9 2 2 2 9 2 2 2
left_child=1 2 -1 -2 6 -6 -5 8 -3
right_child=3 7 -4 4 5 -7 -8 -9 -10
leaf_value=0.080837642110435565 0.054000622048505233 -0.079238362434324583 -0.031337198890909336 -0.013299640741579197 -0.008983987065534646 0.013014046222575112 0.0023808593995043523 -0.043142739754660944 -0.082296623829766102
leaf_weight=5.6540150530636293 10.024635847657917 3.9907947233878138 4.417870569974184 227.44829165097326 94.224376540631056 277.53338737227023 265.97146732360125 6.602286033332347 10.089373022317885
leaf_count=156 175 265 111 3411 595 1814 1664 43 219
internal_value=-0.000173908 -0.0361826 0.0158736 0.00109143 0.000478379 0.00754691 -0.00484727 -0.0466516 -0.0814298
internal_weight=905.956 30.7543 10.0719 875.202 865.178 371.758 493.42 20.6825 14.0802
internal_count=8453 794 267 7659 7484 2409 5075 527 484
cat_boundaries=0 1 2
cat_threshold=10520836 44288
is_linear=0
shrinkage=0.077797


Tree=53
num_leaves=14
num_cat=0
split_feature=14 3 3 3 14 4 2 14 14 4 20 20 2
split_gain=4.08771 10.0087 5.38321 12.3275 8.03502 5.28907 4.99987 3.93647 6.85696 4.3005 3.92533 4.76 2.74067
threshold=-6.3216666666666645 22.450000000000006 30.545000000000005 30.155000000000005 -4.9949999999999983 47.850000000000001 4.4350000000000014 -9.4174999999999986 -10.654999999999996 32.885000000000012 1.7500000000000002 -0.74999999999999989 6.0250000000000012
decision_type=2 2 2 2 2 2 2 2 2 2 2 2 2
left_child=1 10 3 4 -2 6 -4 8 -3 -9 11 -1 -12
right_child=2 7 5 -5 -6 -7 -8 9 -10 -11 12 -13 -14
leaf_value=0.0029864015747400347 0.038682480009042106 -0.038014395645215457 -0.01838245743874934 0.072268025448700826 -0.0039844913954980351 0.0556974139454465 0.00098096508660251236 -0.064552987361604044 0.04242254242546261 -0.021658665310470952 -0.068864832060964748 0.051875978888094539 0.0086903343350097449
leaf_weight=35.202943656593561 35.656292844563723 15.629919197410347 96.71657597925514 19.779338004998863 106.50947302486748 9.7001406727358681 487.62706535495818 26.086652366444468 10.878695202991365 30.906384366564453 5.6818073363974673 18.328705783933401 5.3588209897279739
leaf_count=240 300 153 1550 173 1021 104 3842 279 103 306 131 195 56
internal_value=-0.000165639 -0.0119858 0.00214954 0.0147229 0.00671672 -0.00127814 -0.00222394 -0.0297721 -0.00500441 -0.0412921 0.0110147 0.0197257 -0.0312217
internal_weight=904.063 148.074 755.989 161.945 142.166 594.044 584.344 83.5017 26.5086 56.993 64.5723 53.5316 11.0406
internal_count=8453 1463 6990 1494 1321 5496 5392 841 256 585 622 435 187
is_linear=0
shrinkage=0.077797


Tree=54
num_leaves=14
num_cat=0
split_feature=13 14 14 3 2 14 14 3 14 3 15 15 3
split_gain=5.8397 5.77315 6.29817 5.02385 4.59748 12.5996 5.45966 10.1468 4.34248 3.98208 2.83301 6.18518 3.20629
threshold=-0.6849999999999995 -3.1691666666666687 -5.6224999999999996 22.825000000000003 3.9750000000000005 2.1099999999999963 -6.3216666666666645 28.520000000000003 -6.0091666666666663 30.050000000000004 -0.040000000000000473 -0.06366666666666719 31.965000000000003
decision_type=2 2 2 2 2 2 2 2 2 2 2 2 2
left_child=1 2 3 -1 5 -2 7 -6 -8 -4 11 -3 -12
right_child=4 10 9 -5 6 -7 8 -9 -10 -11 12 -13 -14
leaf_value=0.024320717403349117 0.095160657872966278 -0.059953088146362257 0.0069128408793850812 -0.056462865874991233 -0.003684418250222558 -0.03370663956042378 0.051265293352838921 -0.062305090689783835 0.0032006325315454671 0.092856993999444928 -0.0064676306816463048 0.039128572714439355 -0.048995403741695691
leaf_weight=8.7143802875652963 10.754655484110119 6.3805619440972796 6.2894966732710582 10.012625709176062 106.53754278458655 8.0135483499616367 11.582024658098815 21.473275741562247 641.40594964381307 6.7805215809494257 14.474784623831509 9.4769036043435317 41.468835883773863
leaf_count=150 133 100 98 181 917 88 85 215 5066 98 264 129 929
internal_value=-0.000163692 -0.017543 0.0100543 -0.0188712 0.00208754 0.0401376 0.00117316 -0.0135178 0.00405315 0.0514993 -0.0297644 -0.000738875 -0.0379918
internal_weight=903.365 103.598 31.797 18.727 799.767 18.7682 780.999 128.011 652.988 13.07 71.8011 15.8575 55.9436
internal_count=8453 1949 527 331 6504 221 6283 1132 5151 196 1422 229 1193
is_linear=0
shrinkage=0.077797


Tree=55
num_leaves=15
num_cat=7
split_feature=17 11 0 7 21 17 11 0 0 11 11 7 21 6
split_gain=4.21684 4.38443 3.38257 3.80587 3.73879 2.72447 5.62088 9.46674 5.21296 11.636 6.2354 4.42379 2.41586 1.20331
threshold=0.05850000000000001 0 1 12.900000000000002 3.6605958367814635 0.33150000000000007 2 3 4 5 6 10.450000000000001 6.6931136723846096 1.0000000180025095e-35
decision_type=2 1 9 2 2 2 1 9 9 1 1 2 2 2
left_child=1 2 3 -1 -4 6 7 -2 10 -10 -7 -8 13 -3
right_child=5 12 4 -5 -6 8 11 -9 9 -11 -12 -13 -14 -15
leaf_value=0.017333133676052118 -0.016276397383798043 -0.060247885024802064 0.043436158521152145 0.11818009927701771 -0.060881276859604996 -0.0018046939416006117 0.0092043677259265131 0.016153709039056659 0.014634989900751414 -0.022765936116566608 0.032892562399324358 -0.014262729424867315 0.018999834946096732 -0.0082447708321813067
leaf_weight=4.5638054441660625 69.547633977606893 23.461695189122118 2.8946664454415458 4.4964053379371762 7.3833921919576824 58.201543778181076 61.054631403647363 171.27874173782766 104.9581339135766 79.731529451906681 70.223944015800953 238.69134967587888 3.0347667140886179 3.0422673327848306
leaf_count=133 785 701 53 91 259 265 631 1672 465 366 317 2543 74 98
internal_value=-0.000163751 -0.0223874 0.00977268 0.0320296 -0.0159669 0.00110864 -0.00223623 0.00651277 0.00688334 -0.00185121 0.0181736 -0.00917662 -0.0349263 -0.0542787
internal_weight=902.565 48.877 19.3383 9.06021 10.2781 853.688 540.572 240.826 313.115 184.69 128.425 299.746 29.5387 26.504
internal_count=8453 1409 536 224 312 7044 5631 2457 1413 831 582 3174 873 799
cat_boundaries=0 1 2 3 4 5 6 7
cat_threshold=25746 131398 199404 4068352 7221260 192514 155846
is_linear=0
shrinkage=0.077797


Tree=56
num_leaves=12
num_cat=0
split_feature=13 13 17 2 15 8 4 4 2 3 3
split_gain=5.31942 4.30378 4.72543 3.6863 3.32798 3.12683 2.82924 5.36751 3.98678 0.223256 0.173822
threshold=-1.3083333333333331 1.944166666666667 0.05850000000000001 6.8350000000000009 0.05333333333333324 15.500000000000002 35.650000000000006 23.435000000000006 3.0950000000000002 35.105000000000011 34.955000000000005
decision_type=2 2 2 2 2 2 2 2 2 2 2
left_child=6 2 5 -3 -4 -2 7 10 -9 -8 -1
right_child=1 3 4 -5 -6 -7 9 8 -10 -11 -12
leaf_value=-0.08763913585290567 -0.011423642169285682 0.046603848747681885 0.0025467375959548114 0.0018453060590452835 -0.015614099243778648 -0.057999938846450647 -0.087521170135588883 0.050905023916027817 -0.029618044099544737 -0.059690934317761138 -0.062879604564116093
leaf_weight=3.6307042199187043 27.102642773650587 22.554084405303001 719.9453475670889 22.000480160117149 66.731735432520509 12.864441560581325 4.0505080814473322 6.8296325006522229 8.1769546428695303 3.0645166267640889 3.2543342555873096
leaf_count=103 757 110 5560 121 742 369 108 217 181 95 90
internal_value=-0.00014137 0.000949856 -0.000319596 0.0245026 0.0010062 -0.0264154 -0.0329157 -0.0190642 0.00702873 -0.0755344 -0.0759361
internal_weight=900.205 871.199 826.644 44.5546 786.677 39.9671 29.0067 21.8916 15.0066 7.11502 6.88504
internal_count=8453 7659 7428 231 6302 1126 794 591 398 203 193
is_linear=0
shrinkage=0.077797


Tree=57
num_leaves=8
num_cat=1
split_feature=21 17 11 2 15 14 14
split_gain=3.80092 4.20104 4.91655 9.69654 4.86541 3.62984 3.08229
threshold=8.689201647167037 0.05850000000000001 0 4.8050000000000006 -0.075499999999999887 16.78583333333334 -6.4616666666666616
decision_type=2 2 1 2 2 2 2
left_child=1 2 3 -1 -4 6 -3
right_child=-2 5 4 -5 -6 -7 -8
leaf_value=-0.079968271455074347 0.039321806956690193 -0.0096033822135166303 0.045647267519254464 0.048073346787044807 -0.06281500606162807 -0.034168864772562764 0.0033271589027234166
leaf_weight=4.7807459603063789 14.536143310368059 133.20518344361335 2.7921163765713599 14.248104770667849 24.18691526632756 17.91766379866749 687.09949535969645
leaf_count=260 107 1184 39 270 819 146 5628
internal_value=-0.000136824 -0.000785497 -0.0236743 0.0104257 -0.0376389 0.000470809 0.00122743
internal_weight=898.766 884.23 46.0079 19.0289 26.979 838.222 820.305
internal_count=8453 8346 1388 530 858 6958 6812
cat_boundaries=0 1
cat_threshold=25746
is_linear=0
shrinkage=0.077797


Tree=58
num_leaves=14
num_cat=1
split_feature=13 1 15 5 4 5 15 6 16 4 7 4 13
split_gain=4.77649 6.31733 7.45951 6.33577 6.36865 6.08699 6.42635 10.0942 5.44049 5.41121 3.97049 3.55691 1.89976
threshold=0.57750000000000024 0 0.046666666666667307 6.6350000000000007 39.405000000000008 6.7750000000000012 -0.036666666666667506 -1.0000000180025095e-35 1.0000000180025095e-35 47.115000000000009 9.5000000000000018 30.025000000000002 -0.07750000000000011
decision_type=2 1 2 2 2 2 2 2 2 2 2 2 2
left_child=1 2 9 -3 -5 6 7 -2 -8 -1 -7 -12 -4
right_child=5 3 12 4 -6 10 8 -9 -10 -11 11 -13 -14
leaf_value=0.0019893765830102657 -0.0174831038106593 0.066540279935571725 -0.051427413548793675 -0.02924502207309506 0.017659288988160268 0.054430394706851279 -0.027741439542353412 0.039028383319254463 0.010300013163711069 0.053560825815546165 -0.0011915369880516366 0.021839705173292531 -0.012730250612828398
leaf_weight=337.01625000499189 34.772579537704587 5.0227025719359508 18.686224035918716 119.81143476814032 20.521482578013092 15.320442527532576 73.014026034623384 42.526552766561508 33.054384455084801 12.781061951071022 65.390382325276732 106.98664934001863 13.034224674105642
leaf_count=2441 193 72 231 2647 448 97 556 239 144 93 452 728 112
internal_value=-0.000133508 -0.00489525 0.000582613 -0.01807 -0.022386 0.00662767 -0.00345341 0.013607 -0.0158865 0.00387372 0.0164762 0.0131029 -0.0355264
internal_weight=897.938 526.873 381.518 145.356 140.333 371.065 183.368 77.2991 106.068 349.797 187.697 172.377 31.7204
internal_count=8453 6044 2877 3167 3095 2409 1132 432 700 2534 1277 1180 343
cat_boundaries=0 1
cat_threshold=14
is_linear=0
shrinkage=0.077797


Tree=59
num_leaves=9
num_cat=4
split_feature=14 14 11 3 0 15 0 0
split_gain=3.04158 4.5359 6.83773 5.70028 4.73588 4.51645 12.0167 8.36013
threshold=-24.339666666666663 -6.4616666666666616 0 20.625000000000004 1 -0.038333333333333545 2 3
decision_type=2 2 1 2 9 2 9 9
left_child=-1 2 4 -4 -2 6 -3 -7
right_child=1 5 3 -5 -6 7 -8 -9
leaf_value=0.040604238706128899 0.025384891708092692 -0.01088115530909187 -0.001145472396164354 -0.049434999243734949 -0.01210184326083621 0.0074570944164256683 0.026042215622547639 -0.011444485998435262
leaf_weight=10.956652065739034 27.805062737781554 85.251887019723654 22.12795196659863 44.645794065669179 36.327078945934772 275.28953556064516 120.8000738658011 272.1061172299087
leaf_count=104 283 583 206 488 349 2836 853 2751
internal_value=-0.000133748 -0.000638469 -0.0140053 -0.0290778 0.00538274 0.00168392 0.0115013 -0.00201158
internal_weight=895.31 884.354 130.906 66.7737 64.1321 753.448 206.052 547.396
internal_count=8453 8349 1326 694 632 7023 1436 5587
cat_boundaries=0 1 2 3 4
cat_threshold=84920 7864334 46226 12629202
is_linear=0
shrinkage=0.077797


Tree=60
num_leaves=10
num_cat=0
split_feature=13 13 13 3 5 5 14 15 14
split_gain=4.4323 4.24586 4.25492 5.58463 3.86146 6.72911 10.0517 3.26196 0.984665
threshold=-1.3083333333333331 -1.1808333333333332 -0.6849999999999995 32.440000000000005 6.705000000000001 6.8250000000000011 -3.6649999999999987 0.041666666666666526 2.7033333333333354
decision_type=2 2 2 2 2 2 2 2 2
left_child=4 -2 3 -3 -1 6 -6 -4 -7
right_child=1 2 7 -5 5 8 -8 -9 -10
leaf_value=-0.087969879370073917 0.050971531465406818 0.0044257453419121792 0.0036853061754046589 -0.042236810335635859 0.12995681581669816 -0.084446855830829878 -0.022277465915778304 -0.011478897838898879 -0.028212543977322764
leaf_weight=5.664342068135741 10.119833020493386 30.496095173992217 696.53162777330726 31.617189669515938 3.6134217111393836 6.3538468526676279 9.5973389255814237 97.925202818587422 2.6792354355566204
leaf_count=134 175 439 5404 541 72 212 290 1100 86
internal_value=-0.000107776 0.00087487 0.00028301 -0.0193266 -0.0306239 -0.0160209 0.0193618 0.00181616 -0.0677676
internal_weight=894.598 866.69 856.57 62.1133 27.9082 22.2438 13.2108 794.457 9.03308
internal_count=8453 7659 7484 980 794 660 362 6504 298
is_linear=0
shrinkage=0.077797


Tree=61
num_leaves=12
num_cat=1
