tree
version=v4
num_class=1
num_tree_per_iteration=1
label_index=0
max_feature_idx=36
objective=binary sigmoid:1
feature_names=jyo_cd boat_no racer_win_rate motor_2ren boat_2ren exhibition_time tilt temperature water_temperature wind_speed wave_height wind_direction weather racer_win_rate_diff motor_2ren_diff exhibition_time_diff is_course_1 course_advantage is_inner_course is_outer_course wind_course_interaction motor_exhibition_ratio racer_course_win_rate racer_course_advantage racer_win_rate_rank racer_win_rate_zscore motor_2ren_rank motor_2ren_zscore course1_high_winrate course6_high_winrate motor_exhibition_synergy rough_outer_advantage calm_inner_advantage venue_inner_bias venue_sashi_bias race_competitiveness is_top_racer
feature_infos=[1:24] [1:6] [0.80000000000000004:8.4399999999999995] [0:90] [0:90] [6.46:7.5899999999999999] [-0.5:3] [0:19] [0:18] [0:10] [0:20] [-1:17] [1:4] [-4.0700000000000003:3.1849999999999996] [-46.544999999999995:62.5] [-0.29666666666666686:0.293333333333333] [0:1] [0.048000000000000001:0.48599999999999999] [0:1] [0:1] [-25:25] [0:12.76595744680851] [0:1] [-0.48599999999999999:0.88200000000000001] [1:61] [-2.1906661353899186:2.0373689735178355] [1:61] [-2.0985836104441962:2.219063411496486] [0:1] [0:1] [0:1] [0:1] [0:1] [0:1] [0:1] [0.3100000000000005:6.6399999999999997] [0:1]
tree_sizes=3317 3375 3388 3396 3403 3389 3394 3408 3406 3411 3404 3402 3421 3396 3436 3428 3416 3439 3430 3424 3408 3429 3437 3423 3414 3433 3438 3405 3427 3421 3408 3408 3425 3422 3438 3450 3440 3424 3433 3442 3431 3435 3432 3423 3412 3448 3401 3449 3418 3425 3411 3408 3436 3440 3417 3422 3441 3414 3436 3418 3419 3409 3417 3412 3436 3442 3426 3415 3378 3406 3402 3423 3424 3429 3428 3409 3389 3443 3415 3422 3408 3433 3437 3432 3416 3438 3414 3422 3411 3409 3422 3423 3419 3413 3402 3410 3418 3413 3398 3386 3427 3409 3403 3391 3416 3411 3416 3393 3421 3393 3418 3418 3419 3425 3404 3416 3386

Tree=0
num_leaves=31
num_cat=0
split_feature=22 13 13 1 22 13 15 0 9 35 26 22 7 15 26 13 4 26 22 3 13 7 11 14 26 11 35 4 15 14
split_gain=2096.61 358.281 218.712 113.586 78.8243 113.452 63.1202 61.0042 78.0237 60.0538 46.5433 38.5219 37.6609 34.0769 74.2191 33.9563 29.5664 29.2565 39.8834 29.2017 27.5695 26.5054 26.4674 50.0241 26.2332 66.5707 28.0991 26.2279 24.4808 50.5849
threshold=0.29165000000000002 0.062666666666666884 1.614166666666667 1.5000000000000002 0.091500000000000012 0.75749999999999995 -0.073333333333333681 3.5000000000000004 2.5000000000000004 2.9800000000000004 5.2500000000000009 0.90000000000000013 4.5000000000000009 -0.082666666666666874 58.250000000000007 1.1991666666666674 40.495000000000005 5.2500000000000009 0.49300000000000005 12.590000000000002 -0.16633333333333275 5.5000000000000009 1.5000000000000002 -1.6783333333333343 34.500000000000007 12.500000000000002 2.9050000000000007 38.915000000000006 -0.0016666666666664829 5.0916666666666686
decision_type=2 2 2 2 2 2 2 2 2 2 2 2 2 2 2 2 2 2 2 2 2 2 2 2 2 2 2 2 2 2
left_child=2 9 4 11 -1 20 21 8 -8 16 -11 13 -9 -3 15 24 19 18 -5 -2 -6 -4 23 -7 26 -26 -15 -28 29 -24
right_child=1 3 6 17 5 22 7 12 -10 10 -12 -13 -14 14 -16 -17 -18 -19 -20 -21 -22 -23 28 -25 25 -27 27 -29 -30 -31
leaf_value=-1.6263900060198386 -1.3443133151209927 -1.3234185482439795 -1.2836340678771412 -1.5096163591916112 -1.6210980357109415 -1.3818497796950964 -1.6095040993718992 -1.4285503877653982 -1.3276265221289336 -1.5142972063865388 -1.6191498523041439 -1.2927753570723191 -1.5755968510787468 -1.3991765137610939 -1.6355737018914798 -1.3486845215575167 -1.5642345868885732 -1.5852966113180027 -1.3439665765653137 -1.4837335253434876 -1.595087413166522 -1.4646315939416583 -1.553408806790856 -1.6209095504742157 -1.2836340678771414 -1.5437633625833915 -1.5064215426201628 -1.3919231860353993 -1.5873827976488524 -1.4009472792152542
leaf_weight=489.99879741668701 4.1200246810913077 16.338028907775879 3.4096755981445295 13.496632575988775 221.06063461303711 6.1090021133422852 3.8358850479125959 4.830373764038085 6.8193511962890625 21.026332855224609 21.31047248840332 10.939375877380369 44.183712959289551 37.648501396179199 3.2676057815551749 29.976731300354004 10.513166427612303 6.9614210128784171 4.9724435806274405 42.478875160217285 188.95285606384277 4.9724435806274414 36.511942863464355 3.4096755981445295 9.944887161254881 3.2676057815551749 15.485610008239748 7.3876304626464835 34.238825798034668 6.3931417465209952
leaf_count=3449 29 115 24 95 1556 43 27 34 48 148 150 77 311 265 23 211 74 49 35 299 1330 35 257 24 70 23 109 52 241 45
internal_value=-1.57487 -1.44745 -1.60618 -1.40105 -1.61216 -1.59812 -1.51949 -1.53753 -1.4291 -1.52195 -1.56708 -1.3827 -1.56111 -1.39068 -1.40095 -1.39355 -1.48849 -1.49794 -1.46502 -1.47141 -1.60911 -1.39101 -1.54615 -1.46748 -1.4118 -1.34797 -1.42573 -1.46944 -1.55585 -1.53069
internal_weight=1313.86 259.135 1054.73 159.686 986.675 496.676 68.0514 59.6693 10.6552 99.4489 42.3368 134.256 49.0141 123.317 106.979 103.711 57.1121 25.4305 18.4691 46.5989 410.013 8.38212 86.6626 9.51868 73.7342 13.2125 60.5217 22.8732 77.1439 42.9051
internal_count=9248 1824 7424 1124 6945 3496 479 420 75 700 298 945 345 868 753 730 402 179 130 328 2886 59 610 67 519 93 426 161 543 302
is_linear=0
shrinkage=1


Tree=1
num_leaves=31
num_cat=0
split_feature=1 13 13 23 13 2 15 1 0 9 26 3 2 8 3 3 24 25 26 13 25 11 24 26 20 5 7 23 7 24
split_gain=1665.16 260.498 219.325 99.9394 67.6074 54.9019 50.4314 47.44 41.2253 44.3091 36.3098 49.6639 31.2692 29.2669 28.3355 39.2782 63.4735 27.1186 27.7948 31.8489 26.6244 25.5083 39.9496 30.5946 22.8684 22.3554 22.2921 21.2333 20.6061 20.454
threshold=1.5000000000000002 0.062666666666666884 0.83750000000000002 0.14565000000000003 1.7125000000000001 4.2250000000000005 -0.10166666666666611 4.5000000000000009 3.5000000000000004 1.5000000000000002 16.250000000000004 12.590000000000002 6.9750000000000005 12.500000000000002 1.0000000180025095e-35 28.690000000000001 3.2500000000000004 1.6537134272300904 37.250000000000007 2.1335000000000002 0.10228348209270383 1.5000000000000002 16.250000000000004 58.250000000000007 1.7500000000000002 6.7650000000000006 8.8500000000000014 0.018000000000000019 9.8000000000000025 1.2500000000000002
decision_type=2 2 2 2 2 2 2 2 2 2 2 2 2 2 2 2 2 2 2 2 2 2 2 2 2 2 2 2 2 2
left_child=1 5 3 20 6 13 -4 21 9 -6 25 -12 14 -1 -3 16 -16 18 19 -10 -2 22 -8 27 -22 -7 -5 -23 -28 -19
right_child=2 12 4 26 8 10 7 -9 17 -11 11 -13 -14 -15 15 -17 -18 29 -20 -21 24 23 -24 -25 -26 -27 28 -29 -30 -31
leaf_value=-0.026915445473093019 -0.047636028294621408 0.20963688910437339 0.1628064617037881 -0.014464845000209538 -0.027714137874345058 0.15195900208265745 -0.0053116344848289313 -0.040004184339144509 0.0040278830383117066 0.18769145999606851 0.15381293611597646 -0.060391103170372711 0.21039549185027304 0.095286247263113952 0.14325069236329779 0.15417037552544036 -0.035490559002599939 0.04836006646819821 -0.060578787153816128 0.10373835369879605 -0.016593293215252335 -0.0065630234585673519 0.18954745377201487 0.12834256201242458 -0.047663671584546131 0.074590948977268465 0.17615747461748882 0.07747730040943894 0.049737036115560553 0.22850026951537294
leaf_weight=25.314822003245357 559.31058026850224 16.675132215023041 4.6790278255939475 11.852399155497549 3.0826674401760092 15.016938433051108 5.3595948368310911 57.785822778940201 19.330739006400108 10.584508031606672 3.9333665221929541 8.6718111485242826 24.507740646600723 6.0755181461572638 13.856108114123346 91.154364019632339 7.7421157956123343 3.205627739429473 7.6252695173025122 13.673190698027609 159.74942120909691 79.758524522185326 5.1653413325548172 5.0132415145635596 94.110583066940308 24.68432380259037 3.7871388196945217 8.2978727668523771 21.649983361363411 3.0992923825979233
leaf_count=177 4059 101 31 81 22 101 36 419 134 66 25 61 150 41 87 572 52 22 53 94 1143 558 33 34 683 166 25 56 146 20
internal_value=0.000207322 0.120007 -0.0262226 -0.0378704 0.0174813 0.0490108 0.000984963 -0.00370685 0.0626846 0.139106 0.0803819 0.00644992 0.158608 -0.00326363 0.148802 0.139805 0.079179 0.0404307 0.0254587 0.0453369 -0.0415408 0.0165401 0.0903197 0.00819657 -0.0281117 0.103855 0.0421699 0.0013564 0.0685588 0.136911
internal_weight=1314.75 237.632 1077.12 850.46 226.661 83.6968 166.059 161.38 60.6013 13.6672 52.3064 12.6052 153.935 31.3903 129.428 112.753 21.5982 46.9341 40.6292 33.0039 813.171 103.595 10.5249 93.0696 253.86 39.7013 37.2895 88.0564 25.4371 6.30492
internal_count=9248 1533 7715 6137 1578 571 1167 1136 411 88 353 86 962 218 812 711 139 323 281 228 5885 717 69 648 1826 267 252 614 171 42
is_linear=0
shrinkage=0.05


Tree=2
num_leaves=31
num_cat=0
split_feature=22 25 25 22 1 15 35 25 7 22 25 4 24 14 25 26 25 15 6 1 35 5 27 22 26 23 7 35 14 7
split_gain=1526.51 176.447 160.232 95.81 52.6762 51.7322 43.5398 44.4309 41.2462 38.2642 38.9722 37.0947 35.7845 30.7114 24.7776 23.4135 22.9489 24.6939 22.6369 32.5304 38.0204 28.9799 22.4272 22.304 22.0457 27.1221 21.4554 20.9293 20.8291 19.0649
threshold=0.29165000000000002 0.093145504318758052 0.7416763420890552 0.05850000000000001 1.5000000000000002 -0.098333333333333148 2.5750000000000006 1.4550716963810513 8.1000000000000014 0.05850000000000001 0.10228348209270383 26.160000000000004 5.7500000000000009 -12.757499999999999 -1.9745851507043575 16.250000000000004 1.1896652021290126 -0.073333333333333681 -1.0000000180025095e-35 2.5000000000000004 2.8050000000000002 6.7950000000000008 -1.5527146556139189 0.63335000000000008 5.2500000000000009 0.35400000000000004 7.4000000000000012 3.2150000000000003 -7.863333333333336 8.8500000000000014
decision_type=2 2 2 2 2 2 2 2 2 2 2 2 2 2 2 2 2 2 2 2 2 2 2 2 2 2 2 2 2 2
left_child=2 8 9 22 16 29 -7 18 13 -1 14 -9 -13 -2 -11 -15 17 -3 -8 21 -21 -20 -4 -10 25 27 -18 -6 -12 -5
right_child=1 4 3 5 24 6 7 11 23 10 28 12 -14 15 -16 -17 26 -19 19 20 -22 -23 -24 -25 -26 -27 -28 -29 -30 -31
leaf_value=-0.056078636588739683 0.12119431334218922 0.17592648063169516 0.077916458018255141 0.19697530911684868 -0.0027135087097998863 -0.012471475401621933 -0.002603271990773546 -0.035135321730029187 0.065438876390105247 0.097006516778413876 -0.04984534223608373 0.040701627240180061 0.18902218402170504 0.034394585449925574 -0.042814987136863131 -0.044715336656773061 0.20609239281822203 0.11499732055180566 0.17982192924623808 0.17940342852502689 -0.0080416092918024779 0.022328039655331762 -0.05105541666909838 0.18367551608350299 -0.011879243826149154 0.18304370140156162 0.14033673417874298 0.11860366414181822 -0.0035022177418716732 0.053640521799494592
leaf_weight=254.56300421059132 5.4258982241153708 20.284885048866272 3.5620700120925894 5.756733685731886 7.639492750167852 62.864998921751976 40.492379322648048 3.9014043658971813 60.803627863526344 3.1968090534210196 29.710426598787308 6.377782180905343 11.221991449594498 18.275866717100143 357.57133691012859 19.156364396214485 20.411626666784286 92.282181277871132 7.44367967545986 3.1276754885911968 20.030465319752693 4.8071469068527222 62.754335016012192 4.2685900926589957 7.1510201394557944 5.6629068255424491 31.626956403255463 6.6494329869747162 131.82578682899475 3.8858747780323029
leaf_count=1909 34 112 23 35 50 449 282 27 391 24 215 43 64 122 2674 136 112 537 48 22 141 33 459 27 49 33 178 43 951 25
internal_value=0.000104166 0.0992463 -0.0292187 0.00684158 0.128035 0.0267351 0.0199678 0.0409046 0.0481102 -0.0401838 -0.0324369 0.104353 0.135274 0.0100237 -0.041576 -0.00609081 0.138671 0.125977 0.022931 0.0521311 0.0172742 0.118022 -0.0441279 0.0731949 0.0634445 0.0904417 0.166129 0.0537421 -0.0120258 0.139213
internal_weight=1312.73 299.639 1013.09 236.227 191.709 169.91 160.268 97.4025 107.93 776.867 522.304 21.5012 17.5998 42.8581 360.768 37.4322 164.606 112.567 75.9013 35.409 23.1581 12.2508 66.3164 65.0722 27.1029 19.9518 52.0386 14.2889 161.536 9.64261
internal_count=9248 1824 7424 1651 1114 1169 1109 660 710 5773 3864 134 107 292 2698 258 939 649 526 244 163 81 482 418 175 126 290 93 1166 60
is_linear=0
shrinkage=0.05


Tree=3
num_leaves=31
num_cat=0
split_feature=16 13 13 19 15 2 25 35 13 19 25 26 3 13 12 3 15 26 25 15 11 24 13 15 35 24 24 11 7 15
split_gain=1228.19 191.318 152.068 53.2417 45.9739 43.168 36.4442 55.4227 32 29.5562 42.8242 24.3089 40.7434 23.0282 22.6156 23.7725 20.824 18.6524 18.1289 19.6443 18.087 42.8523 23.3444 21.052 24.2387 51.4697 18.7273 17.8601 37.4185 26.3792
threshold=1.0000000180025095e-35 0.83750000000000002 0.062666666666666884 1.0000000180025095e-35 -0.084999999999999507 4.2250000000000005 1.2143672538523702 3.0200000000000005 -0.16633333333333275 1.0000000180025095e-35 -0.52164825851874908 16.250000000000004 12.590000000000002 1.7391666666666674 1.5000000000000002 30.955000000000002 0.013333333333333199 5.7500000000000009 1.1896652021290126 -0.073333333333333681 1.5000000000000002 16.250000000000004 1.614166666666667 -0.0033333333333334099 3.225000000000001 5.7500000000000009 2.7500000000000004 13.500000000000002 6.9000000000000012 -0.020833333333333034
decision_type=2 2 2 2 2 2 2 2 2 2 2 2 2 2 2 2 2 2 2 2 2 2 2 2 2 2 2 2 2 2
left_child=1 8 5 6 -5 17 20 -8 -1 10 -10 -7 -13 -9 15 -15 27 -2 19 -4 21 -3 -23 24 25 -22 -26 -12 29 -29
right_child=2 3 18 4 -6 11 7 13 9 -11 16 12 -14 14 -16 -17 -18 -19 -20 -21 23 22 -24 -25 26 -27 -28 28 -30 -31
leaf_value=-0.045056638892408095 0.028118020352236997 -0.025953938403856826 0.1533319216860157 0.1168613510318364 -0.02946634434182395 0.085261346204774033 -0.00071208979380871381 0.1776256681935614 0.23855513619302371 -0.045149335121872601 -0.014646617464339982 0.12965090189681547 -0.059533453657388186 -0.034048622997532578 0.16008286938460134 0.086412872598057661 -0.034358932198272116 -0.049031719354042526 0.14499828187853486 0.10151880147726307 0.025297983079766537 0.21560171879151158 0.045842196225151524 -0.021993374056032994 0.037822785782049999 0.23071539575924424 -0.047622609253510917 0.051083951930853737 0.0013488970385710064 0.25242675200032921
leaf_weight=445.75353392958641 18.338273301720619 7.1513040661811802 22.302259653806686 5.8067378103733054 71.014215663075447 44.101089373230934 20.807391628623009 7.8277510702610007 1.6547033488750447 121.75550262629986 106.17160202562809 4.367033749818801 8.1706931591033918 5.504449322819716 6.818800061941146 16.00192192196846 98.322698906064034 13.677818104624746 56.507661193609238 101.77415646612644 12.132706791162493 4.6313051581382751 3.5987760722637177 39.058743074536324 14.090729698538782 4.0731642842292777 11.768417745828627 4.0407397001981735 28.547533079981804 2.7230835705995551
leaf_count=3436 119 49 113 35 527 267 144 45 10 936 775 25 61 37 37 98 723 99 290 559 82 26 21 276 94 24 83 29 208 20
internal_value=2.21771e-05 -0.024634 0.0951943 0.0155746 -0.0184057 0.0415642 0.0325842 0.0642995 -0.03608 -0.0250635 -0.0149353 0.0677959 0.00636162 0.101716 0.0807383 0.0555813 -0.0166844 -0.00484166 0.121523 0.110832 0.0138649 0.0635761 0.141371 0.0044395 0.0289833 0.0769274 -0.00106315 -0.0044016 0.0264024 0.132144
internal_weight=1308.49 1039.26 269.239 230.286 76.821 88.6549 153.465 56.9603 808.969 363.216 241.46 56.6388 12.5377 36.1529 28.3252 21.5064 239.806 32.0161 180.584 124.076 96.5051 15.3814 8.23008 81.1238 42.065 16.2059 25.8591 141.483 35.3114 6.76382
internal_count=9248 7715 1533 1578 562 571 1016 361 6137 2701 1765 353 86 217 172 135 1755 218 962 672 655 96 47 559 283 106 177 1032 257 49
is_linear=0
shrinkage=0.05


Tree=4
num_leaves=31
num_cat=0
split_feature=1 13 13 23 1 15 2 25 13 23 25 8 20 25 11 14 15 23 23 3 3 24 25 7 24 13 5 20 13 15
split_gain=1071.54 177.785 121.984 85.4982 47.2229 39.9409 36.6609 30.9576 30.018 25.857 24.9611 23.3335 21.0262 20.4345 22.7909 29.7595 23.1636 18.2049 17.812 17.4367 19.6672 18.2446 17.2908 17.1167 16.8965 28.1775 16.6097 16.528 16.1106 16.0725
threshold=1.5000000000000002 0.83750000000000002 0.062666666666666884 0.14565000000000003 4.5000000000000009 -0.084999999999999507 4.2250000000000005 1.2143672538523702 1.614166666666667 -1.0000000180025095e-35 0.10228348209270383 14.500000000000002 1.7500000000000002 1.1571045713753996 1.5000000000000002 -1.7508333333333341 0.010833333333333252 0.50135000000000007 -1.0000000180025095e-35 29.430000000000003 38.335000000000008 5.7500000000000009 1.2793219817802879 8.8500000000000014 37.250000000000007 -0.12250000000000004 6.7650000000000006 -1.7499999999999998 -3.6919999999999997 0.051666666666666312
decision_type=2 2 2 2 2 2 2 2 2 2 2 2 2 2 2 2 2 2 2 2 2 2 2 2 2 2 2 2 2 2
left_child=2 3 6 10 7 -6 11 9 22 -3 28 -1 18 14 15 -11 -16 -4 -12 27 21 -21 -9 -5 26 -26 -8 -10 -2 -20
right_child=1 4 17 23 5 -7 24 8 19 13 12 -13 -14 -15 16 -17 -18 -19 29 20 -22 -23 -24 -25 25 -27 -28 -29 -30 -31
leaf_value=-0.023327791780061613 0.046561895384820154 -0.055423615500225357 0.10424478576377508 -0.013456059731978241 0.10396077903261938 -0.028573608577707934 0.10916261491634281 0.11191699411191219 -0.061070039664350088 0.16395403546810242 -0.056653215550115682 0.093249945955821575 -0.045411384403360615 -0.054384540750238776 0.041496424332100386 0.007727843372184318 -0.020422831604308841 0.15963586794292609 -0.00078059565403663489 0.075362398453100027 0.046151174581684204 0.17283129750378676 -0.010713245851895078 0.059005916464276102 0.12229226781388398 -0.059658335679156564 0.049933232873930672 0.079587019176128773 -0.046052444458384606 -0.051247973612096057
leaf_weight=26.778683036565784 4.7397367954254142 12.084574893116949 174.85318721830845 11.651716426014898 6.1901445388793936 69.607605502009392 19.79796601831913 3.4595891237258938 3.5118928849697113 6.7069744616746902 21.648404628038406 5.1116074919700614 86.343371756374836 7.8009537011384955 41.043763965368271 5.5880535244941694 23.898860216140747 16.208782076835632 114.40708716213703 8.2425802201032674 10.028573796153067 11.499095603823662 16.995866701006889 27.11479414999485 3.1952705085277557 6.3693607449531537 29.43497696518898 5.1529619395732862 504.73372951894999 18.29960510134697
leaf_count=187 37 90 885 81 35 527 112 23 24 36 168 31 683 54 269 35 171 77 838 49 61 56 118 171 19 48 174 30 4022 137
internal_value=-4.26401e-05 -0.023869 0.0862778 -0.0351801 0.0146267 -0.01775 0.0385247 0.0303566 0.0589595 0.0130132 -0.0389218 -0.00464186 -0.0256526 0.0227386 0.0305279 0.0929497 0.0187102 0.108944 -0.0145999 0.0850018 0.103171 0.132136 0.010027 0.0372266 0.0619371 0.00112617 0.0737511 0.0225783 -0.0451908 -0.0077398
internal_weight=1302.5 1020.75 281.75 788.938 231.811 75.7978 90.6879 156.014 58.8906 97.1232 750.172 31.8903 240.698 85.0386 77.2377 12.295 64.9426 191.062 154.355 38.4351 29.7702 19.7417 20.4555 38.7665 58.7976 9.56463 49.2329 8.66485 509.473 132.707
internal_count=9248 7715 1533 6137 1578 562 571 1016 361 655 5885 218 1826 565 511 71 440 962 1143 220 166 105 141 252 353 67 286 54 4059 975
is_linear=0
shrinkage=0.05


Tree=5
num_leaves=31
num_cat=0
split_feature=22 25 25 22 21 25 35 20 14 4 26 25 26 2 22 26 26 3 26 14 4 22 15 5 20 26 4 25 3 20
split_gain=1092.9 123.878 101.822 96.8179 44.2174 33.2534 30.5711 24.6219 23.9222 41.0126 28.7031 21.9716 22.9923 21.6855 21.2204 19.6251 18.9543 18.9216 23.7099 24.1547 18.1583 17.9489 17.2356 24.3113 16.7954 21.3314 16.0656 17.9938 15.6706 38.5511
threshold=0.29165000000000002 0.32368713641665264 0.30177896084235711 0.05850000000000001 6.1323642664613027 1.4550716963810513 2.8450000000000011 3.7500000000000004 -2.6108333333333333 36.740000000000002 47.750000000000007 1.5295311861536307 16.250000000000004 4.285000000000001 0.40965000000000001 42.500000000000007 58.250000000000007 1.0000000180025095e-35 4.2500000000000009 0.56000000000000238 30.680000000000003 0.05850000000000001 -0.013333333333334084 6.6550000000000011 4.2500000000000009 4.7500000000000009 32.070000000000007 0.058039960115096371 29.295000000000005 -6.7499999999999991
decision_type=2 2 2 2 2 2 2 2 2 2 2 2 2 2 2 2 2 2 2 2 2 2 2 2 2 2 2 2 2 2
left_child=1 21 13 16 5 7 -7 28 9 -4 15 12 24 22 -15 -11 -3 -16 -19 20 -20 -1 23 -2 25 -6 -22 -28 29 -5
right_child=2 3 8 4 11 6 -8 -9 -10 10 -12 -13 -14 14 17 -17 -18 18 19 -21 26 -23 -24 -25 -26 -27 27 -29 -30 -31
leaf_value=-0.055488118158237593 -0.035306279537660842 -0.049669031804769809 0.10835565613106271 0.14811889449578317 0.058668715436050456 -0.016707531439724199 0.090366188896806865 -0.051351570267028482 0.11407146173055618 0.033884728807673813 -0.063397009014538583 -0.040213835083224549 0.15073047726282793 0.012737328368929266 0.13867303752265231 0.1459739731933439 0.063848086524572217 0.087070749265357877 -0.01252938060966358 -0.025988202414786016 0.16292947355752704 -0.036601676379073564 -0.017060032041239303 0.083283935071952253 0.14212840400200888 -0.060543962683943457 0.007893053329502785 0.11537441020970135 -0.010129625840684962 0.0090281588822134409
leaf_weight=187.14193276315928 6.2029954940080669 105.38760212063789 44.071491956710815 5.4450902491807929 18.774216301739223 10.421657383441927 18.499953359365463 25.61170407384634 118.33362451195717 18.455694973468788 6.1992449909448615 4.94202896952629 7.3943138271570197 21.767091602087021 8.5215206295251829 4.9530323147773734 3.8102053701877585 40.625419691205025 6.7058018147945431 12.153258867561815 4.7430206686258343 383.78455464541912 21.148431688547134 14.249033048748968 4.3193574622273436 4.6898031383752814 8.3717750608921033 7.2803557962179175 112.45593678951263 58.541491582989693
leaf_count=1553 47 843 217 35 129 76 99 199 579 95 38 35 43 136 40 22 22 218 40 79 24 3102 139 86 26 33 51 36 791 410
internal_value=-0.000452178 -0.028066 0.0759533 -0.0059576 0.010054 0.00163807 0.0517831 -0.00553958 0.100146 0.0777796 0.0322672 0.0585057 0.0723746 0.0453461 0.0569602 0.0576016 -0.0457081 0.0678493 0.0602938 0.0325815 0.0588468 -0.0427924 0.0145892 0.0473161 0.0515209 0.0348414 0.0823148 0.0578864 0.00111031 0.0208644
internal_weight=1295 951.22 343.782 380.293 271.096 230.976 28.9216 202.054 192.013 73.6795 29.608 40.1197 35.1777 151.769 110.168 23.4087 109.198 88.4012 79.8796 39.2542 27.101 570.926 41.6005 20.452 27.7834 23.464 20.3952 15.6521 176.443 63.9866
internal_count=9243 7396 1847 2741 1876 1610 175 1435 951 372 155 266 231 896 624 117 865 488 448 230 151 4655 272 133 188 162 111 87 1236 445
is_linear=0
shrinkage=0.05


Tree=6
num_leaves=31
num_cat=0
split_feature=22 25 22 25 14 1 25 15 22 23 20 26 3 22 26 2 3 20 20 15 26 11 26 15 26 22 26 26 26 35
split_gain=969.48 117.873 90.0921 84.7147 39.2319 28.6748 22.1853 21.2525 20.5158 20.2958 18.1458 18.0949 22.4052 17.9388 17.5501 17.4004 17.181 29.8475 25.833 20.7603 29.846 16.3315 16.1511 31.9134 15.4636 15.2304 17.0051 20.9973 15.1496 14.5571
threshold=0.29165000000000002 0.32368713641665264 0.05850000000000001 0.30177896084235711 4.6175000000000024 2.5000000000000004 1.4747344024509157 -0.073333333333333681 0.40965000000000001 0.41900000000000009 3.7500000000000004 26.750000000000004 31.595000000000002 0.05850000000000001 58.250000000000007 4.285000000000001 29.295000000000005 -6.7499999999999991 1.2500000000000002 0.031666666666666739 8.0000000000000018 1.5000000000000002 47.750000000000007 -0.038333333333333545 5.7500000000000009 0.40965000000000001 37.250000000000007 16.250000000000004 16.250000000000004 2.2050000000000005
decision_type=2 2 2 2 2 2 2 2 2 2 2 2 2 2 2 2 2 2 2 2 2 2 2 2 2 2 2 2 2 2
left_child=1 13 14 9 6 28 10 -7 29 15 16 -8 -13 -1 -3 24 17 -4 21 20 -20 -19 -10 -24 -2 -17 27 -27 -6 -5
right_child=3 2 4 8 5 7 11 -9 22 -11 -12 12 -14 -15 -16 25 -18 18 19 -21 -22 -23 23 -25 -26 26 -28 -29 -30 -31
leaf_value=-0.054938010074951055 0.033635117054394086 -0.04892593709375271 0.12480084364286557 -0.013284211475537867 0.068076298890742279 0.094211689576139387 0.0031219940050399293 0.0050184004054399847 0.10197763189134051 0.13491626022856204 -0.049543867716505728 0.017179803439171082 0.159264085014761 -0.035717074190304114 0.0587462799443422 0.012007991823983759 -0.01390838092306361 0.069948968204635475 0.036925480357158487 -0.043905067907618785 0.20984715199156972 -0.021758379663337917 0.1424179767110389 -0.023726210242175937 -0.03031550464539259 0.05922290192337714 0.1077123676125287 -0.020763398596133756 0.1682220249968851 0.071894107469462024
leaf_weight=179.75233107805252 26.77747817337513 101.73189076781273 6.0597661286592475 6.6527689993381527 13.691004335880281 8.2415985167026502 12.239972382783892 35.216152600944042 160.42943494021893 5.6799087673425666 21.754800751805305 5.3231050521135312 5.7952353656291962 373.87956766784191 3.9307633638381949 21.930383205413818 100.24550513923168 5.5449436902999869 6.7085274234414083 3.2017719000577918 3.9732141345739365 38.996154874563217 4.7839429676532745 7.3018116503953916 14.610564708709715 61.755726456642151 14.670642383396624 9.4620105698704702 5.2147531956434241 20.387545242905617
leaf_count=1553 163 843 36 38 88 46 81 253 738 31 175 31 27 3102 22 136 707 33 49 24 22 279 21 44 106 322 75 63 25 110
internal_value=-0.000483554 -0.0272635 -0.00573439 0.0698961 0.00947649 0.044296 -0.000871559 0.0219336 0.0914315 0.0421501 -0.00662535 0.0450647 0.0912387 -0.0419577 -0.0449204 0.0386187 -0.000957383 0.0191759 0.00822049 0.0677717 0.101246 -0.0103417 0.0977786 0.0420392 0.0110596 0.0491977 0.0586936 0.0485959 0.0956994 0.0509376
internal_weight=1285.94 931.501 377.869 354.442 272.207 62.3635 209.843 43.4578 199.556 154.887 186.485 23.3583 11.1183 553.632 105.663 149.207 164.73 64.4844 58.4246 13.8835 10.6817 44.5411 172.515 12.0858 41.388 107.819 85.8884 71.2177 18.9058 27.0403
internal_count=9243 7396 2741 1847 1876 412 1464 299 951 896 1325 139 58 4655 865 865 1150 443 407 95 71 312 803 65 269 596 460 385 113 148
is_linear=0
shrinkage=0.05


Tree=7
num_leaves=31
num_cat=0
split_feature=22 25 22 25 14 22 20 4 11 6 35 24 25 3 4 24 27 22 20 24 35 25 3 7 14 3 3 24 26 22
split_gain=864.946 111.277 80.5659 69.9979 34.4261 30.5898 24.3892 25.6075 23.6212 27.2068 23.0699 40.9691 20.9238 20.121 19.8879 28.8485 17.9716 16.6411 16.2913 16.2274 15.5844 15.3462 15.9688 24.2427 19.3587 15.9498 20.8928 25.4732 15.1367 18.941
threshold=0.22500000000000003 0.30177896084235711 0.05850000000000001 0.049192188397117538 4.7083333333333366 0.40965000000000001 -3.7499999999999996 30.445000000000004 2.5000000000000004 1.0000000180025095e-35 2.475000000000001 10.500000000000002 1.4747344024509157 29.825000000000003 39.445000000000007 7.0000000000000009 -1.5840780121234712 0.05850000000000001 3.7500000000000004 5.2500000000000009 6.0450000000000008 0.63492305173388419 18.275000000000002 5.5000000000000009 -6.1116666666666655 31.230000000000004 28.215000000000003 3.2500000000000004 26.750000000000004 0.11600000000000001
decision_type=2 2 2 2 2 2 2 2 2 2 2 2 2 2 2 2 2 2 2 2 2 2 2 2 2 2 2 2 2 2
left_child=1 17 16 10 12 -5 -6 -8 -9 -10 14 13 18 -12 15 -2 -3 -1 -4 -19 -21 22 -7 -24 -25 26 -23 -28 -14 -30
right_child=3 2 4 5 6 21 7 8 9 -11 11 -13 28 -15 -16 -17 -18 19 -20 20 -22 25 23 24 -26 -27 27 -29 29 -31
leaf_value=-0.054680336781265972 0.046059824715523084 0.06325674095738644 -0.002004522520920825 0.038008012517447967 0.10000392707433187 0.11582165036095736 -0.032334493196005697 -0.050752153881427731 0.042372686948552764 0.16811076491156804 -0.020120727894046453 -0.058934412933413338 0.0037408618559346429 0.053629795673119665 -0.0062750293108422553 0.13823885939242753 -0.047878404363352313 -0.023935492900131576 -0.048769609170340282 -0.047310601466240755 0.061917156822599378 0.095812831320541872 -4.2113563376526206e-06 0.0028487650448781334 0.086412001945631742 0.10857761125070492 0.069779732368648859 -0.067302092885943646 0.0081011121892772455 0.13833606871200024
leaf_weight=171.36536608636379 32.509239964187145 3.7754384130239478 165.86342041194439 40.18036875128746 13.558775514364241 14.673144221305845 14.194642543792723 5.1912235617637625 23.889397770166401 5.2470492571592322 12.574383951723574 15.745662219822405 12.115472830832006 34.962808236479759 10.562521345913408 11.487035810947416 99.69893791526556 160.3729142844677 20.978651203215122 190.43645934760571 3.3225782364606848 31.188629865646362 14.117575973272322 8.1803506314754468 45.375256478786469 87.2509985268116 10.263013690710066 5.0596969574689856 4.7984573096036893 6.6760671734809875
leaf_count=1542 180 22 1166 229 73 64 101 37 164 28 77 124 80 202 67 58 854 1362 175 1633 27 139 72 41 212 383 46 27 29 29
internal_value=-0.000506512 -0.0270304 -0.00626253 0.063404 0.0079995 0.0780691 0.0407182 0.0241518 0.0475091 0.0650163 0.0315095 0.0109679 -0.00165308 0.0341215 0.0553356 0.0701269 -0.0438234 -0.0418896 -0.00725531 -0.0357001 -0.0454376 0.0855175 0.0685359 0.0582832 0.0736481 0.0959717 0.0723241 0.0245141 0.0427188 0.083874
internal_weight=1275.62 901.485 375.988 374.131 272.513 256.289 62.0811 48.5223 34.3277 29.1364 117.842 63.2829 210.432 47.5372 54.5588 43.9963 103.474 525.497 186.842 354.132 193.759 216.109 82.3463 67.6732 53.5556 133.762 46.5113 15.3227 23.59 11.4745
internal_count=9243 7322 2758 1921 1882 1213 403 330 229 192 708 403 1479 279 305 238 876 4564 1341 3022 1660 984 389 325 253 595 212 73 138 58
is_linear=0
shrinkage=0.05


Tree=8
num_leaves=31
num_cat=0
split_feature=22 13 13 22 15 22 24 22 13 4 15 13 35 14 15 14 14 15 5 26 13 15 15 35 35 9 35 35 25 4
split_gain=774.467 130.086 66.1658 51.2725 34.5255 32.1353 25.2577 24.1406 21.0635 20.4216 30.2205 19.9966 18.9792 16.7399 20.4765 16.7882 31.1417 23.0193 22.9309 16.7629 16.3866 15.5487 14.2698 14.0412 13.7532 13.474 24.4034 13.1835 12.3396 15.9449
threshold=0.22500000000000003 0.75749999999999995 0.062666666666666884 0.091500000000000012 -0.0899999999999994 0.05850000000000001 5.7500000000000009 0.40965000000000001 1.614166666666667 34.025000000000013 -0.0036666666666667065 2.4441666666666668 4.3050000000000015 5.6633333333333367 0.011666666666666272 -2.5499999999999932 -5.5425000000000013 -0.011666666666667156 6.7550000000000008 7.0000000000000009 -0.93833333333333357 -0.015000000000000123 0.055000000000000167 0.995 6.0450000000000008 3.5000000000000004 4.1250000000000018 2.1250000000000004 1.0916156449194796 35.655000000000008
decision_type=2 2 2 2 2 2 2 2 2 2 2 2 2 2 2 2 2 2 2 2 2 2 2 2 2 2 2 2 2 2
left_child=1 5 12 4 -3 -1 21 27 -6 -10 -11 13 20 15 -15 16 25 -18 -19 -17 -2 -7 -22 -23 -8 -5 -27 -4 29 -9
right_child=2 3 7 11 8 6 24 28 9 10 -12 -13 -14 14 -16 19 17 18 -20 -21 22 23 -24 -25 -26 26 -28 -29 -30 -31
leaf_value=-0.053864674906058008 -0.00393516563249721 0.086343221975474727 -0.020557143885601412 -0.030783265088603823 -0.04616208261111019 0.00050810139619055449 -0.04410766160119764 0.085268483953090835 -0.039005233546023976 -0.045708324287394519 0.13043762761369421 0.086722962460476533 -0.016360149247993176 0.091744278314167829 -0.01845253371089875 0.010929195322521408 0.0097446197249189646 0.15039958961894306 0.016320447097969374 -0.049154286083339729 0.052424020942667571 0.031798870691562724 -0.029690708014265162 -0.031236438335570788 0.056250749757430475 0.10828816805883966 -0.024713823636690294 0.051778385519596806 0.096104001590674948 0.051398984704737617
leaf_weight=208.942601531744 19.510100148618221 6.6376007348299018 7.8842003792524329 18.063148781657219 63.81789793074131 72.933662824332714 209.4359484910965 83.533215016126633 9.8020120933651942 3.9841781184077263 6.2622569277882558 11.932761207222937 19.527732618153095 14.773636028170587 5.8987586945295325 34.504011206328869 9.0706388652324694 10.679353460669516 4.5464752465486518 17.494390726089478 78.755421742796898 9.399323105812071 5.6717452257871619 146.98771668970585 3.4703610837459555 6.2270820289850217 7.7302018702030182 31.327287003397942 76.061401024460793 59.501472875475883
leaf_count=1948 126 35 47 123 547 597 1824 370 75 33 36 60 132 78 41 233 60 53 32 125 441 76 33 1234 27 34 51 171 325 276
internal_value=-0.000524825 -0.0262618 0.0589746 0.00593759 -0.0234295 -0.0377053 -0.0300704 0.0733655 -0.0321174 0.0125892 0.0619458 0.0247981 0.0288667 0.0190694 0.0603002 0.0112004 0.0301152 0.0727991 0.110363 -0.00928535 0.0373639 -0.0185567 0.0469076 -0.0274478 -0.0424718 -0.00227249 0.0346254 0.037234 0.079832 0.071179
internal_weight=1264.37 882.594 381.773 231.424 90.5039 651.17 442.227 258.308 83.8663 20.0484 10.2464 140.92 123.465 128.988 20.6724 108.315 56.3169 24.2965 15.2258 51.9984 103.937 229.321 84.4272 156.387 212.906 32.0204 13.9573 39.2115 219.096 143.035
internal_count=9243 7322 1921 1616 726 5706 3758 1189 691 144 69 890 732 830 119 711 353 145 85 358 600 1907 474 1310 1851 208 85 218 971 646
is_linear=0
shrinkage=0.05


Tree=9
num_leaves=31
num_cat=0
split_feature=22 13 13 22 22 24 21 27 22 13 20 23 3 13 35 25 35 20 26 13 27 0 25 14 14 9 26 25 35 26
split_gain=695.227 122.057 57.7824 46.4515 31.9472 24.4347 23.7033 23.1782 21.1602 21.1148 18.8878 18.3472 17.2942 27.654 15.5445 14.6971 16.6577 14.0757 13.1842 13.0858 13.0344 12.7655 12.2023 11.8197 12.8255 14.0418 23.388 12.4831 11.507 11.4943
threshold=0.22500000000000003 0.75749999999999995 0.062666666666666884 0.05850000000000001 0.05850000000000001 5.7500000000000009 7.4200069152750752 -1.7993346328048676 0.40965000000000001 -3.3499999999999996 3.2500000000000004 0.41900000000000009 48.070000000000007 2.3216666666666672 4.3050000000000015 0.54687333174913244 4.5150000000000015 1.0000000180025095e-35 3.7500000000000004 -0.93833333333333357 -0.21841321876942485 12.500000000000002 0.62348499241034128 -20.946666666666662 6.4020000000000019 1.5000000000000002 6.2500000000000009 -0.63809314023867425 2.1250000000000004 37.250000000000007
decision_type=2 2 2 2 2 2 2 2 2 2 2 2 2 2 2 2 2 2 2 2 2 2 2 2 2 2 2 2 2 2
left_child=1 4 11 7 -1 17 10 -3 28 -7 12 14 13 15 19 20 29 -6 -18 21 -5 -2 -20 -21 25 27 -27 -25 -4 -17
right_child=2 3 8 6 5 9 -8 -9 -10 -11 -12 -13 -14 -15 -16 16 18 -19 22 23 -22 -23 -24 24 -26 26 -28 -29 -30 -31
leaf_value=-0.053368949467391319 -0.037143343241107928 0.10957722709867079 -0.019757849570184727 0.028006016754947041 -0.006508757259390343 0.10444509089052334 0.09734817696520047 -0.042181145500047951 0.074260906577686234 -0.043421110837758722 -0.035670408404423821 0.13907865089553062 -0.063369441202714066 0.092906240478849822 -0.017645403530758188 0.012672551060740337 0.048632106254796588 -0.031556897288781381 0.045740389174636686 0.12148230853913498 0.16249593366579282 0.046962525873799357 -0.054886630261786112 0.10740067377674023 0.07841438464436469 0.029098501672597102 -0.060206473248884056 0.027434628211485464 0.047965116517473851 0.054301341757490275
leaf_weight=200.55187027901411 12.055195331573488 2.6447009295225135 7.7953063398599616 4.2785980328917503 123.55874088406563 2.4432156682014456 8.950612545013426 51.709387168288231 223.62874948978424 203.89133554697037 17.278569050133228 3.5492594987153998 6.0374819785356513 12.884934604167936 19.113614276051521 74.612158201634884 5.3330880478024509 102.70928996801376 3.585017308592799 4.230716571211814 3.1118641942739478 7.2097538858652106 18.870877988636494 8.4050271660089511 14.378155559301375 35.369331829249859 9.2483009099960309 11.637886255979536 32.10587640106678 21.320037066936493
leaf_count=1948 82 12 47 27 1024 19 44 458 971 1832 142 17 37 64 131 504 33 883 23 19 20 43 137 42 77 191 67 63 171 115
internal_value=-0.000540069 -0.0255301 0.0549892 0.00561291 -0.0368735 -0.0292264 0.0180741 -0.0347971 0.0682762 -0.0416702 0.0138332 0.0270211 0.0195343 0.0230102 0.0237516 0.0161412 0.0120498 -0.0178788 -0.0220382 0.0314685 0.084635 -0.00566739 -0.0388218 0.0400601 0.0357018 0.0262041 0.0105875 0.0609685 0.0347344 0.0219242
internal_weight=1252.5 863.772 388.727 230.617 633.154 432.603 176.263 54.3541 263.53 206.335 167.313 125.197 150.034 143.997 121.648 131.112 123.721 226.268 27.789 102.534 7.39046 19.2649 22.4559 83.2694 79.0387 64.6605 44.6176 20.0429 39.9012 95.9322
internal_count=9243 7322 1921 1616 5706 3758 1146 470 1189 1851 1102 732 960 923 715 859 812 1907 193 584 47 125 160 459 440 363 258 105 218 619
is_linear=0
shrinkage=0.05


Tree=10
num_leaves=31
num_cat=0
split_feature=22 25 22 25 27 15 22 35 22 20 15 26 2 8 24 27 26 27 15 15 26 24 27 3 3 20 22 3 35 27
split_gain=640.766 99.3181 75.9801 58.8525 33.8888 24.4277 20.6448 17.0982 22.1328 20.0857 23.0339 16.3713 15.8071 18.4864 45.8621 19.426 15.7967 14.3777 13.5616 15.1293 13.5432 13.0903 12.1856 14.0819 13.3519 12.1765 12.7663 19.406 15.207 13.6514
threshold=0.22500000000000003 0.10228348209270383 0.05850000000000001 0.33522750583885125 1.8783926891232843 0.039166666666666579 0.40965000000000001 2.475000000000001 0.55000000000000016 1.2500000000000002 0.06000000000000006 8.0000000000000018 5.6750000000000007 6.5000000000000009 26.750000000000004 0.21911039896462745 5.2500000000000009 -1.6827673445952664 0.033333333333333666 -0.073333333333333681 47.750000000000007 47.750000000000007 1.251569540587955 31.700000000000006 32.035000000000004 -6.7499999999999991 0.11600000000000001 35.250000000000007 2.5050000000000003 -0.93860803369957069
decision_type=2 2 2 2 2 2 2 2 2 2 2 2 2 2 2 2 2 2 2 2 2 2 2 2 2 2 2 2 2 2
left_child=1 -1 17 7 5 12 11 9 21 10 22 -5 -4 14 15 20 -15 -3 19 -18 -14 -9 23 -2 -25 -21 -27 28 -28 -30
right_child=3 2 4 6 -6 -7 -8 8 -10 -11 -12 -13 13 16 -16 -17 18 -19 -20 25 -22 -23 -24 24 -26 26 27 -29 29 -31
leaf_value=-0.042093159574866763 0.082824152362546852 0.056929455214255464 -0.012504307061031842 0.022006661014416597 0.099525553653209115 -0.031456740466727431 0.075180052596873437 0.015876844987631544 0.1078713056482126 -0.022585971572064847 -0.046838380911951506 0.1257184506998299 -0.059869125444067778 0.024735792983647115 0.19389124224189816 0.10219224517588665 0.058762821843414761 -0.047716816344506946 0.056498307865744717 0.043543611487931184 0.065328985725269406 -0.057725705732720567 0.12904724801891213 -0.062780034229195286 0.045362386966555826 -0.052001752540587615 -0.045093539921167915 -0.059650743322718483 -0.014432948886354463 0.076559224347465593
leaf_weight=426.18122760206461 27.874186053872108 3.3894910067319861 72.238946065306664 32.388432592153549 9.0645015835762006 47.740630716085434 188.52047011256218 90.614769078791142 6.2735271006822577 8.7690378129482252 4.84071922302246 4.3116663396358481 7.0591568797826785 86.40048685669899 4.873822681605815 4.6077414602041236 6.8673523366451255 103.81860298663378 7.9592041671276084 7.0035285651683798 3.1124504506587982 6.4724015593528739 6.9012990444898596 3.2874136120080975 21.6611318141222 26.936942853033543 6.7527845352888134 11.646631583571432 6.5213838815689078 11.203448072075846
leaf_count=4084 134 19 559 177 50 377 798 506 29 56 27 18 52 598 32 27 38 992 49 38 16 56 32 22 110 209 50 87 47 61
internal_value=-0.000499768 -0.0250154 -0.00797829 0.0515538 0.00422712 0.00144884 0.0685008 0.0299526 0.0168515 0.048418 0.0580616 0.0341911 0.0074178 0.0149548 0.0608846 0.0170226 0.00968505 -0.0444083 -0.00563327 -0.0120613 -0.0215593 0.0109701 0.0665639 0.0584005 0.0311127 -0.019003 -0.0259494 -0.00652284 0.0187558 0.0430811
internal_weight=1255.29 853.378 427.197 401.915 319.989 310.925 225.221 176.694 103.361 73.3338 64.5647 36.7001 263.184 190.945 19.6532 14.7793 171.292 107.208 84.8913 76.9321 10.1716 97.0872 59.724 52.8227 24.9485 70.0647 63.0612 36.1242 24.4776 17.7248
internal_count=9350 7385 3301 1965 2290 2240 993 972 591 381 325 195 1863 1304 127 95 1177 1011 579 530 68 562 298 266 132 492 454 245 158 108
is_linear=0
shrinkage=0.05


Tree=11
num_leaves=31
num_cat=0
split_feature=22 25 22 25 27 15 22 35 35 22 20 15 20 6 27 27 10 24 1 25 11 27 5 27 26 35 24 21 10 24
split_gain=577.894 94.6411 71.21 52.0473 29.4722 22.393 18.293 15.1945 14.9407 19.1147 17.5706 20.2222 14.6832 14.8702 14.3273 16.9257 21.9523 22.4805 16.4775 14.1041 17.4248 13.8423 16.0587 13.3811 13.0301 12.1697 12.1296 11.4837 11.3077 10.9663
threshold=0.22500000000000003 0.10228348209270383 0.05850000000000001 0.33522750583885125 1.8783926891232843 0.039166666666666579 0.40965000000000001 2.5750000000000006 2.475000000000001 0.55000000000000016 1.2500000000000002 0.06000000000000006 3.7500000000000004 -1.0000000180025095e-35 -0.69829973180066307 -0.47506635498192834 1.5000000000000002 5.7500000000000009 2.5000000000000004 1.4171117390535983 4.5000000000000009 -1.1671330507031006 6.7550000000000008 -1.6827673445952664 3.7500000000000004 3.1950000000000007 47.750000000000007 6.5090216937838976 2.5000000000000004 7.0000000000000009
decision_type=2 2 2 2 2 2 2 2 2 2 2 2 2 2 2 2 2 2 2 2 2 2 2 2 2 2 2 2 2 2
left_child=1 -1 23 8 5 12 7 -5 10 26 11 29 13 19 21 16 -16 -18 25 24 -21 22 -15 -3 -4 -17 -10 -8 -6 -2
right_child=3 2 4 6 28 -7 27 -9 9 -11 -12 -13 -14 14 15 18 17 -19 -20 20 -22 -23 -24 -25 -26 -27 -28 -29 -30 -31
leaf_value=-0.041334197768701356 0.048207415562444136 0.052976659581395739 0.015874693230269028 -0.011826801971991025 0.033675613518069698 -0.030555268163280348 0.066233555607923197 0.055372107576541221 0.014967003871719823 0.099003821790478369 -0.021760070148102727 -0.04558491854463001 -0.028874251101300336 -0.046210868450902443 -0.023540612186164888 0.0068386917051235594 0.0045105747171932074 0.14606247427751312 0.0040951655689339074 0.10048029716614436 -0.0042694123494113447 -0.030960983237698209 0.089301933589744004 -0.047058736470964896 -0.019234253098851007 0.087081311525626717 -0.057292760762026544 0.10624707843891533 0.14362687668728902 0.094882021343734982
leaf_weight=412.65191591531038 43.384384676814079 3.4584128931164733 41.321006745100021 12.874562129378317 4.4596094936132413 46.718032136559486 171.07845067977905 24.269134402275085 91.298905238509178 6.4877099096775046 8.6498662680387479 4.7280252277851096 25.733612865209579 3.3322782963514346 4.1333749219775209 7.2661262303590801 3.8569692894816408 10.282823868095873 39.835059478878975 7.3023085743188885 8.7002755850553495 18.671232633292675 6.3565025627613068 100.10150048881769 73.320103354752064 13.511514499783514 6.2020833417773238 20.030523866415024 4.9160716384649277 17.726515516638756
leaf_count=4084 214 19 299 74 25 377 716 121 506 29 56 27 225 23 31 49 28 51 278 36 58 135 39 992 534 77 56 82 25 84
internal_value=-0.000511037 -0.0242951 -0.00768379 0.048371 0.00398811 0.0013495 0.0641871 0.03208 0.028144 0.0159002 0.0452367 0.0540387 0.00700351 0.0108846 0.0246819 0.0356395 0.0778206 0.107451 0.022923 -0.000441706 0.04353 -0.00579757 0.0426948 -0.043718 -0.00657966 0.0590198 0.0103705 0.0704275 0.0913278 0.0617464
internal_weight=1242.66 835.929 423.277 406.73 319.717 310.341 228.253 37.1437 178.477 103.989 74.4888 65.8389 263.623 237.89 107.246 78.8859 18.2732 14.1398 60.6127 130.644 16.0026 28.36 9.68878 103.56 114.641 20.7776 97.501 191.109 9.37568 61.1109
internal_count=9350 7385 3301 1965 2290 2240 993 195 972 591 381 325 1863 1638 711 514 110 79 404 927 94 197 62 1011 833 126 562 798 50 298
is_linear=0
shrinkage=0.05


Tree=12
num_leaves=31
num_cat=0
split_feature=22 13 13 22 22 13 13 15 27 22 26 35 4 25 15 26 9 14 11 15 26 26 4 13 9 33 15 11 5 25
split_gain=522.099 98.5141 49.7421 45.0916 30.9452 26.1027 24.0844 22.4183 23.2669 17.1673 16.772 24.7634 31.7938 16.3881 15.5797 13.6164 13.1818 34.3518 63.8305 17.0054 17.9477 13.083 17.5697 12.9516 12.5525 12.2161 11.2017 11.1872 13.4768 10.787
threshold=0.22500000000000003 0.75749999999999995 0.062666666666666884 0.091500000000000012 0.05850000000000001 -0.30416666666666664 1.614166666666667 0.013333333333333199 1.8783926891232843 0.40965000000000001 5.7500000000000009 2.2550000000000003 39.445000000000007 -1.9745851507043575 -0.063333333333333006 8.0000000000000018 4.5000000000000009 -5.2741666666666669 13.500000000000002 0.011666666666666272 13.500000000000002 3.2500000000000004 33.690000000000005 2.6058333333333334 5.5000000000000009 1.0000000180025095e-35 -0.086666666666666434 11.500000000000002 6.8750000000000009 0.54687333174913244
decision_type=2 2 2 2 2 2 2 2 2 2 2 2 2 2 2 2 2 2 2 2 2 2 2 2 2 2 2 2 2 2
left_child=1 4 10 6 -1 13 26 8 16 15 27 12 24 -6 -5 -4 19 18 -18 20 25 22 -19 29 -12 -7 -3 -2 -29 -16
right_child=2 3 9 14 5 7 -8 -9 -10 -11 11 -13 -14 -15 23 -17 17 21 -20 -21 -22 -23 -24 -25 -26 -27 -28 28 -30 -31
leaf_value=-0.051845075970355481 0.016800632608436967 0.047195581445911558 0.019174081620525793 0.06172970361528031 0.090534884328745832 -0.012649712696994617 0.017204054753452439 -0.035373448758155311 0.14329565807400088 0.063007996250666831 0.1043417185415791 -0.038200686538153124 -0.061181890536982399 -0.042552221210550335 0.068009813812322087 0.10517333503743874 -0.017358192083617979 -0.035843360938580517 0.24668417665634973 0.08558129016133105 -0.057648020144741588 -0.042720666598725379 0.10319715029864343 0.092383013796111968 0.0043684373913532937 0.063242866528656003 -0.045932400380928926 0.062581674789107658 -0.031906927119500952 0.0071519731298921255
leaf_weight=179.07283058017492 47.591252632439137 3.414586015045642 39.529556721448898 20.247210294008255 2.3429812267422667 70.22351212054491 24.942967712879181 86.266815453767776 2.6709796562790862 232.6020278185606 10.553690418601038 24.633417323231697 6.0464515760540953 181.458440952003 7.7882907912135115 5.2092543244361869 4.9910032302141207 4.4479437395930308 4.2276729717850685 4.0819818824529639 22.630361661314964 13.234307646751402 4.6446003690361977 5.1119198054075232 4.4694980829954138 5.7354778423905364 59.396259836852551 35.891969345510006 4.2171068787574759 111.84561944007874
leaf_count=1939 252 21 213 111 19 591 175 781 17 969 47 187 42 1822 46 22 45 37 32 29 200 116 39 23 25 46 570 185 23 726
internal_value=-0.000517223 -0.0235944 0.0454847 0.00392601 -0.0345243 -0.0269027 -0.0243629 -0.0154103 -0.00282952 0.0575523 0.0203965 -0.00416234 0.0356333 -0.0408557 0.0210473 0.0291876 -0.00573748 0.0225315 0.103731 -0.014423 -0.0185636 -0.0109956 0.0351805 0.0144442 0.074599 -0.00691925 -0.0408697 0.0331947 0.0526471 0.0111139
internal_weight=1229.52 818.776 410.744 232.747 586.029 406.956 87.7538 223.155 136.888 277.341 133.403 45.7031 21.0696 183.801 144.993 44.7388 134.217 31.5455 9.21868 102.671 98.5894 22.3269 9.09254 124.746 15.0232 75.959 62.8108 87.7003 40.1091 119.634
internal_count=9350 7385 1965 1672 5713 3774 766 1933 1152 1204 761 301 114 1841 906 235 1135 269 77 866 837 192 76 795 72 637 591 460 208 772
is_linear=0
shrinkage=0.05


Tree=13
num_leaves=31
num_cat=0
split_feature=16 25 2 17 15 15 25 25 27 26 15 5 26 25 26 35 27 12 35 35 3 3 3 25 24 3 3 24 3 5
split_gain=417.026 92.4247 40.3901 35.632 26.6259 17.9011 16.9442 16.7015 16.6735 16.3215 13.5912 17.0031 21.6298 23.8488 19.0174 15.3028 14.8952 13.0532 12.9184 17.0557 23.0991 11.8527 11.8219 11.0962 11.6993 12.6314 10.362 13.6201 10.9451 10.442
threshold=1.0000000180025095e-35 -0.10350232477235785 4.2150000000000007 0.092000000000000012 0.013333333333334087 -0.084999999999999507 0.33522750583885125 0.91736632397502926 1.8783926891232843 47.750000000000007 -0.098333333333333148 6.7650000000000006 58.250000000000007 0.8400534529267093 5.2500000000000009 3.6950000000000007 -0.4436677476032343 1.5000000000000002 2.9250000000000007 3.6650000000000005 27.250000000000004 26.220000000000002 47.135000000000012 1.6537134272300904 5.7500000000000009 42.57500000000001 30.170000000000005 37.250000000000007 48.645000000000003 6.705000000000001
decision_type=2 2 2 2 2 2 2 2 2 2 2 2 2 2 2 2 2 2 2 2 2 2 2 2 2 2 2 2 2 2
left_child=1 -1 -2 5 8 22 17 -6 10 -9 -5 14 13 -13 -12 -15 21 26 -16 20 -20 -17 -3 24 25 -7 -4 28 29 -28
right_child=2 3 6 4 7 23 -8 9 -10 -11 11 12 -14 15 18 16 -18 -19 19 -21 -22 -23 -24 -25 -26 -27 27 -29 -30 -31
leaf_value=-0.038429127018336069 -0.0025072832048295269 -0.0015156899310867003 0.0002606130707028008 0.063830297549658785 -0.028737495079380129 -0.03107924667174914 0.060764569806858217 -0.0075077768049626147 0.10922461034900117 0.070160313551818856 0.01621289713441236 -0.002003587689857441 0.1311413052832707 0.025610848539036304 -0.052588218924004115 0.10077613571816464 0.13999736940046842 0.076798440453087008 -0.045663625891722064 -0.024796087456760395 0.10805841461034343 -0.031563653998176427 0.107693010273826 0.041736253405785767 -0.056121509145047016 0.021910474245629526 0.092576707850730522 -0.028434077750512449 -0.015137805078519945 0.04119235575482269
leaf_weight=357.9156578630209 38.054051473736763 7.317725293338297 23.729892499744892 11.495795808732508 82.411021247506142 82.053590007126331 198.66756359487772 26.66896440833807 4.3790754079818717 9.0627847164869291 58.399065069854259 60.147224225103855 4.4156736359000197 27.426866382360458 23.636133037507534 3.4939277395606041 7.1956205517053586 16.665263116359711 3.9548449367284757 31.02292488515377 6.3960036858916283 3.2804073691368103 3.7469237446784973 5.1083685979247084 39.738671503961086 13.032511509954928 13.050286293029783 6.790283501148223 6.4790986180305472 40.787641853094101
leaf_count=3691 249 54 116 65 700 793 818 188 21 47 399 465 25 178 192 18 38 76 33 220 32 22 16 37 415 116 57 49 29 191
internal_value=-0.000528029 -0.0189179 0.0460738 -0.00534172 0.00314123 -0.0257565 0.052112 -0.0163587 0.0125351 0.0121915 0.0107772 0.0081182 0.0228098 0.018099 -0.00449612 0.0473069 0.0899023 0.0361218 -0.0230992 -0.0062527 0.0493244 0.0366919 0.0354667 -0.0305975 -0.0333382 -0.0238165 0.0286592 0.0387013 0.0462591 0.0536479
internal_weight=1216.52 872.3 344.224 514.384 363.386 150.998 306.17 118.143 245.244 35.7317 240.864 229.369 105.96 101.544 123.409 41.3968 13.97 107.502 65.0099 41.3738 10.3508 6.77434 11.0646 139.933 134.825 95.0861 90.8372 67.1073 60.317 53.8379
internal_count=9350 7765 1585 4074 2643 1431 1336 935 1708 235 1687 1622 746 721 876 256 78 518 477 285 65 40 70 1361 1324 909 442 326 277 248
is_linear=0
shrinkage=0.05


Tree=14
num_leaves=31
num_cat=0
split_feature=22 25 22 25 15 27 35 15 25 21 9 15 20 26 27 22 25 24 20 15 5 6 26 24 21 26 4 24 15 14
split_gain=435.806 82.0946 61.4086 38.0173 23.8984 28.9986 21.9118 18.5403 16.1919 14.3206 12.1963 21.1953 12.1301 11.9529 11.7678 11.4878 13.6552 14.8982 11.4396 13.681 20.4759 12.9385 11.4746 10.9745 11.9159 17.4043 13.829 10.9684 10.7932 10.7539
threshold=0.22500000000000003 0.10228348209270383 0.05850000000000001 0.533680404192027 0.039166666666666579 1.8783926891232843 2.7550000000000008 0.06000000000000006 -0.88203516935883608 6.5090216937838976 4.5000000000000009 -0.042666666666666846 0.75000000000000011 47.750000000000007 -1.6827673445952664 0.05850000000000001 -1.9745851507043575 5.2500000000000009 3.7500000000000004 0.035000000000000593 6.745000000000001 -1.0000000180025095e-35 3.7500000000000004 47.750000000000007 1.0000000180025095e-35 5.7500000000000009 32.925000000000004 5.2500000000000009 -0.084999999999999507 4.1166666666666698
decision_type=2 2 2 2 2 2 2 2 2 2 2 2 2 2 2 2 2 2 2 2 2 2 2 2 2 2 2 2 2 2
left_child=1 15 14 6 5 18 7 8 -2 10 27 -12 -10 29 -3 28 -17 -18 19 21 -21 22 -4 24 -8 26 -26 -5 -1 -13
right_child=3 2 4 9 -6 -7 23 -9 12 -11 11 13 -14 -15 -16 16 17 -19 -20 20 -22 -23 -24 -25 25 -27 -28 -29 -30 -31
leaf_value=0.057219736598288599 0.0065500711282701629 0.04796505216040086 0.015964017963056614 0.052550299065785948 -0.029670558617230443 0.10132574974323899 0.064099068609300452 -0.048885515348775908 0.062741531372879827 0.095583877689697783 0.071847225483956334 0.04167759032251226 -0.0061035622710009898 -0.069924734212439651 -0.045564767628984926 0.084757756083079144 -0.020555861039000051 -0.044999023179458857 -0.026397892280420943 0.15782763016128429 0.002665818825781173 0.020253797105931014 -0.015439338669881945 -0.056612552633433004 -0.0023523678451014777 -0.025681493228016269 0.043713508582709698 0.088358911666804901 -0.053968061969723417 -0.029111408289678099
leaf_weight=2.2235058248043051 19.813521839678288 3.4910965487360945 46.783660344779491 104.12828740477562 45.951480522751808 8.3031449913978559 10.76159520447254 5.2879487574100486 75.347794100642204 21.144603624939919 18.546625584363937 15.715873003005987 6.9919446110725394 4.6743284463882437 91.700452119112015 2.4293377995491019 110.45213770121336 143.10908205807209 24.116247363388538 3.8265700787305814 4.7851253524422646 105.82139425724745 76.907330460846424 5.7591068223118773 30.406621761620045 26.517462827265263 35.096850119531155 26.911836802959442 118.66560193896294 8.1458759158849698
leaf_count=26 105 19 330 442 389 38 51 30 349 87 76 69 44 23 992 19 1113 1540 225 18 36 691 563 56 156 160 171 110 1386 36
internal_value=-0.000527807 -0.0223587 -0.00692305 0.0409295 0.00366747 0.00932989 0.0263978 0.0424049 0.0471306 0.0566801 0.0520619 0.0302348 0.0568955 0.00318932 -0.0421346 -0.03922 -0.0332212 -0.0343515 0.00641709 0.00974045 0.0716113 0.00741895 -0.00356164 0.010553 0.0143164 0.00849449 0.0223298 0.0599043 -0.051923 0.0175118
internal_weight=1203.82 788.566 411.687 415.25 316.495 270.543 215.983 107.441 102.153 199.267 178.123 47.0827 82.3397 28.5361 95.1915 376.88 255.991 253.561 262.24 238.124 8.6117 229.512 123.691 108.542 102.783 92.0209 65.5035 131.04 120.889 23.8617
internal_count=9350 7385 3301 1965 2290 1901 1122 528 498 843 756 204 393 128 1011 4084 2672 2653 1863 1638 54 1584 893 594 538 487 327 552 1412 105
is_linear=0
shrinkage=0.05


Tree=15
num_leaves=31
num_cat=0
split_feature=22 13 13 22 22 13 24 21 20 3 30 15 3 3 27 13 15 23 23 7 14 14 7 3 21 15 28 15 32 15
split_gain=358.27 88.8973 39.2801 34.1565 32.6298 22.9137 31.0401 14.4997 15.3296 14.5203 15.4274 14.1509 20.7475 13.9935 17.1094 13.8094 13.3962 12.9179 12.1235 13.4679 12.064 14.0729 10.9207 12.226 28.9058 22.0127 13.0725 28.3544 10.7617 15.3898
threshold=0.18900000000000003 0.75749999999999995 0.062666666666666884 0.05850000000000001 0.05850000000000001 -3.3499999999999996 31.750000000000004 7.4200069152750752 3.7500000000000004 48.070000000000007 1.0000000180025095e-35 -0.084999999999999507 32.600000000000009 40.895000000000003 1.9469762531208736 1.614166666666667 -0.10166666666666611 0.50135000000000007 0.29965000000000008 4.5000000000000009 -1.1166666666666705 5.3666666666666698 7.4000000000000012 20.950000000000003 4.737263967048615 -0.01666666666666616 1.0000000180025095e-35 -1.0000000180025095e-35 1.0000000180025095e-35 -0.00083333333333346349
decision_type=2 2 2 2 2 2 2 2 2 2 2 2 2 2 2 2 2 2 2 2 2 2 2 2 2 2 2 2 2 2
left_child=1 4 17 15 11 -6 13 8 9 10 28 12 -1 -7 -15 -3 -4 -2 22 -20 -12 -22 23 -18 25 -25 27 -26 29 -5
right_child=2 3 16 7 5 6 -8 -9 -10 -11 20 -13 -14 14 -16 -17 18 -19 19 -21 21 -23 -24 24 26 -27 -28 -29 -30 -31
leaf_value=0.17143187007047114 0.012628095065692313 -0.046240350702208055 0.089491298844553535 0.039685269832438384 0.13389747423840412 -0.021545186744336517 -0.050801274031522993 0.075054237057105955 -0.033236932851794208 -0.062300379046722802 0.12546958149153162 -0.052158766486091648 -0.055354622476370532 -0.00021404195963847848 0.12522476112876099 0.01622506579219566 0.098039411850391486 0.10394940298176658 0.0036632037437329041 0.091170745359305333 0.011322327673385852 0.084948807444521893 0.032846129614064599 -0.041709750440223736 0.077657692751037025 0.062495838911153206 0.086279331115031721 -0.042302206277922028 -0.018359516641139394 -0.00099740670314347026
leaf_weight=1.7632556483149517 128.39951515942812 36.54602387547493 18.572864428162575 47.407363831996918 2.3134752586483947 246.1025480851531 84.041003033518791 9.9092191755771619 16.323444955050945 5.4681857228279105 4.6716299355030051 157.01515217125416 2.3559957146644592 52.434300161898136 2.8670254349708548 11.674145847558973 14.042529225349424 3.9928912967443457 5.3569611608982113 24.534284174442291 17.495769716799263 10.317462012171744 139.20521408319473 13.272014498710634 14.343787163496019 8.1985971033573133 33.149818688631058 7.502377822995185 23.151988968253136 45.612378694117069
leaf_count=20 731 400 75 285 17 2360 937 47 151 36 22 1899 27 491 17 92 57 17 27 100 114 52 606 60 60 35 134 36 153 314
internal_value=1.61195e-05 -0.019937 0.0378001 0.00626285 -0.0308476 -0.0229889 -0.0239306 0.0162568 0.0128385 0.0177184 0.0206618 -0.0497588 0.0417219 -0.0164382 0.00628917 -0.0311174 0.0484693 0.0153823 0.0455344 0.0754881 0.0511222 0.0386345 0.0416368 0.055157 0.0472819 -0.00191863 0.06649 0.0364612 0.0121443 0.0197365
internal_weight=1188.04 777.47 410.571 228.578 548.893 387.758 385.445 180.357 170.448 154.125 148.657 161.134 4.11925 301.404 55.3013 48.2202 278.178 132.392 259.606 29.8912 32.4849 27.8132 229.714 90.5091 76.4666 21.4706 54.996 21.8462 116.172 93.0197
internal_count=9372 7434 1938 1666 5768 3822 3805 1174 1127 976 940 1946 47 2868 508 492 1190 748 1115 127 188 166 988 382 325 95 230 96 752 599
is_linear=0
shrinkage=0.05


Tree=16
num_leaves=31
num_cat=0
split_feature=22 13 13 22 22 24 35 35 24 4 7 13 21 21 20 21 13 8 15 27 15 30 21 25 15 35 25 21 20 23
split_gain=324.979 82.9809 35.6328 32.1784 31.2089 21.9417 30.7185 18.0134 22.1579 16.5997 13.7758 13.0945 12.9562 12.8095 13.9262 12.6717 13.7162 13.0801 12.3787 14.76 12.3544 12.3331 22.0141 12.1319 12.0867 11.6042 19.5971 21.3828 11.3131 12.4704
threshold=0.18900000000000003 0.75749999999999995 0.062666666666666884 0.05850000000000001 0.05850000000000001 31.750000000000004 6.0450000000000008 2.475000000000001 10.500000000000002 40.495000000000005 1.5000000000000002 1.614166666666667 2.1328833512948018 7.4200069152750752 3.7500000000000004 7.0909781883168632 2.4441666666666668 11.250000000000002 0.013333333333333199 1.8783926891232843 -0.10166666666666611 1.0000000180025095e-35 4.9599107142857148 1.0756317351535305 0.0066666666666663774 3.9250000000000007 1.1571045713753996 4.6614494044305923 0.75000000000000011 0.31800000000000012
decision_type=2 2 2 2 2 2 2 2 2 2 2 2 2 2 2 2 2 2 2 2 2 2 2 2 2 2 2 2 2 2
left_child=1 3 7 10 11 18 -7 9 -9 12 -1 -3 -2 14 15 16 17 21 19 -5 -4 25 -23 28 -14 26 27 -6 29 -22
right_child=2 4 20 5 13 6 -8 8 -10 -11 -12 -13 24 -15 -16 -17 -18 -19 -20 -21 23 22 -24 -25 -26 -27 -28 -29 -30 -31
leaf_value=0.069276780246449385 0.10541122033401862 -0.045620020646522409 0.085461598156934937 -0.010070708536159684 0.087930002496406812 -0.050274596003664754 0.13624810289783981 0.011553161627117095 -0.057679292568462916 -0.023608225648329352 -0.051178558229685978 0.015261852392958186 0.052927192066622379 0.07019437633046173 -0.032381944444174811 -0.061667495402659173 0.07104907394996457 0.031484019767607611 -0.028749974830422083 0.083284908383017053 0.034200291312590371 0.14088467074641672 0.0053886375176329451 0.057761055105611837 -0.0003399657784449171 -0.0329806509898634 -0.039549562620731386 -0.020840915843265258 -0.022456101782104675 0.088128388604692715
leaf_weight=2.411167435348033 7.4993678182363501 35.224454879760742 18.478346362709999 178.41801719367504 11.003543742001062 79.974091127514839 2.2700317576527587 52.912786118686199 14.786845333874224 10.747033432126043 152.28752635419369 11.787376455962656 31.071500450372696 10.061366125941275 15.926914967596529 4.9903925806283942 11.806911006569861 63.943412303924561 115.79675194621086 4.3368552252650252 148.6503829061985 4.0186048299074164 11.799761384725569 91.908256605267525 16.202843844890594 28.26856692135334 11.570599988102911 7.6663295105099669 8.1058216243982297 11.55301497876644
leaf_count=29 31 400 75 1671 60 930 16 289 132 66 1917 92 142 47 151 34 55 394 1178 27 636 21 72 385 88 202 81 57 47 47
internal_value=-4.62068e-06 -0.0193142 0.0357892 -0.0300712 0.00594282 -0.022259 -0.0451264 0.014519 -0.00356848 0.0332081 -0.0493011 -0.030355 0.0443559 0.0153677 0.0121416 0.0167146 0.019321 0.0149039 -0.0159596 -0.00785534 0.0459566 0.000640206 0.039811 0.0431513 0.0346704 -0.00994991 0.0115791 0.0432659 0.0351734 0.0380893
internal_weight=1175.48 763.563 411.916 535.494 228.068 380.796 82.2441 133.22 67.6996 65.5207 154.699 47.0118 54.7737 181.056 170.995 155.068 150.078 138.271 298.552 182.755 278.696 74.3274 15.8184 260.217 47.2743 58.509 30.2405 18.6699 168.309 160.203
internal_count=9372 7434 1938 5768 1666 3822 946 748 421 327 1946 492 261 1174 1127 976 942 887 2876 1698 1190 493 93 1115 230 400 198 117 730 683
is_linear=0
shrinkage=0.05


Tree=17
num_leaves=31
num_cat=0
split_feature=22 25 22 25 27 15 35 24 4 27 22 25 15 24 26 3 15 25 25 35 26 15 5 10 15 24 35 30 15 15
split_gain=295.128 69.5228 50.529 26.9372 20.0719 17.2468 14.3085 16.8506 14.8588 13.4587 12.8624 17.9344 17.0348 16.2696 19.8795 11.807 11.5409 12.1993 10.4355 15.4457 14.6112 12.5763 12.3913 11.9886 11.0582 17.3751 9.33422 11.6415 18.4715 8.94328
threshold=0.18900000000000003 0.10228348209270383 0.05850000000000001 0.093145504318758052 1.8783926891232843 0.058333333333334021 2.475000000000001 10.500000000000002 43.600000000000009 -1.7993346328048676 0.05850000000000001 -1.9745851507043575 -0.084999999999999507 31.750000000000004 58.250000000000007 12.590000000000002 -0.10166666666666611 1.0756317351535305 0.85821705452064434 1.9550000000000003 1.7500000000000002 -0.073333333333333681 6.6350000000000007 1.5000000000000002 -0.042666666666666846 1.7500000000000002 4.0150000000000006 1.0000000180025095e-35 -0.038333333333333545 0.0066666666666663774
decision_type=2 2 2 2 2 2 2 2 2 2 2 2 2 2 2 2 2 2 2 2 2 2 2 2 2 2 2 2 2 2
left_child=1 10 9 6 5 18 8 -8 15 -3 12 -12 -1 14 -13 -2 -5 -18 20 -20 -4 -21 23 -22 25 -23 -24 -28 -29 -17
right_child=3 2 4 16 -6 -7 7 -9 -10 -11 11 13 -14 -15 -16 29 17 -19 19 21 22 24 26 -25 -26 -27 27 28 -30 -31
leaf_value=0.075411298223317366 0.099593605661208812 0.068595110275928406 0.039490784003327339 0.081524873912725559 0.075064677250859774 -0.036274737872092976 0.012909586189684944 -0.046467479817798578 -0.035161189714885382 -0.041688783614255515 0.096857028416196742 -0.023771053066034737 -0.052561924274277319 -0.049574465354890768 0.10484954994171609 0.04727964711168535 0.032123146656629485 0.054808387186413399 -0.021278917288487693 0.069546465004612382 -0.02765110512951113 0.042763261492576365 -0.0027531107275200104 0.093815784205594152 0.026527436218577633 -0.055822619782690444 -0.046329276475562703 -0.048506979741990613 0.093623351671429808 0.0021535064091509205
leaf_weight=2.666756458580493 7.5393335968255988 2.8602543175220481 17.895581543445587 18.073735982179642 9.8940497338771802 25.955315053462982 56.358679845929146 15.163383297622202 7.1497026160359374 84.336904369294643 2.815977729856967 164.02445044368505 104.49471060186625 74.019745483994484 3.0602152273058882 33.410038337111473 166.50834141671658 92.013244599103928 22.234032973647118 13.542918525636194 3.2265532463788968 7.437440551817418 77.822666510939598 5.4840760678052902 75.516615226864815 11.198809735476971 32.165296323597431 4.9238859191536903 4.2669185921549779 16.353729404509068
leaf_count=29 31 14 130 74 48 239 303 136 48 1007 19 1778 1388 901 27 151 721 385 173 64 27 46 627 31 468 84 267 42 25 89
internal_value=-2.50312e-05 -0.0187128 -0.00442732 0.0339399 0.00498857 0.00269024 0.0157181 0.000321062 0.032804 -0.0380712 -0.0349384 -0.028595 -0.0493773 -0.0300603 -0.0214153 0.041284 0.0428978 0.0401973 0.00635834 0.0166622 -0.00282487 0.0244952 -0.0087461 0.0488225 0.018015 -0.0164785 -0.0129537 -0.0321489 0.0174784 0.03245
internal_weight=1162.41 749.843 398.761 412.57 311.564 301.67 135.975 71.5221 64.4528 87.1972 351.082 243.92 107.161 241.104 167.085 57.3031 276.595 258.522 275.715 129.93 145.785 107.696 127.889 8.71063 94.1529 18.6363 119.179 41.3561 9.1908 49.7638
internal_count=9372 7434 3292 1938 2271 2223 758 439 319 1021 4142 2725 1417 2706 1805 271 1180 1106 1984 835 1149 662 1019 58 598 130 961 334 67 240
is_linear=0
shrinkage=0.05


Tree=18
num_leaves=31
num_cat=0
split_feature=22 13 22 13 22 24 2 13 21 32 15 26 15 21 15 23 21 24 4 13 21 27 26 7 33 24 10 27 21 2
split_gain=268.052 73.0826 31.1192 29.3672 26.5377 20.524 22.7584 19.1628 13.2141 13.6135 16.8391 18.8072 13.1102 18.9535 12.5477 11.9946 13.8191 14.5456 11.9373 11.9334 11.5187 12.8047 11.504 11.0317 16.3322 12.674 10.4519 21.3501 10.1747 9.64152
threshold=0.18900000000000003 0.75749999999999995 0.05850000000000001 -0.06666666666666686 0.091500000000000012 31.750000000000004 1.5350000000000004 1.614166666666667 1.0000000180025095e-35 1.0000000180025095e-35 -0.055000000000000153 47.750000000000007 -0.084999999999999507 4.6328291519800961 0.053333333333334128 0.29965000000000008 4.2888569260174201 3.2500000000000004 30.185000000000006 1.7125000000000001 6.0116959314317482 1.9469762531208736 34.500000000000007 8.8500000000000014 1.0000000180025095e-35 5.7500000000000009 1.0000000180025095e-35 0.89244999729286489 6.7114911841832869 5.4150000000000009
decision_type=2 2 2 2 2 2 2 2 2 2 2 2 2 2 2 2 2 2 2 2 2 2 2 2 2 2 2 2 2 2
left_child=1 2 12 14 7 20 -7 -3 -5 10 18 19 13 -1 23 16 17 -11 -10 28 29 26 -18 24 25 -2 27 -22 -12 -4
right_child=3 4 5 8 -6 6 -8 -9 9 15 11 -13 -14 -15 -16 -17 22 -19 -20 -21 21 -23 -24 -25 -26 -27 -28 -29 -30 -31
leaf_value=0.15728747290832495 0.017502436272112627 -0.034060713405042124 -0.027629038834064475 0.07226921449297978 0.018084760951802024 0.094499703259951121 -0.049374411797640266 0.019741940496882202 -0.011063072326256567 0.031197524637476035 0.0058771595221309252 -0.067073482069691853 -0.051074115534988279 -0.055070916897424084 -0.055790620166356247 0.083090519485843062 0.043871600234606817 -0.049064356753079463 0.072094462158559081 0.063220846183612997 -0.039927611560314831 0.1053463926760345 0.094567998593527797 0.025916195624515928 0.066335723743320155 -0.051222266819049234 -0.0088189844829508115 0.14395790050574975 0.071645608333103003 -0.0072268933883389815
leaf_weight=1.8687521666288365 10.934119008481504 55.039461120963097 144.05543223768473 29.061774104833603 147.19617072492838 2.8554444611072531 73.480011343955994 23.665871024131775 5.2579982131719616 23.861265480518345 64.650489553809166 6.6877368837594977 138.50964330136776 2.40035230666399 6.7908515632152548 19.716876938939095 89.938865274190903 7.3941046297550193 24.078633040189743 13.447584941983221 2.9037295356392852 3.094888098537921 12.780183330178259 68.841366901993752 5.9714098945260039 17.3589903190732 41.217071317136288 3.4586810544133186 6.4691076129674903 96.83184751868248
leaf_count=18 58 599 1525 120 899 23 923 168 25 100 299 37 1899 29 45 81 374 34 102 57 28 16 52 347 33 146 392 32 28 883
internal_value=-4.4058e-05 -0.0181265 -0.0286015 0.0321868 0.00555346 -0.0209123 -0.0439926 -0.0178828 0.0402095 0.0368126 0.0242373 0.0136436 -0.0484142 0.0378866 0.0100418 0.0466797 0.0413212 0.0122099 0.0571902 0.0200268 -0.0148696 0.00679847 0.0501792 0.0143778 -0.00880431 -0.024663 0.000388251 0.0600347 0.0118595 -0.0194278
internal_weight=1149.82 736.577 510.676 413.241 225.902 367.897 76.3355 78.7053 303.345 274.283 120.592 91.2549 142.779 4.2691 109.897 153.691 133.974 31.2554 29.3366 84.5672 291.562 50.6744 102.719 103.106 34.2645 28.2931 47.5795 6.36241 71.1196 240.887
internal_count=9372 7434 5768 1938 1666 3822 946 767 1309 1189 548 421 1946 47 629 641 560 134 127 384 2876 468 426 584 237 204 452 60 327 2408
is_linear=0
shrinkage=0.05


Tree=19
num_leaves=31
num_cat=0
split_feature=22 13 22 13 22 13 13 13 15 35 26 4 15 10 11 8 14 14 26 13 20 15 13 2 2 9 25 26 15 25
split_gain=243.727 68.249 30.6002 26.6393 24.3139 23.1971 22.294 22.3545 14.8358 13.9755 13.6589 12.9072 12.4215 19.8055 12.1444 33.0477 26.4777 17.9694 15.5715 11.7574 10.6585 13.9483 11.9592 11.952 11.7184 12.001 10.8145 10.7267 10.4302 11.0176
threshold=0.18900000000000003 0.75749999999999995 0.05850000000000001 0.062666666666666884 0.05850000000000001 -3.6919999999999997 -0.30416666666666664 -0.29499999999999943 0.013333333333333199 2.475000000000001 16.250000000000004 40.495000000000005 -0.084999999999999507 1.5000000000000002 13.500000000000002 9.9500000000000011 -6.2925000000000013 11.225833333333336 1.2500000000000002 1.5841666666666667 -6.7499999999999991 -0.073333333333333681 1.3341666666666667 7.7550000000000008 7.4650000000000007 5.5000000000000009 1.6273172925642936 58.250000000000007 -0.082666666666666874 1.1896652021290126
decision_type=2 2 2 2 2 2 2 2 2 2 2 2 2 2 2 2 2 2 2 2 2 2 2 2 2 2 2 2 2 2
left_child=1 2 12 9 19 -4 -7 -8 14 11 -11 -2 13 -1 18 16 -16 -18 -9 -3 -6 22 -22 24 25 26 27 -23 -5 -30
right_child=3 4 5 28 20 6 7 8 -10 10 -12 -13 -14 -15 15 -17 17 -19 -20 -21 21 23 -24 -25 -26 -27 -28 -29 29 -31
leaf_value=0.15927463142213291 0.038062501500209511 -0.045159741260917402 0.14542004188916974 0.066127688264046511 0.054293873555207886 -0.035451234796265621 0.14780310498446936 0.04053302000618373 -0.029673845100025131 0.0058017319940288142 -0.056601972167290827 -0.022466829595946688 -0.05071587276237436 -0.055721721282396192 0.20452483793798171 -0.0091115375096941353 -0.015749022580613985 0.15114277519759023 -0.019481031002775887 0.011521535342548597 0.0027948677152523386 0.010670702776068219 0.076720055286399774 0.095539153643923541 -0.061873756061719166 -0.031399002088296372 0.066046275925418535 -0.059186339311689012 0.029184152071713418 0.052510984020131893
leaf_weight=1.8489798754453648 55.90010741353035 30.644585654139519 2.1011018157005301 32.264372870326042 14.582610845565794 155.64170676469803 2.2108716294169417 12.526781558990477 75.037641741335392 56.896174609661102 10.366363197565077 10.454406276345251 132.66171642392874 2.5464165955781937 3.6893982589244843 24.392298772931099 4.8290509358048421 2.421731173992157 78.794470317661762 13.043010726571081 9.3007016628980654 101.30574337393045 13.285909272730349 3.4833824783563605 6.8770803511142722 19.352712497115135 8.3237641900777799 5.8104237541556349 175.84936814010143 71.07983985543251
leaf_count=18 261 383 11 135 75 1887 24 104 776 318 103 66 1899 29 22 215 48 11 724 109 55 680 60 18 47 148 43 48 757 298
internal_value=-6.00554e-05 -0.0175277 -0.0278572 0.0306054 0.00526482 -0.0202325 -0.0212005 -0.0103228 -0.0120561 0.0122451 -0.0038158 0.0285259 -0.047976 0.0347193 -0.00161821 0.0232731 0.0954781 0.0399921 -0.0112487 -0.0282374 0.0132925 0.00972806 0.0462792 0.00404051 0.00179073 0.00503888 0.0111474 0.00688137 0.0393922 0.0358989
internal_weight=1137.52 724.712 498.702 412.811 226.01 361.645 359.544 203.902 201.691 133.617 67.2625 66.3545 137.057 4.3954 126.654 35.3325 10.9402 7.25078 91.3213 43.6876 182.322 167.74 22.5866 145.153 141.67 134.793 115.44 107.116 279.194 246.929
internal_count=9372 7434 5768 1938 1666 3822 3811 1924 1900 748 421 327 1946 47 1124 296 81 59 828 492 1174 1099 115 984 966 919 771 728 1190 1055
is_linear=0
shrinkage=0.05


Tree=20
num_leaves=31
num_cat=0
split_feature=22 22 25 13 13 20 25 23 7 27 7 13 2 7 27 4 3 2 2 3 7 7 4 14 15 25 9 11 13 11
split_gain=243.207 70.427 45.3196 25.4951 23.8542 17.0264 16.3043 15.7085 13.111 17.8992 14.85 12.8035 16.6787 12.4603 12.4037 26.316 15.3985 17.9001 16.7344 12.6386 12.4002 17.241 29.5151 12.1578 11.1183 10.4788 10.2127 9.84379 9.67702 13.3258
threshold=0.29165000000000002 0.091500000000000012 0.10228348209270383 1.4241666666666668 -0.66083333333333305 1.0000000180025095e-35 -1.9745851507043575 0.26415000000000005 9.8000000000000025 -1.3336411852878001 6.9000000000000012 1.6608333333333338 6.3150000000000004 7.9000000000000012 0.8478335538289653 42.630000000000003 40.565000000000005 5.0750000000000011 5.2250000000000005 36.385000000000005 2.5000000000000004 5.5000000000000009 37.300000000000004 10.182500000000001 0.075000000000000636 -0.91103702621581439 1.5000000000000002 13.500000000000002 0.99224999999999997 2.5000000000000004
decision_type=2 2 2 2 2 2 2 2 2 2 2 2 2 2 2 2 2 2 2 2 2 2 2 2 2 2 2 2 2 2
left_child=1 3 8 6 -2 7 -1 24 9 10 -3 14 -13 -7 19 16 -16 -18 -19 20 -4 22 -22 -20 -6 -10 -25 -5 -23 -30
right_child=4 2 11 27 5 13 -8 -9 25 -11 -12 12 -14 -15 15 -17 17 18 23 -21 21 28 -24 26 -26 -27 -28 -29 29 -31
leaf_value=0.06710249077988488 -0.0060517305406678126 0.13847799622812565 -0.052325735208597325 0.021734546538671479 0.0358955121738029 -0.057609580926712069 -0.043066991372344675 0.071849793351556376 -0.039084956244480246 -0.045116054091216488 -0.034667830039402339 -0.054323445903495318 0.04218466940273731 0.01995007051069644 -0.030442718727476177 0.14890035090201312 -0.059821428593072649 0.13420309862242236 0.07786331746398796 -0.031732086386775542 0.078512187347311246 -0.011310947944065295 -0.05850996134691494 0.063266084478390647 -0.026092103234518674 -0.0005847843919481794 -0.032958038134272435 -0.04410486226997657 0.11351111231004543 0.010447759412879849
leaf_weight=3.4028384760022155 39.223359845578671 2.5067930296063414 9.2573944553732854 23.911459311842922 302.54494404792786 7.8858170360326794 256.53046939522028 30.806235760450363 24.519506476819515 76.700754560530186 2.4472940713167191 5.0055097565054885 42.389838941395283 15.08294966816902 13.181403063237665 3.9824282005429259 4.3028893917799023 4.8309954628348377 8.2331278994679469 31.410854183137417 17.305196948349479 70.768936641514301 5.0849054977297774 4.1560939922928801 7.4110226780176154 63.300621435046196 8.1940315440297109 7.44469941407442 3.5319520384073284 28.001240149140358
leaf_count=30 237 20 83 179 1339 50 3388 129 289 963 31 32 226 75 97 22 34 26 48 236 98 569 43 23 37 688 57 73 19 177
internal_value=-0.000112719 -0.0175124 -0.00463194 -0.0364871 0.0309943 0.0349892 -0.0416247 0.0377978 -0.0247441 -0.0391666 0.0529448 0.00849603 0.0319923 -0.00667832 0.00324912 0.0259503 0.0145364 0.0344875 0.0504549 -0.00318685 0.00350694 0.00765207 0.0473938 0.0307988 0.0344134 -0.0113341 -0.000576465 0.0061027 -0.0010459 0.0219916
internal_weight=1123.36 720.401 429.112 291.289 402.954 363.731 259.933 340.762 169.475 81.6548 4.95409 259.637 47.3953 22.9688 212.241 46.881 42.8985 29.7171 25.4142 165.36 133.95 124.692 22.3901 20.5833 309.956 87.8201 12.3501 31.3562 102.302 31.5332
internal_count=9318 7451 3781 3670 1867 1630 3418 1505 1991 1014 51 1790 258 125 1532 307 285 188 154 1225 989 906 141 128 1376 977 80 252 765 196
is_linear=0
shrinkage=0.05


Tree=21
num_leaves=31
num_cat=0
split_feature=22 22 13 13 13 13 13 26 25 35 13 21 35 5 22 35 4 5 4 26 26 25 7 35 13 26 26 7 5 15
split_gain=221.051 66.597 41.7371 24.3885 21.4434 16.3085 15.5314 15.3665 15.0042 14.7204 14.0997 21.7234 14.1518 19.1199 13.6665 12.0131 10.294 10.0883 10.8072 20.552 19.1047 10.3872 11.5878 21.7974 10.9814 10.1932 10.0508 9.95502 20.859 9.94932
threshold=0.29165000000000002 0.091500000000000012 -0.08916666666666638 1.4241666666666668 -0.66083333333333305 -0.074166666666667144 0.75749999999999995 7.0000000000000009 -1.9745851507043575 2.5950000000000011 0.48816666666666647 1.0000000180025095e-35 2.2350000000000008 6.745000000000001 0.40965000000000001 5.6200000000000019 49.100000000000001 6.955000000000001 35.600000000000009 47.750000000000007 26.750000000000004 0.91736632397502926 6.9000000000000012 2.8950000000000009 0.77500000000000002 9.0000000000000018 10.000000000000002 1.5000000000000002 6.6750000000000007 0.041666666666667414
decision_type=2 2 2 2 2 2 2 2 2 2 2 2 2 2 2 2 2 2 2 2 2 2 2 2 2 2 2 2 2 2
left_child=1 3 7 8 -2 -4 9 -3 -1 10 11 -7 -13 -14 -6 17 -8 18 20 21 25 22 23 -20 -25 29 -11 28 -10 -16
right_child=4 2 5 -5 14 6 16 -9 27 26 -12 12 13 -15 15 -17 -18 -19 19 -21 -22 -23 -24 24 -26 -27 -28 -29 -30 -31
leaf_value=0.061328973493534313 -0.0057661890255986496 -0.016855335277948576 0.12262559957755964 0.0057816753146001645 0.011825633997339512 0.11155104658691906 0.018274178413885633 -0.054331022161382025 0.16210748902859748 -0.01181898350236806 -0.030573159647066979 -0.0049341358763502624 0.13314896127218839 -0.00042702441840327532 0.048372471140367135 -0.015588460911333913 -0.061824605865366693 -0.0017414634336111743 0.055645881585317775 -0.040426294884779473 0.084589213223366322 0.058518055948723703 0.038409756034846421 -0.0820236657917673 0.014490157173286448 -0.019759440650315985 -0.056013595104467462 -0.043828409439037264 -0.054434419564048354 -0.0092643208128744426
leaf_weight=3.5334548950195304 39.110375493764877 101.12196155637503 2.9879052340984336 31.371959917247295 62.073830828070641 5.8466738015413275 147.76437797397375 37.496637724339962 1.8201743662357319 40.807220965623856 17.981247432529926 37.698800884187222 4.8885148093104345 5.9271431863307953 114.73973344266415 10.26154078543186 4.123104400932788 14.141639232635496 8.6835454702377337 9.5247198045253736 31.907246693968773 35.099082559347153 50.534077361226082 8.1344093233346921 4.6218582540750495 6.4743159040808669 18.787832640111446 242.87331245094538 2.8588472753763199 8.0101540982723218
leaf_count=30 237 1181 24 252 307 37 870 516 18 351 151 334 35 49 480 65 30 60 43 51 134 146 218 38 19 34 203 3331 39 35
internal_value=-0.000128762 -0.0169617 -0.00446552 -0.0357831 0.0294159 0.00642196 0.00519865 -0.0269926 -0.0409764 -0.00735088 0.00780756 0.0205029 0.00953033 0.0599473 0.0331939 0.0375841 0.0160998 0.0394535 0.0415511 0.0299564 0.0499413 0.0362173 0.025342 -0.00545896 -0.0470547 0.0413863 -0.0257517 -0.0424367 0.029802 0.0446113
internal_weight=1111.21 707.889 425.431 282.458 403.317 286.813 283.825 138.619 251.086 131.937 72.3424 54.3611 48.5145 10.8157 364.206 302.132 151.887 291.871 277.729 116.598 161.131 107.073 71.9739 21.4398 12.7563 129.224 59.5951 247.552 4.67902 122.75
internal_count=9318 7451 3781 3670 1867 2084 2060 1697 3418 1160 606 455 418 84 1630 1323 900 1258 1198 515 683 464 318 100 57 549 554 3388 57 515
is_linear=0
shrinkage=0.05


Tree=22
num_leaves=31
num_cat=0
split_feature=22 22 25 13 13 24 20 27 13 2 14 20 22 21 27 14 7 5 2 2 27 21 3 24 14 2 3 20 20 24
split_gain=201.215 64.1592 46.8126 19.8842 19.3904 18.0082 17.7455 15.1082 14.6182 16.541 14.9296 14.4915 14.7191 13.5313 13.1832 18.0543 11.2995 9.86484 9.02627 70.8099 8.56591 8.56438 20.7979 20.686 9.75053 8.12726 9.71229 9.22853 7.86331 7.84895
threshold=0.29165000000000002 0.05850000000000001 0.10228348209270383 -3.6919999999999997 -0.66083333333333305 5.2500000000000009 1.0000000180025095e-35 -1.9105369736137539 1.6608333333333338 6.3150000000000004 -5.5425000000000013 1.0000000180025095e-35 0.90000000000000013 6.0448221886470277 0.89244999729286489 7.4366666666666665 7.9000000000000012 6.8850000000000007 5.4150000000000009 5.4750000000000005 1.8783926891232843 1.7651757022585695 29.430000000000003 4.7500000000000009 -5.7024999999999961 6.1450000000000005 49.845000000000006 -2.7499999999999996 3.2500000000000004 26.750000000000004
decision_type=2 2 2 2 2 2 2 2 2 2 2 2 2 2 2 2 2 2 2 2 2 2 2 2 2 2 2 2 2 2
left_child=1 7 3 -3 -2 6 25 -1 13 -10 -11 12 17 28 -15 -16 -13 21 -7 -20 29 -6 23 -23 -24 26 -5 -27 -4 -17
right_child=4 2 8 5 11 18 -8 -9 9 10 -12 16 -14 14 15 20 -18 -19 19 -21 -22 22 24 -25 -26 27 -28 -29 -30 -31
leaf_value=0.063387370657987829 -0.0054934137134962039 0.12033479636330431 -0.002988043365711437 -0.0043391484461956847 0.062422513222061486 -0.047102336845193805 -0.034479358068615976 -0.046179255224630261 -0.054889840389033287 -0.017730254082878164 0.048265493772265314 -0.056716889737737843 0.074514850538259139 -0.02629622455362908 0.11256847482901562 0.021489012263999529 0.017877642098278794 0.0087467692628412207 0.24134943148802829 -0.045729695961287155 0.085220957280791418 0.022157593369380172 -0.012596190156123316 -0.049660935647594211 0.042038618553066828 0.0090819636523632574 0.094036697422124421 0.14212720248342151 -0.034831827008971847 -0.056805809216652903
leaf_weight=3.2100077830255023 39.002608597278595 2.3098363727331153 184.98638738691807 48.657130569219589 25.665389597415924 95.675653658807278 48.007981434464455 158.43642445281148 5.6268436163663855 10.685600586235521 43.273525923490524 7.6042406260967281 21.222148895263672 10.343797542154787 6.588811866939067 21.497550308704383 15.273723438382147 41.411872938275337 2.4541656374931362 17.216787733137608 4.4283419400453559 41.667349755764008 8.5355096161365491 13.203538887202738 188.8299345523119 3.0694743320345879 2.6453071758151046 2.2653001174330702 21.655868828296661 3.7610184997320166
leaf_count=20 237 11 1392 539 112 1309 564 2393 37 65 227 50 91 83 35 137 75 185 18 233 20 178 42 70 827 32 26 23 251 36
internal_value=-0.000140476 -0.0163976 -0.00805904 -0.0256022 0.0280092 -0.0271345 -0.0121154 -0.0440035 0.00440672 0.0266892 0.0351963 0.0316048 0.0341928 -0.000835776 0.0234964 0.0376945 -0.00691629 0.0315129 -0.0407602 -0.00991345 0.0210767 0.0349054 0.0321055 0.00487596 0.0396758 0.00684114 0.000733404 0.0655768 -0.00632523 0.00983086
internal_weight=1099.21 696.796 535.149 222.302 402.416 219.992 104.645 161.646 312.848 59.586 53.9591 363.414 340.536 253.262 46.6195 36.2757 22.878 319.314 115.347 19.671 29.6869 277.902 252.236 54.8709 197.365 56.6372 51.3024 5.33477 206.642 25.2586
internal_count=9318 7451 5038 2755 1867 2744 1184 2413 2283 329 292 1630 1505 1954 311 228 125 1414 1560 251 193 1229 1117 248 869 620 565 55 1643 173
is_linear=0
shrinkage=0.05


Tree=23
num_leaves=31
num_cat=0
split_feature=22 22 25 13 24 13 15 22 13 27 17 4 15 5 15 13 26 35 7 15 9 7 15 21 21 24 24 27 25 24
split_gain=183.32 59.7424 44.0035 17.8074 18.7379 16.955 15.3115 15.1116 14.524 14.3724 12.1488 13.0629 12.1377 17.3517 13.4946 11.6821 13.0759 10.7029 9.99768 10.1725 9.31189 13.468 9.29324 10.6488 16.5527 18.9926 10.4401 19.7743 14.9874 12.0419
threshold=0.18900000000000003 0.05850000000000001 0.10228348209270383 -3.6919999999999997 5.2500000000000009 -0.66083333333333305 0.039166666666666579 0.40965000000000001 1.5841666666666667 1.8783926891232843 0.14750000000000002 19.760000000000002 0.033333333333333666 6.745000000000001 0.015000000000000126 2.6058333333333334 47.750000000000007 5.6200000000000019 1.5000000000000002 -0.036333333333333322 3.5000000000000004 5.5000000000000009 0.081666666666666568 2.9390170164982297 4.2759619847263837 5.7500000000000009 26.750000000000004 -0.54168304301169312 0.13563276042511693 5.2500000000000009
decision_type=2 2 2 2 2 2 2 2 2 2 2 2 2 2 2 2 2 2 2 2 2 2 2 2 2 2 2 2 2 2
left_child=1 8 3 -3 10 -2 9 -7 18 12 -5 -12 14 -14 15 16 -4 22 19 -1 -18 -22 23 -9 25 -25 29 -28 -29 -26
right_child=5 2 6 4 -6 7 -8 17 -10 -11 11 -13 13 -15 -16 -17 20 -19 -20 -21 21 -23 -24 24 26 -27 27 28 -30 -31
leaf_value=0.12698117591025412 -0.0045675926494101165 0.10980609764923521 0.011052120079699303 -0.021685635859647872 -0.041337866363245747 0.0091801073490374637 -0.023862888036029737 0.06323073962724042 0.0076299584227895699 0.076971736889869122 0.13909360872760693 0.0076755233980559563 0.10038496428424018 -0.0034715742964103779 -0.024974028099860535 0.080974149669396756 -0.05756869939621944 -0.016075526319809165 -0.050030561475336535 -0.053769857831515999 0.078145101479491344 -0.058563721752786117 -0.034369756008731572 0.022635104765664799 0.035995720430974522 -0.056804493909518861 0.086918499562821716 0.029001774436178976 -0.071513933245498693 0.065219186851231237
leaf_weight=1.6264808252453806 41.125948272645473 2.402168706059455 176.67728765308857 74.449056938290596 110.12315975874662 75.030533194541931 42.074330635368824 34.478911399841309 12.756584890186785 7.4755623042583457 2.055211894214156 23.650910392403603 8.0739514008164424 8.0132139176130277 34.825351603329182 5.4444255679845801 12.657783053815367 10.198757745325564 139.67669801414013 1.4928681626915921 3.8136323466897002 3.4146556556224823 4.6120701581239691 38.891138896346092 134.47483743727207 9.3288120999932271 5.5014164894819286 7.0297213196754438 7.8494769483804703 47.774625226855278
leaf_count=17 253 11 1229 876 1551 379 388 148 109 33 23 260 41 67 283 23 119 65 2264 23 18 28 24 164 561 47 23 43 42 206
internal_value=-0.000153471 -0.0163304 -0.00813033 -0.0255574 -0.0271038 0.0259095 0.00412343 0.0292504 -0.043487 0.00864541 -0.011453 0.0181824 0.00662589 0.0486528 0.00377116 0.00872672 0.00672561 0.0342677 -0.0480534 0.0404768 -0.0317132 0.0135636 0.0360385 0.0371766 0.0335955 0.00726642 0.039861 0.00592241 -0.024025 0.0436563
internal_weight=1087 670.703 515.151 212.681 210.278 416.296 302.47 375.17 155.553 260.396 100.155 25.7061 252.92 16.0872 236.833 202.008 196.563 300.14 142.796 3.11935 19.8861 7.22829 289.941 285.329 250.85 48.22 202.63 20.3806 14.8792 182.249
internal_count=9318 7363 4950 2721 2710 1955 2229 1702 2413 1841 1159 283 1808 108 1700 1417 1394 1323 2304 40 165 46 1258 1234 1086 211 875 108 85 767
is_linear=0
shrinkage=0.05


Tree=24
num_leaves=31
num_cat=0
split_feature=22 22 2 26 13 13 17 4 13 22 7 13 13 14 35 14 21 9 35 4 26 13 5 20 3 21 26 13 35 5
split_gain=167.048 57.1894 40.4961 17.0394 15.4558 14.1762 14.8233 19.6031 14.1139 13.1644 11.6861 11.9705 11.1189 11.7623 10.8655 10.6948 24.6053 14.581 17.9979 13.5909 10.7088 16.938 14.7345 18.9172 10.2444 12.8471 12 10.5113 12.0698 12.5446
threshold=0.18900000000000003 0.05850000000000001 5.3450000000000006 19.750000000000004 -0.93833333333333357 -3.6919999999999997 0.14750000000000002 25.085000000000004 1.5841666666666667 0.40965000000000001 5.5000000000000009 -0.34833333333333333 1.8426666666666669 -4.3466666666666685 6.0450000000000008 -4.3466666666666685 4.8525417127864561 4.5000000000000009 3.3250000000000006 38.065000000000005 5.2500000000000009 0.86583333333333379 6.745000000000001 -1.2499999999999998 1.0000000180025095e-35 4.3732455929469678 58.250000000000007 1.0625000000000002 2.5750000000000006 6.8650000000000011
decision_type=2 2 2 2 2 2 2 2 2 2 2 2 2 2 2 2 2 2 2 2 2 2 2 2 2 2 2 2 2 2
left_child=1 8 3 5 -2 -3 -7 -8 -1 -6 11 -9 15 -14 24 16 17 -4 19 -19 -17 -22 23 -23 -11 26 -26 28 29 -27
right_child=4 2 12 -5 9 6 7 10 -10 14 -12 -13 13 -15 -16 20 -18 18 -20 -21 21 22 -24 -25 25 27 -28 -29 -30 -31
leaf_value=-0.047659572753233341 -0.016079763564295489 0.10111543062101978 -0.008450750111970582 -0.054168676177913079 0.0087620692205804662 -0.028029534325422413 0.09597082417037113 -0.017593717453469652 0.0072149786061830217 0.06141180366985019 -0.02091191975419979 0.10025271127061899 -0.01800060711894539 0.042823107837465985 -0.04659929200251834 0.0021212534599797362 0.10711128959073274 0.092024393172620705 -0.02282159041847464 -0.024636412481346927 -0.053819706967836001 0.057019245795123574 -0.048882881971206611 -0.042868883881661046 0.017020808605271335 0.051069994655403607 -0.065273959839897894 0.055929993345363076 0.014198777450537528 0.0029915172743318085
leaf_weight=136.94658484682441 22.014449305832386 2.4761425703763953 49.86145605891943 39.083891369402409 79.235590696334839 128.55892684310675 5.262334741652011 4.0732179582118988 12.814256764948366 28.193602994084358 31.292171768844128 4.5754268616437894 10.55445936322212 32.193169429898262 4.3832847625017157 113.21067134290934 6.6858981847763053 12.922514662146574 7.8779103979468337 3.094357341527938 26.448125775903463 14.333434052765371 10.260849565267561 7.0817354619503048 67.491453543305397 71.887152269482613 4.7409025803208342 50.55914032459259 69.822326928377151 16.723618850111961
leaf_count=2304 151 11 438 575 403 1549 57 56 109 123 352 32 67 164 35 905 50 76 54 34 310 72 86 62 295 313 28 217 318 72
internal_value=-0.000162154 -0.0157995 -0.00782022 -0.0243008 0.024689 -0.0176771 -0.0193699 0.0052582 -0.0429642 0.0269725 -0.00669349 0.044751 0.00422849 0.0278056 0.0315707 0.000225471 0.0152648 0.00693907 0.0390531 0.0694863 -0.00683554 -0.024281 0.000382485 0.0239875 0.0326781 0.0297974 0.0116195 0.0360801 0.0297457 0.0419961
internal_weight=1074.66 659.608 509.847 215.322 415.052 176.238 173.762 45.2032 149.761 393.037 39.9408 8.64864 294.525 42.7476 313.801 251.777 80.4421 73.7562 23.8948 16.0169 171.335 58.1241 31.676 21.4152 309.418 281.225 72.2324 208.992 158.433 88.6108
internal_count=9318 7363 4950 2632 1955 2057 2046 497 2413 1804 440 88 2318 231 1401 2087 652 602 164 110 1435 530 220 134 1366 1243 323 920 703 385
is_linear=0
shrinkage=0.05


Tree=25
num_leaves=31
num_cat=0
split_feature=22 13 22 13 13 13 14 14 2 2 35 20 27 22 20 26 14 13 3 22 7 2 14 26 13 3 14 14 21 20
split_gain=169.462 49.4203 27.6508 19.8931 14.0192 14.0244 13.7146 26.8219 22.2067 23.6777 13.9158 12.9832 16.6282 16.1132 15.309 12.3365 11.2266 14.7982 21.8641 10.621 11.0409 10.0464 12.2837 10.5307 9.45346 9.30079 9.16337 14.1639 12.9144 10.3348
threshold=0.18900000000000003 0.77500000000000002 0.05850000000000001 -0.93833333333333357 -0.5525000000000001 -3.6919999999999997 -7.863333333333336 -5.004166666666662 5.4150000000000009 5.4750000000000005 1.3600000000000001 -3.7499999999999996 0.57209705200224314 1.0000000180025095e-35 -2.7499999999999996 19.750000000000004 -1.7508333333333341 0.95083333333333331 29.430000000000003 0.90000000000000013 6.9000000000000012 6.7550000000000008 -5.5425000000000013 7.0000000000000009 0.33916666666666645 35.015000000000008 -21.504999999999999 -6.1116666666666655 4.1157272577183432 -0.74999999999999989
decision_type=2 2 2 2 2 2 2 2 2 2 2 2 2 2 2 2 2 2 2 2 2 2 2 2 2 2 2 2 2 2
left_child=1 2 -1 -2 5 -4 -6 8 -8 -10 -11 12 16 -13 -15 -9 17 -3 -19 26 -21 23 -23 -16 -12 -24 -5 28 29 -28
right_child=3 11 4 19 6 -7 7 15 9 10 24 13 -14 14 21 -17 -18 18 -20 20 -22 22 25 -25 -26 -27 27 -29 -30 -31
leaf_value=-0.048532590637535622 -0.021424170172564289 0.082170986917961805 0.07320267479943865 0.067456864800113189 -0.044081750753651339 -0.038367571475419832 -0.015560981166748412 -0.010423597770210347 0.18636760506078909 0.12288280496764044 -0.044317613979609351 -0.055195812323112353 0.074520951214203476 -0.050274164142060256 0.0068898604707919118 -0.05434448013777541 -0.03428842691986194 -0.062117816897075344 0.06501999008394041 -0.0033738717410125782 0.079497561244399051 -0.023037627411323768 0.065338570783087996 -0.030957451858371305 0.06003272737225767 0.016049983881371164 0.026482957202036791 0.027991102921811162 -0.036260322974378374 -0.034089091567901887
leaf_weight=107.01886460185051 22.560812130570412 8.014632832258938 2.9028390645980826 12.189061418175696 29.684175532311201 94.827232796698809 11.308833923190834 151.64559223502874 3.7249089702963856 3.7709607854485503 4.3415727168321592 13.810458324849604 12.976305752992628 13.202908203005789 64.270590029656887 17.872133575379848 10.729290347546341 7.3309112638235074 6.2770989760756493 5.2384956628084209 17.266662165522575 10.854829370975493 16.693191543221474 25.740056905895472 4.3400919735431671 22.433979481458664 38.105949573218822 293.58972810953856 16.416618853807449 8.638408884406088
leaf_count=1926 157 37 13 56 334 1361 137 1566 23 28 50 182 61 93 491 257 77 51 34 29 76 75 95 242 35 164 181 1336 76 48
internal_value=-0.000726207 -0.0167751 -0.0264938 0.0242296 -0.0192237 -0.0350536 -0.0123991 -0.00762519 0.0381917 0.0757673 0.0426838 0.00297207 0.026704 -0.00346916 0.00119395 -0.0150541 0.00752464 0.0282725 -0.00347173 0.0268608 0.0602077 0.00604799 0.0240227 -0.00393321 0.00784866 0.0370784 0.0248267 0.0233701 0.00189058 0.0152892
internal_weight=1057.78 643.771 431.437 414.006 324.418 97.7301 226.688 197.004 27.4864 16.1775 12.4526 212.334 45.3282 167.006 153.196 169.518 32.3519 21.6226 13.608 391.445 22.5052 139.993 49.982 90.0106 8.68166 39.1272 368.94 356.751 63.161 46.7444
internal_count=9291 7332 5730 1959 3804 1374 2430 2096 273 136 113 1602 260 1342 1160 1823 199 122 85 1802 105 1067 334 733 85 259 1697 1641 305 229
is_linear=0
shrinkage=0.05


Tree=26
num_leaves=31
num_cat=0
split_feature=16 13 13 23 15 13 7 8 27 23 6 9 3 15 24 27 21 23 9 35 21 10 23 15 23 27 27 23 26 33
split_gain=136.332 52.851 24.8175 18.9412 14.5153 14.3434 10.7323 9.95427 15.1759 12.7074 10.072 9.76681 13.2047 13.8791 9.71195 15.9956 9.51773 11.977 11.5395 12.7974 10.5763 11.0145 9.77577 8.98749 12.7529 8.65718 8.64316 8.61538 8.58041 10.4964
threshold=1.0000000180025095e-35 0.97583333333333322 -0.52500000000000069 -1.0000000180025095e-35 0.013333333333333199 0.052499999999999776 3.5000000000000004 9.9500000000000011 -1.1004252097777056 0.14565000000000003 1.0000000180025095e-35 5.5000000000000009 42.905000000000008 0.010000000000000233 5.2500000000000009 -0.9547850339679862 4.5930703464826772 -1.0000000180025095e-35 4.5000000000000009 5.1350000000000007 4.9599107142857148 2.5000000000000004 0.060350000000000008 -0.0899999999999994 0.20865000000000003 -1.2843858930076713 -1.6827673445952664 0.50135000000000007 1.2500000000000002 1.0000000180025095e-35
decision_type=2 2 2 2 2 2 2 2 2 2 2 2 2 2 2 2 2 2 2 2 2 2 2 2 2 2 2 2 2 2
left_child=1 2 -1 -4 6 -2 -5 8 -8 28 11 12 13 -10 27 25 22 -18 20 -20 -19 23 26 -22 -25 -16 -3 -7 -9 -30
right_child=5 16 3 4 -6 14 7 9 10 -11 -12 -13 -14 -15 15 -17 17 18 19 -21 21 -23 -24 24 -26 -27 -28 -29 29 -31
leaf_value=-0.037741460612108847 0.010695406482962272 0.057132730781976497 -0.051570979078619343 -0.038467805850749041 -0.023362624386075576 0.021227778849884221 0.079229517972916552 0.018129525495657908 -0.0100710449274919 0.032363050270498551 0.078759019246381984 -0.045326801181740907 0.11573144521531181 0.11502213947640527 0.05604005900575712 0.056237636360328795 -0.054901599821552828 0.060412324395163898 -0.024284114340998177 0.078083211059750579 0.068588361722742741 0.05139628787643015 0.04847743168848568 -0.010671249298176609 0.086101884098657072 -0.03368899409083919 -0.017933382899098169 0.06357746674378327 -0.020877835264121111 0.060209782690768626
leaf_weight=155.72892719507217 108.01174539327621 4.1424285769462577 30.847824618220329 18.822676580399275 136.84733480960131 131.39799692481756 8.9391725994646531 20.178850069642067 22.646274939179428 18.943226173520088 4.4251116625964633 9.3283891007304174 2.8508448600769034 2.458024524152278 3.9267446249723426 68.337717711925507 5.2388618923723689 22.471220575273037 19.923624079674486 3.6056190878152838 5.189751833677291 20.013716816902161 7.4914118051528922 35.589960172772408 3.7644926607608786 8.5221100896596891 51.609151691198349 13.217197015881537 97.588633868843317 4.1610770672559729
leaf_count=2370 586 21 557 204 1569 547 61 174 215 87 35 117 18 15 17 301 72 126 143 17 23 114 34 251 16 44 423 60 1041 33
internal_value=-0.000714145 -0.0130584 -0.0209435 -0.0140238 -0.0106877 0.0256766 -0.0024415 0.0010992 0.02011 -0.00573577 0.00743921 -0.0010256 0.0137573 0.00217714 0.0328556 0.0467417 0.0104494 0.018969 0.0224694 -0.00859735 0.0308686 0.020585 -0.00514988 0.00674155 -0.00141431 -0.00538574 -0.0123559 0.0250984 -0.0116549 -0.0175617
internal_weight=1046.22 712.807 533.766 378.037 347.19 333.414 210.342 191.52 50.6478 140.872 41.7086 37.2835 27.9551 25.1043 225.402 80.7866 179.04 115.797 110.558 23.5292 87.0291 64.5579 63.243 44.5442 39.3545 12.4489 55.7516 144.615 121.929 101.75
internal_count=9291 7736 6496 4126 3569 1555 2000 1796 461 1335 400 365 248 230 969 362 1240 762 690 160 530 404 478 290 267 61 444 607 1248 1074
is_linear=0
shrinkage=0.05


Tree=27
num_leaves=31
num_cat=0
split_feature=22 22 2 25 25 6 15 5 25 8 2 4 27 35 2 35 35 15 5 25 14 4 8 4 35 8 14 3 25 2
split_gain=141.302 46.7577 32.7762 17.3151 15.1907 10.9978 9.61838 16.1991 16.233 11.3475 16.8219 20.4182 14.4873 9.48267 9.24548 23.476 11.5294 11.8154 9.85553 8.85515 10.0842 24.387 11.8011 8.57267 8.42918 8.0281 7.89349 11.2618 7.85946 14.7731
threshold=0.29165000000000002 0.05850000000000001 5.3250000000000011 -0.78842325584278272 1.3152299709723887 1.0000000180025095e-35 0.01166666666666716 6.745000000000001 0.46278072477832072 10.050000000000002 5.4750000000000005 31.785000000000004 0.51176752128008018 6.0650000000000013 6.7150000000000007 2.7850000000000006 4.1250000000000018 0.0083333333333341936 6.6750000000000007 1.0756317351535305 -6.1116666666666655 36.82500000000001 10.850000000000003 33.945000000000007 5.9700000000000015 15.500000000000002 13.021666666666667 39.945000000000007 0.98007335281790586 5.8150000000000004
decision_type=2 2 2 2 2 2 2 2 2 2 2 2 2 2 2 2 2 2 2 2 2 2 2 2 2 2 2 2 2 2
left_child=1 4 24 -2 -1 -6 9 8 -8 10 11 -4 13 28 16 -16 17 18 -12 20 21 22 -5 -14 -3 -9 -22 -28 -11 -30
right_child=3 2 6 19 5 -7 7 25 -10 12 14 -13 23 -15 15 -17 -18 -19 -20 -21 26 -23 -24 -25 -26 -27 27 -29 29 -31
leaf_value=-0.047004872302502609 -0.0088279782450584616 -0.025218257895937207 0.17125987826635136 0.060095440661584433 -0.01745335497783871 0.088434132399429086 -0.054257789289328701 -0.027616730752868343 0.048159863764752356 -0.028804600432248278 0.078874238082914383 0.0017475044462885309 -0.001944944828598113 0.07768715898042633 -0.029317587527706732 0.072538618198264709 -0.039836744093046661 0.11991615913257039 -0.0080332793098310783 0.039938433628814073 0.029158261120876286 -0.04379194341647033 0.0021814662756742087 0.043721277981353897 0.046630241819919344 0.018271387190981616 -0.07660719480911439 0.019605683273410279 0.1107975062111589 -0.0069582649554556369
leaf_weight=120.99817949905992 39.177097156643867 200.14967078715563 4.0638397037982932 15.188181176781653 9.1758919879794103 3.3465631306171408 4.9095839224755791 67.439937330782413 18.252677917480469 45.792772904038429 3.9953465908765855 3.156103104352951 18.079265058040619 2.8654877692461005 8.3806442022323626 17.406982138752937 11.993906810879706 2.640325501561164 17.776435770094395 88.186319708824158 200.12466904520988 18.705724492669106 20.900972545146942 23.813619375228882 4.1671512946486464 11.100072279572485 4.3258183076977721 10.243719607591627 2.8785123378038397 35.652192801237106
leaf_count=2249 228 2602 21 73 116 26 71 668 97 407 26 27 131 14 70 83 95 16 152 391 912 98 93 158 31 105 26 46 22 237
internal_value=-0.000697366 -0.0152684 -0.00830515 0.022729 -0.0415794 0.0108445 0.00220868 -0.0102947 0.0264509 0.00861498 0.0249175 0.0971598 -0.000151668 -0.0117627 0.016531 0.0394367 0.000306168 0.0200288 0.00791515 0.0261856 0.0216851 0.00253993 0.0265547 0.0240136 -0.0237529 -0.0211314 0.0265714 -0.00896073 -0.0148024 0.00183891
internal_weight=1034.89 638.035 504.515 396.853 133.521 12.5225 300.198 101.702 23.1623 198.495 69.4136 7.21994 129.082 87.189 62.1936 25.7876 36.406 24.4121 21.7718 357.675 269.489 54.7949 36.0892 41.8929 204.317 78.54 214.694 14.5695 84.3235 38.5307
internal_count=9291 7424 5033 1867 2391 142 2400 941 168 1459 490 48 969 680 442 153 289 194 178 1639 1248 264 166 289 2633 773 984 72 666 259
is_linear=0
shrinkage=0.05


Tree=28
num_leaves=31
num_cat=0
split_feature=22 22 2 13 26 13 22 7 4 13 11 20 35 21 24 21 13 14 14 4 26 24 4 35 11 27 10 13 20 7
split_gain=129.211 43.4165 32.8012 15.9042 14.0857 13.0813 9.69277 10.3454 9.41872 9.35332 12.8726 23.7957 10.8063 11.9957 10.7839 10.0447 9.00093 8.66007 11.4121 20.2698 8.59519 15.3456 16.5297 10.9527 10.85 9.22845 8.46472 8.41933 8.40483 8.34434
threshold=0.18900000000000003 0.05850000000000001 5.3250000000000011 -0.93833333333333357 19.750000000000004 1.614166666666667 0.90000000000000013 6.9000000000000012 50.350000000000009 0.75749999999999995 14.500000000000002 3.2500000000000004 1.7100000000000004 1.8102833532582483 5.2500000000000009 7.9472021434128974 -3.6919999999999997 -21.504999999999999 -6.1116666666666655 36.740000000000002 34.500000000000007 26.750000000000004 33.690000000000005 1.8650000000000004 13.500000000000002 0.014571645089222712 3.5000000000000004 -0.59333333333333338 -0.74999999999999989 8.8500000000000014
decision_type=2 2 2 2 2 2 2 2 2 2 2 2 2 2 2 2 2 2 2 2 2 2 2 2 2 2 2 2 2 2
left_child=1 5 4 -2 16 -1 17 -8 9 10 12 -12 13 -4 -15 -11 -3 -5 19 28 21 22 26 -23 -22 -24 -20 -18 -19 -14
right_child=3 2 8 6 -6 -7 7 -9 -10 15 11 -13 29 14 -16 -17 27 18 20 -21 24 23 25 -25 -26 -27 -28 -29 -30 -31
leaf_value=-0.045781587291451764 -0.020250956407263515 0.068548329329895005 0.077881075549225742 0.063512408998544323 -0.053602927781915145 0.01299373354552695 -0.006166452160162904 0.075341698841934146 -0.05873639144473141 0.0091451269591670461 0.0020166896725659321 0.14222709993635443 -0.04970760683433241 0.010902198959231314 -0.046183561470515173 0.078698905983825174 -0.033957149687514392 0.030922459595782437 0.021127547258828691 -0.037823170661513139 0.069472262375384189 0.020426271086040084 0.019225884490858328 -0.065189557689877123 -0.0030077702287373588 0.048195452458476513 -0.0057738489630864021 -0.010376028693926363 -0.034544443056616622 -0.010562451623506825
leaf_weight=118.25406206026673 22.123489327728748 2.9442048817872992 4.8908426836132994 11.828407809138296 33.727785564959049 10.290532760322092 5.1065553128719356 16.381577521562576 6.1792165227234355 157.99463532119989 14.210594385862352 3.8447788730263701 25.758885502815247 29.821952015161514 11.449053045362232 5.367122769355773 62.536578498780727 34.756461076438427 87.481964878737926 22.135874137282372 20.215687766671184 6.6821636110544196 42.818468682467937 8.4711989685893041 6.9345671012997618 76.795305907726288 43.923643946647644 95.895144779235125 5.7076905220746985 28.87341995537281
