tree
version=v4
num_class=1
num_tree_per_iteration=1
label_index=0
max_feature_idx=15
objective=binary sigmoid:1
feature_names=jyo_cd boat_no racer_win_rate motor_2ren boat_2ren exhibition_time tilt temperature water_temperature wind_speed wave_height wind_direction weather racer_win_rate_diff motor_2ren_diff exhibition_time_diff
feature_infos=-1:1:2:3:8:4:23:17:7:11:15:19:13:20:14:18:12:22:10:21 -1:1:2:5:6:3:4 [0.80000000000000004:8.4399999999999995] [0:85.709999999999994] [0:70] [6.4800000000000004:7.5899999999999999] [-0.5:3] [7:19] [6:18] [0:8] [0:20] -1:13:15:4:17:5:14:12:3:1:2:7:11:6:16:10:8:9 -1:1:2 [-4.0183333333333335:3.1116666666666664] [-46.544999999999995:51.384999999999998] [-0.29666666666666686:0.293333333333333]
tree_sizes=3272 3328 3352 3370 3361 3363 3372 3380 3400 3391 3386 3340 3389 3376 3410 3388 3407 3369 3391 3380 3372 3418 3402 3411 3367 3392 3351 3398 3399 3384 3370 3392 3375 3387 3370 3388 3382 3374 3360 3372 3409 3392 3406 3409 3390 3370 3403 3402 3389 3357 3435 3404 3373 3347 3380 3389 3399 3388 3389 3369 3401 3384 3404 3358 3410 3439 3406 3434 3397 3411 3374 3400 3405 3405 3386 3431 3430 3436 3427 3411 3421 3409 3423 3403 3432 3401 3399 3410 3386 3422 3425 3413 3423 3429 3408

Tree=0
num_leaves=31
num_cat=3
split_feature=1 13 13 13 13 2 14 10 2 15 13 1 3 15 3 3 2 15 2 3 9 1 4 15 3 9 13 14 14 3
split_gain=1043.65 135.17 93.8162 44.1426 30.5662 30.3155 28.0312 32.0185 25.1637 24.7921 23.7925 22.9129 21.0369 16.5463 15.273 15.2375 34.6211 14.0491 23.5124 13.9052 13.34 12.5826 15.1673 22.5752 17.2917 12.1148 11.1563 10.977 10.9443 10.9366
threshold=0 -0.12083333333333311 0.9425 0.71000000000000052 -0.49666666666666653 4.3400000000000007 -6.344999999999998 3.5000000000000004 5.5550000000000006 -0.013333333333333195 1.7958333333333336 1 43.70000000000001 -0.026666666666666835 39.445000000000007 33.905000000000008 6.8650000000000011 -0.046333333333333108 6.455000000000001 31.835000000000004 4.5000000000000009 2 35.175000000000004 -0.063666666666666746 41.600000000000009 2.5000000000000004 1.0783333333333338 -1.0000000180025095e-35 -5.3169999999999993 29.195000000000004
decision_type=1 2 2 2 2 2 2 2 2 2 2 1 2 2 2 2 2 2 2 2 2 1 2 2 2 2 2 2 2 2
left_child=1 5 4 6 -2 13 -3 14 -5 12 11 17 21 -1 19 -12 25 18 -4 -8 -9 22 -6 27 -25 -17 -19 -24 -7 -10
right_child=2 3 10 8 9 28 7 20 29 -11 15 -13 -14 -15 -16 16 -18 26 -20 -21 -22 -23 23 24 -26 -27 -28 -29 -30 -31
leaf_value=-1.5217390295910962 -1.6406947055049901 -1.5521196222669535 -1.5689778087964932 -1.4863836023271817 -1.6095104284503983 -1.5684081935794634 -1.3902000042515898 -1.5714461414036218 -1.3305368789478467 -1.6260635270230066 -1.571446141403622 -1.6173888200023827 -1.5421082452731762 -1.6136631404772739 -1.3669807163270249 -1.4981014010775078 -1.5911928022606527 -1.5361842470160669 -1.413472854547376 -1.4772697588547059 -1.4658774545141113 -1.6258832616507934 -1.4266372951187298 -1.6060027979034257 -1.4727128371184681 -1.3660808684905021 -1.5933667465751882 -1.553494631533594 -1.4727128371184681 -1.389776861518939
leaf_weight=8.1589041650295275 205.37931174039841 6.6115257889032355 6.7521965503692609 5.4861596971750251 42.763911485671997 3.6574397981166866 7.8775626420974794 5.0641474127769452 11.253660917282103 227.74596281349659 11.394331678748133 29.400189146399498 14.77042995393276 12.238356247544287 11.112990155816076 2.9540859907865507 5.064147412776947 11.816343963146208 3.7981105595827103 10.97231939435005 7.3148795962333679 34.886348843574524 3.7981105595827103 18.005857467651371 2.8134152293205252 4.2201228439807892 30.666225999593735 3.0947567522525814 16.317808330059052 25.320737063884735
leaf_count=58 1460 47 48 39 304 26 56 36 80 1619 81 209 105 87 79 21 36 84 27 78 52 248 27 128 20 30 218 22 116 180
internal_value=-1.59068 -1.46723 -1.61674 -1.42409 -1.6254 -1.53402 -1.45637 -1.44142 -1.38653 -1.61637 -1.57407 -1.58674 -1.59799 -1.57689 -1.41347 -1.52984 -1.4911 -1.5687 -1.513 -1.44088 -1.50906 -1.60582 -1.59076 -1.56202 -1.58799 -1.42044 -1.57746 -1.48359 -1.49023 -1.37155
internal_weight=790.71 131.386 659.324 91.014 553.258 40.3725 48.9534 42.3419 42.0606 347.879 106.066 82.4331 120.133 20.3973 29.9629 23.6327 12.2384 53.0329 10.5503 18.8499 12.379 105.362 70.4761 27.7121 20.8193 7.17421 42.4826 6.89287 19.9752 36.5744
internal_count=5621 934 4687 647 3933 287 348 301 299 2473 754 586 854 145 213 168 87 377 75 134 88 749 501 197 148 51 302 49 142 260
cat_boundaries=0 1 2 3
cat_threshold=2 28 28
is_linear=0
shrinkage=1


Tree=1
num_leaves=31
num_cat=4
split_feature=1 13 13 13 13 2 1 1 14 10 14 11 14 2 13 9 4 2 5 9 2 14 13 9 2 13 5 2 2 13
split_gain=882.188 96.214 86.8481 29.6833 28.5506 24.5097 23.3153 21.0879 20.3931 22.0342 19.2756 24.7949 20.7396 16.0368 14.9934 10.3554 9.80712 11.6819 10.2505 9.54108 9.90459 9.41161 20.7962 12.1463 10.565 10.0267 9.9627 9.24057 10.6706 10.4448
threshold=0 -0.12083333333333311 0.9425 -0.49666666666666653 0.71000000000000052 4.3850000000000007 1 2 -6.344999999999998 3.5000000000000004 5.2199999999999998 3 10.118333333333336 5.5550000000000006 1.7958333333333336 4.5000000000000009 35.055000000000007 4.0400000000000009 6.7250000000000005 1.0000000180025095e-35 4.7350000000000012 6.557666666666667 0.15916666666666626 1.5000000000000002 5.6550000000000011 0.53166666666666684 6.7550000000000008 6.6250000000000009 6.6950000000000012 1.0783333333333338
decision_type=1 2 2 2 2 2 1 1 2 2 2 1 2 2 2 2 2 2 2 2 2 2 2 2 2 2 2 2 2 2
left_child=1 5 3 -2 8 16 21 10 -3 19 11 -4 -12 -6 -9 -11 18 -18 -1 -10 -21 -5 26 25 -25 -24 -23 29 -29 -13
right_child=2 4 7 6 13 -7 -8 14 9 15 12 27 -14 -15 -16 -17 17 -19 -20 20 -22 22 23 24 -26 -27 -28 28 -30 -31
leaf_value=0.060755434012452897 -0.049620218847846592 0.035295661947887469 -0.013716706321925148 -0.018373112807019854 0.092089015581649628 0.090600600697658851 -0.041405664728868002 -0.035677597494827233 0.22597547096270554 0.017627761640341487 0.15629152575838456 0.10629503214566277 0.02157956108754909 0.18034246957974709 0.045606344771624972 0.10882149184052081 0.0022447776685058838 0.12789241499391268 -0.036110784842961367 0.062580801262479571 0.15092569521270938 0.023089031890484342 0.049674218357461428 -0.028323893721668832 0.066446497619671877 0.17254003748346078 -0.052299663485369886 0.17108617099155621 0.059958797106935913 0.022316474442301261
leaf_weight=3.7126546055078533 198.56927871704102 6.7789119333028784 29.686607092618942 173.05867390334606 5.8670725375413886 20.410468190908432 130.75507524609566 28.874067664146423 3.6421179473400107 5.1272200942039472 5.9747474044561368 4.7906187325716081 5.4754690229892731 41.968634426593781 7.0604764372110358 7.9241507649421692 3.9896503537893286 3.4491596817970276 10.330516442656515 3.6082330644130733 26.276895374059677 6.6041719019413021 4.0929685533046749 6.2912849187850934 5.5219440311193466 2.7939721345901489 13.025953501462935 3.4421172142028791 5.8001699000597 16.302189022302628
leaf_count=26 1460 47 208 1249 39 136 950 209 23 36 40 33 38 260 49 52 28 24 73 23 167 47 29 45 39 20 94 23 40 114
internal_value=-0.000554579 0.10757 -0.0256887 -0.0342425 0.141469 0.0513648 -0.0253178 0.0149817 0.116322 0.128114 0.0284428 0.0210812 0.0918726 0.169518 -0.0154166 0.0729961 0.0140861 0.0605039 -0.0105018 0.149571 0.140259 -0.0128023 0.00900954 0.0467433 0.0159753 0.0995198 -0.0269366 0.0448665 0.101346 0.0413898
internal_weight=791.205 143.086 648.12 540.713 101.193 41.8924 342.144 107.406 53.3575 46.5786 71.4719 60.0217 11.4502 47.8357 35.9345 13.0514 21.482 7.43881 14.0432 33.5272 29.8851 211.389 38.3303 18.7002 11.8132 6.88694 19.6301 30.3351 9.24229 21.0928
internal_count=5621 934 4687 3933 647 287 2473 754 348 301 496 418 78 299 258 88 151 52 99 213 190 1523 274 133 84 49 141 210 63 147
cat_boundaries=0 1 2 3 4
cat_threshold=2 28 28 194816
is_linear=0
shrinkage=0.05


Tree=2
num_leaves=31
num_cat=3
split_feature=1 2 1 2 15 14 2 14 5 5 3 5 10 2 15 3 2 15 2 8 2 15 3 4 4 10 2 11 2 15
split_gain=757.464 72.8181 57.633 43.4631 25.038 20.3666 16.7999 33.9971 17.056 13.238 11.9977 12.7426 12.0774 11.2636 10.6995 15.1653 10.6499 12.6167 10.4558 9.90489 11.5006 9.52603 8.46583 11.7105 8.3989 8.27259 8.15266 7.6326 7.78876 11.4186
threshold=0 4.3850000000000007 1 5.6550000000000011 -0.010833333333333249 5.7525000000000022 5.6350000000000007 -5.6141666666666667 6.7950000000000008 6.955000000000001 51.470000000000006 6.6450000000000005 1.5000000000000002 5.6450000000000005 -0.026666666666666835 42.520000000000003 6.455000000000001 -0.07499999999999972 4.705000000000001 12.500000000000002 4.1750000000000007 -0.090833333333333308 28.250000000000004 36.860000000000007 25.425000000000001 1.0000000180025095e-35 5.0950000000000006 2 6.0150000000000006 0.028333333333332881
decision_type=1 2 1 2 2 2 2 2 2 2 2 2 2 2 2 2 2 2 2 2 2 2 2 2 2 2 2 1 2 2
left_child=1 19 3 10 5 16 7 22 24 21 11 -2 -12 -4 15 -7 17 -5 -10 20 -1 -8 23 -3 -9 -23 -20 28 -6 -30
right_child=2 6 13 4 27 14 9 8 18 -11 12 -13 -14 -15 -16 -17 -18 -19 26 -21 -22 25 -24 -25 -26 -27 -28 -29 29 -31
leaf_value=-0.034112288248321979 0.031443370259902778 0.10380518332492483 -0.053378191491937045 0.075302967067493398 -0.020903589978119669 0.13097674298963419 0.058989801262709085 0.21466255464070683 0.15304559786724137 0.048725106704116172 0.11607052674029994 -0.03009422626160976 -0.0071845993801306664 -0.031237269923111478 0.17304897341092565 0.0020704484978070962 0.043278815560842288 -0.01700885061170291 0.0074626011219164658 0.060118385130185761 0.060082217825113429 0.089414840938536008 -0.04780566366050009 -0.027598179211336789 0.13134311489570205 0.14747121962840734 0.087804708360292638 -0.01510179444093103 0.00085357556208727589 0.10826533406236771
leaf_weight=9.5036680251359922 8.7435799837112409 3.9324243515729886 159.27737128734589 4.4042832851409903 5.0740406811237326 4.3951210677623731 3.6696007996797553 3.5871613323688534 3.7069120556116131 4.4624917060136786 2.8325828462839109 222.05265706777573 6.6615452319383621 89.842178136110306 2.9878815412521353 4.7447413057088852 23.971524268388748 23.194650545716289 4.9892377257347098 11.56628030538559 4.9170619845390329 6.8154207468032828 3.5541794449090958 2.9806796312332153 19.286819458007812 61.546133384108543 8.6008174419403058 69.04422664642334 4.8826485723257047 5.0162831693887711
leaf_count=67 63 26 1201 30 36 28 22 21 23 27 20 1647 49 665 20 32 164 166 31 79 32 39 23 20 118 354 52 498 34 34
internal_value=-0.000639331 0.0956675 -0.0248953 -0.0120653 0.00896734 0.032609 0.117505 0.0951654 0.116078 0.132293 -0.0254969 -0.0277629 0.0295887 -0.0436415 0.0909099 0.0640581 0.0188984 -0.00227758 0.0786121 0.0256506 -0.00199462 0.13747 0.0149069 0.0471488 0.14441 0.141683 0.0583092 -0.00895671 0.0176668 0.0552845
internal_weight=790.244 153.119 637.125 388.006 147.715 63.6982 127.132 50.6382 40.1709 76.4936 240.29 230.796 9.49413 249.12 12.1277 9.13986 51.5705 27.5989 17.297 25.987 14.4207 72.0312 10.4673 6.9131 22.874 68.3616 13.5901 84.0172 14.973 9.89893
internal_count=5621 934 4687 2821 1042 440 756 314 245 442 1779 1710 69 1866 80 60 360 196 106 178 99 415 69 46 139 393 83 602 104 68
cat_boundaries=0 1 2 3
cat_threshold=2 28 66768
is_linear=0
shrinkage=0.05


Tree=3
num_leaves=31
num_cat=3
split_feature=1 13 13 13 15 1 3 13 3 11 13 13 5 15 15 5 7 7 15 8 6 13 3 4 13 3 15 7 9 15
split_gain=657.039 78.7049 59.2017 24.4316 25.7587 23.6722 19.6332 18.615 17.9917 15.7802 15.5536 13.5479 12.1907 15.1355 12.056 10.7716 10.3381 10.2694 10.5067 9.58535 10.3648 9.50693 12.9971 8.98897 8.9458 11.1172 8.59915 8.17074 7.76275 7.74953
threshold=0 0.75416666666666698 -0.1350000000000002 -0.52999999999999969 -0.013333333333333195 1 40.310000000000009 1.3200000000000001 43.70000000000001 2 1.7958333333333336 -1.3083333333333331 6.785000000000001 -0.028333333333333762 -0.0019999999999993352 6.6450000000000005 15.650000000000002 15.650000000000002 0.036666666666666632 13.500000000000002 -1.0000000180025095e-35 1.0125 31.120000000000001 42.190000000000005 -0.67916666666666659 35.265000000000008 -0.029999999999999801 10.950000000000001 3.5000000000000004 -0.015999999999999567
decision_type=1 2 2 2 2 1 2 2 2 1 2 2 2 2 2 2 2 2 2 2 2 2 2 2 2 2 2 2 2 2
left_child=2 3 11 -2 8 6 9 29 15 -3 -7 -1 13 -8 16 28 21 18 24 20 -10 22 -11 -17 -13 26 -26 -16 -5 -4
right_child=1 5 7 4 -6 10 12 -9 19 14 -12 17 -14 -15 27 23 -18 -19 -20 -21 -22 -23 -24 -25 25 -27 -28 -29 -30 -31
leaf_value=-0.047460237809361733 -0.048618523663763166 -0.013342110771826255 0.11353261620403561 0.0013188510270904035 -0.035877873109180884 -0.035922375271650979 0.10740348197566285 0.15027505611310821 0.026888789762890827 0.084959452012041775 0.044468670057967959 0.011923009140093699 0.11402158613879453 -0.0054711174568023565 -0.060507865549388057 -0.023465049139031982 -0.027554901848185792 0.10397330418883753 -0.046458485505751171 -0.0031603521565837754 0.14107419202185009 0.093663522585047176 -0.060206687128813122 0.031828467521008041 0.092541802146405158 0.1175403960701079 0.00025067112920275402 0.022642205804656951 0.10762727415276141 0.085104220811943521
leaf_weight=3.9207672625780097 180.28193002939224 33.749872505664825 50.246915191411972 4.0604658126831046 200.81907162070274 38.634460389614105 4.6911246031522742 22.741979405283928 3.9784467965364456 3.435404419898993 7.1265044659376136 10.87420327961445 8.2091188281774503 8.0945259183645266 3.8603919595479992 76.050306603312492 3.0225160121917716 7.1990376710891715 3.3110785335302344 5.2435992211103439 3.9710695147514325 14.476337686181067 2.7974638640880585 8.136642321944235 4.1836088001728093 7.1756255626678458 6.3620871156454104 12.589417457580565 2.9755993485450745 45.84427484869957
leaf_count=28 1408 240 281 29 1522 294 29 119 27 24 49 72 52 55 27 564 21 45 22 37 28 95 20 58 26 43 40 87 21 258
internal_value=-0.000681005 -0.0240974 0.086083 -0.0340242 -0.0254043 0.0084475 0.0215331 0.109597 -0.00526085 0.011684 -0.0192058 0.0411476 0.0664725 0.0359432 0.0288459 -0.0131539 0.0588269 0.0500315 0.0378607 0.0493151 0.0839285 0.0714344 0.0198053 -0.0181209 0.047624 0.0695309 0.0368637 0.0031288 0.0462774 0.0999697
internal_weight=788.064 626.204 161.86 485.517 305.235 140.687 94.9262 118.833 104.416 73.9314 45.761 43.0264 20.9948 12.7857 40.1815 91.223 23.7317 39.1056 31.9066 13.1931 7.94952 20.7092 6.23287 84.1869 28.5955 17.7213 10.5457 16.4498 7.03607 96.0912
internal_count=5621 4687 934 3694 2286 993 650 658 764 514 343 276 136 84 274 672 160 248 203 92 55 139 44 622 181 109 66 114 50 539
cat_boundaries=0 1 2 3
cat_threshold=2 28 191488
is_linear=0
shrinkage=0.05


Tree=4
num_leaves=31
num_cat=4
split_feature=1 13 13 13 15 1 14 2 11 3 13 7 13 15 14 7 1 5 15 15 2 15 10 14 2 2 5 14 14 2
split_gain=574.741 73.3076 48.3021 23.837 24.3301 21.1502 22.8778 18.8634 17.5635 15.8735 14.1956 13.935 12.4418 11.9417 11.4128 11.2314 10.7667 10.4416 9.91703 9.52433 9.46828 8.97954 8.8646 8.30927 8.04406 7.8895 7.62234 7.39322 11.4981 7.17443
threshold=0 0.75416666666666698 0.34249999999999986 -0.52999999999999969 -0.013333333333333195 1 4.4966666666666635 4.285000000000001 2 43.70000000000001 1.7958333333333336 15.650000000000002 1.5883333333333336 0.0016666666666673715 9.089000000000004 11.800000000000002 3 6.6450000000000005 -0.026666666666666835 0.050000000000000273 5.6150000000000011 0.0049999999999994502 1.0000000180025095e-35 -5.3169999999999993 5.5150000000000006 5.1550000000000011 6.6550000000000011 6.8325000000000022 10.118333333333336 6.245000000000001
decision_type=1 2 2 2 2 1 2 2 1 2 2 2 2 2 2 2 1 2 2 2 2 2 2 2 2 2 2 2 2 2
left_child=2 3 7 -2 9 6 8 11 21 16 -7 18 27 23 -11 -15 17 -5 -1 -10 -16 -3 24 -9 -19 -4 -25 -8 -29 -28
right_child=1 5 25 4 -6 10 12 13 19 14 -12 -13 -14 15 20 -17 -18 22 -20 -21 -22 -23 -24 26 -26 -27 29 28 -30 -31
leaf_value=0.04193469156265886 -0.047839557255644316 0.079522510236466629 0.053449435405691338 0.068550932331873454 -0.034962869699909305 -0.035009629718499177 -0.008868707623978218 0.02986094771993214 -0.016845193586268077 0.12247828947124027 0.041030249826746468 0.094077543091865001 0.12832765781461952 0.1148346672398368 -0.016207683617304382 0.020338542850515604 -0.032380663423507719 0.0029096005399529231 -0.036096647283180655 0.054142191851788458 0.086495263821896887 0.0083785560819262615 -0.011808999356797309 0.026666947444780077 0.11236927166181261 0.11346747019758457 0.11441416034637075 0.13799943819139524 0.031512543559409863 0.058921944324254072
leaf_weight=6.749324738979344 174.21124105155468 14.095465019345285 5.8814731836318961 5.3891820013523093 195.89741828292608 37.684049278497696 4.7162180840969148 5.9050913602113715 48.175892531871796 3.5419784337282172 7.3319743722677222 4.4683160930871955 5.9591758251190177 3.8841396272182491 6.7092856615781766 16.511647805571556 29.195408076047897 4.0083865225315085 10.263746738433838 5.2389494925737372 3.3719672709703445 6.4715831875801078 48.924486845731735 3.7906810492277137 2.887565553188324 79.331726089119911 25.148789748549461 3.7120775580406171 7.9943409711122513 7.5801505893468848
leaf_count=44 1408 90 33 36 1522 294 31 36 340 24 49 28 35 22 46 96 228 30 73 37 22 44 358 21 20 404 136 22 51 41
internal_value=-0.000713285 -0.0233281 0.0781669 -0.0331296 -0.0245853 0.00789265 0.0200664 0.0559442 0.0087487 -0.00504305 -0.0185123 0.0154977 0.0664418 0.0697748 0.0452707 0.0383342 -0.0126249 0.00179499 -0.00514052 -0.0083243 0.0181443 0.0384443 -0.00432839 0.08489 0.048744 0.109325 0.093788 0.0439856 0.0652793 0.101562
internal_weight=785.032 615.517 169.515 474.137 299.926 141.38 96.3637 84.3019 73.9819 104.028 45.016 21.4814 22.3818 62.8205 13.6232 20.3958 90.405 61.2096 17.0131 53.4148 10.0813 20.567 55.8204 42.4247 6.89595 85.2132 36.5196 16.4226 11.7064 32.7289
internal_count=5621 4687 934 3694 2286 993 650 497 511 764 343 145 139 352 92 118 672 444 117 377 68 134 408 234 50 437 198 104 73 177
cat_boundaries=0 1 2 3 4
cat_threshold=2 28 65558 28
is_linear=0
shrinkage=0.05


Tree=5
num_leaves=31
num_cat=3
split_feature=1 13 13 13 13 1 1 6 5 13 3 5 9 6 4 2 9 8 2 4 13 5 14 3 7 5 2 2 4 3
split_gain=500.884 85.0673 41.5286 22.6674 21.4676 20.0298 17.615 15.2364 12.755 11.7906 10.406 9.62974 11.1607 13.6209 13.1317 10.9117 10.2689 9.10456 10.3719 11.2938 8.77986 8.60241 8.58031 13.5472 10.1602 10.2366 10.3055 8.06802 7.76442 14.3818
threshold=0 0.76916666666666667 -0.12083333333333311 -0.52999999999999969 1.7533333333333336 1 2 -1.0000000180025095e-35 6.6450000000000005 -1.3083333333333331 44.385000000000005 6.7550000000000008 1.5000000000000002 -1.0000000180025095e-35 34.065000000000005 4.6650000000000009 2.5000000000000004 13.500000000000002 4.2550000000000008 37.965000000000011 1.2758333333333336 6.7550000000000008 -0.93333333333333168 32.57500000000001 10.950000000000001 6.8150000000000004 5.5550000000000006 5.4850000000000012 38.82500000000001 29.910000000000004
decision_type=1 2 2 2 2 1 1 2 2 2 2 2 2 2 2 2 2 2 2 2 2 2 2 2 2 2 2 2 2 2
left_child=2 3 9 -2 5 28 11 -6 -8 -1 -10 12 13 14 -5 -13 -14 18 -11 -20 22 -9 23 24 -4 26 -26 -25 -3 -30
right_child=1 4 20 6 7 -7 8 21 10 17 -12 15 16 -15 -16 -17 -18 -19 19 -21 -22 -23 -24 27 25 -27 -28 -29 29 -31
leaf_value=-0.046832529904829785 -0.047511201387010454 0.011510832902617486 0.013814047374384584 0.040639162587874054 0.017388730050991442 -0.02459427475730723 0.037993258503661642 0.033046281732953695 -0.043296788197456755 -0.020916605477747551 -0.0023448099222871184 -0.053080950122263659 -0.053677293423863674 -0.022709296844019664 0.17330462097592059 -0.0087471582538488895 0.013951347242672316 0.067981788678600594 0.070535337519373978 -0.033754749225827073 0.11548511025262437 0.12094020253855858 0.097014595941637388 -0.039633923309036562 0.068439387796719833 0.059633566479609039 0.14505628405031254 0.0520269748988888 0.12998440261890695 0.013849714713746726
leaf_weight=3.9692300260066977 165.76354806125164 63.800391748547554 4.7893385142087928 4.9824675917625427 15.092248350381853 36.651071600615978 5.5684905946254721 4.1577589809894553 146.35304640233517 8.7818314433097857 17.351372361183167 17.349668025970459 7.85721626877785 4.0078291893005353 2.9814389646053314 69.38327019661665 19.652723848819733 20.056492805480957 11.7281347066164 3.3338664621114722 27.131085053086281 8.4243498444557172 54.667540833353996 3.9065659493207914 7.0590185374021557 14.104303792119024 11.603248298168181 6.2279994338750839 4.1913113445043546 7.324370265007019
leaf_count=30 1386 431 24 37 98 293 39 26 1165 61 128 136 57 29 20 532 145 119 65 20 127 53 274 22 39 74 57 32 29 50
internal_value=-6.24005e-05 -0.0219951 0.071457 -0.0327124 0.0118301 0.00208357 -0.0244105 0.0512632 -0.034393 0.0356931 -0.0389562 -0.00768823 0.0121726 0.0524707 0.090305 -0.0176155 -0.00536432 0.0431547 0.0222711 0.0474515 0.0901965 0.0918956 0.0834935 0.0679943 0.0818377 0.0917804 0.116076 0.0166945 0.0161827 0.0561187
internal_weight=778.251 600.893 177.359 461.251 139.642 111.967 295.488 27.6744 169.273 47.8696 163.704 126.215 39.4817 11.9717 7.96391 86.7329 27.5099 43.9003 23.8438 15.062 129.489 12.5821 102.358 47.6905 37.5559 32.7666 18.6623 10.1346 75.3161 11.5157
internal_count=5598 4654 944 3674 980 803 2288 177 1332 295 1293 956 288 86 57 668 202 265 146 85 649 79 522 248 194 170 96 54 510 79
cat_boundaries=0 1 2 3
cat_threshold=2 28 12
is_linear=0
shrinkage=0.05


Tree=6
num_leaves=31
num_cat=4
split_feature=1 13 13 13 15 13 1 0 3 6 4 13 15 15 15 3 5 1 13 5 15 8 3 14 3 3 4 5 13 14
split_gain=443.244 78.8898 34.7149 22.1149 26.2557 18.6988 18.3825 18.1122 13.288 12.4844 10.5692 10.4776 9.74858 11.9903 9.23656 10.4443 8.76825 9.25369 12.2925 17.2152 7.68866 7.59887 8.26945 11.3597 12.5492 7.53664 7.35999 10.7301 7.32517 6.72142
threshold=0 0.76916666666666667 -0.12083333333333311 -0.52999999999999969 -0.013333333333333195 1.7533333333333336 1 2 43.70000000000001 -1.0000000180025095e-35 42.190000000000005 -1.3083333333333331 -0.018166666666666661 -0.033333333333332764 -0.042666666666666846 35.63000000000001 6.6450000000000005 3 0.21249999999999994 6.7250000000000005 -0.099999999999999187 13.500000000000002 31.325000000000003 4.8641666666666703 34.860000000000007 29.590000000000003 28.785000000000004 6.7950000000000008 -0.90749999999999986 5.2199999999999998
decision_type=1 2 2 2 2 2 1 1 2 2 2 2 2 2 2 2 2 1 2 2 2 2 2 2 2 2 2 2 2 2
left_child=2 3 11 -2 7 6 29 8 16 -7 -9 -1 13 20 15 -8 -5 18 25 -20 -4 22 -13 24 -24 -18 -11 -28 -23 -3
right_child=1 5 12 4 -6 9 14 10 -10 26 -12 21 -14 -15 -16 -17 17 -19 19 -21 -22 28 23 -25 -26 -27 27 -29 -30 -31
leaf_value=-0.045989299539009237 -0.046765458693534254 0.010231048353814106 0.020732900411473167 0.075437452137957578 -0.03473065412591874 0.016340646345600136 -0.024484302368959932 -0.034273427639239532 0.076058889073599881 0.040251061999196557 0.038758900171559869 -0.017722711674348631 0.068309573518440511 0.13126615367804881 -0.042929295500358122 0.10396454652753817 0.059387382195259422 -0.020155498553101447 -0.0063311384914212128 0.13786530276576156 0.089251444485573872 0.12304396993315454 0.029472458876659408 0.00015710732866907486 0.15870191527076424 -0.029386774959649142 0.059856705394391231 0.17988708970809611 0.047706738323805196 0.048858244946225815
leaf_weight=3.8431252092123023 160.1300762295723 62.459719523787498 4.4694158732891074 4.357006534934043 187.8505886644125 15.252972543239595 4.4253473579883567 45.61537828296423 8.6872105002403242 5.7747831195592862 5.5575268492102614 8.7953476160764712 63.641504123806953 17.441602632403374 29.127858817577362 2.4635372757911682 3.3596544712781933 18.271101593971252 3.6484924554824811 4.7838402390480042 48.775440916419029 3.9919458180665996 4.2686547040939313 7.6686846911907196 3.3551636189222336 8.2905654758214933 4.0257777124643326 3.464016780257225 16.828201606869698 13.739274427294729
leaf_count=30 1386 428 23 28 1526 98 36 345 56 35 40 55 313 83 237 20 25 147 25 34 230 23 26 45 20 62 24 20 96 82
internal_value=-0.000118493 -0.0212801 0.0657949 -0.0318472 -0.0236217 0.0110381 0.00185033 -0.00327651 0.0164813 0.0471915 -0.0220358 0.0332478 0.0825052 0.0952861 -0.0239624 0.0214504 0.00822225 0.000586552 0.0196896 0.0754745 0.0834999 0.0400287 0.0209071 0.0431246 0.086345 -0.00378636 0.082667 0.115371 0.0621515 0.0152009
internal_weight=774.364 591.285 183.079 450.551 290.421 140.733 112.216 102.571 51.3979 28.5176 51.1729 48.7511 134.328 70.6865 36.0167 6.88888 42.7107 38.3537 20.0826 8.43233 53.2449 44.908 24.0879 15.2925 7.62382 11.6502 13.2646 7.48979 20.8201 76.199
internal_count=5598 4654 944 3674 2288 980 803 762 377 177 385 295 649 336 293 56 321 293 146 59 253 265 146 91 46 87 79 44 119 510
cat_boundaries=0 1 2 3 4
cat_threshold=2 28 35222 12
is_linear=0
shrinkage=0.05


Tree=7
num_leaves=31
num_cat=4
split_feature=1 1 2 2 15 8 15 2 3 4 14 15 14 14 15 0 14 14 15 0 5 5 14 7 9 5 4 7 2 4
split_gain=393.714 51.4244 35.0528 29.5957 23.8795 16.3689 11.9039 11.8249 13.516 9.50135 10.6246 9.4951 11.4486 12.0187 9.79957 8.06051 8.12552 17.9371 9.5375 7.61036 7.41512 7.3139 10.3294 7.50901 9.06469 7.2581 8.95601 7.429 7.71536 9.42463
threshold=0 1 4.8250000000000011 4.285000000000001 0.0083333333333333055 12.500000000000002 -0.038166666666667119 4.7750000000000012 43.615000000000009 37.965000000000011 -6.7341666666666695 0.016666666666666167 7.3650000000000029 -6.1108333333333329 -0.099999999999999187 2 -3.4358333333333326 -1.3108333333333329 0.050000000000000273 3 6.8650000000000011 6.7350000000000012 -9.4374999999999982 12.900000000000002 3.5000000000000004 6.745000000000001 33.955000000000005 9.5000000000000018 6.5950000000000006 31.955000000000002
decision_type=1 1 2 2 2 2 2 2 2 2 2 2 2 2 2 1 2 2 2 1 2 2 2 2 2 2 2 2 2 2
left_child=3 2 21 5 9 -1 7 -3 -9 10 -4 14 13 -13 -5 16 -6 -18 -19 -12 -15 22 -2 -24 -25 26 -21 -27 -29 -30
right_child=1 6 4 11 15 -7 -8 8 -10 -11 19 12 -14 20 -16 -17 17 18 -20 25 -22 -23 23 24 -26 27 -28 28 29 -31
leaf_value=-0.02816047323799541 0.074583935987844852 -0.057392805708057992 -0.02879215775765312 0.0098363088510711391 -0.028889896035996166 0.05427262295808967 -0.046438323743117307 -0.0098771859408250604 0.10177613018196441 0.040360982075962636 -0.0068314942215137384 -0.0036082353575884055 -0.031666591059223516 0.094807070936391458 0.080701386113910825 -0.025824189872396614 0.10040755316843673 -0.025032528501284557 0.055218641229489974 -0.012509291113145577 0.037725266037223461 -0.036314626416052188 -0.044171831266078293 -0.018428043832066487 0.074903420102256008 0.099304344208605205 0.054446247382715668 0.017250227991539916 0.1306341666491089 0.030280219362674412
leaf_weight=12.261502213776112 3.3646354973316219 11.539676129817961 15.929964803159235 5.0780213773250571 11.48655331879854 11.834865354001522 183.13191875070333 22.481441214680675 3.0820713043212882 30.866967372596264 29.461765490472317 6.1816864758729961 3.9479591101407996 15.864528790116312 124.13522379100323 58.22030545771122 5.6153504401445415 12.852036289870741 5.2003787234425536 18.478213235735897 8.870496913790701 97.764417178928852 13.595400862395765 8.6406145021319372 3.7223203331232062 4.6410941854119292 6.844281554222106 25.068138994276524 3.8420965149998647 5.9824647679924965
leaf_count=87 27 103 115 26 88 71 1570 180 22 211 218 33 20 76 586 446 42 96 39 127 45 842 109 69 29 31 45 181 23 41
internal_value=-0.000166124 -0.0205879 -0.00836744 0.0608366 0.00286209 0.0123263 -0.0394163 -0.0153805 0.00358432 0.0158413 0.00897637 0.0716685 0.0485129 0.0587516 0.0779164 -0.0167531 0.00437205 0.0223622 -0.00191449 0.0153553 0.0743363 -0.0297455 -0.00784372 -0.0185277 0.00967286 0.0229489 0.00558776 0.039874 0.0319692 0.0695257
internal_weight=769.986 581.812 361.577 188.174 234.49 24.0964 220.235 37.1032 25.5635 141.115 110.248 164.078 34.8647 30.9167 129.213 93.3746 35.1543 23.6678 18.0524 94.3181 24.735 127.087 29.323 25.9583 12.3629 64.8563 25.3225 39.5338 34.8927 9.82456
internal_count=5598 4654 2779 944 1703 158 1875 305 202 992 781 786 174 154 612 711 265 177 135 666 121 1076 234 207 98 448 172 276 245 64
cat_boundaries=0 1 2 3 4
cat_threshold=2 28 53270 7738384
is_linear=0
shrinkage=0.05


Tree=8
num_leaves=31
num_cat=4
split_feature=1 13 13 1 13 1 15 11 15 6 13 15 6 4 14 13 5 3 15 13 15 3 15 15 15 5 3 4 5 4
split_gain=351.017 71.8438 26.8946 21.9346 15.6932 15.572 13.7843 11.5609 10.6254 11.8407 10.264 10.3686 10.1669 8.92963 8.97499 8.65957 11.1816 9.87264 9.95078 8.6214 8.33343 8.44209 7.6764 7.66294 9.32059 7.6336 8.42526 7.2997 7.13991 7.18063
threshold=0 0.76916666666666667 -0.12083333333333311 1 1.7533333333333336 2 0.0083333333333333055 3 -0.00083333333333346349 1.0000000180025095e-35 -0.5658333333333333 0.0050000000000003384 -1.0000000180025095e-35 37.115000000000002 6.9741666666666697 -0.47633333333333322 6.6450000000000005 44.385000000000005 -0.018333333333333087 -1.3083333333333331 -0.042666666666666846 35.63000000000001 -0.0036666666666667065 -0.018166666666666661 -0.033333333333332764 6.7950000000000008 33.085000000000008 31.895000000000003 6.785000000000001 38.82500000000001
decision_type=1 2 2 1 2 1 2 1 2 2 2 2 2 2 2 2 2 2 2 2 2 2 2 2 2 2 2 2 2 2
left_child=2 3 19 6 5 7 10 13 9 25 22 -12 -6 14 -3 -5 -17 -18 -19 -1 21 -7 -2 24 28 -9 -27 -24 29 -4
right_child=1 4 23 15 12 20 -8 8 -10 -11 11 -13 -14 -15 -16 16 17 18 -20 -21 -22 -23 27 -25 -26 26 -28 -29 -30 -31
leaf_value=-0.045184304893388864 -0.046526685152525019 -0.043648520240114064 0.068231206462661995 -0.052253622736682992 0.015348883076656022 -0.023355657641706561 -0.030790794795821703 0.018744720756679139 0.0060788530409054894 0.13433946682209796 0.0028809352707613567 0.10035515244905049 0.074347680188998802 0.033088791180332304 0.030497837690332482 0.035462451641424024 -0.040862906520181715 0.045858759713311235 -0.032546250011017526 0.033942002288268346 -0.041215137812786212 0.089583939267567844 0.084612853360788817 0.058294367515012796 0.11211233281754572 0.040546296752928951 0.14358990431245938 -0.028162177528177124 0.097918749459478191 0.0068349044827796289
leaf_weight=3.7150650545954695 18.550448797643188 18.16093963384629 33.179379254579544 104.18269775062799 15.385707050561907 4.3176348060369483 75.712883830070496 14.120591640472417 18.568151339888573 4.0270922482013694 73.267630897462368 2.8337510451674452 13.897835329174994 8.405260890722273 5.2642942219972602 5.6530884280800811 129.57236252725124 6.9221465140581158 9.7422016784548742 46.924082063138485 27.33787927031517 2.6826845705509186 2.4645711705088607 67.008468955755234 18.730103835463524 5.3575055450201017 3.1501185446977615 3.4344540238380432 17.474386900663376 5.5604180991649619
leaf_count=30 167 130 149 963 98 36 648 89 126 24 545 23 79 55 31 38 1112 44 81 265 237 20 22 313 83 35 20 31 78 26
internal_value=-0.000215172 -0.0199114 0.0564873 -0.030358 0.0107784 0.00221587 -0.0138893 0.014176 0.0287579 0.0553449 -0.00254416 0.00651054 0.0433494 -0.00846341 -0.0269858 -0.0396049 -0.0335366 -0.0362039 2.21384e-05 0.028137 -0.0222664 0.0199254 -0.0307278 0.0705801 0.0815649 0.0412865 0.0787003 0.0189544 0.0713867 0.0594188
internal_weight=765.604 573.012 192.592 432.336 140.676 111.392 176.264 77.054 45.2235 26.6553 100.551 76.1014 29.2835 31.8305 23.4252 256.072 151.89 146.237 16.6643 50.6391 34.3382 7.00032 24.4495 141.953 74.9443 22.6282 8.50762 5.89903 56.2142 38.7398
internal_count=5598 4654 944 3674 980 803 1436 510 294 168 788 568 177 216 161 2238 1275 1237 125 295 293 56 220 649 336 144 55 53 253 175
cat_boundaries=0 1 2 3 4
cat_threshold=2 12 28 48136
is_linear=0
shrinkage=0.05


Tree=9
num_leaves=31
num_cat=4
split_feature=1 13 13 1 0 15 3 3 15 0 2 14 4 7 4 13 13 13 3 15 13 3 7 13 14 2 2 14 3 7
split_gain=313.74 66.7182 23.3177 21.2119 15.741 14.5341 14.4726 15.8375 12.884 13.4651 10.9243 9.63132 19.945 15.1997 9.63918 9.50147 9.40432 8.63436 9.30194 12.4757 7.73773 7.27424 13.7495 7.08035 7.06015 6.82821 8.69356 6.48394 10.6412 8.42796
threshold=0 0.76916666666666667 -0.12083333333333311 1 2 -0.021666666666666941 40.495000000000012 24.225000000000005 0.0083333333333333055 3 6.3950000000000005 -3.9800000000000018 37.640000000000008 14.850000000000001 38.480000000000011 -0.49666666666666653 1.7533333333333336 -0.47633333333333322 42.235000000000007 -0.013333333333333195 -1.3083333333333331 49.255000000000003 12.100000000000001 1.2758333333333336 -6.2116666666666651 6.6250000000000009 6.035000000000001 -0.93333333333333168 33.215000000000011 10.950000000000001
decision_type=1 2 2 1 1 2 2 2 2 1 2 2 2 2 2 2 2 2 2 2 2 2 2 2 2 2 2 2 2 2
left_child=2 3 20 8 6 24 7 10 9 11 -3 12 13 -2 21 -11 -9 -5 -19 -20 -1 22 -13 27 -6 26 -26 28 29 -4
right_child=1 4 23 17 5 -7 -8 16 -10 15 -12 14 -14 -15 -16 -17 -18 18 19 -21 -22 -23 -24 -25 25 -27 -28 -29 -30 -31
leaf_value=-0.044364740889343057 -0.024037457978756328 0.14304006309841361 -0.00071328883933941749 -0.051700699040930331 -0.035495218231272101 -0.028658477475575463 0.072340288154298854 -0.0058238125300321825 -0.029935551237591659 -0.051297375805077407 0.034358964886124554 0.084172907617760223 0.17788542779448765 0.11770021291564214 -0.034798772995983988 -0.0066139041568135746 0.039734285240928195 -0.038276761325123101 0.038894189093336459 -0.033806731610370157 0.031676772487130876 0.099840527808128215 -0.010052507295820277 0.08712338415830656 0.075302117956737524 0.081839735405696029 -0.021753051648306133 0.070961104941071079 -0.00010505101903704071 0.065953961237883843
leaf_weight=3.5975112393498412 5.7590224072337133 3.6657778173685056 5.4112158417701712 100.1347629353404 3.9983693659305599 39.467917561531067 13.743782602250574 42.999291568994522 74.025643639266491 17.184612281620502 6.2619048357009888 5.1810950785875383 2.720927618443965 2.8165639713406563 9.9145298376679403 38.66486357152462 15.378921344876288 123.60499497503042 9.8682491555809992 14.678253814578055 47.743697054684162 2.7882201075553885 15.318226240575312 30.146203026175499 3.6355913951992971 5.8330865651369086 6.3150312900543213 61.545837417244911 9.7400378286838514 38.254868179559708
leaf_count=30 46 25 25 963 29 291 82 313 648 158 43 39 19 21 74 291 92 1083 64 128 265 19 121 127 24 37 44 274 47 176
internal_value=-0.000238596 -0.0192455 0.0526292 -0.0295304 0.0101568 -0.00951969 0.0227528 0.0161063 -0.0133461 -0.00243826 0.0744893 0.016378 0.0599381 0.0225148 0.00649011 -0.0172705 0.00617783 -0.0387967 -0.0326936 -0.00457932 0.0263485 0.0240686 0.0137625 0.0655555 0.0238525 0.0388866 0.0137073 0.0598993 0.0471515 0.0576924
internal_weight=760.399 563.96 196.439 422.66 141.3 59.25 82.0497 68.3059 174.374 100.348 9.92768 44.4986 11.2965 8.57559 33.2021 55.8495 58.3782 248.286 148.151 24.5465 51.3412 23.2875 20.4993 145.098 19.7821 15.7837 9.95062 114.952 53.4061 43.6661
internal_count=5598 4654 944 3674 980 425 555 473 1436 788 68 339 86 67 253 449 405 2238 1275 192 295 179 160 649 134 105 68 522 248 201
cat_boundaries=0 1 2 3 4
cat_threshold=2 12 11540634 4222228
is_linear=0
shrinkage=0.05


Tree=10
num_leaves=31
num_cat=4
split_feature=1 2 1 2 15 15 4 15 10 14 8 5 8 4 15 15 2 4 3 3 5 11 14 6 3 2 15 11 2 14
split_gain=296.076 38.8318 23.032 20.8421 15.1503 13.2448 11.9353 12.2624 10.4045 10.9859 9.39911 8.66465 8.52092 25.6398 8.43243 7.9436 17.1139 7.88545 7.53492 9.70687 12.9528 9.67662 7.85678 7.51642 6.6306 6.23735 8.19856 6.72701 11.8358 16.0228
threshold=0 5.2150000000000007 1 4.285000000000001 -0.038166666666667119 -0.028000000000000021 35.175000000000004 -0.054999999999999265 2.5000000000000004 -0.41583333333333167 12.500000000000002 6.7250000000000005 11.250000000000002 33.115000000000002 -0.030833333333333265 0.019166666666667002 5.455000000000001 25.425000000000001 40.310000000000009 48.090000000000011 6.8050000000000006 2 6.3675000000000006 1.0000000180025095e-35 35.505000000000003 4.6250000000000009 -0.023333333333332981 3 5.0650000000000004 -0.12999999999999898
decision_type=1 2 1 2 2 2 2 2 2 2 2 2 2 2 2 2 2 2 2 2 2 1 2 2 2 2 2 1 2 2
left_child=3 25 5 10 12 6 14 8 -8 -10 11 -1 13 -4 23 17 -17 -5 21 20 22 -7 -20 -3 -9 -2 27 -27 29 -29
right_child=1 2 4 15 -6 18 7 24 9 -11 -12 -13 -14 -15 -16 16 -18 -19 19 -21 -22 -23 -24 -25 -26 26 -28 28 -30 -31
leaf_value=0.051251741215657121 -0.040075357577218057 -0.01556636371075714 -0.014970422681576518 0.088607990851540558 -0.038735523567234115 0.011791194896542444 0.034632443180524594 -0.02301478567415283 0.060374141479336368 0.1844665715435295 0.04023281016474145 -0.045273048222189027 -0.016067629553352451 0.16967887300674686 0.075843501906369459 -0.0062101105240144104 0.064139224076713061 0.057364404620179991 -0.050132847058527587 -0.027357905757982772 0.075772080803150219 -0.019394460749569895 0.037593359007738275 0.050171672358009671 0.050889027981304361 -0.019412300008506401 -0.033425343677848045 0.11180243568086917 -0.058348409963374905 -0.010219324234494247
leaf_weight=3.0718285292387018 166.00187011063099 27.06352062523365 5.5394333079457301 24.282864645123482 79.557394661009312 28.926582008600235 6.5490041077137011 6.55436012893915 3.5966128706932068 3.5380474850535393 11.815544851124287 9.5622567757964116 13.964280828833578 2.8458463549613953 3.5836502835154525 14.262735366821287 21.949110433459282 119.96475459635258 4.8584245145320946 8.7651359960436803 10.095737300813196 82.148221120238304 5.3769007921218872 5.1806538403034201 5.6523106619715691 13.603547304868696 66.416644692420959 5.8434215188026419 2.8847472816705695 4.9857638552784946
leaf_count=20 1576 183 42 105 713 217 40 45 21 19 68 69 112 23 23 73 98 535 35 60 68 635 34 31 35 108 596 46 24 37
internal_value=-0.000977265 -0.0197085 -0.00792212 0.0491021 -0.0259691 0.00235693 0.0217737 0.0476392 0.0801395 0.121911 0.00817585 -0.0218042 0.00785606 0.047697 0.00308247 0.0573679 0.0364308 0.062624 -0.00602425 0.0166258 0.0355881 -0.0119575 -0.00404783 -0.00500427 0.0112064 -0.034253 -0.0239418 -0.000884486 0.018303 0.0556235
internal_weight=768.441 563.532 303.796 204.909 101.907 201.889 61.7182 25.8903 13.6837 7.13466 24.4496 12.6341 22.3496 8.38528 35.8278 180.459 36.2118 144.248 140.171 29.0962 20.3311 111.075 10.2353 32.2442 12.2067 259.736 93.7341 27.3175 13.7139 10.8292
internal_count=5691 4723 2336 968 890 1446 397 160 80 40 157 89 177 65 237 811 171 640 1049 197 137 852 69 214 80 2387 811 215 107 83
cat_boundaries=0 1 2 3 4
cat_threshold=2 28 198726 176160
is_linear=0
shrinkage=0.05


Tree=11
num_leaves=31
num_cat=6
split_feature=1 13 13 2 0 1 5 13 0 8 3 13 8 1 5 9 4 4 4 3 5 3 13 11 4 3 13 5 3 13
split_gain=266.193 49.3254 20.3489 18.2433 16.8893 16.7049 12.9365 12.3705 10.4445 9.66384 9.28294 8.5429 8.37644 8.22053 7.91207 7.78832 7.58273 8.65516 6.96203 6.68553 15.8601 9.48193 6.17505 5.71521 8.13978 7.93729 6.55315 6.23533 4.68842 5.0667
threshold=0 0.75416666666666698 -0.58916666666666651 4.285000000000001 1 2 6.6450000000000005 1.8450000000000004 3 13.500000000000002 50.250000000000007 1.2758333333333336 12.500000000000002 4 6.7250000000000005 2.5000000000000004 38.570000000000007 42.785000000000004 32.955000000000005 40.310000000000009 6.8150000000000004 24.225000000000005 0.86916666666666631 5 31.600000000000005 31.835000000000004 1.0783333333333338 6.8350000000000009 42.335000000000008 -0.040000000000000473
decision_type=1 2 2 2 1 1 2 2 1 2 2 2 2 1 2 2 2 2 2 2 2 2 2 1 2 2 2 2 2 2
left_child=3 2 -2 12 10 8 -7 13 -4 -9 16 -5 14 19 -1 -14 -3 -18 -17 21 -21 -6 -15 26 25 -25 -23 -28 -8 -30
right_child=1 4 5 11 7 6 28 9 -10 -11 -12 -13 15 22 -16 18 17 -19 -20 20 -22 23 -24 24 -26 -27 27 -29 29 -31
leaf_value=0.047195274249532453 -0.044695679612950227 -0.031456553861561397 0.0097790971637394131 0.048562019555864727 0.070581157850699086 0.044808340474589432 -0.039690906992137315 0.031365022425855975 -0.01739558475191182 0.11804445078482664 0.056303002366286714 0.076582266812996028 0.08968880318986229 0.039514023135674925 -0.044332092025581554 0.056306191605414779 0.045319365165044728 -0.035157176844566283 -0.039549283225279369 0.0047723967624640241 0.13093060827526523 -0.054667748626004035 -0.03279376654683705 0.0025933491736255441 -0.0019168625621489273 0.10230686533616602 -0.021723824457490472 0.065728299672088861 -0.043450421140937535 0.0019367443260462408
leaf_weight=3.1664930507540712 129.37503177672625 43.132749140262604 57.498037934303284 150.03089070320129 6.7051519602537146 5.1654358655214301 124.14412666112185 8.3432054966688138 67.44494754076004 5.2320656925439826 4.1491871774196616 33.226283714175224 4.4788302779197693 3.6154141128063229 9.2840709090232831 3.6488056629896164 7.8938526436686498 5.7927151769399643 3.9394026696681976 5.531159356236456 4.53279909491539 7.754431530833247 16.10652618855238 3.151744410395624 9.2143633961677534 5.4412179365754128 6.0205181837081891 3.0815046429634094 10.241877108812334 15.386543072760103
leaf_count=20 1308 320 441 675 41 35 1160 50 553 26 25 136 25 33 69 20 53 42 23 30 24 54 142 22 62 34 38 19 90 121
internal_value=-0.000980966 -0.0190595 -0.0282972 0.0460088 0.00558013 -0.020717 -0.0309883 0.0188127 -0.005092 0.0647723 -0.0136555 0.0536424 0.00771739 0.0126882 -0.0210544 0.0374036 -0.0211674 0.0112584 0.00654302 0.0209685 0.061594 0.0161541 -0.0129646 0.00562607 0.0196777 0.0657337 -0.0131128 0.00788323 -0.0356715 -0.0162013
internal_weight=762.729 554.955 409.256 207.775 145.699 279.881 154.938 84.7301 124.943 13.5753 60.9685 183.257 24.5176 71.1548 12.4506 12.067 56.8193 13.6866 7.58821 51.4329 10.064 41.3689 19.7219 34.6638 17.8073 8.59296 16.8565 9.10202 149.773 25.6284
internal_count=5691 4723 3708 968 1015 2400 1406 575 994 76 440 811 157 499 89 68 415 95 43 324 54 270 175 229 118 56 111 57 1371 211
cat_boundaries=0 1 2 3 4 5 6
cat_threshold=2 4622596 12 576788 28 37936
is_linear=0
shrinkage=0.05


Tree=12
num_leaves=31
num_cat=3
split_feature=1 13 13 15 0 2 0 4 15 13 13 15 5 4 9 4 8 4 5 10 13 15 9 4 5 13 13 6 2 15
split_gain=239.613 45.8904 19.7921 21.6319 16.6593 16.0334 15.1717 13.3655 12.6207 10.8436 7.75893 7.71853 11.7406 18.167 9.11987 7.76132 7.47567 7.36593 7.23983 6.58029 9.77217 7.61834 6.56473 6.21726 6.20837 8.25693 9.14332 9.20054 13.438 5.3855
threshold=0 0.75416666666666698 -0.58916666666666651 -0.016333333333333307 1 4.285000000000001 2 42.785000000000004 -0.026666666666666835 1.7533333333333336 1.2758333333333336 -0.073333333333332792 6.785000000000001 34.20000000000001 4.5000000000000009 37.265000000000008 12.500000000000002 30.030000000000005 6.7250000000000005 3.5000000000000004 0.9966666666666667 -0.010833333333333249 2.5000000000000004 32.955000000000005 6.6450000000000005 -0.045000000000000366 0.038333333333333559 -1.0000000180025095e-35 5.6550000000000011 0.019166666666667002
decision_type=1 2 2 2 1 2 1 2 2 2 2 2 2 2 2 2 2 2 2 2 2 2 2 2 2 2 2 2 2 2
left_child=5 2 -2 4 24 16 8 -6 -3 11 29 -8 15 14 19 -13 18 -11 -1 20 -14 -22 -18 -24 -4 -26 -27 28 -28 -7
right_child=1 6 3 -5 7 10 9 -9 -10 17 -12 12 13 -15 -16 -17 22 -19 -20 -21 21 -23 23 -25 25 26 27 -29 -30 -31
leaf_value=0.043600161028917728 -0.04400913178965498 0.018369210299221689 0.072715936023051819 -0.030433021122853378 -0.03372205434452432 0.050469629777816175 0.059653150368084377 0.05433861439405846 -0.030836137223323103 0.019904600545823454 0.072033976672369521 -0.03861051887434018 0.097334509572201244 -0.024427295828790968 -0.030347228084778185 0.03390863576781817 0.081435286046870059 0.085176874503599564 -0.043407378000526325 0.12190240135337185 0.089260523803024211 -0.0037722266251892442 0.052005682150883893 -0.038421295276309782 -0.010045542410049527 0.10301965239737237 -0.029357069163626737 -0.009819570038091063 0.091689213137533504 0.027772871784667603
leaf_weight=3.2538476809859285 124.93676854670048 19.050810597836971 5.1296692118048659 177.48209223896265 42.261548653244972 118.64463536441326 7.2162574529647818 4.7980439588427535 41.245426625013351 8.038920998573305 33.549021571874619 17.901687376201156 6.2694756090641119 13.670418448746203 3.2689750194549552 4.6473308131098738 4.6805494427680969 9.3487704545259458 9.0146507099270803 3.5110129565000525 2.9502200037241009 8.6597314029931969 3.7502567619085312 3.8544887378811836 19.423378467559814 3.9522604942321804 3.3240110278129613 11.832853309810158 7.3908495754003525 33.519982054829597
leaf_count=20 1308 126 31 1637 351 519 45 35 314 45 136 129 44 100 25 32 25 50 69 24 19 62 20 23 158 28 26 87 47 156
internal_value=-0.000970007 -0.0184216 -0.0275014 -0.0200178 -0.00117714 0.043194 0.0052617 -0.0204072 -0.0131145 0.0176885 0.0502686 0.010759 0.00496337 0.0218048 0.0474344 -0.0236644 0.0072766 0.0549993 -0.0203313 0.0593213 0.0470322 0.0198684 0.0348467 0.00617249 0.0171807 0.0147186 0.0328697 0.0205735 0.0541377 0.0454698
internal_weight=756.578 546.311 400.531 275.595 98.1126 210.267 145.779 47.0596 60.2962 85.4828 185.714 68.0951 60.8789 38.3298 24.6594 22.549 24.5538 17.3877 12.2685 21.3904 17.8794 11.61 12.2853 7.60475 51.053 45.9234 26.5 22.5477 10.7149 152.165
internal_count=5691 4723 3708 2400 763 968 1015 386 440 575 811 480 435 274 174 161 157 95 89 149 125 81 68 43 377 346 188 160 73 675
cat_boundaries=0 1 2 3
cat_threshold=2 575892 4622596
is_linear=0
shrinkage=0.05


Tree=13
num_leaves=31
num_cat=4
split_feature=1 13 1 13 15 0 13 15 0 15 15 13 3 3 8 15 13 13 14 14 5 2 14 5 2 14 9 3 8 3
split_gain=216.01 43.2588 19.1533 14.4144 13.2254 12.4008 11.5027 17.9677 13.252 11.3521 10.2417 11.073 12.2669 9.78124 9.29784 9.43857 7.26325 6.98676 6.89353 10.5009 6.76775 6.61922 6.61447 15.6305 9.3346 12.2577 9.01475 8.77886 10.4149 8.37661
threshold=0 0.18250000000000013 1 -0.67916666666666659 -0.038166666666667119 2 -0.58916666666666651 -0.028333333333333762 3 -0.031833333333334039 -0.07499999999999972 1.8450000000000004 33.905000000000008 35.20000000000001 11.250000000000002 -0.046333333333333108 1.2758333333333336 -0.31333333333333296 -23.499999999999996 -12.149999999999997 6.6950000000000012 6.6850000000000014 6.557666666666667 6.8050000000000006 6.6250000000000009 -2.3558333333333343 2.5000000000000004 33.735000000000007 13.500000000000002 44.645000000000003
decision_type=1 2 1 2 2 1 2 2 1 2 2 2 2 2 2 2 2 2 2 2 2 2 2 2 2 2 2 2 2 2
left_child=3 6 5 -1 14 -3 -2 8 17 -10 13 22 -13 -7 15 -4 18 -8 -5 -20 -19 -6 24 -24 27 26 -26 28 -12 -25
right_child=1 2 4 16 21 10 7 -9 9 -11 11 12 -14 -15 -16 -17 -18 20 19 -21 -22 -23 23 29 25 -27 -28 -29 -30 -31
leaf_value=0.0038888958427637996 -0.043325907445078339 -0.010408306013155956 0.0096483483757165527 0.12178726763151888 -0.043189672113244815 0.11554250318292272 -0.0006393445914499819 -0.03274677169498421 -0.030841961884108773 0.063521676590189244 0.023449656671314302 -0.00074342122747071888 0.10543736489120646 0.012232224908514298 -0.016628909854085241 0.12582573005859007 0.06797921831655819 0.1397909134503546 -0.019560521129557577 0.043841518642680571 0.05120416395127049 -0.00050102376735783327 -0.014739154951281469 0.12860718754311892 -0.049786628886611527 0.090151165107874118 0.054742944033553509 -0.034031992088236172 -0.03160015336501059 0.02772023542202753
leaf_weight=21.647620022296906 120.67037974298 64.641088098287582 4.3036820963025093 2.6887346655130377 51.215944647789001 4.9474063068628293 3.2921642214059821 119.45160786062479 25.286544792354107 3.6468294635415104 27.008519902825356 4.7688337415456754 6.3315542489290237 4.2672540619969368 10.609435796737669 2.944277539849284 33.766479641199112 3.4363105148076993 6.833489090204238 147.38592185080051 5.786550760269165 11.037788875401018 7.8357089832425144 4.6163972392678243 4.5902977138757688 6.1695854738354674 3.7456852793693542 21.032946385443211 12.599989250302313 3.7118243724107742
leaf_count=135 1308 476 33 12 493 28 24 1126 212 28 206 29 31 23 86 21 136 22 31 654 41 91 46 27 33 39 22 158 98 22
internal_value=-0.000954662 -0.017796 -0.00326776 0.0406393 -0.0219947 0.0061427 -0.0316563 -0.0229045 0.00546032 -0.0140813 0.0157949 0.0126669 0.0598211 0.0677001 0.0131915 0.0568421 0.0469429 0.0344017 0.042416 0.0410322 0.0842104 -0.0356208 0.00693453 0.0359506 0.000693249 0.0367245 -0.00281738 -0.0079255 0.00593759 0.0836426
internal_weight=750.271 537.949 256.378 212.322 80.1111 176.267 281.57 160.9 41.4484 28.9334 111.626 102.411 11.1004 9.21466 17.8574 7.24796 190.675 12.515 156.908 154.219 9.22286 62.2537 91.311 16.1639 75.147 14.5056 8.33598 60.6415 39.6085 8.32822
internal_count=5691 4723 1962 968 724 1238 2761 1453 327 240 762 711 60 51 140 54 833 87 697 685 63 584 651 95 556 94 55 462 304 49
cat_boundaries=0 1 2 3 4
cat_threshold=2 28 15123712 16656
is_linear=0
shrinkage=0.05


Tree=14
num_leaves=31
num_cat=4
split_feature=13 15 13 13 5 0 14 14 13 0 15 5 4 14 10 13 15 11 13 7 14 15 14 4 4 11 13 15 5 14
split_gain=78.1639 38.1688 14.8605 13.6892 11.7001 10.8515 10.2912 9.90123 8.97169 7.97805 9.51026 8.92143 8.63157 8.49133 7.98635 7.23944 6.58041 8.76741 6.40457 6.2041 6.55617 10.4554 6.92427 6.8843 7.93495 7.63202 10.0246 7.0918 6.22108 6.18154
threshold=-0.11250000000000025 -0.013333333333333195 0.41916666666666696 -0.58916666666666651 6.6450000000000005 0 -6.4616666666666616 -6.008333333333332 1.1975000000000005 1 -0.038166666666667119 6.7550000000000008 23.570000000000004 -3.778333333333332 3.5000000000000004 1.9583333333333337 0.0066666666666663774 2 1.4750000000000003 9.5000000000000018 6.265000000000005 0.029166666666666789 7.8358333333333343 28.275000000000002 32.415000000000006 3 1.6358333333333335 0.051833333333333183 6.8350000000000009 -6.7341666666666695
decision_type=2 2 2 2 2 1 2 2 2 1 2 2 2 2 2 2 2 1 2 2 2 2 2 2 2 1 2 2 2 2
left_child=3 6 29 -1 -5 -4 8 -8 -2 11 12 13 -11 -9 -12 -13 17 -6 -10 -7 23 22 -22 28 -25 26 -26 -27 -21 -3
right_child=1 2 5 4 16 19 7 9 18 10 14 15 -14 -15 -16 -17 -18 -19 -20 20 21 -23 -24 24 25 27 -28 -29 -30 -31
leaf_value=-0.033265142461349644 -0.013937761042207512 -0.048303036039384191 -0.0095115101309046993 0.061134180722848298 0.014809543545542592 0.062960817049314305 0.098664875230743174 0.055318414806408311 0.076519323994856558 0.00062929338307369381 0.042318192101680828 0.022017947797751188 0.063799998713680459 -0.01304797369555942 -0.0035835872623988722 0.087916357299075029 -0.027902300745774485 -0.016589698323594578 -6.3716686236460992e-05 0.011623499449581071 0.075917841385770735 0.11019208731095737 -0.017040615632788827 0.047221195678599698 -0.04684946277169863 0.048543590760060429 0.062797014729742931 -0.0208964540141994 -0.038621185953915393 -0.01217524948884839
leaf_weight=140.99233488738537 25.890264995396137 13.741837993264197 55.790704272687435 5.4353569447994223 29.014211900532246 7.2595804482698432 5.2578317597508422 5.2480945661664 5.7341436296701414 6.0913452357053748 24.499149568378925 43.685306139290333 48.168838761746883 33.749098725616932 15.453329175710676 4.6072282642126074 49.432361289858818 43.243325516581535 5.2109243348240852 12.867998898029329 3.1006752550601941 4.4190594330430022 5.6600358039140701 17.364352896809578 12.379438214004038 14.970716916024687 2.5066765174269667 4.8738979175686827 11.819118879735468 85.554124943912029
leaf_count=1456 168 121 400 31 222 47 27 33 31 35 148 260 262 197 97 21 461 338 31 86 20 26 38 111 98 99 13 35 86 693
internal_value=-0.000946006 0.0112182 -0.00211182 -0.0225372 -0.0106391 0.00766335 0.02626 0.0310238 0.00210636 0.0290644 0.0389433 0.0125077 0.0567083 -0.00384748 0.0245637 0.0283048 -0.0138449 -0.00422804 0.0400583 0.0167723 0.0149095 0.0474888 0.0158601 0.0093172 0.0196236 0.00582559 -0.0169797 0.020938 -0.0124315 -0.0171751
internal_weight=744.021 475.904 252.308 268.118 127.125 153.012 223.596 186.76 36.8353 181.502 94.2127 87.2897 54.2602 38.9972 39.9525 48.2925 121.69 72.2575 10.9451 97.2216 89.962 13.1798 8.76071 76.7822 52.0951 34.7307 14.8861 19.8446 24.6871 99.296
internal_count=5691 3183 1873 2508 1052 1059 1310 1080 230 1053 542 511 297 230 245 281 1021 560 62 659 612 84 58 528 356 245 111 134 172 814
cat_boundaries=0 1 2 3 4
cat_threshold=4065536 12645506 39502 151556
is_linear=0
shrinkage=0.05


Tree=15
num_leaves=31
num_cat=5
split_feature=13 15 13 0 13 3 11 0 9 11 15 2 4 5 14 0 14 4 4 15 10 15 2 4 3 15 14 15 14 4
split_gain=67.2252 25.8607 16.7537 13.2686 12.5234 10.1169 10.8161 10.8597 9.89604 9.77746 8.41322 8.1986 9.33037 7.56087 7.13844 8.21486 7.07121 8.12701 12.4561 7.84778 9.30058 7.02027 6.96462 6.82359 7.32577 7.111 6.43147 6.28006 6.01736 5.92757
threshold=-0.11250000000000025 -0.013999999999999789 0.43000000000000022 0 -1.2491666666666663 46.005000000000003 1 2 4.5000000000000009 3 0.051833333333333183 6.6250000000000009 23.205000000000002 6.6450000000000005 -6.7341666666666695 4 -6.4616666666666616 36.305000000000007 30.745000000000001 -0.038333333333333545 1.5000000000000002 -0.05666666666666708 4.785000000000001 37.265000000000008 58.855000000000011 -0.031666666666666725 5.5101666666666693 -0.025000000000000796 -0.12999999999999898 36.130000000000003
decision_type=2 2 2 1 2 2 1 1 2 1 2 2 2 2 2 1 2 2 2 2 2 2 2 2 2 2 2 2 2 2
left_child=4 5 14 8 -1 6 7 -2 -4 -5 -6 12 28 -14 -3 22 17 18 -15 20 21 -18 -16 24 25 -7 -21 -13 -8 -17
right_child=1 2 3 9 10 23 11 -9 -10 -11 -12 27 13 16 15 29 19 -19 -20 26 -22 -23 -24 -25 -26 -27 -28 -29 -30 -31
leaf_value=-0.043785657541927897 -0.015217579991799485 -0.048387517040618201 0.039179242924683159 0.012615560991343555 -0.012215887988120032 0.029760098446802098 0.016457396036398977 0.019087806377219144 -0.024874736969524674 -0.016475163194709493 -0.041979014720659388 0.041006951948073578 0.10169494865637106 -0.038417262949087871 -0.047709094324746265 -0.038183689427471218 -0.015091706615501833 -0.053382648915858859 0.079574868333215781 -0.001366250181572156 0.073354578409503865 0.057903121427056184 0.016382626221330156 0.10886192869245459 -0.019613099424998743 0.11327897784183392 0.057271670827386705 0.099251660373412931 -0.036246062548383091 0.0012970032924991429
leaf_weight=50.779883489012718 37.737206302583218 14.959968410432337 49.318213850259781 46.310073122382164 181.7713633403182 6.80630262196064 12.418233029544355 34.800805762410164 6.8698255494236937 49.995089270174503 27.310973227024078 25.653422631323341 3.5518995821475974 4.1916436627507192 4.8347201496362677 34.008099623024464 7.0879763141274452 5.3295902311801902 4.7959679290652275 18.351253099739555 19.10610756278038 6.1535376161336881 34.383677370846272 4.7950314879417411 3.799172304570674 4.0741552859544772 6.2752310112118712 5.6466446667909613 9.6046851202845556 13.19609162211418
leaf_count=577 231 138 313 323 1623 36 75 203 46 361 283 134 20 31 46 287 40 37 27 122 105 36 273 23 21 19 34 29 64 96
internal_value=-0.00107421 0.0101297 -0.00074588 0.00972712 -0.021513 0.0226697 0.0193311 0.00155933 0.0266115 -0.00261554 -0.0161036 0.0271495 0.0220792 0.030497 -0.0164987 -0.0109787 0.0269497 -0.0044632 0.0245457 0.0348436 0.051035 0.0188301 0.00675834 0.057077 0.0401617 0.0610335 0.0135757 0.0515145 -0.00652776 -0.0224011
internal_weight=733.917 474.055 253.876 152.493 259.862 220.179 200.704 72.538 56.188 96.3052 209.082 128.166 96.8661 74.8432 101.383 86.4226 71.2913 14.3172 8.98761 56.9741 32.3476 13.2415 39.2184 19.4747 14.6796 10.8805 24.6265 31.3001 22.0229 47.2042
internal_count=5653 3170 1883 1043 2483 1287 1188 434 359 684 1906 754 591 452 840 702 432 95 58 337 181 76 319 99 76 55 156 163 139 383
cat_boundaries=0 1 2 3 4 5
cat_threshold=8346 16160 169224 78200 5952640
is_linear=0
shrinkage=0.05


Tree=16
num_leaves=31
num_cat=2
split_feature=1 13 1 13 2 8 15 10 9 15 15 10 13 15 9 2 14 15 15 4 13 6 4 2 14 7 9 2 3 15
split_gain=170.129 39.8634 22.4255 10.6378 9.77686 10.901 8.62424 8.30796 10.0412 7.95336 7.70365 7.6533 7.33699 7.59245 7.83188 6.98368 6.88371 9.50595 6.64395 9.1887 6.54704 8.97086 7.39978 7.15871 8.31936 7.156 5.55295 10.7533 5.41158 5.37628
threshold=0 0.9425 1 -0.52999999999999969 4.6050000000000013 12.500000000000002 -0.099999999999999187 1.0000000180025095e-35 1.0000000180025095e-35 0.0066666666666663774 -0.053333333333333226 6.5000000000000009 -0.42549999999999993 -0.038333333333333545 1.5000000000000002 4.0750000000000011 -3.4358333333333326 0.018166666666666668 -0.0066666666666663757 27.045000000000005 1.8450000000000004 -1.0000000180025095e-35 32.20000000000001 6.6250000000000009 -5.8216666666666663 13.050000000000002 3.5000000000000004 4.1450000000000005 31.905000000000005 -0.016666666666667048
decision_type=1 2 1 2 2 2 2 2 2 2 2 2 2 2 2 2 2 2 2 2 2 2 2 2 2 2 2 2 2 2
left_child=4 2 3 -2 5 16 -6 8 9 10 -5 29 -4 14 28 -15 -1 -18 19 -9 22 -22 23 -3 -25 -23 27 -7 -14 -8
right_child=1 20 12 7 6 26 11 18 -10 -11 -12 -13 13 15 -16 -17 17 -19 -20 -21 21 25 -24 24 -26 -27 -28 -29 -30 -31
leaf_value=-0.062196868342154793 -0.030682964909152167 0.0029929019399529857 -0.055092477160480859 0.079719647254750614 -0.023759743716322008 0.10545640002561496 0.05614638605129342 -0.035714583418542854 -0.014465785622379011 0.10737563633430854 -0.018572419875540092 -0.014848000691439947 0.095554703479053635 0.030101309588114418 -0.03193758311276125 -0.042476239396613824 -0.014962350587282992 0.085582001639187999 -0.02075415606172374 0.0075027357071314141 0.0028654756152814158 0.025015002142945261 -0.012054872377550816 -0.020730094115882818 0.066671457590912545 0.097927540494355758 0.006828599776054968 0.012386776859917202 0.0048691366163807993 0.03767791308153029
leaf_weight=4.950172238051894 66.682279318571091 30.055133849382401 58.939892970025539 3.4338753223419181 4.6486908942461005 6.6193403825163859 81.889688342809677 15.235770747065542 10.911768011748789 4.1878584846854201 4.7520916089415577 5.1211862415075293 2.5851815268397358 3.4730591326951972 9.2546643838286382 72.607590213418007 11.086894124746321 2.9834176003932944 88.835783258080482 63.813033804297447 14.089196145534517 7.0300092399120313 42.751098208129406 3.5951019823551169 11.219176955521105 6.4551481008529663 7.2681618481874457 5.8433943688869476 4.5238139629364014 75.956439569592476
leaf_count=35 759 213 707 22 21 36 340 125 86 34 36 22 21 36 77 749 66 21 817 456 86 38 301 25 65 30 39 28 33 329
internal_value=-0.0010396 -0.0161565 -0.0237784 -0.0129839 0.0363956 0.0155251 0.043392 -0.00748947 0.0204983 0.0513312 0.0226594 0.0453076 -0.0387474 -0.0325177 -0.00162056 -0.0391631 -0.0114847 0.00635671 -0.0113714 -0.000826918 0.00951804 0.0307664 0.00283113 0.0170144 0.045461 0.0599172 0.0415624 0.0618189 0.0378469 0.0472593
internal_weight=730.799 524.432 409.237 257.852 206.367 38.7514 167.616 191.17 23.2856 12.3738 8.18597 162.967 151.384 92.4443 16.3637 76.0806 19.0205 14.0703 167.885 79.0488 115.195 27.5744 87.6205 44.8694 14.8143 13.4852 19.7309 12.4627 7.109 157.846
internal_count=5653 4716 3958 2335 937 225 712 1576 178 92 58 691 1623 916 131 785 122 87 1398 581 758 154 604 303 90 68 103 64 54 669
cat_boundaries=0 1 2
cat_threshold=2 28
is_linear=0
shrinkage=0.05


Tree=17
num_leaves=31
num_cat=5
split_feature=1 13 1 11 13 0 13 2 15 2 15 15 4 15 13 12 13 8 7 13 13 4 4 10 15 9 10 5 4 4
split_gain=153.652 37.4713 14.5505 14.2258 11.3243 11.4732 10.3639 9.21106 8.94982 9.81043 11.743 8.8311 12.2364 7.26857 7.26061 11.8617 8.31028 6.70086 12.124 7.36167 9.343 7.55475 7.04201 6.4102 6.42277 7.56438 5.9033 5.46326 5.3387 11.9047
threshold=0 0.26083333333333331 1 2 -0.52999999999999969 3 1.7958333333333336 5.5550000000000006 -0.028333333333333762 5.1650000000000009 -0.066666666666665972 -0.048333333333333332 32.20000000000001 -0.086666666666666434 0.97083333333333333 4 1.0783333333333338 10.450000000000001 11.500000000000002 0.65083333333333393 0.12833333333333344 34.030000000000008 27.385000000000002 1.5000000000000002 -0.0033333333333325217 3.5000000000000004 2.5000000000000004 6.6550000000000011 30.030000000000005 28.620000000000005
decision_type=1 2 1 1 2 1 2 2 2 2 2 2 2 2 2 9 2 2 2 2 2 2 2 2 2 2 2 2 2 2
left_child=7 4 3 14 -2 8 13 17 9 10 -6 -5 28 -4 -3 -16 -17 -1 -19 20 22 -22 -20 -18 -25 -26 -8 -9 29 -13
right_child=1 2 6 11 5 -7 26 27 -10 -11 -12 12 -14 -15 15 16 23 18 19 -21 21 -23 -24 24 25 -27 -28 -29 -30 -31
leaf_value=-0.013406206179062475 -0.040526926042977952 -0.02631979423979074 0.041736492319543024 0.049095183255234792 -0.014971238991040602 -0.028839309410200881 -0.02203769511773275 0.0050632859554842731 -0.014024248016616054 -0.0048965461292137654 0.10361248006430655 0.029435481806039079 -0.012202724074935665 -0.033037216298008008 0.088944102479285136 0.067960957664110463 -0.055272278163683131 0.071829473680571673 0.059419050468539993 -0.03170681932796262 0.015629506079569654 0.08934552333917857 0.006398929026753826 -0.0298891470506846 0.067303387500608117 -0.02319841443656237 0.060466895767143494 0.048337437884115299 0.061223887496494239 -0.061450790531835178
leaf_weight=10.489385858178137 113.84886363148689 37.529726885259151 3.4410370141267768 20.6595354154706 3.1254646107554436 102.63203059136868 3.5582873523235303 7.8232446312904349 39.591423459351063 11.280879735946653 6.2875985354185122 33.768247559666634 30.803526669740677 58.558766074478626 3.8013767153024673 3.4365540742874172 7.0851134806871441 13.767877042293547 7.4345263242721549 6.1690609008073798 5.7060585021972647 8.891771659255026 39.729383185505867 8.8570427894592356 5.5023102983832288 3.9781792536377907 5.5493777394294739 107.70644122362137 9.7564359009265882 4.0333401486277571
leaf_count=62 1382 297 27 115 22 995 21 32 385 78 42 228 226 569 21 22 47 66 36 27 25 38 207 56 33 28 32 444 60 30
internal_value=-0.00101574 -0.0155846 -0.00144152 0.00662592 -0.0284282 -0.0199735 -0.0189115 0.0343481 -8.24594e-05 0.026551 0.0642386 0.0181787 0.0123475 -0.0288872 -0.00990664 0.00592024 -0.00501579 0.0242148 0.029045 0.0203737 0.0255757 0.0605311 0.0147566 -0.0148806 0.000725682 0.0293272 0.0282331 0.0454071 0.0282489 0.0197381
internal_weight=724.803 517.085 240.319 169.211 276.766 162.917 71.1075 207.718 60.2854 20.6939 9.41306 99.0211 78.3616 61.9998 70.1903 32.6606 28.8592 92.1881 81.6987 67.9308 61.7617 14.5978 47.1639 25.4226 18.3375 9.48049 9.10767 115.53 47.558 37.8016
internal_count=5653 4716 1812 1163 2904 1522 649 937 527 142 64 659 544 596 504 207 186 461 399 333 306 63 243 164 117 61 53 476 318 258
cat_boundaries=0 1 2 3 4 5
cat_threshold=2 28 48898 49428 4
is_linear=0
shrinkage=0.05


Tree=18
num_leaves=31
num_cat=4
split_feature=13 15 13 13 0 14 2 11 0 13 15 4 11 2 15 15 4 2 15 4 14 4 13 4 14 14 15 2 14 13
split_gain=51.8085 19.8762 13.4761 11.5367 10.4322 8.73697 9.2502 9.21009 9.30501 8.11201 7.82003 7.62018 7.4292 6.61075 14.3911 9.33287 9.21561 8.93236 7.51788 6.4607 6.39745 6.34097 6.21161 8.76348 10.8668 9.14917 7.8267 6.15086 5.97338 7.01246
threshold=-0.11250000000000025 -0.010833333333333249 0.41916666666666696 -1.2491666666666663 0 6.557666666666667 6.4150000000000009 1 2 0.022499999999999968 0.051833333333333183 37.115000000000002 3 6.4350000000000014 0.031666666666666739 0.05333333333333324 29.310000000000006 4.9650000000000007 0.015500000000000293 38.82500000000001 -6.7341666666666695 29.310000000000006 1.0125 28.525000000000002 -6.344999999999998 -0.29666666666666502 -0.038166666666667119 5.205000000000001 4.5724999999999989 -1.2066666666666666
decision_type=2 2 2 2 1 2 2 1 1 2 2 2 1 2 2 2 2 2 2 2 2 2 2 2 2 2 2 2 2 2
left_child=3 5 20 -1 13 7 11 22 -9 -10 28 -7 -6 15 18 17 -16 -4 -15 -13 -3 -8 23 -2 -25 26 -26 -27 29 -5
right_child=1 2 4 10 12 6 21 8 9 -11 -12 19 -14 14 16 -17 -18 -19 -20 -21 -22 -23 -24 24 25 27 -28 -29 -30 -31
leaf_value=-0.042111350836542667 -0.013546897743105656 -0.047539106017716666 0.10481486327612642 0.069288662804698739 0.0093383914566298951 0.012259252807655281 0.12590236834937105 0.018066820699030647 0.049192079847069164 -0.020195960714411126 -0.040380737971752727 0.10831819431750822 -0.01769762913219677 0.032633483508860132 0.14519424558449789 -0.02724205756720488 0.050776700533562251 0.018079762039697307 -0.063112011200269755 0.024995562465455177 -0.010808540793979695 0.048531710824768981 0.040590303436441891 -0.014767109318191338 0.098418252788323168 0.064396438253671209 0.020667355195173584 -0.0077800681235671021 -0.025218745034505975 -0.0066864870199971746
leaf_weight=46.189065247774124 18.060061797499657 13.948675706982611 3.3160626366734531 3.1147428229451171 43.265600845217705 26.554684147238731 4.2665697336196882 34.924758806824684 4.6208060160279265 47.622773736715317 25.296011999249458 4.4543325901031476 40.417461939156055 6.9686287343502062 4.2610618472099286 10.494037151336668 6.5679503977298737 28.30932728946209 2.9048315808176994 4.8699973672628403 78.969190701842308 6.9812173247337341 41.907644703984261 10.493025608360766 9.677928648889063 4.3414918333292016 4.8632259964942941 9.2214502841234189 50.155405536293983 121.92686858773232
leaf_count=577 118 136 26 33 307 146 19 202 28 299 283 21 299 40 20 77 36 186 20 28 666 35 220 69 56 25 32 59 464 1126
internal_value=-0.00101175 0.00868853 -0.00142728 -0.0195833 0.0080197 0.0190894 0.0383165 0.0142109 0.000794157 -0.0118001 -0.0143934 0.0259136 -0.00421479 0.0215564 0.0481228 0.0136165 0.0879287 0.0271743 0.00446458 0.0647997 -0.0163225 0.0778804 0.0236012 0.0152005 0.0286518 0.0448628 0.0724148 0.0153236 -0.0106412 -0.00479397
internal_weight=718.965 472.283 239.423 246.682 146.505 232.86 47.1268 185.733 87.1683 52.2436 200.493 35.879 83.6831 62.8219 20.7025 42.1194 10.829 31.6254 9.87346 9.32433 92.9179 11.2478 98.5648 56.6572 38.5971 28.1041 14.5412 13.5629 175.197 125.042
internal_count=5653 3170 1813 2483 1011 1357 249 1108 529 327 1906 195 606 405 116 289 56 212 60 49 802 54 579 359 241 172 88 84 1623 1159
cat_boundaries=0 1 2 3 4
cat_threshold=41114 114910 6563988 78328
is_linear=0
shrinkage=0.05


Tree=19
num_leaves=31
num_cat=7
split_feature=1 1 13 13 6 10 11 0 3 14 13 3 14 6 15 13 14 13 13 11 14 14 11 8 6 14 3 12 13 15
split_gain=137.54 34.4811 17.9643 14.9353 14.9058 13.1875 12.9427 10.4205 9.75072 8.35342 6.88755 7.56962 10.9235 6.54705 8.10238 7.93837 6.32738 5.93426 5.89528 7.43768 5.93492 7.45474 5.26915 5.84562 5.49684 5.46582 6.48797 5.17342 6.53106 9.36052
threshold=0 1 0.18250000000000013 1.259166666666667 -1.0000000180025095e-35 2.5000000000000004 2 3 46.545000000000009 -5.6141666666666667 -0.42549999999999993 42.235000000000007 6.0216666666666674 1.0000000180025095e-35 -0.040000000000000473 0.86916666666666631 11.352500000000001 1.5883333333333336 -0.1350000000000002 4 4.5724999999999989 -3.778333333333332 5 13.500000000000002 1.0000000180025095e-35 5.8991666666666687 36.385000000000005 6 0.76916666666666667 -0.015999999999999567
decision_type=1 1 2 2 2 2 1 1 2 2 2 2 2 2 2 2 2 2 2 1 2 2 1 2 2 2 2 9 2 2
left_child=18 2 7 10 -5 -6 9 8 -2 -4 -3 -12 -13 -8 -15 -16 -14 -11 19 -1 21 -21 24 25 27 26 -24 28 29 -20
right_child=1 3 6 4 5 -7 13 -9 -10 17 11 12 16 14 15 -17 -18 -19 22 20 -22 -23 23 -25 -26 -27 -28 -29 -30 -31
leaf_value=-0.0081892241929396176 -0.00080584679027509128 -0.054534007323563644 -0.040384987987131506 -0.03686903423785784 -0.0063239847741053262 0.1063136835121586 0.012736028776810057 -0.023897965944883633 0.080134609177705179 -0.0089607678343952279 -0.038457537285625405 0.083094353102269411 -0.056791710790358746 0.084225039932325371 0.067362545698514284 -0.042434122674910799 0.012094283054626068 0.031527424621422183 0.026837238604665498 0.0095960527682816665 0.00024601665339317886 0.069302292588440298 0.04268288507608145 0.066232125818120588 -0.032716060510204092 0.070862373165371403 -0.0027550815267902043 0.053156618191367778 0.034224599687656419 -0.041073039122364145
leaf_weight=19.194713175296783 30.660192772746086 53.429278507828712 18.150111958384514 10.592648528516294 5.4518192559480649 4.9652396216988564 87.138373591005802 118.01512158662081 4.2348083555698386 51.575754567980766 81.73173800110817 3.1101119294762638 6.4068731069564802 7.6701620817184448 3.0817141234874708 3.534187525510788 6.9492078050971031 10.97599435597658 10.579606398940085 7.6529501974582734 7.8115397170186034 16.498866148293018 40.892263501882553 37.307262659072876 4.9341181069612494 12.50974854826927 9.7244204282760602 10.880848422646521 20.574482634663582 9.7510235160589236
leaf_count=116 284 707 144 81 41 34 592 1259 35 382 865 25 64 38 24 20 57 64 45 42 43 81 171 155 21 51 40 45 83 44
internal_value=-0.000971407 -0.014982 -0.00515981 -0.0327176 0.00489559 0.0473642 0.00529486 -0.0179495 0.00700852 -0.0093615 -0.0400871 -0.0322265 -0.00129835 0.0162751 0.0492537 0.00870962 -0.0209501 -0.00185628 0.0323402 0.0191502 0.0290437 0.0503833 0.0386918 0.0459644 0.0150561 0.0412676 0.0339534 0.0225151 0.0143644 -0.00573405
internal_weight=715.985 507.673 335.036 172.637 21.0097 10.4171 182.126 152.91 34.895 80.7019 151.627 98.1979 16.4662 101.424 14.2861 6.6159 13.3561 62.5517 208.312 51.1581 31.9634 24.1518 157.154 100.434 56.7201 63.1264 50.6167 51.786 40.9051 20.3306
internal_count=5653 4716 2842 1874 156 75 1264 1578 319 590 1718 1011 146 674 82 44 121 446 937 282 166 123 655 417 238 262 211 217 172 89
cat_boundaries=0 1 2 3 4 5 6 7
cat_threshold=2 28 65024 4211968 139352 69350 2
is_linear=0
shrinkage=0.05


Tree=20
num_leaves=31
num_cat=6
split_feature=1 13 15 13 0 1 15 11 1 2 15 5 2 2 0 5 9 15 10 5 2 10 9 2 7 7 15 8 5 15
split_gain=123.787 38.5816 20.7097 14.3713 13.4943 11.1478 9.8568 8.05685 11.477 7.34679 7.17673 9.33871 8.12676 6.95584 8.63292 10.8368 10.5184 7.89038 6.75365 6.73872 8.5486 8.01411 6.68043 10.6406 11.3121 6.25083 6.21943 6.00611 5.53237 6.04911
threshold=0 -0.52999999999999969 -0.01666666666666616 0.76916666666666667 1 2 -0.086666666666666434 3 4 4.910000000000001 -0.018333333333333087 6.6650000000000009 3.8150000000000004 6.4150000000000009 5 6.6850000000000014 1.5000000000000002 -0.099999999999999187 1.0000000180025095e-35 6.8250000000000011 6.0150000000000006 4.5000000000000009 3.5000000000000004 6.7250000000000005 14.850000000000001 14.850000000000001 -0.008333333333333302 10.950000000000001 6.8550000000000013 0.0066666666666672656
decision_type=1 2 2 2 1 1 2 1 1 2 2 2 2 2 1 2 2 2 2 2 2 2 2 2 2 2 2 2 2 2
left_child=10 -2 5 7 22 6 -3 8 9 -4 11 -1 -12 14 -7 16 -16 -17 -13 20 21 25 23 24 -5 -14 -21 -28 -29 -30
right_child=1 2 3 4 -6 13 -8 -9 -10 -11 12 18 19 -15 15 17 -18 -19 -20 26 -22 -23 -24 -25 -26 -27 27 28 29 -31
leaf_value=0.0061214702412849464 -0.041376684162967553 0.053719257209408879 0.12316237640452916 0.028270714994788861 -0.018668860142107072 0.016964256778124978 -0.043441226642306062 -0.033079517674579187 -0.017318688380505459 0.02707344140264567 -0.040065926414668912 0.0086884252946967701 0.022809569108286826 0.03035830492799646 0.11339258998251989 0.055514056155564498 -0.0069553300422321085 -0.031272906762292267 0.051518252920938992 -0.036487788186597161 0.062218769962065296 0.068768939089425593 -0.011569555970865038 -0.020352224338152088 0.10418064127665093 -0.032586561140295685 -0.035354847311164464 -0.017437623445236746 0.084213468904895311 0.023644630923173142
leaf_weight=16.636259496212006 106.13875862956047 3.0135901942849186 2.4864654466509828 17.203837141394622 38.220756404101849 54.471770383417606 19.50750707834959 100.66337049007416 44.180433712899685 9.9479794204235059 4.9786881282925597 10.349501453340052 21.718115225434307 39.178067855536938 3.0399467498064032 2.8443885371088973 4.5077501311898232 33.045338444411755 83.173873230814934 6.1233396828174582 20.680570170283318 7.2363407611846915 10.731262132525442 6.9385851249098769 6.8666658177971831 6.6521063596010199 4.554518684744834 5.84451796114445 5.2591117322444942 19.069232068955898
leaf_count=73 1399 21 22 114 301 381 172 1053 466 84 40 48 99 239 18 17 31 261 358 26 84 34 77 44 43 31 22 25 22 88
internal_value=-0.000833221 -0.0143154 -0.00743845 -0.0168072 0.000451973 0.00648705 -0.0210799 -0.0255818 -0.00544577 0.0256554 0.030357 0.0406386 0.0222383 0.0117001 0.00542901 -0.0105201 0.0415166 -0.0243947 0.0467786 0.0254316 0.0366508 0.0218007 0.0180974 0.0342004 0.0499258 0.00982056 0.00997307 0.0181653 0.0262441 0.0367379
internal_weight=715.263 502.986 396.848 237.239 79.9611 159.608 22.5211 157.278 56.6149 12.4344 212.276 110.16 102.117 137.087 97.9092 43.4374 7.5477 35.8897 93.5234 97.1379 56.2871 35.6066 41.7404 31.0091 24.0705 28.3702 40.8507 34.7274 30.1729 24.3283
internal_count=5693 4743 3344 2204 579 1140 193 1625 572 106 950 479 471 947 708 327 49 278 406 431 248 164 278 201 157 130 183 157 135 110
cat_boundaries=0 1 2 3 4 5 6
cat_threshold=2 1058970 64 137312 4 8825220
is_linear=0
shrinkage=0.05


Tree=21
num_leaves=31
num_cat=3
split_feature=13 15 13 0 11 6 14 11 15 14 13 13 3 5 13 15 14 13 13 3 13 15 7 15 14 14 3 3 7 4
split_gain=48.1812 32.0678 15.9247 13.3959 9.99835 10.6498 9.6015 10.4525 8.16612 7.83265 7.59005 7.58496 7.32051 6.92589 6.63469 8.24194 6.18568 5.80717 6.23537 5.64002 6.94698 5.04885 6.71576 5.53003 4.96765 4.89999 8.60966 7.76464 5.41827 8.33386
threshold=-0.52999999999999969 -0.01666666666666616 0.43000000000000022 0 1 1.0000000180025095e-35 4.049166666666669 2 0.078333333333333602 -12.578333333333326 2.0725000000000007 0.53166666666666684 37.460000000000008 6.7550000000000008 1.0125 -0.040000000000000473 3.5466666666666691 0.10916666666666687 -0.15333333333333285 15.510000000000002 0.88000000000000045 -0.00083333333333346349 17.500000000000004 -0.0016666666666673711 13.600833333333332 -6.344999999999998 25.855000000000004 1.0000000180025095e-35 14.350000000000003 39.20000000000001
decision_type=2 2 2 1 1 2 2 1 2 2 2 2 2 2 2 2 2 2 2 2 2 2 2 2 2 2 2 2 2 2
left_child=21 6 4 8 5 24 7 11 12 19 -11 17 -4 -14 15 -13 25 18 -2 20 -5 22 23 -1 -3 27 -27 -9 29 -29
right_child=1 2 3 9 -6 -7 -8 16 -10 10 -12 14 13 -15 -16 -17 -18 -19 -20 -21 -22 -23 -24 -25 -26 26 -28 28 -30 -31
leaf_value=-0.024076495397179699 -0.041367269005154111 -0.0056543100300721193 0.018824242608343051 -0.0024197648811369998 -0.025122241345201218 0.1061750350930824 0.033157493229391634 0.0528292454230333 -0.04010507271812562 -0.017300692523066524 0.051154252206408839 0.09147803589153583 0.010911989348807738 0.081162667975980929 -0.013224741624147352 -0.0035149801547867919 -0.041921136845255169 -0.058272419284095212 0.023533549996508165 -0.010105443654211448 0.096442700206974569 -0.03786169079274667 0.067607513202947792 0.060516169592616603 0.069572239436119745 0.082201181310473811 0.023291530022042761 -0.0060621949005570212 -0.035744242167992414 0.077116773294162638
leaf_weight=58.18051516264677 7.4267885759472847 58.149311453104019 48.381700918078423 2.9594969749450666 97.766158200800419 2.3276720046997061 77.291964158415794 7.0882156267762175 4.6532518789172164 74.257636576890945 4.2827953249216071 4.5573784783482552 5.2381637617945662 10.624713167548178 11.476367168128489 4.5763512328267115 3.9657049104571334 10.050740174949167 7.3768011853098887 5.4413963779807091 4.4470236897468567 67.472441785037518 2.2033995613455764 1.9983349964022625 2.2806387692689887 6.6655621826648703 89.241058938205242 15.839034385979181 9.8350743576884252 3.7182517126202574
leaf_count=656 60 519 327 22 920 18 435 41 35 536 23 24 34 59 67 31 29 63 46 39 29 866 19 19 18 36 536 100 65 21
internal_value=-0.000851927 0.00531252 -0.00525415 0.005894 -0.0163858 0.00105852 0.0183954 0.0121199 0.0208322 -0.00689321 -0.0135679 -0.00847863 0.0284886 0.0579648 0.0120835 0.0438829 0.01827 -0.0289408 -0.00902644 0.0285442 0.0569392 -0.0283818 -0.0181283 -0.0212675 -0.00281524 0.0214531 0.0273858 0.00585621 -0.00547173 0.00975188
internal_weight=709.774 579.919 320.81 160.286 160.524 62.7576 259.109 181.817 68.8978 91.3883 78.5404 45.4644 64.2446 15.8629 20.6101 9.13373 136.353 24.8543 14.8036 12.8479 7.40652 129.855 62.3822 60.1789 60.43 132.387 95.9066 36.4806 29.3924 19.5573
internal_count=5693 4133 2579 1104 1475 555 1554 1119 455 649 559 291 420 93 122 55 828 169 106 90 51 1560 694 675 537 799 572 227 186 121
cat_boundaries=0 1 2 3
cat_threshold=4498458 137250 135200
is_linear=0
shrinkage=0.05


Tree=22
num_leaves=31
num_cat=2
split_feature=13 13 5 0 0 13 14 2 13 14 14 10 14 2 10 2 2 4 13 5 4 14 14 14 7 13 2 4 14 14
split_gain=44.317 17.1139 10.3855 9.06246 8.58543 14.9959 11.5499 7.18482 6.54914 7.83855 6.89715 5.89977 9.53101 5.51731 5.23752 7.46286 5.23158 9.65664 6.84922 9.30486 5.57918 5.18435 4.98757 5.81083 5.94531 5.76192 5.10935 6.1709 5.29587 4.85348
threshold=-0.52999999999999969 0.72000000000000031 6.7550000000000008 0 1 -0.23833333333333281 6.1141666666666667 5.120000000000001 -0.41083333333333355 11.120000000000003 7.1333333333333302 2.5000000000000004 0.48249999999999998 6.1250000000000009 1.5000000000000002 4.8250000000000011 6.4150000000000009 36.255000000000003 0.88000000000000045 6.7350000000000012 36.680000000000007 5.7525000000000022 -8.048333333333332 4.5724999999999989 12.900000000000002 0.22249999999999973 4.8350000000000009 31.525000000000002 1.0375000000000016 -14.053333333333333
decision_type=2 2 2 1 1 2 2 2 2 2 2 2 2 2 2 2 2 2 2 2 2 2 2 2 2 2 2 2 2 2
left_child=-1 2 8 29 5 -4 22 -8 11 10 21 12 -2 -6 -11 -16 18 -18 19 -5 -20 -10 -7 24 26 -26 -24 -28 -29 -3
right_child=1 3 4 16 13 6 7 -9 9 14 -12 -13 -14 -15 15 -17 17 -19 20 -21 -22 -23 23 -25 25 -27 27 28 -30 -31
leaf_value=-0.027601495695355496 0.014583028126708511 0.035944149455971595 -0.038202843182480822 -0.029527426356662591 -0.021222713599694316 -0.037827386974677309 -0.02071933374347823 0.060921649168753915 0.0018118309218037539 0.065840074495247383 -0.038891443507929835 0.002775325785441856 0.1476762202867104 0.015735738421018979 0.059099829620845035 -0.01947050618362943 0.044427837568796827 0.0038819557457774575 -0.0010098387118890985 0.055497494860996602 0.031604668988274957 0.051675143326918055 0.080844248250314305 -0.04186993648395998 0.015977082895617039 -0.024061251667526019 0.055454622523826158 -0.02476570203011564 0.054999570282501936 -0.0069517765914201592
leaf_weight=126.95040512084961 2.5754233002662641 7.4740129411220542 18.50961459428072 3.9573919549584415 110.71613457798958 7.0454397350549689 3.2754258960485485 15.204444296658037 78.023777350783348 8.11085342615843 9.95075476169586 3.8038577362895012 2.8158587887883186 11.111555382609366 5.2794652655720693 7.0687287971377373 51.006999477744102 20.622072018682957 52.422545693814754 17.217430047690868 17.486544765532017 5.586019165813922 4.2408819124102619 5.6707157120108596 20.851919747889042 15.790320895612238 7.2853379249572781 8.0174944028258306 2.8102820143103591 56.016680918633938
leaf_count=1560 21 48 174 29 976 67 26 98 555 44 74 31 21 88 28 41 264 117 314 107 103 35 27 44 164 138 57 62 21 359
internal_value=-0.000843477 0.00501384 -0.00185456 0.0157549 -0.0081179 0.00255625 0.0112044 0.0464514 0.0098639 0.00659034 0.000459863 0.050456 0.0840974 -0.0164977 0.0346254 0.0141222 0.0213335 0.0327546 0.014694 0.0396071 0.00714811 0.00514323 0.00212149 0.0064739 0.0111207 -0.00127672 0.0314423 0.0198757 -0.00406312 -0.00164332
internal_weight=706.898 579.948 353.744 226.204 230.53 108.702 90.1923 18.4799 123.215 114.02 93.5606 9.19514 5.39128 121.828 20.459 12.3482 162.713 71.6291 91.0839 21.1748 69.9091 83.6098 71.7124 64.667 58.9962 36.6422 22.354 18.1131 10.8278 63.4907
internal_count=5693 4133 2792 1341 1942 878 704 124 850 777 664 73 42 1064 113 69 934 381 553 136 417 590 580 513 469 302 167 140 83 407
cat_boundaries=0 1 2
cat_threshold=37252 840836
is_linear=0
shrinkage=0.05


Tree=23
num_leaves=31
num_cat=3
split_feature=13 15 13 0 11 6 15 2 3 2 11 2 15 13 13 2 9 3 2 7 7 3 13 9 15 5 2 3 15 13
split_gain=40.7574 27.7688 13.517 11.7221 9.18225 9.09167 7.17825 7.86641 6.26503 6.10788 8.72644 8.70813 8.24329 7.44042 15.2536 8.54279 7.059 7.02502 6.90971 6.01898 5.82436 5.63968 7.59118 5.24951 5.81598 6.96657 5.09959 5.07166 5.06087 7.80003
threshold=-0.52999999999999969 -0.01666666666666616 0.43000000000000022 0 1 1.0000000180025095e-35 0.078333333333333602 5.0650000000000004 37.460000000000008 6.4150000000000009 2 6.8350000000000009 -0.018333333333333087 -0.21500000000000027 -0.46416666666666678 4.2750000000000012 5.5000000000000009 28.740000000000006 6.0700000000000012 11.800000000000002 12.450000000000001 15.510000000000002 0.79366666666666685 1.5000000000000002 -0.063666666666666746 6.7650000000000006 6.1450000000000005 48.195000000000007 -0.028333333333332874 0.38916666666666672
decision_type=2 2 2 1 1 2 2 2 2 2 1 2 2 2 2 2 2 2 2 2 2 2 2 2 2 2 2 2 2 2
left_child=26 9 4 6 5 -3 7 -4 -9 10 20 16 13 14 -12 -15 23 -13 19 -17 28 22 -5 24 -11 -26 -1 -21 29 -2
right_child=1 2 3 21 -6 -7 -8 8 -10 11 12 17 -14 15 -16 18 -18 -19 -20 27 -22 -23 -24 -25 25 -27 -28 -29 -30 -31
leaf_value=-0.027935464205646372 -0.064403038289550407 -0.0025570800896549902 0.089638119227263419 -0.026775016130053949 -0.024056956819774204 0.095514354783248281 -0.039170041559226002 0.012310274262853452 0.050319356419875276 -0.023665908925669419 0.066920528225503595 0.051828344277972963 0.096682610285180576 -0.05997582300455287 -0.030230544379660679 0.010253649789004331 -0.017743818882642766 -0.0037092479655616651 0.0012094645376410505 0.034602365001947785 -0.024357813228793615 -0.012070115153936786 0.061738009689497587 0.062132889732214196 0.090128401100239841 0.0012927578464501197 0.063599228730852678 0.080853163819127868 0.054018248839544918 0.019262410703858455
leaf_weight=122.73497845977545 3.8378515765070942 60.106718584895134 4.5027387216687194 3.9589911028742772 95.38854917883873 2.4599043279886237 4.5370255559682837 46.639044992625713 14.124873667955397 4.3501157313585272 5.1814562529325512 7.3733643367886534 3.3022569566965094 3.0838081240653983 18.34587174654007 24.314725495874882 4.3175454512238494 24.998815171420574 24.793352544307709 53.298828296363354 25.83410881459713 80.938439473509789 6.240842230618 27.06684073060751 4.5417154803872091 4.2929224073886871 1.5407138019800175 6.6688620895147315 5.2183240950107566 10.162006869912146
leaf_count=1547 30 537 32 33 920 18 35 307 81 23 36 38 22 25 129 143 25 141 146 316 171 577 39 140 24 25 13 32 30 58
internal_value=-0.000816117 0.0047527 -0.00514559 0.00505247 -0.0155365 0.00111978 0.0189314 0.025871 0.0211457 0.0168475 0.0119018 0.0286776 0.0173786 0.0167293 -0.00883483 0.0220918 0.0430134 0.00894047 0.0244121 0.0312376 -0.00724406 -0.00689789 0.0273823 0.0495304 0.023659 0.0469614 -0.0268007 0.0397458 0.0119918 -0.00367322
internal_weight=704.156 579.88 318.897 160.942 157.955 62.5666 69.8037 65.2667 60.7639 260.983 184.041 76.9413 138.989 135.687 23.5273 112.16 44.5691 32.3722 109.076 84.2824 45.0523 91.1383 10.1998 40.2516 13.1848 8.83464 124.276 59.9677 19.2182 13.9999
internal_count=5693 4133 2579 1104 1475 555 455 420 388 1554 1138 416 849 827 165 662 237 179 637 491 289 649 72 212 72 49 1560 348 118 88
cat_boundaries=0 1 2 3
cat_threshold=4498458 137250 71952
is_linear=0
shrinkage=0.05


Tree=24
num_leaves=31
num_cat=6
split_feature=1 13 1 13 6 11 2 13 7 13 6 0 5 14 13 2 2 14 2 13 13 0 14 0 5 2 14 5 8 5
split_gain=108.139 30.6618 18.9403 10.1688 8.56217 8.30936 7.75117 9.1513 9.84879 7.96972 6.58434 6.497 9.80936 7.40466 7.7952 10.208 10.5458 8.09595 6.39898 6.3054 6.29379 8.50382 6.00487 6.76534 13.1352 6.34496 5.8733 5.84707 5.55026 5.49237
threshold=0 -0.52999999999999969 1 1.7958333333333336 1.0000000180025095e-35 2 6.4350000000000014 1.1975000000000005 15.650000000000002 0.40166666666666689 -1.0000000180025095e-35 3 6.6850000000000014 -1.9966666666666695 1.7228333333333328 5.6550000000000011 5.9250000000000007 5.5101666666666693 6.5950000000000006 0.97083333333333333 0.33000000000000057 4 -23.499999999999996 5 6.8350000000000009 6.7150000000000007 -0.85833333333333417 6.8250000000000011 15.500000000000002 6.6750000000000007
decision_type=1 2 1 2 2 1 2 2 2 2 2 1 2 2 2 2 2 2 2 2 2 1 2 1 2 2 2 2 2 2
left_child=22 -2 4 -4 5 19 7 8 9 -6 -5 12 -7 -14 15 17 -17 -15 27 20 21 -3 -1 24 25 -24 28 -18 -26 -22
right_child=1 2 3 10 6 11 -8 -9 -10 -11 -12 -13 13 14 -16 16 18 -19 -20 -21 29 -23 23 -25 26 -27 -28 -29 -30 -31
leaf_value=0.095067582795623176 -0.039363261087992756 0.011002286846068696 -0.028768757328345326 -0.012706003898411776 0.0024800388933417369 0.086601291228415783 0.071951048358555675 -0.062635824583422303 -0.037118351822682645 0.086673433115460885 0.073043282164679424 -0.006409123897972888 -0.0080506031385416555 -0.042244435302913275 -0.050369535551369943 0.12038054338911167 -0.047357135828113857 0.034013727751387487 0.063519105834793865 0.0049179559541438047 0.029525701769826974 -0.024376928259496847 0.017672397663820737 0.035458316831983187 -0.07386964759308777 0.065819010264169239 0.011590544984478743 0.041789534655974472 -0.0023311959232837744 -0.043769471991429991
leaf_weight=3.4548510536551467 95.441078431904316 25.913365416228771 116.14423493295908 4.9186373651027679 4.8671616017818504 4.8188235387206069 7.0694150626659384 3.481450453400611 4.3614026159048072 6.6527238413691521 4.1087273806333524 53.602681986987591 25.883171923458576 6.2910728082060796 3.0389093309640876 4.7594415172934559 3.3643541634082821 7.7903407216072083 9.3783958852291089 36.039510421454906 2.7986106276512137 26.013983272016048 51.266334302723408 129.79863029718399 7.0326515585184115 7.8969088643789283 7.1030584126710883 4.057912714779377 4.4123724550008774 29.475387185811996
leaf_count=16 1399 216 1228 30 42 27 31 23 35 39 20 431 207 57 17 28 24 58 64 214 22 263 239 575 38 32 31 26 19 242
internal_value=-0.00080728 -0.0136523 -0.0077831 -0.0229612 0.000109807 -0.00282321 0.0271406 0.0107802 0.0268742 0.0511017 0.026322 0.00621389 0.0155449 0.0126492 0.0265005 0.0330547 0.0546799 -5.56968e-05 0.0360676 -0.0116172 -0.0200742 -0.00929724 0.0283474 0.0286026 0.0111537 0.0240988 -0.0241242 0.00138126 -0.0462896 -0.0374137
internal_weight=701.236 490.271 394.83 125.172 269.658 243.226 26.4322 19.3627 15.8813 11.5199 9.02736 122.985 69.3824 64.5636 38.6804 35.6415 21.5601 14.0814 16.8007 120.241 84.2013 51.9273 210.965 207.51 77.7113 59.1632 18.5481 7.42227 11.445 32.274
internal_count=5693 4743 3344 1278 2066 1896 170 139 116 81 50 939 508 481 274 257 142 115 114 957 743 479 950 934 359 271 88 50 57 264
cat_boundaries=0 1 2 3 4 5 6
cat_threshold=2 28 46930 412054 576772 51462
is_linear=0
shrinkage=0.05


Tree=25
num_leaves=31
num_cat=4
split_feature=1 1 13 13 11 14 11 5 14 14 4 15 15 15 13 13 5 13 15 5 7 5 13 4 8 2 6 5 4 2
split_gain=117.473 27.7865 12.3512 8.14221 8.29155 7.68102 7.13496 12.125 11.842 7.66152 7.53799 6.99582 9.92202 8.42625 6.73719 6.7012 5.79396 6.41628 6.20538 5.77791 5.77026 5.71045 5.59473 8.23011 8.11091 7.24791 4.90255 6.24425 6.16316 5.29001
threshold=0 1 0.45083333333333325 0.80999999999999994 2 -4.6450000000000005 3 6.705000000000001 -23.499999999999996 13.600833333333332 39.145000000000003 -0.038166666666667119 -0.046333333333333108 -0.086666666666666434 0.18250000000000013 -0.6908333333333333 6.8850000000000007 -1.3083333333333331 -0.096666666666666221 6.6350000000000007 16.050000000000004 6.995000000000001 1.3924999999999998 30.365000000000006 15.500000000000002 6.1550000000000011 -1.0000000180025095e-35 6.8850000000000007 38.82500000000001 5.2150000000000007
decision_type=1 1 2 2 1 2 1 2 2 2 2 2 2 2 2 2 2 2 2 2 2 2 2 2 2 2 2 2 2 2
left_child=14 3 -3 6 22 -6 7 10 -8 15 -2 12 13 -4 16 -9 17 -1 -19 -16 -13 -18 23 -5 -24 -25 27 29 -28 -21
right_child=1 2 11 4 5 -7 8 9 -10 -11 -12 20 -14 -15 19 -17 21 18 -20 26 -22 -23 24 25 -26 -27 28 -29 -30 -31
leaf_value=-0.041818198615642566 0.020208193083189479 -0.042807142910642866 0.055414765221251133 -0.017907124390079198 -0.032007163573083065 0.005444797520023156 0.09273432999242491 -0.037471831889454216 -0.02079461021836122 0.081951910633028133 0.11449017392324057 -0.029893626107160776 0.067437786784114426 -0.045328976425130958 -0.0075390290855681941 -0.00041766654572330717 -0.02196922742996462 -0.027729962713951034 0.034514456981147169 -0.019280705247760828 0.042228874878980943 0.045767400437001837 0.071756438604997086 0.076947600489937776 -0.0093406238469862617 -0.0072602488993987295 0.060802266616562288 0.076148901383153653 0.014856154344976264 0.031890628769948498
leaf_weight=3.2109275981783858 5.5166113972663862 102.43203701078892 2.9541201740503302 11.469914570450785 19.655376516282558 45.109533607959747 2.3394118770956984 15.151270687580107 126.57078985869884 2.4622294530272475 3.443232461810112 37.640443377196789 5.6897056549787512 6.9791311398148528 6.3070375174283972 62.675770245492458 12.737354308366777 4.2774501144886008 62.662725485861301 5.5934815853834143 2.9938613772392264 4.1171906292438498 11.693705290555952 6.3673754781484586 4.1871860921382895 4.2682584524154663 43.18187427520752 7.253311112523078 8.7832795530557615 52.038359716534615
leaf_count=31 45 1375 20 69 133 276 26 223 1308 20 18 376 38 55 26 554 65 20 303 26 28 19 58 34 21 25 177 30 36 213
internal_value=-0.000221799 -0.0138562 -0.0305447 -0.00493012 0.00652118 -0.00512942 -0.0105496 0.00114417 -0.0173857 -0.00488408 0.0564404 -0.0136469 0.0147889 -0.0153681 0.0301186 -0.00763132 0.0209008 0.0272252 0.0305371 0.0390761 -0.0245798 -0.00542268 0.0219554 0.011471 0.0503742 0.0431536 0.0415922 0.0324269 0.0530363 0.0269242
internal_weight=689.763 479.6 158.689 320.911 102.751 64.7649 218.159 89.2491 128.91 80.2893 8.95984 56.2573 15.623 9.93325 210.163 77.827 87.0056 70.1511 66.9402 123.157 40.6343 16.8545 37.9864 22.1055 15.8809 10.6356 116.85 64.8852 51.9652 57.6318
internal_count=5648 4702 1892 2810 616 409 2194 860 1334 797 63 517 113 75 946 777 438 354 323 508 404 84 207 128 79 59 482 269 213 239
cat_boundaries=0 1 2 3 4
cat_threshold=2 28 65694 133996
is_linear=0
shrinkage=0.05


Tree=26
num_leaves=31
num_cat=4
split_feature=1 1 2 5 11 14 5 0 2 2 3 9 7 5 2 14 4 3 2 2 14 5 14 3 7 2 8 4 7 3
split_gain=106.402 26.141 8.23701 11.7516 6.41862 6.63349 5.99468 5.97276 6.41689 5.57173 4.89452 7.08372 7.21414 4.75082 10.3269 11.8394 8.7487 6.51507 5.84803 4.74885 6.42085 6.77416 6.50407 8.69473 8.16273 4.46485 4.25783 4.11526 4.58838 4.72216
threshold=0 1 5.3750000000000009 6.6250000000000009 2 -23.499999999999996 6.6450000000000005 3 5.285000000000001 3.7050000000000005 40.055000000000007 1.0000000180025095e-35 15.650000000000002 6.705000000000001 5.4150000000000009 -5.3169999999999993 39.20000000000001 29.275000000000002 5.2250000000000005 3.8450000000000002 7.3650000000000029 6.8850000000000007 -0.19166666666666995 31.905000000000005 12.900000000000002 5.455000000000001 11.700000000000001 34.915000000000006 10.950000000000001 29.105
decision_type=1 1 2 2 1 2 2 1 2 2 2 2 2 2 2 2 2 2 2 2 2 2 2 2 2 2 2 2 2 2
left_child=6 4 -3 -4 7 -6 -1 9 -9 -2 -5 -12 -13 16 15 -15 -8 -16 19 26 21 22 23 -21 -24 -10 -17 -27 -29 -30
right_child=1 2 3 10 5 -7 13 8 25 -11 11 12 -14 14 17 18 -18 -19 -20 20 -22 -23 24 -25 -26 27 -28 28 29 -31
leaf_value=-0.0029990819839370323 -0.040114753514088358 -0.043756651219765533 0.10804828350997911 -0.030471141136295739 0.052777346121967363 -0.012519202834138371 0.069164032698645406 -0.024222600446160262 0.066553454138148727 0.025979219969166086 0.076141804833020008 -0.030948688251702244 0.049717295602895256 -0.035192238127147474 0.057084852379226059 -0.058369602350059814 0.0037419434730240676 0.030348416731695228 -0.033235315340592701 0.058414925656289855 -0.010263905114226117 0.00076637544124628877 0.034931728165843133 -0.02734792570208442 0.1089684199778783 -0.0094436781394950913 0.024793376489310171 -0.040894493587585581 0.07124877994808787 0.013433676957482467
leaf_weight=12.977531835436819 3.4628718718886367 74.006074137985706 1.7355979904532421 59.922537207603455 3.9746538922190657 181.6944413036108 19.337202176451687 28.086197562515736 2.7782687321305266 40.265823610126972 2.5554996654391315 12.739759609103205 3.5423704907298079 10.587833568453787 32.761520028114319 2.8363936468958846 6.9456675648689261 74.824370205402374 4.2928749918937674 8.193376615643496 6.9796177670359603 7.7301648035645476 6.7218495607376143 4.62260626256466 8.344522684812544 34.430703118443489 3.3651012927293777 2.9656733497977283 4.4594941958785084 16.977986760437489
leaf_count=56 49 1068 12 640 35 1629 83 324 24 302 23 119 30 62 137 26 32 308 19 38 34 36 31 25 37 261 22 27 33 126
internal_value=-0.000227053 -0.0133458 -0.0297882 -0.0206466 -0.00472134 -0.010553 0.0285627 0.00356365 -0.00397238 0.0168841 -0.0234825 -0.00125182 -0.0133988 0.032082 0.0290444 0.0130848 0.0518752 0.0384901 0.0227134 0.0276358 0.0335878 0.0421823 0.0536645 0.0274811 0.075937 0.00461405 -0.0132431 0.00168913 0.0173965 0.0254606
internal_weight=684.119 473.598 154.502 80.4958 319.096 185.669 210.521 133.427 89.6983 43.7287 78.7602 18.8376 16.2821 197.543 171.26 63.6743 26.2829 107.586 53.0865 48.7936 42.5921 35.6125 27.8824 12.816 15.0664 61.6121 6.20149 58.8339 24.4032 21.4375
internal_count=5648 4702 1892 824 2810 1664 946 1146 795 351 812 172 149 890 775 330 115 445 268 249 201 167 131 63 68 471 48 447 186 159
cat_boundaries=0 1 2 3 4
cat_threshold=2 28 202796 10650
is_linear=0
shrinkage=0.05


Tree=27
num_leaves=31
num_cat=5
split_feature=1 1 13 3 13 0 2 15 5 11 14 0 13 15 15 14 14 13 2 14 3 5 5 15 15 15 14 6 15 5
split_gain=96.3912 24.6022 12.0263 12.3951 7.2757 9.42652 8.24693 7.93203 7.32481 7.32441 7.08523 6.25067 5.9304 5.23988 6.28816 5.21995 5.96539 5.06852 5.49274 4.93986 4.86067 4.80526 4.80395 4.77176 4.73252 8.46961 4.63705 4.38731 5.89977 5.65927
threshold=0 1 0.45083333333333325 48.195000000000007 0.80999999999999994 2 3.1000000000000001 0.010000000000000233 6.8650000000000011 3 -4.6450000000000005 4 0.18250000000000013 0.0016666666666673715 -0.10550000000000058 -2.523333333333333 -4.8633333333333324 1.3008333333333335 6.3250000000000011 1.1703333333333321 40.495000000000012 6.9250000000000007 6.6350000000000007 -0.030833333333333265 -0.0066666666666663757 -0.015000000000000123 -1.9966666666666695 -1.0000000180025095e-35 0.044999999999999492 6.8850000000000007
decision_type=1 1 2 2 2 1 2 2 2 1 2 1 2 2 2 2 2 2 2 2 2 2 2 2 2 2 2 2 2 2
left_child=12 4 -3 17 5 6 26 -8 -9 15 -11 20 13 14 -1 16 -6 -4 -19 -17 23 -10 -14 -12 25 -16 -2 29 -29 -24
right_child=1 2 3 -5 9 -7 7 8 21 10 11 -13 22 -15 24 19 -18 18 -20 -21 -22 -23 27 -25 -26 -27 -28 28 -30 -31
leaf_value=-0.042163143161212266 0.15011931782049834 -0.041632989475728924 -0.029820500192208818 0.078200943409192841 0.020530774019338564 -0.017379280456627757 0.01274565961784848 -0.040524240083275882 0.061682387723421508 -0.030917890271440974 -0.040001088276790275 -0.010753352301789934 -0.0070180865929023398 0.00031021186380893331 0.032373282569978838 -0.015251682255961406 0.084960362509424014 0.052309236331267661 -0.012731346289649975 0.030900027333095489 0.057818419854675888 -0.011481282578292921 0.023867403528584144 0.031312837289608514 0.06814233675319567 -0.032356349828812754 0.021205265585744752 0.054035070342365668 -0.0042527469995825599 0.070695397189427758
leaf_weight=3.1429792642593375 1.4652831591665747 95.851325083523989 33.727099806070328 3.542497791349887 7.922535665333271 132.91002253443003 52.374606303870678 17.05003517493606 3.3982098959386331 19.222915641963482 3.4665142297744751 25.239842772483826 6.3018706738948813 27.318458057940006 44.31816603243351 9.9254945442080516 6.5733976513147336 4.3170503675937679 13.084961928427218 13.942674465477465 9.1840591058135015 6.6086823828518391 57.468161955475807 7.2547762989997882 7.2789699733257285 5.7039726749062529 1.3313655890524376 46.99570207297802 4.7831473499536505 7.2678896784782401
leaf_count=15 20 1375 360 28 45 1418 423 209 38 133 21 159 26 152 208 58 33 33 96 71 48 66 239 48 33 30 20 193 20 30
internal_value=-0.000229753 -0.0128313 -0.0290306 -0.0122458 -0.00450884 -0.00987798 0.00388755 0.00138916 -0.0205938 0.00629613 -0.00475698 0.00532869 0.0271213 0.0184831 0.0266966 0.0206885 0.0497473 -0.0185125 0.00340377 0.011708 0.0207157 0.0133641 0.0355022 0.00825491 0.0304736 0.0249922 0.0887488 0.037802 0.0486506 0.0291248
internal_weight=678.973 468.393 150.523 54.6716 317.87 215.138 82.2282 79.4315 27.0569 102.732 64.3681 45.1452 210.579 87.7625 60.4441 38.3641 14.4959 51.1291 17.402 23.8682 19.9053 10.0069 122.817 10.7213 57.3011 50.0221 2.79665 116.515 51.7788 64.7361
internal_count=5648 4702 1892 517 2810 2194 776 736 313 616 409 276 946 438 286 207 78 489 129 129 117 104 508 69 271 238 40 482 213 269
cat_boundaries=0 1 2 3 4 5
cat_threshold=2 28 8440068 65694 8401176
is_linear=0
shrinkage=0.05


Tree=28
num_leaves=31
num_cat=4
split_feature=1 1 13 3 13 14 14 4 15 13 0 3 3 5 3 13 15 9 5 2 13 4 0 14 13 3 15 2 13 14
split_gain=87.4785 23.0183 11.6564 10.8716 6.61404 7.4313 10.3119 16.7222 14.5337 5.44382 5.39578 8.49103 9.02114 6.79371 5.50948 4.92809 5.40067 7.24527 5.2538 4.80869 7.02653 6.13836 5.91145 5.98788 5.84222 6.85532 9.09313 7.90196 7.11541 5.49844
threshold=0 1 0.45083333333333325 48.195000000000007 -0.6908333333333333 -3.3758333333333339 -5.0733333333333315 25.990000000000006 -0.0016666666666664829 0.18250000000000013 2 30.050000000000004 42.055000000000007 6.705000000000001 20.950000000000003 1.5883333333333336 0.010000000000000233 6.5000000000000009 6.7950000000000008 4.8250000000000011 -0.48333333333333289 32.105000000000011 3 13.600833333333332 0.38916666666666672 33.085000000000008 -0.036666666666666618 5.2150000000000007 0.18250000000000013 5.1341666666666663
decision_type=1 1 2 2 2 2 2 2 2 2 1 2 2 2 2 2 2 2 2 2 2 2 1 2 2 2 2 2 2 2
left_child=9 4 -3 -4 5 6 7 -2 -8 10 13 14 -13 -1 -12 16 17 19 -18 20 21 -6 -21 24 25 26 -24 -28 -27 -26
right_child=1 2 3 -5 15 -7 8 -9 -10 -11 11 12 -14 -15 -16 -17 18 -19 -20 22 -22 -23 23 -25 29 28 27 -29 -30 -31
leaf_value=0.045878006673368832 0.12792996491094674 -0.040988933989638807 -0.017859605924199631 0.070797382276384921 0.09478348907354453 -0.036798160152463871 -0.022265680507596426 -0.04759413561699314 0.19106613479031742 0.033777449138692649 0.049197119823904144 0.064441745876589657 0.001153233443703724 -0.007870033949398161 -0.016102300187701039 0.016896360073655869 -0.034113410417896617 0.058863684644681051 -0.0064611611323891205 -0.0088090835108780505 -0.030434787423984519 -0.027864918527340757 -0.0054450341357731103 0.062535014209136638 0.0079036204209359771 -0.025532778231819292 0.15360395271981603 0.045778375503260631 0.053634971496509455 -0.034613095582801283
leaf_weight=7.0438225641846648 1.6414269357919673 92.573181986808777 50.39252981543541 3.7126149833202353 2.2990261167287853 29.326310116797686 1.5629501864314082 7.8292549923062325 1.6320219300687302 122.63964474201202 4.5667776614427558 22.369490921497349 7.5245399773120871 35.560149170458317 11.037094905972479 31.630566522479057 23.930156834423542 5.2973480671644202 60.870075523853302 51.636312752962112 23.06450242549181 1.8339503481984136 3.537466898560524 5.7036663666367522 36.007062807679176 7.5079707056283933 3.0308245196938532 3.8671674802899361 4.5632119178771973 9.6402360349893552
leaf_count=33 22 1375 489 28 26 446 22 116 24 508 21 101 34 193 56 169 240 36 594 377 206 23 26 32 241 65 24 36 30 55
internal_value=-0.000253796 -0.0123738 -0.0282849 -0.0117761 -0.00435738 -0.0229751 0.00903112 -0.0171729 0.0867062 0.0257446 0.0174849 0.0269768 0.0485116 0.000823074 0.00300885 -0.00166727 -0.00408574 0.00137768 -0.0142645 -0.000616689 -0.0196767 0.04036 0.00351406 0.0117336 0.00920378 0.0300518 0.0597307 0.0931545 0.00439463 -0.00107547
internal_weight=673.831 463.09 146.678 54.1051 316.412 41.992 12.6657 9.47068 3.19497 210.742 88.1019 45.4979 29.894 42.604 15.6039 274.42 242.789 157.989 84.8002 152.691 27.1975 4.13298 125.494 73.8576 68.1539 22.5066 10.4355 6.89799 12.0712 45.6473
internal_count=5648 4702 1892 517 2810 630 184 138 46 946 438 212 135 226 77 2180 2011 1177 834 1141 255 49 886 509 477 181 86 60 95 296
cat_boundaries=0 1 2 3 4
cat_threshold=2 28 8407310 3462162
is_linear=0
shrinkage=0.05


Tree=29
num_leaves=31
num_cat=4
split_feature=1 1 13 15 7 10 13 11 11 14 13 5 3 14 13 14 5 3 3 15 3 13 5 13 2 15 5 13 5 3
split_gain=79.3251 21.541 11.7444 8.54942 6.64709 6.54586 6.24164 6.6768 6.53559 11.6011 8.98051 7.12663 6.97033 6.50114 5.96937 5.29158 5.12239 5.01566 5.69877 8.62338 7.23532 4.727 6.02916 5.51757 4.70781 4.68959 14.279 4.48932 6.27704 5.56325
