tree
version=v4
num_class=1
num_tree_per_iteration=1
label_index=0
max_feature_idx=23
objective=binary sigmoid:1
feature_names=jyo_cd boat_no racer_win_rate motor_2ren boat_2ren exhibition_time tilt temperature water_temperature wind_speed wave_height wind_direction weather racer_win_rate_diff motor_2ren_diff exhibition_time_diff is_course_1 course_advantage is_inner_course is_outer_course wind_course_interaction motor_exhibition_ratio racer_course_win_rate racer_course_advantage
feature_infos=-1:11:17:13:1:2:23:3:14:15:10:12:19:4:7:18:20:22:8:21:16:6:5 -1:2:1:3:4:5:6 [0.80000000000000004:8.4399999999999995] [0:90] [0:90] [6.4800000000000004:7.5899999999999999] [-0.5:3] [2:19] [5:18] [0:10] [0:20] -1:5:15:13:14:3:17:12:4:1:11:2:7:16:8:10:9:6 -1:1:2:3 [-4.0183333333333335:3.1849999999999996] [-46.544999999999995:51.384999999999998] [-0.29666666666666686:0.293333333333333] [0:1] [0.048000000000000001:0.48599999999999999] [0:1] [0:1] [-25:25] [0:12.76595744680851] [0:1] [-0.48599999999999999:0.88200000000000001]
tree_sizes=1780 1527 1424 1532 1624 1745 1761 1623 1533 1747 1655 1667 1457 1645 1454 1548 1651 1868 1560 1345 1751 1778 1778 1583 1676 1457 1463 1863 1559 1114 1643 1125 1439 1765 1246 1263 1461 1218 1220 1330 1566 1751 1742 1232 1664 1144 1311 1558 1635 1126 1355 1327 1455 1861 1151 1314 1453 1753 1355 1734 1323 1228 1450 1559 1127 1106 1869 1323 1411 1331 1542 1575 1131 1456 1870 1541 791 1448 1666 1650

Tree=0
num_leaves=16
num_cat=0
split_feature=17 13 13 17 13 2 2 13 17 3 5 13 2 13 5
split_gain=1517.99 155.137 109.418 46.545 34.4719 30.4169 29.9724 29.281 26.4852 17.4157 16.2658 15.0007 7.40408 4.00174 0.467872
threshold=0.33150000000000007 0.069166666666666834 0.82166666666666666 0.092000000000000012 1.7316666666666671 5.6150000000000011 4.285000000000001 -0.61083333333333323 0.092000000000000012 30.165000000000003 6.7950000000000008 0.50916666666666688 6.9750000000000005 -0.81749999999999956 6.785000000000001
decision_type=2 2 2 2 2 2 2 2 2 2 2 2 2 2 2
left_child=2 6 3 13 8 10 14 -5 -4 -8 -3 -7 -6 -1 -2
right_child=1 5 4 7 12 11 9 -9 -10 -11 -12 -13 -14 -15 -16
leaf_value=-1.6842980950700273 -1.5304294146773443 -1.3403615044108677 -1.6407682857034944 -1.6612705552563687 -1.4823342846932297 -1.3642286329458306 -1.5062614242206491 -1.6165498642555867 -1.5689834260476783 -1.4003561763716876 -1.4545437282246994 -1.2809790104366574 -1.5556296676670418 -1.664477228202569 -1.5513588864850119
leaf_weight=88.546388894319534 13.071133598685266 17.147078484296802 49.051888450980186 126.91649074852467 22.628521606326103 16.725429013371468 13.914432540535925 293.60858158767223 85.032643303275108 28.95326367020607 13.492783069610594 60.436424165964127 13.21168342232704 202.95394533872604 12.790033951401709
leaf_count=630 93 122 349 903 161 119 99 2089 605 206 96 430 94 1444 91
internal_value=-1.59154 -1.3833 -1.63322 -1.64661 -1.57713 -1.32506 -1.47464 -1.63005 -1.59524 -1.43473 -1.39064 -1.29902 -1.50935 -1.6705 -1.54078
internal_weight=1058.48 176.531 881.95 712.025 169.925 107.802 68.7289 420.525 134.085 42.8677 30.6399 77.1619 35.8402 291.5 25.8612
internal_count=7531 1256 6275 5066 1209 767 489 2992 954 305 218 549 255 2074 184
is_linear=0
shrinkage=1


Tree=1
num_leaves=13
num_cat=0
split_feature=22 22 22 2 22 2 15 15 22 2 15 22
split_gain=1391.21 123.682 123.075 55.4692 56.5355 45.3206 40.81 23.7788 13.586 11.1222 4.62328 2.27496
threshold=0.29165000000000002 0.77500000000000013 0.091500000000000012 4.995000000000001 0.40965000000000001 5.3450000000000006 -0.0016666666666664829 0.0081666666666668792 0.05850000000000001 5.7550000000000008 -1.0000000180025095e-35 1.0000000180025095e-35
decision_type=2 2 2 2 2 2 2 2 2 2 2 2
left_child=2 3 8 7 -5 10 -7 -2 11 -10 -4 -1
right_child=1 -3 5 4 -6 6 -8 -9 9 -11 -12 -13
leaf_value=-0.092981251630964684 0.12526405802125079 0.36784400595416328 -0.031072495594562065 0.082524469459295702 0.19937686783762676 0.04455120937394718 -0.025993526638230943 0.032379815333981078 -0.073298602118315584 -0.024976129085208746 -0.055071373271802913 -0.079064350523826127
leaf_weight=173.032310962677 47.610157549381256 16.68373017013073 89.168224632740021 31.632004305720329 120.60553471744061 97.359571993350983 101.24530650675297 25.67849400639534 85.26045449078083 43.555105000734329 106.74516505002975 120.66758292913437
leaf_count=1269 319 101 652 219 741 692 722 175 639 321 782 899
internal_value=-0.000303432 0.163448 -0.0488475 0.148327 0.175097 -0.0176 0.00858873 0.0927198 -0.0780245 -0.0569598 -0.0441485 -0.0872634
internal_weight=1059.24 242.21 817.034 225.526 152.238 394.518 198.605 73.2887 422.515 128.816 195.913 293.7
internal_count=7531 1555 5976 1454 960 2848 1414 494 3128 960 1434 2168
is_linear=0
shrinkage=0.077797


Tree=2
num_leaves=12
num_cat=0
split_feature=17 23 23 23 17 2 23 2 14 23 17
split_gain=904.307 185.411 62.6231 62.3744 52.8843 46.3141 30.3772 10.9219 4.12999 3.3309 0.00240744
threshold=0.33150000000000007 0.060350000000000008 0.29965000000000008 -1.0000000180025095e-35 0.092000000000000012 4.3850000000000007 0.27480000000000004 5.9150000000000009 -0.29666666666666502 0.20865000000000003 0.092000000000000012
decision_type=2 2 2 2 2 2 2 2 2 2 2
left_child=1 3 5 10 -5 8 9 -7 -2 -3 -1
right_child=2 6 -4 4 -6 7 -8 -9 -10 -11 -12
leaf_value=-0.091216448626059599 0.017671517208956905 0.040586253108242959 0.27464126090074381 -0.065502602043074287 -0.018626096516026095 0.12475452558712594 0.1901541119414536 0.16462948845747746 0.070634784053876062 0.081385179867148466 -0.091826266219614955
leaf_weight=70.586507514119148 16.385604009032249 23.725988522171974 18.907818198204041 238.11823470890522 375.13900868594646 86.709228038787842 14.385061159729956 79.868768915534019 19.534307181835175 24.740317106246948 88.065368413925171
leaf_count=563 106 168 94 1859 2742 500 93 431 125 169 681
internal_value=-0.000539622 -0.0376135 0.139239 -0.0480757 -0.0368275 0.126596 0.0908783 0.143873 0.0464745 0.0614126 -0.0915549
internal_weight=1056.17 834.76 221.406 771.909 613.257 202.498 62.8514 166.578 35.9199 48.4663 158.652
internal_count=7531 6275 1256 5845 4601 1162 430 931 231 337 1244
is_linear=0
shrinkage=0.077797


Tree=3
num_leaves=13
num_cat=0
split_feature=17 23 23 17 23 23 23 15 23 15 15 17
split_gain=731.118 157.355 60.5011 49.2235 44.0378 23.1381 20.8772 18.6186 12.7391 8.08141 2.21459 0.00182754
threshold=0.33150000000000007 0.060350000000000008 -1.0000000180025095e-35 0.092000000000000012 0.16800000000000001 -1.0000000180025095e-35 0.27480000000000004 0.015499999999999849 0.50135000000000007 0.0081666666666668792 -0.020000000000000902 0.092000000000000012
decision_type=2 2 2 2 2 2 2 2 2 2 2 2
left_child=1 2 11 -4 5 -2 9 -7 10 -3 -6 -1
right_child=4 6 3 -5 8 7 -8 -9 -10 -11 -12 -13
leaf_value=-0.090046874956761752 0.015716227356028546 0.079910872447825021 -0.063387802230232132 -0.017403343365776341 0.17244352650551123 0.12460417999851038 0.15618076978568671 0.062793197198038053 0.23099675621094551 0.01638603005836561 0.13390914012939104 -0.090595787094736757
leaf_weight=66.117679983377457 17.398608535528183 30.12686476111412 227.35395830869675 370.45606940984726 17.76882292330265 125.44298703968525 16.07180093228817 38.561147689819336 19.424994990229607 20.279485449194908 18.346673533320427 82.536366730928421
leaf_count=563 101 199 1859 2742 89 672 93 215 87 138 92 681
internal_value=-0.000672791 -0.035722 -0.0459363 -0.0348918 0.11958 0.101021 0.0789714 0.110071 0.180193 0.0543536 0.152868 -0.0903516
internal_weight=1049.89 812.942 746.464 597.81 236.943 181.403 66.4782 164.004 55.5405 50.4064 36.1155 148.654
internal_count=7531 6275 5845 4601 1256 988 430 887 268 337 181 1244
is_linear=0
shrinkage=0.077797


Tree=4
num_leaves=14
num_cat=0
split_feature=17 23 13 13 23 23 23 23 13 13 2 3 15
split_gain=600.099 134.494 71.3588 47.5157 42.5125 25.099 15.4588 15.1893 12.8814 11.1149 10.404 8.66396 4.84948
threshold=0.33150000000000007 0.060350000000000008 0.76416666666666633 0.069166666666666834 -1.0000000180025095e-35 -1.0000000180025095e-35 0.29965000000000008 0.27480000000000004 1.3341666666666667 0.85333333333333317 4.285000000000001 30.165000000000003 -0.015499999999999845
decision_type=2 2 2 2 2 2 2 2 2 2 2 2 2
left_child=1 2 5 10 -4 -1 8 9 -5 -3 12 -12 -2
right_child=3 7 4 6 -6 -7 -8 -9 -10 -11 11 -13 -14
leaf_value=-0.089124318728682789 0.05232291444920182 0.026069848307473352 -0.089926464110344037 0.10836194620646007 0.021326497288018349 -0.048349001312868074 0.19413161619175226 0.13224026544987308 0.16567052631773022 0.10623178050888836 0.033640457313710605 0.098354459442549308 -0.0094603851018494663
leaf_weight=114.32253596931696 15.833071812987329 37.631240457296371 24.809086576104164 110.32533524930477 128.2696316614747 455.01611732691526 19.790449321269989 17.441516324877739 30.246231630444527 14.503558620810507 18.180694207549095 40.223397985100746 14.94896064698696
leaf_count=1031 92 247 213 541 960 3641 83 93 143 90 99 206 92
internal_value=-0.000761369 -0.033909 -0.0438582 0.10444 0.00329601 -0.0565366 0.129756 0.069395 0.120693 0.0483704 0.0589191 0.0782095 0.0223185
internal_weight=1041.54 791.994 722.417 249.548 153.079 569.339 160.362 69.5763 140.572 52.1348 89.1861 58.4041 30.782
internal_count=7531 6275 5845 1256 1173 4672 767 430 684 337 489 305 184
is_linear=0
shrinkage=0.077797


Tree=5
num_leaves=15
num_cat=0
split_feature=22 22 22 2 15 2 22 22 8 2 22 15 15 15
split_gain=628.155 94.3779 45.5587 40.2831 34.0388 20.2799 24.1022 14.3202 12.5939 11.309 8.9226 4.81498 4.1904 2.55079
threshold=0.18900000000000003 0.091500000000000012 0.63335000000000008 5.5150000000000006 -0.0016666666666664829 4.3850000000000007 0.40965000000000001 0.05850000000000001 12.500000000000002 5.7550000000000008 0.90000000000000013 -0.026666666666666835 -1.0000000180025095e-35 -0.073333333333332792
decision_type=2 2 2 2 2 2 2 2 2 2 2 2 2 2
left_child=1 7 5 12 -5 8 -7 13 -2 -9 11 -4 -3 -1
right_child=2 3 10 4 -6 6 -8 9 -10 -11 -12 -13 -14 -15
leaf_value=-0.044345243669997647 -0.006857472871036962 -0.025272833993302157 0.15283568575614734 0.049141535717850959 -0.022414799648609887 0.042127586836133865 0.10026999420023172 -0.066420198862974025 0.073971209934330276 -0.014224215495850713 0.18333940048216624 0.10299987716309393 -0.048118799862781392 -0.083787076047532119
leaf_weight=10.381053462624548 27.684042006731033 88.040744736790657 20.486725226044655 83.341258525848389 77.789809033274651 60.864255294203758 148.27809518575668 71.513614237308502 20.165155649185181 38.729263171553612 22.879297807812691 27.463499590754509 108.4453341960907 225.40201511234045
leaf_count=94 164 691 93 594 586 362 704 639 120 321 94 127 868 2074
internal_value=-0.000824235 -0.0422635 0.0881219 -0.0142371 0.014596 0.0728962 0.0833495 -0.0712287 0.0272063 -0.0480833 0.143366 0.124292 -0.0378821 -0.0820505
internal_weight=1031.46 703.643 327.821 357.617 161.131 256.992 209.142 346.026 47.8492 110.243 70.8295 47.9502 196.486 235.783
internal_count=7531 5867 1664 2739 1180 1350 1066 3128 284 960 314 220 1559 2168
is_linear=0
shrinkage=0.077797


Tree=6
num_leaves=15
num_cat=1
split_feature=22 22 22 22 22 0 22 5 20 5 7 22 10 10
split_gain=529.029 88.7433 37.1506 14.2872 13.9763 9.48637 8.18195 6.23949 3.90153 3.30882 3.17754 2.40817 1.096 1.09156
threshold=0.18900000000000003 0.091500000000000012 0.63335000000000008 0.05850000000000001 0.40965000000000001 0 0.90000000000000013 6.9250000000000007 1.0000000180025095e-35 6.7550000000000008 14.200000000000001 1.0000000180025095e-35 2.5000000000000004 3.5000000000000004
decision_type=2 2 2 2 2 9 2 2 2 2 2 2 2 2
left_child=1 3 4 11 13 8 12 -6 -3 -5 -7 -1 -4 -2
right_child=2 5 6 9 7 10 -8 -9 -10 -11 -12 -13 -14 -15
leaf_value=-0.087788258613804335 0.030035406982582211 0.010074657345567721 0.097942646302397865 -0.024075764241090016 0.081559684307538405 -0.020448129936634991 0.16583800527302578 0.037794497314152846 -0.016538359065730184 -0.054613624535451155 -0.045699574323862742 -0.071409926101171348 0.12103061726149636 0.049865969454226187
leaf_weight=126.08979783207178 49.672985419631004 107.3103384822607 23.826121136546135 29.852207377552986 167.3250228613615 161.16128703206778 23.3050676882267 22.349370911717415 48.368205770850182 76.51909101754427 37.10507283359766 95.476526528596878 26.049317970871925 25.385226890444756
leaf_count=1269 294 825 105 269 799 1253 94 108 372 691 289 899 115 149
internal_value=-0.000876777 -0.0403219 0.0787205 -0.0694793 0.0651581 -0.013307 0.127783 0.0764028 0.00169717 -0.0460434 -0.0239651 -0.0807306 0.110001 0.0367422
internal_weight=1019.8 681.883 337.913 327.938 264.733 353.945 73.1805 189.674 155.679 106.371 198.266 221.566 49.8754 75.0582
internal_count=7531 5867 1664 3128 1350 2739 314 907 1197 960 1542 2168 220 443
cat_boundaries=0 1
cat_threshold=8505660
is_linear=0
shrinkage=0.077797


Tree=7
num_leaves=14
num_cat=0
split_feature=17 13 17 13 13 13 3 5 2 13 3 13 7
split_gain=348.941 81.9692 31.9104 31.2171 25.0982 23.6013 19.7991 9.45277 8.00649 7.9443 5.08576 4.80779 3.12436
threshold=0.33150000000000007 0.74666666666666714 0.092000000000000012 0.069166666666666834 1.7316666666666671 -0.61083333333333323 40.570000000000007 6.8950000000000005 4.4150000000000009 1.3341666666666667 34.235000000000007 -0.81749999999999956 14.200000000000001
decision_type=2 2 2 2 2 2 2 2 2 2 2 2 2
left_child=1 2 11 7 6 -4 -3 8 -2 12 -6 -1 -5
right_child=3 4 5 9 10 -7 -8 -9 -10 -11 -12 -13 -14
leaf_value=-0.08625234645652495 0.022733980897276396 -0.010090747782862425 -0.060692406610702437 0.078957510210843559 0.046818732871737941 -0.016479009810720514 0.071537030274711852 -0.011741083375917834 0.072532679420194354 0.12455185375102683 0.1047272566350473 -0.060150172762152794 0.1083980333814831
leaf_weight=60.887356512248516 35.20470318198204 117.80050132423639 102.98334658890963 109.937614351511 19.101724661886692 251.59113650768995 21.224758751690388 18.247756898403168 43.915742471814156 39.102088689804077 17.670155130326748 143.04977429658175 27.218550860881805
leaf_count=630 193 914 903 482 135 2009 165 91 205 165 120 1399 120
internal_value=-0.000898275 -0.0288406 -0.0434233 0.0740882 0.0174891 -0.0293204 0.00237123 0.0387336 0.0503747 0.0936187 0.0746458 -0.0679432 0.0848
internal_weight=1007.94 734.309 558.512 273.626 175.797 354.574 139.025 97.3682 79.1204 176.258 36.7719 203.937 137.156
internal_count=7531 6275 4941 1256 1334 2912 1079 489 398 767 255 2029 602
is_linear=0
shrinkage=0.077797


Tree=8
num_leaves=13
num_cat=0
split_feature=16 23 13 23 13 23 23 5 15 13 13 13
split_gain=294.873 87.3825 62.2768 35.5039 25.6557 24.5158 9.35407 7.79571 7.33194 5.65541 5.2805 4.49488
threshold=1.0000000180025095e-35 0.13400000000000004 0.76416666666666633 -1.0000000180025095e-35 0.069166666666666834 -1.0000000180025095e-35 0.24165000000000003 6.8950000000000005 -0.026666666666666835 1.2874999999999999 0.44500000000000056 -0.6716666666666663
decision_type=2 2 2 2 2 2 2 2 2 2 2 2
left_child=1 2 5 -4 7 -1 9 11 -3 -6 -10 -2
right_child=4 8 3 -5 6 -7 -8 -9 10 -11 -12 -13
leaf_value=-0.086117253355017326 0.019787981953626872 0.094928617859591016 -0.087320256363121435 0.022548886495839228 0.067812352032542197 -0.041222537357693552 0.12165153862077627 -0.010884171150705424 0.015786357397486052 0.10444173609853855 0.068102656084823548 0.058641796927172196
leaf_weight=89.778476066887379 27.188600227236748 20.946722969412804 20.5991006270051 131.06198238581419 113.56169080734253 408.96368854492903 33.42483426630497 18.156831949949265 25.650133147835732 32.902653515338898 21.434754982590675 53.44439847022295
leaf_count=1031 144 113 213 976 494 3671 136 91 156 137 115 254
internal_value=-0.000904957 -0.0272541 -0.0360291 0.0076261 0.0670231 -0.049304 0.0845158 0.0351702 0.0566373 0.076041 0.0396026 0.0455407
internal_weight=997.114 718.435 650.403 151.661 278.679 498.742 179.889 98.7898 68.0316 146.464 47.0849 80.633
internal_count=7531 6275 5891 1189 1256 4702 767 489 384 631 271 398
is_linear=0
shrinkage=0.077797


Tree=9
num_leaves=15
num_cat=2
split_feature=22 22 22 1 5 0 22 22 10 21 22 5 4 17
split_gain=339.014 83.8447 26.5719 14.744 10.7654 9.31551 8.27229 7.17917 5.13674 3.30117 2.59662 3.24396 2.12211 0.0189716
threshold=0.18900000000000003 0.05850000000000001 0.63335000000000008 0 6.6750000000000007 1 0.90000000000000013 0.40965000000000001 1.0000000180025095e-35 5.7440998329156239 1.0000000180025095e-35 6.745000000000001 34.505000000000003 0.14750000000000002
decision_type=2 2 2 1 2 9 2 2 2 2 2 2 2 2
left_child=1 10 7 5 -5 -3 12 9 -9 -2 13 -12 -4 -1
right_child=2 3 6 4 -6 -7 -8 8 -10 -11 11 -13 -14 -15
leaf_value=-0.085573442854651252 0.019319344520291406 0.013579109491866 0.069290957033801628 0.034850985438770181 -0.03667261420183561 -0.016682209911962367 0.1396471421499835 0.019463939826008185 0.060631891983069987 0.055899504730430462 -0.040428451285483065 -0.076329086726005094 0.10059887485772441 -0.088013949770466532
leaf_weight=81.781820766627789 58.143268391489983 111.69356613606215 28.469884231686592 13.618591293692587 196.68804626911879 114.91236660629511 22.95788149535656 20.405921384692192 181.54580180346966 20.090913623571396 19.88022643327713 65.172338627278805 24.277217999100685 25.224542655050755
leaf_count=995 330 883 118 116 1766 934 94 92 815 113 207 692 102 274
internal_value=-0.000908276 -0.0352425 0.0597711 -0.0164101 -0.0305867 -0.00182296 0.100667 0.0487212 0.0564721 0.0287133 -0.078084 -0.0679377 0.0837006 -0.0861487
internal_weight=984.862 628.971 355.891 436.913 210.307 226.606 75.705 280.186 201.952 78.2342 192.059 85.0526 52.7471 107.006
internal_count=7531 5867 1664 3699 1882 1817 314 1350 907 443 2168 899 220 1269
cat_boundaries=0 1 2
cat_threshold=12 8932668
is_linear=0
shrinkage=0.077797


Tree=10
num_leaves=14
num_cat=0
split_feature=17 23 13 23 15 13 23 5 13 21 13 17 13
split_gain=211.831 67.7916 66.6374 28.3823 26.1955 21.2197 7.57974 6.40935 4.79429 4.13488 0.00245121 0.000917984 0.000157368
threshold=0.33150000000000007 -1.0000000180025095e-35 0.25333333333333369 0.20865000000000003 -0.021666666666666941 0.069166666666666834 0.24165000000000003 6.8950000000000005 1.2874999999999999 4.3664282988332639 0.74666666666666714 0.092000000000000012 1.2291666666666672
decision_type=2 2 2 2 2 2 2 2 2 2 2 2 2
left_child=1 10 3 -3 -4 7 8 9 -7 -2 11 -1 -12
right_child=5 2 4 -5 -6 6 -8 -9 -10 -11 12 -13 -14
leaf_value=-0.084503150994277604 0.0096009378690357344 -0.043476801534191013 0.050284442411270808 0.048083435834350353 -0.0023074269333322188 0.056413207953242242 0.10509341660457308 -0.014408394030258757 0.089752569146243494 0.047449603132416793 -0.085607632284466897 -0.085040881628111853 -0.086070985733056965
leaf_weight=34.979325383901596 24.87617913633585 311.28156730532646 85.961835391819477 21.934723645448685 172.04402311146259 116.79361772537231 32.891050040721893 18.516327768564224 33.620639234781265 58.676801823079586 10.672489777207376 42.63400211930275 7.5921306461095801
leaf_count=479 121 2937 616 121 1357 494 136 91 137 277 129 548 88
internal_value=-0.000907748 -0.0243078 -0.0144671 -0.0374496 0.015215 0.0554328 0.0712629 0.0270036 0.0638652 0.0361809 -0.0849894 -0.0847985 -0.0858002
internal_weight=972.475 687.1 591.222 333.216 258.006 285.375 183.305 102.069 150.414 83.553 95.8779 77.6133 18.2646
internal_count=7531 6275 5031 3058 1973 1256 767 489 631 398 1244 1027 217
is_linear=0
shrinkage=0.077797


Tree=11
num_leaves=14
num_cat=1
split_feature=16 13 19 13 13 13 3 15 0 13 13 15 3
split_gain=180.708 59.928 28.0003 22.0213 19.7047 18.0531 13.5678 6.80585 5.43886 5.21154 4.36203 3.99615 2.60316
threshold=1.0000000180025095e-35 0.56750000000000045 1.0000000180025095e-35 1.654166666666667 -0.61083333333333323 0.069166666666666834 40.335000000000008 -0.023333333333333869 0 1.3341666666666667 -0.81749999999999956 -0.016666666666667048 35.250000000000007
decision_type=2 2 2 2 2 2 2 2 9 2 2 2 2
left_child=1 2 4 6 -1 8 -3 -5 -2 11 -4 -7 -10
right_child=5 3 10 7 -6 9 -8 -9 12 -11 -12 -13 -14
leaf_value=-0.055018388441180607 -0.0076946460709231296 -0.011493571077292123 -0.084052870758482071 0.10083818714962939 -0.011467182086070902 0.07128809438313069 0.047373677665934137 0.037139073840421873 0.026012915585679294 0.090003836505812618 -0.056339014790304481 0.045364693955188565 0.055704806689052977
leaf_weight=90.117408335208893 27.355571255087852 141.29459312558174 49.607715487480164 15.886464260518549 208.01822917163372 72.340425923466682 28.471642717719078 28.122713044285774 46.692450948059559 40.424333482980728 111.92864512652159 71.623632818460464 28.952333673834801
leaf_count=903 133 1146 630 105 1798 300 224 192 224 165 1277 302 132
internal_value=-0.000898575 -0.0229385 -0.0387649 0.0110922 -0.0246314 0.0507483 -0.00162089 0.0601332 0.0246597 0.0653216 -0.0648499 0.0583909 0.033013
internal_weight=960.836 673.447 459.672 213.775 298.136 287.389 169.766 44.0092 103 184.388 161.536 143.964 75.6448
internal_count=7531 6275 4608 1667 2701 1256 1370 297 489 767 1907 602 356
cat_boundaries=0 1
cat_threshold=18694
is_linear=0
shrinkage=0.077797


Tree=12
num_leaves=12
num_cat=1
split_feature=22 22 13 22 13 13 13 22 13 0 22
split_gain=226.793 78.0122 43.692 22.7785 14.2066 14.0599 12.1658 6.30158 4.50342 4.17741 1.27064
threshold=0.18900000000000003 0.05850000000000001 0.21000000000000044 0.90000000000000013 0.069166666666666834 1.8058333333333334 -0.61083333333333323 0.40965000000000001 1.7316666666666671 0 1.0000000180025095e-35
decision_type=2 2 2 2 2 2 2 2 2 9 2
left_child=1 8 6 4 9 -4 -3 -6 10 -2 -1
right_child=3 2 5 -5 7 -7 -8 -9 -10 -11 -12
leaf_value=-0.084743949917152117 0.00083662770061241872 -0.059476004765207417 0.0071318288596223592 0.12481781462207257 0.03031152423506293 0.075014193957278902 -0.022188648197340233 0.062022206500279752 -0.015841642189011022 0.031513710687877027 -0.070817004418469276
leaf_weight=87.687348417937756 50.363805428147316 83.968493655323982 171.04754032194614 21.619341820478439 49.254516556859016 20.701940894126892 143.40825574100018 164.94034817814827 7.2701274678111067 77.582830965518951 72.375585675239563
leaf_count=1238 255 878 1354 94 260 129 1338 674 64 381 866
internal_value=-0.000887063 -0.0308204 -0.0128919 0.0473717 0.0424781 0.0144606 -0.0359586 0.0547303 -0.0757266 0.0219667 -0.0784466
internal_weight=950.22 586.459 419.126 363.761 342.142 191.749 227.377 214.195 167.333 127.947 160.063
internal_count=7531 5867 3699 1664 1570 1483 2216 934 2168 636 2104
cat_boundaries=0 1
cat_threshold=8673286
is_linear=0
shrinkage=0.077797


Tree=13
num_leaves=14
num_cat=3
split_feature=16 17 0 0 3 5 3 5 20 17 7 12 7
split_gain=130.889 44.1519 8.20727 7.92669 10.9624 5.68595 5.61567 5.00813 4.78453 2.97587 2.58565 2.03861 2.24247
threshold=1.0000000180025095e-35 0.092000000000000012 0 1 40.570000000000007 6.7550000000000008 42.520000000000003 6.8250000000000011 1.0000000180025095e-35 0.05850000000000001 10.950000000000001 2 14.200000000000001
decision_type=2 2 9 9 2 2 2 2 2 2 2 9 2
left_child=1 5 7 4 -3 6 -1 10 -5 -7 -2 12 -4
right_child=2 3 11 8 -6 9 -8 -9 -10 -11 -12 -13 -14
leaf_value=-0.03907894346770583 0.011518072066037669 -0.0038769628392038686 0.046340200214144173 -0.0091449658985121723 0.040653067294627622 -0.069301448425621748 0.028555656307037536 -0.0048791198937719943 -0.033745200108010825 -0.047333218467676762 0.041138807475616615 0.073271586566214394 0.068604661678787232
leaf_weight=52.743632972240448 26.332918293774128 159.38294591009617 104.97232094407082 167.81748546287417 42.351114995777607 70.443763896822929 8.6483002677559835 31.641541093587875 66.936428971588612 79.370734483003616 55.278277836740017 34.335437327623367 37.040885090827942
leaf_count=609 114 1352 456 1446 349 897 98 139 621 903 240 146 161
internal_value=-0.000851589 -0.0202914 0.0426256 -0.00616211 0.00521305 -0.0494916 -0.0295512 0.0196588 -0.0154991 -0.0576628 0.0315813 0.0532412 0.0521474
internal_weight=937.296 647.694 289.601 436.488 201.734 211.206 61.3919 113.253 234.754 149.814 81.6112 176.349 142.013
internal_count=7531 6275 1256 3768 1701 2507 707 493 2067 1800 354 763 617
cat_boundaries=0 1 2 3
cat_threshold=8503794 8473018 2
is_linear=0
shrinkage=0.077797


Tree=14
num_leaves=12
num_cat=0
split_feature=17 23 23 15 23 23 15 15 17 15 15
split_gain=111.598 62.1402 40.5113 30.1434 14.895 8.91072 5.72094 4.55983 0.00224616 0.000124084 6.7536e-05
threshold=0.33150000000000007 -1.0000000180025095e-35 0.14565000000000003 -0.015000000000000123 0.24165000000000003 -1.0000000180025095e-35 0.015499999999999849 -0.026666666666666835 0.092000000000000012 -0.039999999999999584 0.010833333333333252
decision_type=2 2 2 2 2 2 2 2 2 2 2
left_child=1 8 3 -3 5 -2 -7 -4 10 -10 -1
right_child=4 2 7 -5 -6 6 -8 -9 9 -11 -12
leaf_value=-0.083209883407471041 -0.016463970333512417 0.0085177885769477171 0.077229477104277341 -0.031805506314756066 0.087226700275393337 0.043461514254648351 0.014501593961532796 0.033313222381601143 -0.08427296889728278 -0.083899184832011128 -0.082986905722043425
leaf_weight=18.329302351921797 20.565162107348442 173.1338375210762 20.820380732417107 318.82632333785295 34.312525644898415 182.99136936664581 53.314054235816002 45.758634552359581 6.2192876003682604 39.60773017257452 14.907913971692322
leaf_count=307 101 1525 103 3150 150 769 236 253 89 592 256
internal_value=-0.00082076 -0.0190446 -0.00990692 -0.0176147 0.039084 0.0326532 0.0369277 0.0470466 -0.0835968 -0.0839499 -0.0831099
internal_weight=928.787 637.603 558.539 491.96 291.183 256.871 236.305 66.579 79.0642 45.827 33.2372
internal_count=7531 6275 5031 4675 1256 1106 1005 356 1244 681 563
is_linear=0
shrinkage=0.077797


Tree=15
num_leaves=13
num_cat=0
split_feature=22 22 23 15 22 14 15 15 20 15 4 22
split_gain=167.328 50.288 26.6591 24.9601 14.6803 14.5508 8.66166 7.18182 4.17274 3.44493 1.81284 1.65699
threshold=0.091500000000000012 0.29165000000000002 0.47035000000000005 -1.0000000180025095e-35 0.05850000000000001 6.5508333333333377 0.056666666666666206 -0.036666666666667506 -5.4999999999999991 -0.073333333333332792 29.835000000000004 1.0000000180025095e-35
decision_type=2 2 2 2 2 2 2 2 2 2 2 2
left_child=4 3 6 5 9 -2 -3 -6 -5 -1 -9 -11
right_child=1 2 -4 8 7 -7 -8 10 -10 11 -12 -13
leaf_value=-0.020488224484975261 0.0078060474851741474 0.035910417814442618 0.11031252236944347 0.010151890459912457 0.01471178964631426 0.069243902393102075 -0.016568797677539299 -0.02649876352064855 -0.028948436526404255 -0.083876925335025956 -0.052838305659075512 -0.066800770802357939
leaf_weight=7.1253324523568144 144.5970918238163 300.81275422871113 29.133016541600227 18.607843369245529 15.860171966254709 27.820370435714722 20.32085944712162 24.690627709031105 147.16163838654757 74.16707469522953 43.99483010917902 64.131607905030251
leaf_count=94 1135 1326 133 166 163 220 96 288 1327 1218 509 856
internal_value=-0.000798325 0.0183938 0.0390541 -0.00300447 -0.0582533 0.0177193 0.0325896 -0.0324742 -0.0245594 -0.0732405 -0.0433699 -0.0759584
internal_weight=918.423 688.454 350.267 338.187 229.97 172.417 321.134 84.5456 165.769 145.424 68.6855 138.299
internal_count=7531 4403 1555 2848 3128 1355 1422 960 1493 2168 797 2074
is_linear=0
shrinkage=0.077797


Tree=16
num_leaves=14
num_cat=0
split_feature=22 22 23 2 15 22 2 2 14 15 14 15 22
split_gain=148.296 42.5696 23.8389 22.5336 21.5972 14.4712 9.63142 8.85249 5.97552 3.83314 3.31673 1.8342 1.72087
threshold=0.091500000000000012 0.29165000000000002 0.47035000000000005 5.285000000000001 -0.0016666666666664829 0.05850000000000001 5.7550000000000008 4.3850000000000007 -3.3299999999999987 -0.07499999999999972 4.1458333333333366 -0.039166666666666565 1.0000000180025095e-35
decision_type=2 2 2 2 2 2 2 2 2 2 2 2 2
left_child=5 3 7 8 -5 9 11 -3 -2 -1 -8 -7 -11
right_child=1 2 -4 4 -6 6 10 -9 -10 12 -12 -13 -14
leaf_value=-0.013663780805252122 0.00026440702978022595 0.00098101943447124682 0.10410185605790072 0.039099039604947324 -0.013152180419476713 -0.018330459804283297 -0.013111351448376787 0.035613242488871336 -0.035470242284298903 -0.083406087789248337 0.042622521030479282 -0.05889865961240897 -0.065483388431775369
leaf_weight=6.4771735258400431 38.596086889505386 53.549273252487183 28.494951009750366 102.36264130473137 89.948360003530979 8.0470286533236486 23.745348997414112 269.45160406827927 106.39472731947899 68.987855434417725 8.8789121732115728 41.698536656796932 61.177279025316238
leaf_count=88 375 265 133 707 753 95 235 1157 1013 1218 86 544 862
internal_value=-0.000786964 0.0169434 0.0358893 -0.0027998 0.0146599 -0.0565493 -0.0307927 0.0298717 -0.0259578 -0.0720758 0.002057 -0.0523362 -0.0749825
internal_weight=907.81 688.798 351.496 337.302 192.311 219.012 82.3698 323.001 144.991 136.642 32.6243 49.7456 130.165
internal_count=7531 4403 1555 2848 1460 3128 960 1422 1388 2168 321 639 2080
is_linear=0
shrinkage=0.077797


Tree=17
num_leaves=16
num_cat=4
split_feature=18 13 13 13 0 15 15 13 11 11 20 0 13 15 20
split_gain=71.9993 41.2372 25.209 14.0749 11.2113 11.1439 8.47512 8.32186 8.13134 7.9562 7.62005 6.42989 3.99399 3.47802 3.32646
threshold=1.0000000180025095e-35 0.73166666666666702 0.021833333333333819 -0.61083333333333323 0 -0.015499999999999845 -0.05000000000000026 1.3341666666666667 1 2 -1.0000000180025095e-35 3 -0.13833333333333295 -0.021666666666666941 1.2500000000000002
decision_type=2 2 2 2 9 2 2 2 1 1 2 9 2 2 2
left_child=1 3 8 14 6 -5 -3 9 11 -4 -6 -2 -10 -9 -1
right_child=2 4 7 5 10 -7 -8 13 12 -11 -12 -13 -14 -15 -16
leaf_value=-0.044902897708721669 0.03436265438478471 0.10168845320757301 0.040156551503933928 -0.0018381197509347829 0.032904025276190976 -0.03819212685764857 0.027924229700171697 0.080962374049946759 -0.030340693858524934 0.0071971592439552109 -0.026024743784762501 -0.0070063514931977995 0.013856535161749889 0.043111909351460163 -0.073824923072681667
leaf_weight=41.992832746356726 37.265374250710011 11.638085648417471 130.92417254298925 75.598122671246529 18.474616106599569 157.06090846285224 49.623067736625671 29.074870564043522 63.742289759218693 89.788315620273352 47.242097288370132 43.114806950092316 15.356167398393152 29.704562451690435 56.387963585555553
leaf_count=509 247 82 692 753 131 1826 410 138 441 481 428 277 87 150 879
internal_value=-0.000775575 -0.0223535 0.0217387 -0.0368109 0.0153379 -0.0263796 0.0360525 0.0358215 -0.00294196 0.0288938 -0.00820921 0.0138528 -0.019318 0.0618344 -0.0614799
internal_weight=896.988 458.018 438.971 331.04 126.978 232.659 61.2612 279.492 159.479 220.712 65.7167 80.3802 79.0985 58.7794 98.3808
internal_count=7531 5018 2513 3967 1051 2579 492 1461 1052 1173 559 524 528 288 1388
cat_boundaries=0 1 2 3 4
cat_threshold=11565106 106148 180728 16387088
is_linear=0
shrinkage=0.077797


Tree=18
num_leaves=13
num_cat=2
split_feature=1 23 13 13 23 14 13 13 0 13 16 13
split_gain=66.8809 37.5874 28.924 28.3667 15.3002 13.7471 9.9783 9.86629 8.88881 8.19196 7.65516 0.000764671
threshold=0 -1.0000000180025095e-35 0.67266666666666641 0.18250000000000013 0.18085000000000001 6.5508333333333377 -0.65499999999999969 1.7700000000000002 1 -0.25249999999999989 1.0000000180025095e-35 0.73166666666666702
decision_type=1 2 2 2 2 2 2 2 9 2 2 2
left_child=1 10 4 6 9 -5 -3 8 -4 -2 11 -1
right_child=2 3 7 5 -6 -7 -8 -9 -10 -11 -12 -13
leaf_value=-0.082406008796826427 -0.067868887418424326 -0.023686855909008042 0.018523719801091191 0.030180133019499969 0.021246578787142752 0.077949084700983329 0.011258217129877544 0.057126065913829627 -0.028946855171478353 -0.03620994166163663 -0.018085985713107221 -0.083453341881202056
leaf_weight=18.97821015492082 99.895364452153444 70.006301060318947 38.386227518320084 251.90104660391808 18.801718398928642 42.633521035313606 168.46460481733084 18.227955251932144 38.316520426422358 97.99341031908989 20.424006313085556 5.4253636300563803
leaf_count=362 1556 553 339 1361 109 220 1085 129 377 1252 101 87
internal_value=-0.000687743 0.0149327 -0.0291948 0.0209454 -0.0458195 0.0370946 0.000999627 0.00567754 -0.0065489 -0.0521916 -0.0532278 -0.0826389
internal_weight=889.454 577.833 311.621 533.005 216.69 294.535 238.471 94.9307 76.7027 197.889 44.8276 24.4036
internal_count=7531 3769 3762 3219 2917 1581 1638 845 716 2808 550 449
cat_boundaries=0 1 2
cat_threshold=14 11597954
is_linear=0
shrinkage=0.077797


Tree=19
num_leaves=11
num_cat=0
split_feature=23 17 23 13 13 16 13 13 13 13
split_gain=60.3961 47.707 33.9554 30.5004 17.5904 10.6278 7.52055 0.00307455 0.000882642 0.000296459
threshold=-1.0000000180025095e-35 0.092000000000000012 0.35400000000000004 0.76416666666666633 1.8058333333333334 1.0000000180025095e-35 -0.81749999999999956 0.74666666666666714 -0.61083333333333323 1.2658333333333334
decision_type=2 2 2 2 2 2 2 2 2 2
left_child=5 4 3 -3 6 7 -2 8 -1 -9
right_child=1 2 -4 -5 -6 -7 -8 9 -10 -11
leaf_value=-0.081342540055778803 -0.080643448667445286 -0.00042388437285036503 0.098000895461968288 0.036852415403845255 0.074787632386646832 -0.016791095675086541 -0.032455958344113356 -0.08278893344321063 -0.082029108041341212 -0.083551816379897004
leaf_weight=19.565468270331621 23.535968244075775 433.15232853591442 28.390841424465179 191.624233327806 8.4916454106569272 20.293069712817669 117.28441087901592 7.404604531824587 26.93403684720397 5.2824239768087864
leaf_count=472 398 3084 138 1020 60 101 1486 132 555 85
internal_value=-0.000685962 0.00572103 0.0147903 0.0110091 -0.0339526 -0.0653752 -0.0405098 -0.0820331 -0.0817402 -0.0831066
internal_weight=881.959 802.479 653.167 624.777 149.312 79.4796 140.82 59.1865 46.4995 12.687
internal_count=7531 6186 4242 4104 1944 1345 1884 1244 1027 217
is_linear=0
shrinkage=0.077797


Tree=20
num_leaves=15
num_cat=0
split_feature=22 22 13 22 14 13 22 13 13 13 13 2 22 22
split_gain=101.527 29.7135 21.5294 15.0259 13.283 12.5355 11.0316 9.57847 7.2783 5.69569 2.65395 2.62092 2.21805 1.77469
threshold=0.091500000000000012 0.29165000000000002 0.76416666666666633 0.05850000000000001 5.6766666666666667 0.44500000000000056 0.63335000000000008 -0.61083333333333323 0.50916666666666688 1.8058333333333334 -0.5081666666666661 6.5650000000000004 0.70835000000000015 1.0000000180025095e-35
decision_type=2 2 2 2 2 2 2 2 2 2 2 2 2 2
left_child=3 2 7 9 -4 10 8 -2 -3 13 -5 -7 -8 -1
right_child=1 6 4 5 -6 11 12 -9 -10 -11 -12 -13 -14 -15
leaf_value=-0.082408496881354792 -0.043667999517962942 0.012518406405093467 0.015100494815389992 -0.073918015026852912 0.095313811946580576 -1.4348453029439562e-05 0.043835863594345374 -0.0072376496197477979 0.038480189826655839 0.0074301551538599108 -0.034945070867605219 0.050199622935376158 0.07158331914806787 -0.062514769607105877
leaf_weight=56.648382090032101 58.038608342409134 175.6380195915699 87.191023305058479 16.88469885289669 14.584804572165011 19.530403755605224 37.647571638226509 176.5787378847599 104.08826354146004 5.6214440390467635 28.300541408360004 9.2806425616145116 32.478240460157394 52.102934535592794
leaf_count=1244 655 802 553 285 84 204 154 1556 439 56 396 75 160 868
internal_value=-0.000664992 0.0132221 -0.00328688 -0.0512568 0.0265953 -0.0239396 0.0290959 -0.0162496 0.022179 -0.0689302 -0.0495084 0.0161606 0.0566869 -0.0728774
internal_weight=874.614 686.245 336.393 188.369 101.776 73.9963 349.852 234.617 279.726 114.373 45.1852 28.811 70.1258 108.751
internal_count=7531 4403 2848 3128 637 960 1555 2211 1241 2168 681 279 314 2112
is_linear=0
shrinkage=0.077797


Tree=21
num_leaves=15
num_cat=2
split_feature=22 22 3 22 0 0 22 22 3 3 8 18 20 19
split_gain=91.4012 35.0707 10.7737 10.1875 7.68941 7.28595 3.8191 2.12335 0.928197 1.25735 1.19948 0.0225061 0.00447127 0.000347244
threshold=0.05850000000000001 0.18900000000000003 51.050000000000004 0.63335000000000008 0 1 1.0000000180025095e-35 0.70835000000000015 37.655000000000008 24.435000000000006 12.500000000000002 1.0000000180025095e-35 -4.7499999999999991 1.0000000180025095e-35
decision_type=2 2 2 2 9 9 2 2 2 2 2 2 2 2
left_child=6 2 4 5 -2 -3 11 -5 9 -8 -10 13 -13 -1
right_child=1 3 -4 7 -6 -7 8 -9 10 -11 -12 12 -14 -15
leaf_value=-0.081585084397184468 0.0017919694096980505 0.0043338623822478757 0.06810716434246944 0.040511678404570019 -0.020226501218510638 0.029948955393113149 -0.030052444658549636 0.067868901374195725 -0.01617002948933793 -0.066051759689065889 -0.060778136432986699 -0.086969666873270138 -0.08393682853552395 -0.081138728412111102
leaf_weight=20.791743975132704 191.03742893785238 130.61930891871452 11.116105083376167 37.570552289485931 187.41280897706747 167.70473701506853 7.2355432733893386 31.625476330518723 8.0852288454771024 31.162230990827084 6.6481521464884272 4.882537342607975 7.4029632657766324 21.412045747041702
leaf_count=481 1758 605 98 154 1843 745 119 160 139 535 106 79 146 563
internal_value=-0.000654471 0.00888181 -0.00738162 0.0261208 -0.00959893 0.0198827 -0.0677401 0.0530151 -0.0528987 -0.0592682 -0.0362986 -0.0822117 -0.0851421 -0.0813586
internal_weight=864.707 757.086 389.566 367.52 378.45 298.324 107.62 69.196 53.1312 38.3978 14.7334 54.4893 12.2855 42.2038
internal_count=7531 5363 3699 1664 3601 1350 2168 314 899 654 245 1269 225 1044
cat_boundaries=0 1 2
cat_threshold=8444030 8509794
is_linear=0
shrinkage=0.077797


Tree=22
num_leaves=15
num_cat=1
split_feature=1 13 13 15 15 5 13 13 21 17 16 8 21 17
split_gain=41.6735 22.1138 19.1483 15.5198 9.69601 8.52089 7.38266 6.24077 6.83136 5.26123 4.53901 3.63491 3.28341 1.11346
threshold=0 0.67266666666666641 -0.65499999999999969 -0.016666666666667048 0.015499999999999849 6.6550000000000011 1.694166666666667 -0.61083333333333323 6.5372122762148352 0.05850000000000001 1.0000000180025095e-35 11.250000000000002 5.2090513860102572 0.11650000000000001
decision_type=1 2 2 2 2 2 2 2 2 2 2 2 2 2
left_child=2 7 10 5 9 -4 -5 13 -9 -3 12 -6 -1 -2
right_child=1 4 3 6 11 -7 -8 8 -10 -11 -12 -13 -14 -15
leaf_value=-0.025763827743222889 -0.069975044810382317 -0.016024127400433703 -0.0078253997849736332 0.00085069405505338127 -0.060983532770582875 0.038125921775301087 0.047106728038903575 -0.036125351179587241 0.029155904277842634 0.035473882555514938 -0.003774129710360724 -0.0057167323618175425 -0.071460906062316421 -0.048328568510892254
leaf_weight=26.773720625787973 35.571956178173423 15.979773957282303 27.894775722175837 248.30063902586699 13.530657287687065 196.2894375436008 22.801130384206772 121.84154018014669 10.541248094290493 48.295147255063057 34.325248882174492 15.400693364441393 14.764237478375433 24.144034709781408
leaf_count=348 775 181 151 1693 128 1101 116 1672 140 374 167 162 193 330
internal_value=-0.000618742 -0.0244028 0.0114882 0.0172643 0.00583615 0.0324083 0.00474108 -0.040345 -0.0309272 0.0226707 -0.0247077 -0.031564 -0.0420064 -0.0612231
internal_weight=856.454 285.305 571.149 495.286 93.2063 224.184 271.102 192.099 132.383 64.2749 75.8632 28.9314 41.538 59.716
internal_count=7531 3762 3769 3061 845 1252 1809 2917 1812 555 708 290 541 1105
cat_boundaries=0 1
cat_threshold=14
is_linear=0
shrinkage=0.077797


Tree=23
num_leaves=13
num_cat=1
split_feature=23 13 23 15 1 23 15 18 14 13 13 13
split_gain=44.6256 31.7793 17.6732 13.7042 12.7199 12.8663 10.2533 5.47775 6.96199 0.00202843 0.000413218 0.000212276
threshold=-1.0000000180025095e-35 0.069166666666666834 0.35400000000000004 -0.018166666666666661 0 0.18085000000000001 0.00083333333333346371 1.0000000180025095e-35 -0.50583333333332792 0.69666666666666666 -0.62633333333333352 1.1908333333333336
decision_type=2 2 2 2 1 2 2 2 2 2 2 2
left_child=7 4 3 -3 6 -6 -2 9 -9 10 -1 -11
right_child=1 2 -4 -5 5 -7 -8 8 -10 11 -12 -13
leaf_value=-0.080373567381575764 0.012661312678166043 0.029952531697790094 0.084340778629935581 0.0022329618676078739 -0.046978192920950637 0.033067067981195783 -0.022219858177825486 -0.073607681558032226 0.0035645742654935269 -0.081696878962112279 -0.080965054579965071 -0.082451197290295167
leaf_weight=12.702848572283985 121.34568152576685 189.56530248746276 22.8494623452425 250.71112786605954 98.052387945353985 13.873278781771658 87.987187772989273 14.466544199734928 13.847653314471243 5.020403176546095 16.348614823073149 4.103577509522438
leaf_count=412 777 1109 122 1852 1545 83 698 167 134 112 439 81
internal_value=-0.000599308 0.00458791 0.01763 0.0141679 -0.0142136 -0.0340172 -0.00190882 -0.0617934 -0.035865 -0.0810242 -0.0807064 -0.0820361
internal_weight=850.874 784.384 463.126 440.276 321.259 111.926 209.333 66.4896 28.3142 38.1754 29.0515 9.12398
internal_count=7531 6186 3083 2961 3103 1628 1475 1345 301 1044 851 193
cat_boundaries=0 1
cat_threshold=14
is_linear=0
shrinkage=0.077797


Tree=24
num_leaves=14
num_cat=2
split_feature=22 22 21 22 0 22 0 7 14 14 20 20 19
split_gain=73.9478 25.5788 8.95698 8.09768 6.86627 4.0518 4.00964 1.61779 2.93001 0.821073 0.0170795 0.00320508 0.000471041
threshold=0.05850000000000001 0.18900000000000003 7.418449914377967 0.70835000000000015 0 1.0000000180025095e-35 1 12.900000000000002 2.4908333333333315 -4.2741666666666669 -2.2499999999999996 -4.7499999999999991 1.0000000180025095e-35
decision_type=2 2 2 2 9 2 9 2 2 2 2 2 2
left_child=5 2 4 6 -2 10 -3 9 -9 -7 11 -1 -12
right_child=1 3 -4 -5 -6 7 -8 8 -10 -11 12 -13 -14
leaf_value=-0.086000080019853334 0.0020064151648732293 0.0082879376152568945 0.061111190007403698 0.061226434331703314 -0.018929553197027105 -0.083274707756239671 0.026951205827785398 -0.053671959572497249 0.0096337150144295211 -0.053430173651451758 -0.081121773737498348 -0.083260857282493245 -0.08055756253270642
leaf_weight=4.3899001888930798 193.41179804131389 164.15400233119726 11.531123980879782 29.759173840284348 178.90941555798054 7.5949990302324322 172.03086104989052 13.199652981013061 6.6564127244055262 21.022110294550657 18.069452179595828 6.28900866396725 17.756239678710699
leaf_count=79 1803 748 98 160 1798 137 756 246 118 398 485 142 563
internal_value=-0.000579068 0.00761302 -0.00641695 0.0223296 -0.00850836 -0.065251 0.0188864 -0.0495122 -0.0324498 -0.0613509 -0.0816561 -0.0843869 -0.0808421
internal_weight=844.774 749.796 383.852 365.944 372.321 94.9778 336.185 48.4732 19.8561 28.6171 46.5046 10.6789 35.8257
internal_count=7531 5363 3699 1664 3601 2168 1504 899 364 535 1269 221 1048
cat_boundaries=0 1 2
cat_threshold=8444156 8509922
is_linear=0
shrinkage=0.077797


Tree=25
num_leaves=12
num_cat=1
split_feature=13 17 13 13 17 3 17 0 17 13 2
split_gain=31.5397 20.9511 12.1979 10.7119 8.0625 7.88914 7.70341 7.10813 2.32228 2.89455 2.77784
threshold=-0.65499999999999969 0.092000000000000012 0.97416666666666674 1.8058333333333334 0.33150000000000007 46.955000000000005 0.33150000000000007 0 0.092000000000000012 -0.81749999999999956 4.1350000000000007
decision_type=2 2 2 2 2 2 2 9 2 2 2
left_child=4 3 6 5 8 -2 -3 -4 9 -1 -10
right_child=1 2 7 -5 -6 -7 -8 -9 10 -11 -12
leaf_value=-0.078844838237915535 -0.036542292882912247 -0.0040515162632009591 -0.0016198573270701999 0.055134550943242856 -0.0046930471478892613 0.049574118738601229 0.016958903877478046 0.037993419356139341 -0.026742618073673192 -0.017361257645826172 -0.060906963780005784
leaf_weight=23.775473913177851 101.76656696200371 249.01649413444102 42.717147693037987 9.4803736545145494 34.396294720470905 6.8733429238200179 183.41061040759087 120.18182329833508 36.481979347765446 5.7563889753073445 23.801658110693097
leaf_count=630 1589 2300 235 73 167 98 790 680 533 117 319
internal_value=-0.000542448 0.00575637 0.0116948 -0.0241732 -0.0367215 -0.0310939 0.00485989 0.0298385 -0.0489873 -0.0668604 -0.0402317
internal_weight=837.658 713.446 595.326 118.12 124.212 108.64 432.427 162.899 89.8155 29.5319 60.2836
internal_count=7531 5765 4005 1760 1766 1687 3090 915 1599 747 852
cat_boundaries=0 1
cat_threshold=573828
is_linear=0
shrinkage=0.077797


Tree=26
num_leaves=12
num_cat=1
split_feature=22 23 22 2 0 22 2 14 17 2 2
split_gain=64.1604 22.3447 13.0942 14.2481 4.73259 4.33873 3.55522 2.19704 0.058185 0.000959931 0.000174088
threshold=0.05850000000000001 0.47035000000000005 0.18900000000000003 5.6150000000000011 0 1.0000000180025095e-35 4.7750000000000012 -1.3775000000000011 0.33150000000000007 4.9350000000000014 4.0650000000000004
decision_type=2 2 2 2 9 2 2 2 2 2 2
left_child=5 2 3 -2 -4 8 10 -8 9 -1 -7
right_child=1 -3 4 -5 -6 6 7 -9 -10 -11 -12
leaf_value=-0.080192557769592762 -0.020323430619466003 0.08145473199064375 0.0048281994067245985 0.0098373990921118599 0.023998762985209626 -0.080922948039781492 -0.055814029723035272 -0.014882295673501933 -0.091894077103911759 -0.080961378478710544 -0.081495696225781275
leaf_weight=18.74687354452908 192.49312968552113 23.571368530392647 165.96552611887455 186.78341610357165 175.63835837692022 6.0338790491223318 14.175748266279696 18.033333349972963 2.9663220494985572 20.662834908813238 6.8677860833704472
leaf_count=668 2236 133 752 1463 779 165 259 312 25 576 163
internal_value=-0.000488458 0.00691788 0.00448067 -0.00547004 0.0155288 -0.0635113 -0.0467196 -0.032897 -0.0813865 -0.0805957 -0.0812278
internal_weight=831.939 744.452 720.88 379.277 341.604 87.4868 45.1107 32.2091 42.376 39.4097 12.9017
internal_count=7531 5363 5230 3699 1531 2168 899 571 1269 1244 328
cat_boundaries=0 1
cat_threshold=8506850
is_linear=0
shrinkage=0.077797


Tree=27
num_leaves=16
num_cat=4
split_feature=13 15 0 18 0 13 11 1 18 3 3 14 15 13 2
split_gain=26.2694 18.5415 14.3192 11.281 10.5751 10.3375 9.45593 6.02766 5.39176 7.42738 6.53466 1.80141 2.45601 1.62492 0.977004
threshold=-0.65499999999999969 -0.016666666666667048 0 1.0000000180025095e-35 1 -0.26333333333333314 2 3 1.0000000180025095e-35 32.385000000000012 28.930000000000003 -3.3299999999999987 0.018166666666666668 -0.81749999999999956 3.9950000000000006
decision_type=2 2 9 2 9 2 1 1 2 2 2 2 2 2 2
left_child=8 2 7 4 -3 -4 -5 -2 11 10 -10 12 -1 -13 -11
right_child=1 3 5 6 -6 -7 -8 -9 9 14 -12 13 -14 -15 -16
leaf_value=-0.054610345515114345 0.014835794035485008 0.0077870267774425277 -0.014764900375140538 0.023314977914675333 -0.028958064738155924 0.046482730553173111 -0.0095469619607760868 -0.014480829770485039 -0.022771400181295316 -0.029724727866933923 0.057241772298459052 -0.065230260050192404 0.0035670604678405631 -0.029540901558822864 -0.058165172527676196
leaf_weight=9.8092303574085253 84.488303676247597 68.429189935326576 19.168530285358429 99.749122004956007 142.666818279773 128.4027290828526 96.441923838108778 67.303320452570915 13.058994026854636 16.012315560132269 11.723691731691359 36.590465299785137 7.9523159731179467 9.7861115131527168 13.452271621674297
leaf_count=173 430 801 168 568 1764 865 570 599 111 133 88 817 163 174 107
internal_value=-0.000445606 0.00523636 0.0199353 -0.00556758 -0.0180496 0.036082 0.00786275 0.00174541 -0.0343616 -0.0163087 0.0150796 -0.0496306 -0.0285628 -0.0576993 -0.0427094
internal_weight=825.035 706.65 299.363 407.287 211.096 147.571 196.191 151.792 118.385 54.2473 24.7827 64.1381 17.7615 46.3766 29.4646
internal_count=7531 5765 2062 3703 2565 1033 1138 1029 1766 439 199 1327 336 991 240
cat_boundaries=0 1 2 3 4
cat_threshold=4322330 4296946 138552 10
is_linear=0
shrinkage=0.077797


Tree=28
num_leaves=13
num_cat=3
split_feature=17 15 0 0 15 15 15 17 11 15 5 16
split_gain=22.8295 13.3378 10.0689 8.77295 8.73983 5.892 5.80448 4.91683 5.84916 4.50689 3.90615 2.8058
threshold=0.092000000000000012 -1.0000000180025095e-35 0 1 -0.084999999999999507 0.053333333333334128 -0.048333333333333332 0.05850000000000001 2 -0.080833333333333521 6.745000000000001 1.0000000180025095e-35
decision_type=2 2 9 9 2 2 2 2 1 2 2 2
left_child=4 3 11 9 -1 -4 -5 10 -9 -2 -6 -3
right_child=1 2 5 6 7 -7 -8 8 -10 -11 -12 -13
leaf_value=0.062832060891142127 -0.036838852196929957 -0.035788796306527024 0.012210175611650172 0.045312981027884121 -0.015678279787840886 -0.023662884433518615 0.017456379419681232 7.3940451583783172e-05 -0.042715804465070208 0.0053556383519496849 -0.063183844638086961 -0.010133149564362254
leaf_weight=5.9711695108562699 16.850846173241735 71.853343999013305 137.60592970810831 65.528049848973751 14.046947540715335 34.698574740439653 146.45761416852474 49.694388991221786 27.569171788170934 168.77488737553358 41.205766472965479 40.253125973045826
leaf_count=74 97 776 1169 396 283 306 994 769 454 1106 927 180
internal_value=-0.000439071 0.00540849 -0.0074551 0.0146098 -0.0292371 0.00471258 0.024893 -0.0333857 -0.0207133 0.00144731 -0.0511065 -0.0244003
internal_weight=820.51 682.022 284.411 397.611 138.487 172.305 211.986 132.516 77.2636 185.626 55.2527 112.106
internal_count=7531 5024 2431 2593 2507 1475 1390 2433 1223 1203 1210 956
cat_boundaries=0 1 2 3
cat_threshold=1444324 259090 176370
is_linear=0
shrinkage=0.077797


Tree=29
num_leaves=9
num_cat=0
split_feature=22 22 13 15 13 15 13 22
split_gain=53.6954 17.4515 15.3203 9.39484 7.31969 7.24241 3.4824 1.28227
threshold=0.05850000000000001 0.90000000000000013 0.18250000000000013 0.00083333333333346371 1.694166666666667 -0.084999999999999507 1.8058333333333334 1.0000000180025095e-35
decision_type=2 2 2 2 2 2 2 2
left_child=5 2 3 -2 -4 -1 7 -7
right_child=1 -3 4 -5 -6 6 -8 -9
leaf_value=0.04876359510825768 0.0038646953481753926 0.095173125440478359 0.010454662383956582 -0.022649861385995833 0.040834693061038138 -0.080877886636706767 0.0008367148350552178 -0.060035762324843187
leaf_weight=3.4615456946194163 180.60619150102139 13.06879450380802 342.37257241457701 146.47867402806878 55.826992303133011 35.684045756235719 4.403970167040824 35.779189579188824
leaf_count=59 1384 94 2106 1500 279 1214 52 843
internal_value=-0.000462853 0.0060718 0.00446629 -0.00800934 0.0147139 -0.0612842 -0.0663053 -0.070443
internal_weight=817.682 738.353 725.284 327.085 398.2 79.3288 75.8672 71.4632
internal_count=7531 5363 5269 2884 2385 2168 2109 2057
is_linear=0
shrinkage=0.077797


Tree=30
num_leaves=14
num_cat=0
split_feature=13 19 13 13 3 3 20 4 14 14 16 2 14
split_gain=21.1051 11.8371 8.34867 8.30961 7.32286 7.17465 6.5863 4.36102 3.40259 5.85687 4.47601 2.85864 2.11574
threshold=-0.65499999999999969 1.0000000180025095e-35 1.8058333333333334 0.97416666666666674 35.250000000000007 42.165000000000006 1.2500000000000002 38.920000000000009 -2.6108333333333333 -4.8074999999999966 1.0000000180025095e-35 4.8250000000000011 -4.5933333333333346
decision_type=2 2 2 2 2 2 2 2 2 2 2 2 2
left_child=6 3 5 4 -2 -3 8 -5 9 -1 -10 12 -8
right_child=1 2 -4 7 -6 -7 11 -9 10 -11 -12 -13 -14
leaf_value=-0.022501233623779981 -0.0050261925987928145 -0.034310584107257229 0.050045575457931112 0.018957854192512814 0.015779548921956568 0.02509066640604023 -0.028612532035699797 0.05675777190834265 -0.050005717766117661 0.055809490526822506 -0.0055026431873098263 0.0050663763945094946 -0.082071017448041156
leaf_weight=17.907345622777942 257.70096485130489 84.855914058163762 9.6658051982521993 141.78484743461013 169.88019077666104 14.394081220030783 5.6617481615394416 21.240120843052864 32.176515633240342 8.5354034360498172 23.793030485510826 3.3682976812124243 21.481896594166756
leaf_count=196 1882 1474 73 791 1208 213 141 124 513 97 117 71 631
internal_value=-0.000445814 0.00459212 -0.018974 0.00893803 0.00324004 -0.0256957 -0.0316539 0.0238827 -0.0202217 0.00277653 -0.0310872 -0.062532 -0.0709204
internal_weight=812.446 699.522 108.916 590.606 427.581 99.25 112.924 163.025 82.4123 26.4427 55.9695 30.5119 27.1436
internal_count=7531 5765 1760 4005 3090 1687 1766 915 923 293 630 843 772
is_linear=0
shrinkage=0.077797


Tree=31
num_leaves=9
num_cat=0
split_feature=23 23 13 13 16 14 13 13
split_gain=29.3918 18.8676 15.8711 12.8214 7.8634 2.63477 0.00154091 0.000777748
threshold=-1.0000000180025095e-35 0.29965000000000008 -1.2641666666666664 1.3341666666666667 1.0000000180025095e-35 -3.6624999999999974 1.4358333333333337 -0.62633333333333352
decision_type=2 2 2 2 2 2 2 2
left_child=4 2 5 -4 6 -2 7 -1
right_child=1 -3 3 -5 -6 -7 -8 -9
leaf_value=-0.079446217883587883 -0.015242127054381521 0.06648459223523373 -0.00083112495165881776 0.02905433075923437 -0.017891752205341331 -0.065937553533673129 -0.082095609185863894 -0.08030270203619079
leaf_weight=9.2243209872394818 8.430226858705284 27.704240657389164 595.21414417028427 101.73494733870029 19.620691508054733 23.505290547385812 2.3855402376502743 21.084117919206619
leaf_count=467 119 160 4985 574 101 348 52 725
internal_value=-0.000430419 0.00346909 0.00107393 0.00353131 -0.0568261 -0.0525552 -0.0801919 -0.080042
internal_weight=808.904 756.589 728.885 696.949 52.3147 31.9355 32.694 30.3084
internal_count=7531 6186 6026 5559 1345 467 1244 1192
is_linear=0
shrinkage=0.077797


Tree=32
num_leaves=12
num_cat=0
split_feature=22 22 22 2 5 22 5 6 2 17 2
split_gain=43.9207 14.6387 9.61558 8.65433 5.85446 4.91299 4.62442 2.90201 1.52603 0.0399895 0.000681034
threshold=0.05850000000000001 0.77500000000000013 0.18900000000000003 5.6150000000000011 6.6650000000000009 1.0000000180025095e-35 6.745000000000001 -1.0000000180025095e-35 5.1850000000000014 0.33150000000000007 4.9350000000000014
decision_type=2 2 2 2 2 2 2 2 2 2 2
left_child=5 2 3 -2 -4 9 7 -7 -8 10 -1
right_child=1 -3 4 -5 -6 6 8 -9 -10 -11 -12
leaf_value=-0.079607363346405724 -0.016935676836897645 0.08744251421559128 -0.018026145678547972 0.0067476885016095264 0.016368307649412429 -0.038164984559807595 -0.080553211913892198 0.043308715681286879 -0.042618225538887715 -0.090035705562628118 -0.080347363490246113
leaf_weight=13.910072355531158 183.55521451123059 12.88313516974449 33.106715351343155 190.09538985043764 314.40494940429926 5.1257676277309656 10.15107129327953 5.4693971872329694 17.453121216967702 2.6144462749361983 16.403670547530055
leaf_count=668 2236 101 147 1463 1416 107 325 100 367 25 576
internal_value=-0.000410977 0.00524504 0.00377663 -0.00488672 0.0130916 -0.0587818 -0.0397984 0.00389307 -0.0565683 -0.080804 -0.0800078
internal_weight=805.173 734.045 721.162 373.651 347.512 71.1275 38.1994 10.5952 27.6042 32.9282 30.3137
internal_count=7531 5363 5262 3699 1563 2168 899 207 692 1269 1244
is_linear=0
shrinkage=0.077797


Tree=33
num_leaves=15
num_cat=2
split_feature=13 14 20 13 3 13 0 20 13 11 17 3 5 13
split_gain=15.8709 10.412 8.00293 9.06698 7.60355 8.08867 6.13849 6.03852 5.45899 5.05317 6.88382 3.69451 2.32132 0.60385
threshold=-0.65499999999999969 -6.3574999999999973 1.0000000180025095e-35 1.8058333333333334 22.420000000000005 0.86750000000000027 0 1.2500000000000002 0.18250000000000013 1 0.33150000000000007 37.525000000000006 6.7150000000000007 -0.95833333333333337
decision_type=2 2 2 2 2 2 9 2 2 1 2 2 2 2
left_child=7 4 8 -4 5 -2 -6 9 -3 11 -11 -1 -9 -14
right_child=1 2 3 -5 6 -7 -8 12 -10 10 -12 -13 13 -15
leaf_value=-0.027254983774574391 -0.02078160843683281 0.0021379715761080187 -0.012842575431664695 0.050877041911480611 0.0031772949383990366 0.046035352278867778 -0.048102900964723631 -0.016495684275075174 0.020448147834166038 -0.022012016263310074 0.042886614696203883 -0.081522392308816277 -0.081687436863084481 -0.054507087956611293
leaf_weight=28.608822924084961 26.578881807625294 156.42163037508726 143.34932958334684 14.922820169478653 26.389781787991524 18.666805665940046 40.256375670433044 5.8440186856314567 266.36595593206584 23.080379538238049 17.311535693705082 10.336048001423476 13.62713786773384 7.766490927897391
leaf_count=335 259 1150 1979 94 227 127 344 162 1585 371 84 133 483 198
internal_value=-0.000395692 0.00390286 0.00808758 -0.00683472 -0.0178286 0.00678476 -0.0345385 -0.0283451 0.0136738 -0.0174946 0.00465129 -0.0331465 -0.05995 -0.0718202
internal_weight=799.526 692.952 581.06 158.272 111.892 45.2457 66.6462 106.574 422.788 79.3368 40.3919 38.9449 27.2376 21.3936
internal_count=7531 5765 4808 2073 957 386 571 1766 2735 923 455 468 843 681
cat_boundaries=0 1 2
cat_threshold=3067908 164058
is_linear=0
shrinkage=0.077797


Tree=34
num_leaves=10
num_cat=2
split_feature=22 23 15 0 15 0 22 15 17
split_gain=38.5114 14.6092 8.88238 13.6599 6.73519 5.30063 2.7571 1.04584 0.0262327
threshold=0.05850000000000001 0.47035000000000005 0.015499999999999849 0 -0.084999999999999507 1 1.0000000180025095e-35 0.029166666666666789 0.33150000000000007
decision_type=2 2 2 9 2 9 2 2 2
left_child=4 2 5 -4 -1 -2 8 -8 -6
right_child=1 -3 3 -5 6 -7 7 -9 -10
leaf_value=0.049159843074769241 -0.0001280219740999483 0.070120105898139162 0.013723708681707874 -0.025779943112547912 -0.079800935622644426 0.015857939465868286 -0.056612046180275613 -0.02663703015882761 -0.088468957242549565
leaf_weight=3.4245169367641202 243.66305842250586 20.115325562655926 81.260724399238825 124.23776752501726 26.726251339539889 260.49934894219041 24.111472779884934 9.9528785031288844 2.2945677936077109
leaf_count=59 1661 133 706 1110 1214 1753 582 289 24
internal_value=-0.000424689 0.00474032 0.00288713 -0.0107456 -0.0570976 0.00844388 -0.0628657 -0.047854 -0.0804863
internal_weight=796.286 729.776 709.661 205.498 66.5097 504.162 63.0852 34.0644 29.0208
internal_count=7531 5363 5230 1816 2168 3414 2109 871 1238
cat_boundaries=0 1 2
cat_threshold=6869016 3272914
is_linear=0
shrinkage=0.077797


Tree=35
num_leaves=10
num_cat=1
split_feature=23 23 17 17 11 2 2 23 2
split_gain=21.7833 13.5563 7.7287 7.15562 6.36004 4.30944 0.000494189 0.000159033 9.27763e-05
threshold=-1.0000000180025095e-35 0.47035000000000005 0.092000000000000012 0.33150000000000007 0 5.285000000000001 5.4150000000000009 -0.091499999999999984 6.1150000000000011
decision_type=2 2 2 2 1 2 2 2 2
left_child=3 2 4 6 -2 -4 7 -1 -8
right_child=1 -3 5 -5 -6 -7 8 -9 -10
leaf_value=-0.079609324753525751 0.0024940578137625899 0.066767788735141553 -0.0036707630365341208 -0.017094013040394714 -0.034078525740866006 0.0096615459509162907 -0.079865280969281874 -0.079079550745023819 -0.080308462268493475
leaf_weight=8.7099500149488431 58.185258708894253 19.506639406085014 240.69775088131428 19.320204563438892 53.202912518754601 375.88624574616551 5.7377356160432083 5.6569081405177739 5.6980347987264395
leaf_count=414 1004 133 1920 101 934 2195 241 377 212
internal_value=-0.000403906 0.00276491 0.00104989 -0.0528966 -0.0178098 0.00445697 -0.0797045 -0.0794007 -0.0800861
internal_weight=792.602 747.479 727.972 45.1228 111.388 616.584 25.8026 14.3669 11.4358
internal_count=7531 6186 6053 1345 1938 4115 1244 791 453
cat_boundaries=0 1
cat_threshold=176338
is_linear=0
shrinkage=0.077797


Tree=36
num_leaves=12
num_cat=1
split_feature=22 22 13 21 13 5 0 22 5 20 18
split_gain=31.8796 9.45309 10.6317 7.85766 5.39053 5.34265 5.49232 2.64309 3.08301 2.40843 0.00711941
threshold=0.05850000000000001 0.18900000000000003 -0.61083333333333323 5.0505415425935665 1.8058333333333334 6.6650000000000009 0 1.0000000180025095e-35 6.7250000000000005 1.2500000000000002 1.0000000180025095e-35
decision_type=2 2 2 2 2 2 9 2 2 2 2
left_child=4 2 9 -4 7 -3 -7 10 -9 -2 -1
right_child=1 5 3 -5 -6 6 -8 8 -10 -11 -12
leaf_value=-0.079368856936462687 -0.027197154109742654 -0.01604146804371882 -0.0092709967994109733 0.01562564243188384 0.024742493476441113 0.0033800315423361273 0.024631353770125826 0.0015441459173038321 -0.058790886614963483 -0.065082195619398694 -0.082320258707786434
leaf_weight=18.187122303992513 36.84994937106967 34.359679870307446 192.55423602089286 127.54775904491544 4.7781403772532931 141.05773328989744 182.21312236040831 6.4834173005074289 24.478564338758588 14.020023936405776 6.7947634607553473
leaf_count=1022 546 158 1735 1086 56 658 848 144 724 332 222
internal_value=-0.000413863 0.00409969 -0.00460095 0.000649312 -0.054572 0.0131249 0.0162249 -0.0613462 -0.0461568 -0.0376385 -0.0801716
internal_weight=789.325 728.603 370.972 320.102 60.722 357.631 323.271 55.9439 30.962 50.87 24.9819
internal_count=7531 5363 3699 2821 2168 1664 1506 2112 868 878 1244
cat_boundaries=0 1
cat_threshold=8474082
is_linear=0
shrinkage=0.077797


Tree=37
num_leaves=10
num_cat=0
split_feature=22 23 13 13 13 22 5 13 17
split_gain=28.6206 11.1734 9.22131 6.11892 5.96371 3.32933 2.98649 1.31935 0.0222097
threshold=0.05850000000000001 0.47035000000000005 -1.2641666666666664 1.694166666666667 2.0891666666666668 1.0000000180025095e-35 6.745000000000001 -1.4191666666666667 0.33150000000000007
decision_type=2 2 2 2 2 2 2 2 2
left_child=4 2 7 -4 5 8 -7 -2 -1
right_child=1 -3 3 -5 -6 6 -8 -9 -10
leaf_value=-0.079423171566175801 -0.031832946011683294 0.062996456511914406 0.001815915807025562 0.028640940002204747 0.064311274256772549 -0.0032702843388283829 -0.056769671845422004 -0.070712816038919088 -0.08770087953755247
leaf_weight=21.915788248181347 20.407511409372095 18.806849732995033 624.78922098502517 56.085987329483032 2.5043060183525077 8.8062935024499911 22.325410958379507 7.1273959241807452 2.1546406522393218
leaf_count=1236 266 133 4591 274 26 198 683 99 25
internal_value=-0.000372877 0.00381187 0.00224064 0.00402558 -0.0531091 -0.058436 -0.0416362 -0.041897 -0.0801641
internal_weight=784.923 727.217 708.41 680.875 57.7064 55.2021 31.1317 27.5349 24.0704
internal_count=7531 5363 5230 4865 2168 2142 881 365 1261
is_linear=0
shrinkage=0.077797


Tree=38
num_leaves=10
num_cat=0
split_feature=22 23 13 13 13 22 2 2 17
split_gain=25.648 9.84917 8.01635 5.79855 5.32216 3.38404 2.80909 1.29033 0.0174713
threshold=0.05850000000000001 0.35400000000000004 -1.2641666666666664 0.97416666666666674 2.0891666666666668 1.0000000180025095e-35 4.7750000000000012 3.5150000000000001 0.33150000000000007
decision_type=2 2 2 2 2 2 2 2 2
left_child=4 2 7 -4 5 8 -7 -2 -1
right_child=1 -3 3 -5 -6 6 -8 -9 -10
leaf_value=-0.079299823263185631 -0.024784178942312104 0.055128327741802936 -0.00065714245034844006 0.01580273146536389 0.056539395059589527 -0.079962313629825449 -0.025785074906802038 -0.059240959367067768 -0.086901818077309415
leaf_weight=20.305733393877748 15.030719881877305 21.710429593920708 503.82219097390771 174.36774541437626 2.6217637546360484 7.8469363786280182 22.12280966155231 11.696267778053878 2.0109725743532172
leaf_count=1236 210 147 3915 936 26 328 553 155 25
internal_value=-0.000356761 0.0035174 0.00192786 0.00357482 -0.0516255 -0.0570491 -0.0399702 -0.0398632 -0.0799848
internal_weight=781.536 726.627 704.917 678.19 54.9082 52.2865 29.9697 26.727 22.3167
internal_count=7531 5363 5216 4851 2168 2142 881 365 1261
is_linear=0
shrinkage=0.077797


Tree=39
num_leaves=11
num_cat=0
split_feature=22 15 22 15 15 23 14 13 20 22
split_gain=22.9625 8.81551 7.91236 6.66219 6.32916 6.05451 5.43152 4.19102 3.96546 1.72291
threshold=0.05850000000000001 -0.016666666666667048 0.18900000000000003 -0.084999999999999507 0.06000000000000006 0.27480000000000004 3.9833333333333383 2.0891666666666668 -5.4999999999999991 1.0000000180025095e-35
decision_type=2 2 2 2 2 2 2 2 2 2
left_child=3 5 8 -1 -4 6 -2 9 -3 -5
right_child=1 2 4 7 -6 -7 -8 -9 -10 -11
leaf_value=0.059064625279922386 0.00439301393347424 0.017409998463561262 0.012424027818402851 -0.079693741555133535 -0.035039181851877481 0.06173702317173297 0.028292952061923067 0.045024324939920785 -0.017253343452230088 -0.049477236050535806
leaf_weight=3.1766105396673074 216.37896040640771 22.120071101933718 169.34130860865116 19.769344087690115 18.902307510375977 14.803381472826002 78.404692426323891 2.3136982284486285 205.94381366111338 27.044980679638684
leaf_count=59 1352 202 800 1230 91 104 474 24 2340 855
internal_value=-0.000341252 0.00324599 -0.00414725 -0.0501257 0.00765805 0.0131878 0.0107498 -0.0571859 -0.0138913 -0.0622374
internal_weight=778.199 725.895 416.308 52.3046 188.244 309.587 294.784 49.128 228.064 46.8143
internal_count=7531 5363 3433 2168 891 1930 1826 2109 2542 2085
is_linear=0
shrinkage=0.077797


Tree=40
num_leaves=13
num_cat=3
split_feature=22 22 11 13 15 11 0 13 13 13 4 2
split_gain=21.0464 9.43886 11.1866 13.2156 8.43808 9.13928 8.05591 3.33212 0.0041117 0.000393424 0.00028078 8.30048e-05
threshold=1.0000000180025095e-35 0.17235000000000003 0 0.52416666666666656 0.055000000000000167 1 2 0.1916666666666669 1.4116666666666668 -0.17083333333333381 32.810000000000009 3.6850000000000005
decision_type=2 2 1 2 2 1 9 2 2 2 2 2
left_child=8 2 3 -2 5 -3 -4 -6 9 11 -11 -1
right_child=1 4 6 -5 7 -7 -8 -9 -10 10 -12 -13
leaf_value=-0.078641744173491276 -0.012117012752854582 0.00016333382446157271 -0.0021739598684273834 0.035710039786937361 -0.057561424164466975 0.022944877463185395 -0.039733928350487564 -0.0072379010816085469 -0.08305193115459876 -0.079240477101676476 -0.080086062551269974 -0.079163181577476829
leaf_weight=2.9046380938962164 88.012968913652003 222.37448180839419 70.681699642911553 58.017885027453303 14.362380504608153 204.53311688825488 78.576393046416342 17.874177411198616 2.0583660053089252 4.2623491035774332 5.3724129358306527 5.0775641929358244
leaf_count=290 1338 1226 874 489 109 1128 1002 96 59 260 287 373
internal_value=-0.000328842 0.00174274 -0.0091081 0.00644338 0.00872123 0.0116194 -0.0232006 -0.0296586 -0.0797618 -0.0793773 -0.079712 -0.0789734
internal_weight=774.108 754.433 295.289 146.031 459.144 426.908 149.258 32.2366 19.6753 17.617 9.63476 7.9822
internal_count=7531 6262 3703 1827 2559 2354 1876 205 1269 1210 547 663
cat_boundaries=0 1 2 3
cat_threshold=200886 217266 8498534
is_linear=0
shrinkage=0.077797


Tree=41
num_leaves=15
num_cat=0
split_feature=15 14 21 2 15 17 21 10 17 15 7 21 2 2
split_gain=8.54526 6.42481 7.59329 8.12088 6.34958 4.70867 4.43183 3.85788 4.79565 4.56049 2.71575 6.2013 2.18185 1.19777
threshold=-0.015499999999999845 -6.3574999999999973 4.225900141455047 6.8350000000000009 -0.029999999999999801 0.05850000000000001 3.3405738488462733 4.5000000000000009 0.33150000000000007 0.0033333333333334107 12.900000000000002 5.691242701379152 5.5750000000000011 6.455000000000001
decision_type=2 2 2 2 2 2 2 2 2 2 2 2 2 2
left_child=1 6 4 -4 -3 10 -1 8 -7 -9 13 -12 -8 -2
right_child=5 2 3 -5 -6 7 12 9 -10 -11 11 -13 -14 -15
leaf_value=0.010740221788869936 -0.071373305840247342 0.063942353992000392 0.013749839990447333 -0.028499755147774912 -0.0022306586031336766 -0.016296938665075811 -0.060090299345120231 0.037447008065748813 0.0041276975607376564 -0.001862403897564332 -0.046324555024162717 0.096186025188017429 -0.017716858433958153 -0.020236247339668299
leaf_weight=21.451771094463766 12.266886233817788 29.320708312559873 212.00321050547063 31.644944162108004 12.525327198673038 213.27638255758211 12.676484011113645 24.202765992842615 103.26467891409993 68.188018451444805 6.6442285538651031 2.560140049085021 17.518684769049287 3.5816294113174072
leaf_count=158 469 214 1745 203 107 2674 113 195 474 664 266 72 118 59
internal_value=-0.000338995 0.00895269 0.0135205 0.00826248 0.0441355 -0.00755724 -0.0162974 -0.00555149 -0.00963384 0.00843512 -0.0402967 -0.00668609 -0.035506 -0.0598168
internal_weight=771.126 337.141 285.494 243.648 41.846 433.985 51.6469 408.932 316.541 92.3908 25.0529 9.20437 30.1952 15.8485
internal_count=7531 2658 2269 1948 321 4873 389 4007 3148 859 866 338 231 528
is_linear=0
shrinkage=0.077797


Tree=42
num_leaves=15
num_cat=2
split_feature=17 5 2 3 3 3 2 11 11 2 4 3 4 3
split_gain=5.86676 5.66986 5.03202 4.79457 4.52274 5.08382 3.44493 6.5277 5.29496 5.00977 4.11617 3.08786 1.68477 1.66071
threshold=0.092000000000000012 6.745000000000001 5.3650000000000011 37.655000000000008 42.905000000000008 38.545000000000009 5.285000000000001 0 1 7.4150000000000009 22.020000000000003 46.300000000000004 11.555000000000001 32.735000000000007
decision_type=2 2 2 2 2 2 2 1 1 2 2 2 2 2
left_child=1 4 12 -4 5 -1 7 13 10 -10 -8 -9 -3 -2
right_child=6 2 3 -5 -6 -7 8 11 9 -11 -12 -13 -14 -15
leaf_value=0.01555670451691794 -0.01646154908730444 0.0053744279735248226 -0.027673614592339048 0.025436279393065205 0.079346243231165667 -0.07141601663068034 -0.011904134106042292 -0.00027229175245233793 0.0026072289202937826 -0.04579507932858716 0.025524313686581708 0.036189301568330758 -0.060353027872416323 -0.043775146334232878
leaf_weight=20.673993225209422 25.398301497101784 2.6012747697532204 38.456620872020721 14.0451801167801 4.9936931598931542 5.0640893601812413 20.926159732043743 185.63174888025969 249.85783850867301 13.649310089647768 118.41253219172359 15.209430950693784 25.481936792843044 28.69427393283695
leaf_count=417 228 92 669 222 83 103 131 1763 1653 77 772 120 921 280
internal_value=-0.000324248 -0.0168413 -0.0276839 -0.0134658 0.0115904 -0.00155559 0.00247095 -0.00460637 0.0069497 9.63973e-05 0.0185705 0.00237085 -0.0542649 -0.0261215
internal_weight=769.096 111.317 80.585 52.5018 30.7318 25.7381 657.78 254.934 402.846 263.507 139.339 200.841 28.0832 54.0926
internal_count=7531 2507 1904 891 603 520 5024 2391 2633 1730 903 1883 1013 508
cat_boundaries=0 1 2
cat_threshold=65746 98650
is_linear=0
shrinkage=0.077797


Tree=43
num_leaves=10
num_cat=0
split_feature=22 23 14 3 2 23 2 2 3
split_gain=19.1596 8.28571 6.1006 9.94419 4.50082 0.00997816 0.000250181 6.90469e-05 1.05082e-05
threshold=1.0000000180025095e-35 0.47035000000000005 -6.3574999999999973 22.420000000000005 4.4150000000000009 -0.20699999999999996 6.1150000000000011 4.3050000000000006 33.890000000000008
decision_type=2 2 2 2 2 2 2 2 2
left_child=5 2 3 -2 -4 -1 7 -7 -8
right_child=1 -3 4 -5 -6 6 8 -9 -10
leaf_value=-0.085360090052489193 0.011195162574624058 0.054946476106043508 -0.011445821100359875 -0.035066822198837118 0.0063940655654893021 -0.078650391770438227 -0.079472841851074963 -0.079027618790307036 -0.079732207166889654
leaf_weight=1.6742720976471925 47.805404315702617 17.21270202472806 102.7072417344898 68.300534628331661 513.6335650831461 4.6974600870162266 1.8178491890430444 7.8349269945174456 1.9699726225808261
leaf_count=25 410 133 1248 587 3884 474 106 558 106
internal_value=-0.000310774 0.00159342 0.000339608 -0.0160189 0.00342122 -0.0796405 -0.0790537 -0.0788862 -0.0796077
internal_weight=767.654 749.659 732.447 116.106 616.341 17.9945 16.3202 12.5324 3.78782
internal_count=7531 6262 6129 997 5132 1269 1244 1032 212
is_linear=0
shrinkage=0.077797


Tree=44
num_leaves=14
num_cat=2
split_feature=13 14 3 13 13 11 14 13 16 14 11 13 4
split_gain=7.91999 6.98737 6.40645 5.12603 4.45682 6.11245 4.31739 6.48776 4.56362 3.9995 3.91941 1.39928 1.029
threshold=-0.65499999999999969 -6.3574999999999973 28.350000000000005 0.77550000000000019 1.7316666666666671 0 -2.4141666666666661 -0.81749999999999956 1.0000000180025095e-35 -5.2408333333333319 1 -0.81749999999999956 32.870000000000012
decision_type=2 2 2 2 2 1 2 2 2 2 1 2 2
left_child=6 2 3 -2 5 -3 7 9 11 -1 -6 -8 -4
right_child=1 4 12 -5 10 -7 8 -9 -10 -11 -12 -13 -14
leaf_value=-0.005256293802616243 -0.023501567089189029 0.019083034740298203 -0.078232306914838484 0.014364044700574105 -0.0060711506078998346 -0.00082641769567173395 -0.058128383585796972 -0.059999065582481068 -0.0057879677501517426 0.058759934656748086 0.038276425364869845 -0.024319936630977163 -0.040943483873884107
leaf_weight=14.091723792254925 49.624175317585468 112.03291758522391 8.1912302738055605 38.367814710363746 20.04272373020649 400.38652022089809 29.214375065173954 7.796809385996311 22.831017464399338 10.169515669345856 32.953523330390453 9.9270542585290951 9.8831868134438974
leaf_count=246 507 1000 85 270 113 3517 896 107 114 198 178 205 95
internal_value=-0.000294371 0.00266682 -0.0156562 -0.00699074 0.00610404 0.00388277 -0.0214406 0.00173712 -0.0334303 0.0215772 0.0275815 -0.0495539 -0.0578426
internal_weight=765.513 671.482 106.066 87.992 565.416 512.419 94.0305 32.058 61.9724 24.2612 52.9962 39.1414 18.0744
internal_count=7531 5765 957 777 4808 4517 1766 551 1215 444 291 1101 180
cat_boundaries=0 1 2
cat_threshold=131270 157828
is_linear=0
shrinkage=0.077797


Tree=45
num_leaves=9
num_cat=1
split_feature=22 23 13 22 0 17 13 13
split_gain=17.5708 7.34013 5.93474 5.35566 2.34791 0.00809198 0.000553306 9.98756e-05
threshold=1.0000000180025095e-35 0.50135000000000007 -1.2641666666666664 0.17235000000000003 0 0.33150000000000007 1.6083333333333332 -0.62633333333333352
decision_type=2 2 2 2 9 2 2 2
left_child=5 2 4 -4 -2 6 7 -1
right_child=1 -3 3 -5 -6 -7 -8 -9
leaf_value=-0.078493980543588249 0.013946852655303706 0.056453680048755457 -0.0065806153066169121 0.0072847983604347995 -0.037970562754294571 -0.08484417921771191 -0.080668326994492418 -0.078959031926235754
leaf_weight=3.8717219019308677 6.04391273483634 14.439604487270115 278.44641136843711 427.41855902224779 21.091603606007997 1.5622298382222659 1.0665008127689368 10.050517018884419
leaf_count=467 103 123 3357 2308 371 25 35 742
internal_value=-0.00023088 0.00152477 0.000442709 0.00181523 -0.0352602 -0.0795159 -0.0789605 -0.0788297
internal_weight=763.991 747.44 733 705.865 27.1355 16.551 14.9887 13.9222
internal_count=7531 6262 6139 5665 474 1269 1244 1209
cat_boundaries=0 1
cat_threshold=295188
is_linear=0
shrinkage=0.077797


Tree=46
num_leaves=11
num_cat=0
split_feature=13 13 17 3 3 7 5 5 21 3
split_gain=6.70558 5.3125 4.97248 7.88502 3.86102 3.01612 2.76325 3.98674 3.2482 2.52033
threshold=-1.2641666666666664 1.694166666666667 0.14750000000000002 46.005000000000003 38.380000000000003 13.600000000000001 6.705000000000001 6.7550000000000008 4.2896969170575145 32.850000000000009
decision_type=2 2 2 2 2 2 2 2 2 2
left_child=6 2 3 -2 9 -4 -1 -8 -9 -3
right_child=1 4 5 -5 -6 -7 7 8 -10 -11
leaf_value=-0.091387775711555097 -0.011478784785261036 0.017382571779111934 0.00086814162726141231 0.037210864974517179 -0.0094724103995786121 0.016635965002376813 0.044501107091940988 -0.090092730752547909 -0.020708230168994774 0.053517990848748184
leaf_weight=4.7411953606642809 287.73649820266291 25.269222160801291 256.46569086052477 21.644835041835904 16.688549678772688 102.87463778723031 4.0004585925489691 5.7229232401587096 14.256009362637995 21.725976012647152
leaf_count=123 3935 154 1593 255 93 629 111 128 394 116
internal_value=-0.000243789 0.00120223 -0.000842465 -0.00807238 0.0226729 0.00538227 -0.0371188 -0.0263887 -0.0405833 0.034088
internal_weight=761.126 732.405 668.722 309.381 63.6837 359.34 28.7206 23.9794 19.9789 46.9952
internal_count=7531 6775 6412 4190 363 2222 756 633 522 270
is_linear=0
shrinkage=0.077797


Tree=47
num_leaves=13
num_cat=4
split_feature=22 22 11 0 3 11 0 5 16 17 5 5
split_gain=16.1217 5.52509 10.1217 7.06651 5.87887 5.26145 4.32456 2.58502 0.00651717 4.71503e-05 2.98519e-05 1.17818e-05
threshold=1.0000000180025095e-35 0.17235000000000003 0 1 46.005000000000003 2 3 6.6950000000000012 1.0000000180025095e-35 0.092000000000000012 6.8350000000000009 6.705000000000001
decision_type=2 2 1 9 2 1 9 2 2 2 2 2
left_child=8 2 4 -4 -2 7 -7 -3 9 11 -11 -1
right_child=1 5 3 -5 -6 6 -8 -9 -10 10 -12 -13
leaf_value=-0.078936950295629527 0.0041186572291154536 -0.032674801299100248 0.00010424312352562022 -0.035546490030190045 0.069336258248877999 0.0025413178144836888 0.023220447905520924 -0.00049678052893947593 -0.084333770869894312 -0.079082892158569118 -0.078771132866463908 -0.078631786209052729
leaf_weight=0.94073284650221189 134.353993951343 16.49118746817112 63.468188833445311 80.259235735051334 8.9209279641509038 125.95524266734719 134.12203352153301 180.4406510964036 1.4658348038792617 6.0486619272269291 2.6836828947998583 4.1158855967223644
leaf_count=86 1742 81 804 1072 85 682 767 1029 25 449 232 477
internal_value=-0.000232462 0.00139078 -0.00706907 -0.0208209 0.00764575 0.00670358 0.0136705 -0.00303716 -0.0794019 -0.0788776 -0.0789871 -0.0786886
internal_weight=759.266 744.011 287.002 143.727 143.275 457.009 260.077 196.932 15.2548 13.789 8.73234 5.05662
internal_count=7531 6262 3703 1876 1827 2559 1449 1110 1269 1244 681 563
cat_boundaries=0 1 2 3 4
cat_threshold=200886 8432998 200882 8514850
is_linear=0
shrinkage=0.077797


Tree=48
num_leaves=14
num_cat=4
split_feature=15 11 14 21 13 14 3 14 11 1 13 11 21
split_gain=6.62186 6.63249 7.56061 8.06728 5.52641 8.63293 6.26723 5.91834 5.16955 4.82274 4.73874 4.72527 4.42324
threshold=-0.015499999999999845 0 -7.3783333333333347 4.225900141455047 0.18250000000000013 -2.5466666666666593 30.525000000000002 -2.6108333333333333 1 2 1.8058333333333334 3 6.4161216964255585
decision_type=2 1 2 2 2 2 2 2 1 1 2 1 2
left_child=1 2 -1 -4 7 6 -6 8 -2 -7 12 -9 -3
right_child=4 10 3 -5 5 9 -8 11 -10 -11 -12 -13 -14
leaf_value=-0.02839744892028144 0.0274849920200704 -0.0078174548346158848 0.079695451342607457 0.021296613027201053 -0.0060801466997113451 0.023622913969582156 -0.055006383486014977 -0.007145247891276363 -0.012325719153410483 -0.0050802464926313897 0.042726954230954968 -0.040149884359482316 0.030618368133169926
leaf_weight=14.954935591667889 20.960881576873362 178.44272905914113 17.060681425035 89.016092902515084 66.511993262916803 84.541443100199103 20.801800206769258 69.412923585157841 44.989483095239848 57.053392079658806 14.12152151763439 59.363134691957384 20.169825759716332
leaf_count=116 330 1441 137 741 597 572 187 983 648 611 78 945 145
internal_value=-0.000235573 0.00795973 0.0216033 0.0306891 -0.00669234 0.00150305 -0.0177364 -0.0163264 0.00262583 0.013367 -0.000781341 -0.0260324 -0.00391416
internal_weight=757.401 333.766 121.032 106.077 423.635 228.909 87.3138 194.726 65.9504 141.595 212.734 128.776 198.613
internal_count=7531 2658 994 878 4873 1967 784 2906 978 1183 1664 1928 1586
cat_boundaries=0 1 2 3 4
cat_threshold=165574 10774 38 106024
is_linear=0
shrinkage=0.077797


Tree=49
num_leaves=9
num_cat=0
split_feature=23 23 13 16 13 2 13 13
split_gain=9.24553 6.34761 5.65029 4.88655 4.66676 3.23598 0.000445301 6.49007e-05
threshold=-1.0000000180025095e-35 0.50135000000000007 -1.2641666666666664 1.0000000180025095e-35 1.694166666666667 3.8350000000000004 1.694166666666667 -0.62633333333333352
decision_type=2 2 2 2 2 2 2 2
left_child=3 2 5 6 -4 -2 7 -1
right_child=1 -3 4 -5 -6 -7 -8 -9
leaf_value=-0.078377932646644305 -0.021573651791494387 0.053716620331329706 -0.00013696775216084234 -0.016089470826320371 0.02258149392522044 -0.090858348637594732 -0.080459629497865684 -0.078787209119794741
leaf_weight=3.2238494539633402 19.851054571568969 13.843138493597506 625.89905058871955 18.355840772390366 59.967952121049166 5.1354507906362405 0.91214054077863771 8.6019725222140533
leaf_count=467 374 123 5286 101 308 95 31 746
internal_value=-0.000240733 0.00154159 0.000525537 -0.041781 0.00184939 -0.0358137 -0.0788034 -0.0786756
internal_weight=755.79 724.697 710.854 31.0938 685.867 24.9865 12.738 11.8258
internal_count=7531 6186 6063 1345 5594 469 1244 1213
is_linear=0
shrinkage=0.077797


Tree=50
num_leaves=11
num_cat=2
split_feature=22 23 15 0 3 0 3 23 15 15
split_gain=13.7861 5.6763 7.26193 5.66634 4.1957 3.30902 2.97486 0.00502555 9.49503e-05 1.94907e-05
threshold=1.0000000180025095e-35 0.16800000000000001 0.040000000000000487 0 51.050000000000004 1 29.295000000000005 -0.20699999999999996 -0.068333333333332899 -0.0020000000000002234
decision_type=2 2 2 9 2 9 2 2 2 2
left_child=7 2 4 -4 -2 -3 -7 -1 -9 -10
right_child=1 5 3 -5 -6 6 -8 8 9 -11
leaf_value=-0.083760056876999306 0.00038670834744263313 -0.01038842000644603 0.0061668827849867382 -0.034941355648770094 0.03638637887578286 0.0017575612119014037 0.035306111519485282 -0.079458714355676238 -0.078780015499360825 -0.078569246902952819
leaf_weight=1.3369933106005181 534.19181421492249 19.457758869975805 32.250098053365946 52.687701286748052 20.340579509735107 21.807413924485445 60.042892843484879 0.98457571864128013 4.6906444290652853 6.1202714806422591
leaf_count=25 4567 102 360 633 149 118 333 62 471 711
internal_value=-0.000227573 0.00117315 -0.00153744 -0.0227206 0.0017072 0.0182827 0.023497 -0.0792397 -0.0787273 -0.0786607
internal_weight=753.911 740.778 639.47 84.9378 554.532 101.308 81.8503 13.1325 11.7955 10.8109
internal_count=7531 6262 5709 993 4716 553 451 1269 1244 1182
cat_boundaries=0 1 2
cat_threshold=6979730 2425864
is_linear=0
shrinkage=0.077797


Tree=51
num_leaves=11
num_cat=0
split_feature=15 13 17 4 13 21 13 10 7 15
split_gain=5.2861 4.68201 4.71796 4.57154 4.4783 7.54718 4.29067 3.49477 3.29493 3.29176
threshold=-0.015499999999999845 2.2158333333333338 0.05850000000000001 42.345000000000006 -0.24166666666666667 6.4161216964255585 0.30666666666666625 4.5000000000000009 12.900000000000002 -0.048333333333333332
decision_type=2 2 2 2 2 2 2 2 2 2
left_child=3 2 8 4 9 -6 -5 -4 -2 -1
right_child=1 -3 7 6 5 -7 -8 -9 -10 -11
leaf_value=0.0086572532067752637 -0.066492543153973127 0.046583826999748099 -0.0094070717827595511 0.068680420503438089 0.004667877276942933 0.050986142393373957 0.0084883940635934133 0.0082212698195146157 -0.0029176994863495246 -0.026770672920452265
leaf_weight=25.481018821243197 13.401172299170868 9.9763259999454004 299.74042827030644 13.486003881320359 213.26493792934343 23.652888151817024 15.298457752913235 88.061679812613875 7.8092269874177864 42.09709836775437
leaf_count=293 524 55 3114 137 1483 144 97 847 333 504
internal_value=-0.000257425 -0.00607374 -0.00735812 0.00705465 0.00425323 0.0092921 0.0366894 -0.00540405 -0.0430856 -0.0134122
internal_weight=752.269 418.989 409.013 333.28 304.496 236.918 28.7845 387.802 21.2104 67.5781
internal_count=7531 4873 4818 2658 2424 1627 234 3961 857 797
is_linear=0
shrinkage=0.077797


Tree=52
num_leaves=12
num_cat=0
split_feature=22 22 15 13 14 14 2 14 16 13 13
split_gain=12.6535 4.40202 6.16991 6.16317 7.51179 5.93804 5.22483 4.43624 0.00402957 0.000280932 4.07753e-05
threshold=1.0000000180025095e-35 0.17235000000000003 0.053333333333334128 -0.61083333333333323 -3.3858333333333337 -6.3574999999999973 6.8850000000000007 -1.8708333333333333 1.0000000180025095e-35 1.694166666666667 -0.61083333333333323
decision_type=2 2 2 2 2 2 2 2 2 2 2
left_child=8 3 6 4 -2 -5 -3 -4 9 10 -1
right_child=1 2 7 5 -6 -7 -8 -9 -10 -11 -12
leaf_value=-0.07829433150388436 0.01711489545727473 0.011323729997278468 -0.057636246643481687 -0.030221235757122506 -0.060228309804864627 0.0029712508200683422 -0.01672346225663586 -0.00042630292850678517 -0.083327984584852383 -0.080076206806518918 -0.078644653137999926
leaf_weight=2.775750790955497 10.926819214597343 376.7621738165617 15.107351537793873 38.62948128208518 24.964095291681588 209.70019932091236 45.000861816108227 17.951211545616388 1.2470265086740262 0.78490657173097211 7.2977417726069653
leaf_count=472 264 2107 98 466 686 2287 235 119 25 31 741
internal_value=-0.000244309 0.00104799 0.00579436 -0.00654735 -0.0366815 -0.00219208 0.00833118 -0.0265705 -0.0791396 -0.0786586 -0.0785481
internal_weight=751.148 739.042 454.822 284.221 35.8909 248.33 421.763 33.0586 12.1054 10.8584 10.0735
internal_count=7531 6262 2559 3703 950 2753 2342 217 1269 1244 1213
is_linear=0
shrinkage=0.077797


Tree=53
num_leaves=16
num_cat=3
split_feature=15 11 20 11 15 3 3 3 15 17 8 7 3 3 11
split_gain=4.27783 5.68518 5.43168 5.47956 7.00455 5.14498 3.63762 3.77939 3.75299 3.54472 6.18005 2.9984 4.13227 2.8665 2.85579
threshold=-0.015499999999999845 0 -4.7499999999999991 1 -0.0036666666666667065 30.795000000000005 34.495000000000005 30.525000000000002 -0.080833333333333521 0.11650000000000001 13.500000000000002 6.7000000000000002 29.965000000000003 30.525000000000002 2
decision_type=2 1 2 1 2 2 2 2 2 2 2 2 2 2 1
left_child=1 6 3 5 -5 -2 7 -1 -8 10 -3 12 -4 -11 -13
right_child=2 9 11 4 -6 -7 8 -9 -10 13 -12 14 -14 -15 -16
leaf_value=0.022258826927210016 -0.0014614967546293237 0.0034828226311748637 0.01810220730761386 -0.050270495264120807 0.0064361828448982871 0.057138040426252007 -0.0046227219069343685 -0.017013030714849085 0.044670344247488149 0.021306877464776715 -0.045157379966359878 -0.00022288441578669551 -0.054829990565733684 -0.0022943230529113693 -0.016364775443753851
leaf_weight=39.918529832269996 14.274922687560318 37.691065543564036 6.2403209747280952 16.377554579172283 67.604049239307642 24.861683981493115 11.733483834192155 23.599897620268166 45.986450171563774 44.830507706850767 27.232859858777374 135.09402122418396 19.072930052410811 102.03968498716131 132.58218395570293
leaf_count=324 90 438 102 86 395 144 74 216 380 282 318 1883 274 626 1899
internal_value=-0.000236756 0.00633457 -0.00549613 0.0082156 -0.00413055 0.0284856 0.0189504 0.0076676 0.0346499 -0.00170161 -0.0169197 -0.011258 -0.0368505 0.00490968 -0.00883778
internal_weight=749.14 333.032 416.108 123.118 83.9816 39.1366 121.238 63.5184 57.7199 211.794 64.9239 292.989 25.3133 146.87 267.676
internal_count=7531 2658 4873 715 481 234 994 540 454 1664 756 4158 376 908 3782
cat_boundaries=0 1 2 3
cat_threshold=165574 89344 143924
is_linear=0
shrinkage=0.077797


Tree=54
num_leaves=9
num_cat=2
split_feature=23 23 15 0 0 16 15 15
split_gain=6.76283 5.17973 4.32549 10.8638 4.46713 4.30375 6.31451e-05 1.37569e-05
threshold=-1.0000000180025095e-35 0.50135000000000007 0.015499999999999849 0 1 1.0000000180025095e-35 -0.068333333333332899 -0.0020000000000002234
decision_type=2 2 2 9 9 2 2 2
left_child=5 2 4 -4 -2 6 -1 -8
right_child=1 -3 3 -5 -6 -7 7 -9
leaf_value=-0.079232395425791038 -0.0033308585876893832 0.049629211126493808 0.017676306806670747 -0.020276189336799803 0.011078435600622561 -0.01503646918639575 -0.078641010327759123 -0.07844887229556774
leaf_weight=0.85447168024257081 249.93465948663652 13.133036851882933 57.689445530995727 141.27310199383646 257.36948673520237 18.108260063454509 4.0164700236637154 5.1438273156527403
leaf_count=62 1936 123 606 1556 1965 101 471 711
internal_value=-0.000243609 0.00121945 0.000319267 -0.00940249 0.0041321 -0.0376692 -0.0785928 -0.0785331
internal_weight=747.523 719.4 706.267 198.963 507.304 28.123 10.0148 9.1603
internal_count=7531 6186 6063 2162 3901 1345 1244 1182
cat_boundaries=0 1 2
cat_threshold=6344720 12382224
is_linear=0
shrinkage=0.077797


Tree=55
num_leaves=11
num_cat=0
split_feature=13 14 3 4 14 13 5 5 14 3
split_gain=4.33475 3.90097 10.515 9.94433 5.2523 4.83291 2.91004 3.55326 3.5032 1.19361
threshold=-1.2641666666666664 -5.6326666666666645 30.565000000000001 25.835000000000004 -5.0074999999999976 0.18250000000000013 6.705000000000001 6.7550000000000008 4.8258333333333292 28.185000000000006
decision_type=2 2 2 2 2 2 2 2 2 2
left_child=6 2 3 -2 9 -6 -1 -8 -9 -3
right_child=1 4 -4 -5 5 -7 7 8 -10 -11
leaf_value=-0.090879010393107085 0.05533080046599978 0.059779825618908621 -0.076876321989998705 -0.012537315627988157 -0.0061941268519688135 0.0083228540722191571 0.047484564039128686 -0.051830320268540862 0.034120904252796638 0.023652729497307731
leaf_weight=4.1823389003984657 14.989120865706353 10.483504926320167 13.284027647692708 101.88829457014799 241.7692699865438 325.88587730564177 3.8783674880396601 14.348122598137708 3.5876631839200845 11.726177142933009
leaf_count=123 144 87 141 1005 2821 2471 111 415 107 106
internal_value=-0.000224713 0.000902101 -0.0112881 -0.00383347 0.00359203 0.00213995 -0.0314342 -0.020037 -0.0346377 0.0407056
internal_weight=746.023 720.026 130.161 116.877 589.865 567.655 25.9965 21.8142 17.9358 22.2097
internal_count=7531 6775 1290 1149 5485 5292 756 633 522 193
is_linear=0
shrinkage=0.077797


Tree=56
num_leaves=12
num_cat=2
split_feature=23 23 15 15 20 15 0 0 20 5 20
split_gain=5.92185 4.51114 3.78703 5.50986 5.68014 3.65199 9.82051 3.98061 1.81476 2.71944 0.053039
threshold=-1.0000000180025095e-35 0.50135000000000007 0.0099999999999993445 0.050000000000000273 -4.7499999999999991 0.015499999999999849 0 1 -12.249999999999998 6.7350000000000012 -4.7499999999999991
decision_type=2 2 2 2 2 2 9 9 2 2 2
left_child=2 5 8 4 -4 7 -7 -2 -1 -10 -5
right_child=1 -3 3 10 -6 6 -8 -9 9 -11 -12
leaf_value=-0.0026971663499805454 0.016159883577158547 0.047061474919966019 0.098803531523542959 -0.1076058315621516 -0.033476541651295856 0.021243725832491653 -0.017468339503228483 -3.8209950769530888e-05 -0.11125356424122146 -0.041364720923957918 -0.085499666447671888
leaf_weight=2.8921819850802448 110.33683499787003 12.715803205966948 3.9770966628566384 1.3278047675266864 3.8828302826732379 43.948641830123961 153.61927385162562 397.11187249142677 5.7707634819671538 8.0986995999701303 1.3000591231975702
leaf_count=14 832 123 46 19 381 451 1711 3069 259 455 171
internal_value=-0.000215408 0.00113609 -0.0358131 0.000851782 0.0334567 0.000307775 -0.00866581 0.00380151 -0.0587543 -0.0704439 -0.0966695
internal_weight=744.982 717.732 27.2494 10.4878 7.85993 705.017 197.568 507.449 16.7616 13.8695 2.62786
internal_count=7531 6186 1345 617 427 6063 2162 3901 728 714 190
cat_boundaries=0 1 2
cat_threshold=53264 3364
is_linear=0
shrinkage=0.077797


Tree=57
num_leaves=15
num_cat=0
split_feature=14 21 7 21 20 17 17 5 21 14 20 6 14 20
split_gain=3.19516 8.933 5.0729 3.37268 3.34298 4.81412 2.48401 5.17045 2.48712 4.41202 2.80319 2.11868 1.23014 1.20989
threshold=-6.3574999999999973 3.2782114131703493 11.100000000000001 3.6101206864904558 -4.7499999999999991 0.11650000000000001 0.05850000000000001 6.745000000000001 4.2450782750120286 -4.7375000000000016 1.0000000180025095e-35 -1.0000000180025095e-35 3.7600000000000002 -1.0000000180025095e-35
decision_type=2 2 2 2 2 2 2 2 2 2 2 2 2 2
left_child=1 4 3 -3 -1 -6 7 11 9 -8 -10 -2 -9 -4
right_child=6 2 13 -5 5 -7 8 12 10 -11 -12 -13 -14 -15
leaf_value=0.046280137010458376 -0.016576440167558444 -0.044155985498438376 -0.039007972722515875 0.017400024640581335 -0.034442432578219905 0.023728125465982811 0.038100377516521441 -0.05595829431326841 0.0039931900084699493 0.0033117947471561588 -0.0099658267328737223 0.054199906482254881 -0.014906087888476098 -0.068343222395314637
leaf_weight=13.285212573595343 4.3981468142010272 8.0209871416445839 29.199684492778033 16.405888576991856 14.289260659366844 21.6672741365619 31.969945329241455 13.632496213074775 382.16523852967657 71.211129484698176 112.76050610141829 6.1244627689011413 6.5358661809004834 12.008838296635075
leaf_count=83 143 80 205 192 241 193 255 542 2751 643 1625 116 248 214
internal_value=-0.000183779 -0.0121142 -0.0309049 -0.00281296 0.0129323 0.000610929 0.00199583 -0.01959 0.00310348 0.0140908 0.000812863 0.0246174 -0.0426547 -0.0475567
internal_weight=743.675 114.877 65.6354 24.4269 49.2417 35.9565 628.798 30.691 598.107 103.181 494.926 10.5226 20.1684 41.2085
internal_count=7531 1208 691 272 517 434 6323 1049 5274 898 4376 259 790 419
is_linear=0
shrinkage=0.077797


Tree=58
num_leaves=11
num_cat=2
split_feature=22 23 15 0 15 0 4 17 15 17
split_gain=10.2253 4.2339 3.72448 6.04086 5.64699 3.0148 1.38076 0.00316204 3.91171e-05 9.334e-06
threshold=1.0000000180025095e-35 0.18085000000000001 0.040000000000000487 0 0.029166666666666789 1 36.305000000000007 0.33150000000000007 -0.068333333333332899 0.092000000000000012
decision_type=2 2 2 9 2 9 2 2 2 2
left_child=7 2 4 -4 -2 -3 -7 8 -1 -10
right_child=1 5 3 -5 -6 6 -8 -9 9 -11
leaf_value=-0.079036734345573512 -0.0010413003860682373 -0.008976831161356804 0.0062067637126936555 -0.033478017734228649 0.028290138958387709 0.038232498988837203 0.010835050236241567 -0.082844817191548681 -0.078328374554374885 -0.078504291209073457
leaf_weight=0.72967811580747266 532.73329263646156 19.147811513394117 42.998730069957674 40.932607234921306 42.927198454737663 37.974787380546331 15.751194417476652 1.1427134722471244 2.8368234629742775 5.1205690598580986
leaf_count=62 4351 110 491 512 473 233 92 25 535 647
internal_value=-0.000178015 0.000879754 -0.00108626 -0.0163964 0.00114596 0.0186745 0.0254611 -0.0789976 -0.0784916 -0.0784416
internal_weight=742.295 732.466 659.592 83.9313 575.66 72.8738 53.726 9.82978 8.68707 7.95739
internal_count=7531 6262 5827 1003 4824 435 325 1269 1244 1182
cat_boundaries=0 1 2
cat_threshold=6980758 269328
is_linear=0
shrinkage=0.077797


Tree=59
num_leaves=15
num_cat=5
split_feature=15 0 0 2 11 15 2 15 1 0 15 14 2 2
split_gain=2.9907 8.25925 8.0329 5.63143 6.57785 4.92149 5.31459 4.18761 4.67074 3.88881 3.66529 3.19787 4.26483 3.14103
threshold=-0.016666666666667048 0 1 5.4450000000000012 2 -0.0091666666666663215 6.3250000000000011 -0.093333333333333254 3 4 -0.053333333333333226 -10.274999999999997 5.8550000000000013 6.0950000000000006
decision_type=2 9 9 2 1 2 2 2 1 9 2 2 2 2
left_child=1 7 5 4 -3 9 -7 -1 -9 -2 -5 13 -13 -4
right_child=2 3 11 10 -6 6 -8 8 -10 -11 -12 12 -14 -15
leaf_value=-0.043434591811712893 0.014159893943967499 -0.022400218157513276 -0.012214150780300578 0.053044772557982088 0.02350993052841726 0.0019852378209740634 0.030173976922099201 0.0089814055432058428 -0.016019127392274388 -0.035558239670828683 0.019931861775452007 -0.010844585229421159 -0.036245613654640983 0.04911377086058822
leaf_weight=16.46411218168214 11.481366050895302 27.709992023650557 12.640355047769846 32.802961871027946 27.862098186975345 135.69579677679576 57.690448546316475 93.016704021021724 71.098886335501447 18.303583575179804 52.794081271160394 113.83330403990112 61.684651351301 8.4224319858476502
leaf_count=110 111 280 180 196 288 1821 510 514 813 180 366 1556 526 80
internal_value=-0.000208223 0.00543506 -0.00453392 0.0187719 0.000817375 0.00560913 0.0103944 -0.0057142 -0.00227826 -0.0235774 0.0326216 -0.0155436 -0.0197716 0.0123092
internal_weight=741.501 321.749 419.752 141.169 55.5721 223.171 193.386 180.58 164.116 29.7849 85.597 196.581 175.518 21.0628
internal_count=7531 2567 4964 1130 568 2622 2331 1437 1327 291 562 2342 2082 260
cat_boundaries=0 1 2 3 4 5
cat_threshold=4453402 12710938 217144 10 40970
is_linear=0
shrinkage=0.077797


Tree=60
num_leaves=11
num_cat=3
split_feature=14 4 4 14 14 0 14 4 0 0
split_gain=3.05117 7.40528 6.4527 4.83761 3.8248 3.91509 3.67774 3.14573 6.70798 5.86679
threshold=-5.6326666666666645 25.835000000000004 22.020000000000003 -5.3169999999999993 -9.3916666666666657 0 -7.9274999999999958 26.900000000000002 1 2
decision_type=2 2 2 2 2 9 2 2 9 9
left_child=1 2 -1 -2 5 -3 -6 8 -5 -9
right_child=3 4 -4 7 6 -7 -8 9 -10 -11
leaf_value=-0.013197669535453966 0.056504942948118482 -0.016094898434760915 0.079911094563340446 -0.033880976836080684 -0.060831019328978775 0.02170773245852655 -0.019255812907839495 0.017522417606379303 0.0028699364202088105 -0.0014103998279713992
leaf_weight=8.6367976940237003 9.7343202964402717 33.292006500763819 9.4165183061268163 34.913637320976704 17.872040376765653 17.002519510686398 46.08223794028163 129.82684588618577 92.65590473683551 340.87648878013715
leaf_count=98 90 369 97 374 190 168 467 1328 972 3378
internal_value=-0.000227581 -0.0109344 0.0353674 0.00210222 -0.0182509 -0.00219938 -0.030874 0.00121705 -0.00961908 0.00415384
internal_weight=740.309 132.302 18.0533 608.007 114.249 50.2945 63.9543 598.273 127.57 470.703
internal_count=7531 1389 195 6142 1194 537 657 6052 1346 4706
cat_boundaries=0 1 2 3
cat_threshold=9578756 6589700 12585316
is_linear=0
shrinkage=0.077797


Tree=61
num_leaves=10
num_cat=1
split_feature=14 3 11 9 14 2 2 3 5
split_gain=2.59113 9.30034 5.14945 4.71732 4.01994 4.03079 8.33782 3.60788 3.51526
threshold=-5.6326666666666645 30.565000000000001 0 4.5000000000000009 -5.3169999999999993 6.8650000000000011 6.7150000000000007 20.810000000000006 6.7350000000000012
decision_type=2 2 1 2 2 2 2 2 2
left_child=1 2 3 -1 -2 6 -6 -4 -7
right_child=4 -3 7 -5 5 8 -8 -9 -10
leaf_value=-0.025100755655386279 0.050982602524953131 -0.072855865402476433 0.061982851009715685 0.025925493059293234 0.001445672003309069 -0.042088989182913226 0.050386421409510385 0.0079956177654871476 -0.0049153386140216452
leaf_weight=63.67779251979664 9.9404936083592457 12.901128465542568 9.7777311371173692 13.246799482498316 502.64440695219673 21.858647919725627 21.990421263501048 32.048155225813389 52.076004446018487
leaf_count=677 90 153 107 144 5372 133 159 308 388
internal_value=-0.000225717 -0.0101218 -0.00330638 -0.014437 0.00191532 0.00110045 0.00349706 0.0166383 -0.0159057
internal_weight=740.162 131.652 118.75 76.9246 608.51 598.569 524.635 41.8259 73.9347
internal_count=7531 1389 1236 821 6142 6052 5531 415 521
cat_boundaries=0 1
cat_threshold=193612
is_linear=0
shrinkage=0.077797


Tree=62
num_leaves=12
num_cat=2
split_feature=17 0 21 5 21 21 20 0 5 21 18
split_gain=2.53372 4.59637 4.64777 3.69828 2.6257 2.85285 2.50734 2.47578 2.38564 2.34668 2.31605
threshold=0.092000000000000012 0 3.7435331477795493 6.745000000000001 4.1995670995671004 3.7978254157293465 2.7500000000000004 1 6.8550000000000013 4.7447727584615214 1.0000000180025095e-35
decision_type=2 9 2 2 2 2 2 9 2 2 2
left_child=1 2 -1 -4 5 -3 7 8 -2 -6 -9
right_child=6 4 3 -5 9 -7 -8 10 -10 -11 -12
leaf_value=-0.065414980226391181 -0.00079238455303346487 -0.025915018967023896 0.050514308705838305 0.00068399272413270651 -0.071899961893739081 0.03924570543136989 0.035967136920120504 -0.0031145559011037907 -0.018125978690458969 -0.028143045207631816 0.010655152095449991
leaf_weight=4.4804978887550524 243.66665461775847 11.588196945143865 13.895520601887254 25.662409266689792 9.8485708970110846 6.2652523010037831 12.598093415843321 114.96271176054142 59.862882589455694 30.057444839738309 207.13673575595021
leaf_count=125 1870 259 289 671 293 142 144 1256 478 728 1276
internal_value=-0.000213612 -0.0116118 0.00789038 0.0181879 -0.0237376 -0.00304838 0.00160442 0.000912465 -0.00407665 -0.038942 0.00556766
internal_weight=740.025 101.798 44.0384 39.5579 57.7595 17.8534 638.227 625.629 303.53 39.906 322.099
internal_count=7531 2507 1085 960 1422 401 5024 4880 2348 1021 2532
cat_boundaries=0 1 2
cat_threshold=717124 1763650
is_linear=0
shrinkage=0.077797


Tree=63
num_leaves=13
num_cat=4
split_feature=22 13 0 11 22 0 8 11 18 13 13 13
split_gain=9.39204 3.65047 6.80076 4.12775 3.92624 3.96129 3.0389 2.92984 0.000863579 0.000522027 9.69156e-05 1.22227e-05
threshold=1.0000000180025095e-35 0.97416666666666674 0 1 0.05850000000000001 2 13.500000000000002 3 1.0000000180025095e-35 0.49916666666666704 1.5775000000000008 -0.62633333333333352
decision_type=2 2 9 1 2 9 2 1 2 2 2 2
left_child=8 4 7 -4 6 -6 -2 -3 10 -10 11 -1
right_child=1 2 3 -5 5 -7 -8 -9 9 -11 -12 -13
leaf_value=-0.078140089619203282 -0.014245332784180989 -0.027481496897455011 0.037381418812600896 0.0065000212603705271 -0.0092506639491125083 0.0042790232495011245 -0.080466869352799411 0.0042882275629653431 -0.079157847227208408 -0.081338008205304596 -0.079385154999843499 -0.078390542306657263
leaf_weight=1.6538820813875643 11.735467954538764 24.992054870352149 45.511184684932232 79.94679001159966 209.64426305983216 315.39834207762033 6.5267416303977361 36.13789900764823 1.590708156116307 1.1419036905281243 0.56640319619327772 4.1103137824684364
leaf_count=412 499 144 270 479 1789 2582 272 227 160 65 34 598
internal_value=-0.000204447 0.000772892 0.0101612 0.0196352 -0.00245135 -0.00121794 -0.0379123 -0.0107379 -0.078913 -0.0800689 -0.0784141 -0.0783187
internal_weight=738.956 729.893 186.588 125.458 543.305 525.043 18.2622 61.13 9.06321 2.73261 6.3306 5.7642
internal_count=7531 6262 1120 749 5142 4371 771 371 1269 225 1044 1010
cat_boundaries=0 1 2 3 4
cat_threshold=4769156 77874 11872610 143362
is_linear=0
shrinkage=0.077797


Tree=64
num_leaves=9
num_cat=0
split_feature=23 16 23 21 17 17 5 5
split_gain=4.29139 3.76611 3.70865 2.11341 1.88644 1.00286e-05 5.42485e-06 2.02798e-06
threshold=-1.0000000180025095e-35 1.0000000180025095e-35 0.50135000000000007 8.689201647167037 0.092000000000000012 0.092000000000000012 6.8350000000000009 6.705000000000001
decision_type=2 2 2 2 2 2 2 2
left_child=1 5 3 4 -2 7 -7 -1
right_child=2 -3 -4 -5 -6 6 -8 -9
leaf_value=-0.078410289069601 -0.010572004350361127 -0.012325718508689269 0.043689509071459659 0.035356230545047621 0.001293280154444581 -0.078512314803150157 -0.07833287054688276 -0.078234535866590627
leaf_weight=0.48960048914887311 93.860804067924619 17.752013387158513 12.072024334222077 10.19809493049979 596.43820909224451 3.3310666098259389 1.4694694411009548 2.1091071694390848
leaf_count=86 1914 101 123 69 4080 449 232 477
internal_value=-0.00017864 -0.0317614 0.000936122 0.000199331 -0.000320057 -0.0783907 -0.0784574 -0.0782676
internal_weight=737.72 25.1513 712.569 700.497 690.299 7.39924 4.80054 2.59871
internal_count=7531 1345 6186 6063 5994 1244 681 563
is_linear=0
shrinkage=0.077797


Tree=65
num_leaves=9
num_cat=1
split_feature=15 7 21 1 15 15 3 14
split_gain=2.43989 5.17628 5.14892 6.03387 3.979 2.98384 3.12523 2.98102
threshold=0.053333333333334128 15.15 3.7220574105212596 0 0.049166666666666366 0.040000000000000487 38.675000000000004 11.120000000000003
decision_type=2 2 2 1 2 2 2 2
left_child=4 2 -2 -4 5 7 -7 -1
right_child=1 -3 3 -5 -6 6 -8 -9
