{"learner":{"attributes":{"best_iteration":"37","best_score":"0.8155556921949648"},"feature_names":["jyo_cd","boat_no","racer_win_rate","motor_2ren","boat_2ren","exhibition_time","tilt","temperature","water_temperature","wind_speed","wave_height","wind_direction","weather","racer_win_rate_diff","motor_2ren_diff","exhibition_time_diff"],"feature_types":["int","int","float","float","float","float","float","float","float","float","float","int","int","float","float","float"],"gradient_booster":{"model":{"cats":{"enc":[],"feature_segments":[],"sorted_idx":[]},"gbtree_model_param":{"num_parallel_tree":"1","num_trees":"88"},"iteration_indptr":[0,1,2,3,4,5,6,7,8,9,10,11,12,13,14,15,16,17,18,19,20,21,22,23,24,25,26,27,28,29,30,31,32,33,34,35,36,37,38,39,40,41,42,43,44,45,46,47,48,49,50,51,52,53,54,55,56,57,58,59,60,61,62,63,64,65,66,67,68,69,70,71,72,73,74,75,76,77,78,79,80,81,82,83,84,85,86,87,88],"tree_info":[0,0,0,0,0,0,0,0,0,0,0,0,0,0,0,0,0,0,0,0,0,0,0,0,0,0,0,0,0,0,0,0,0,0,0,0,0,0,0,0,0,0,0,0,0,0,0,0,0,0,0,0,0,0,0,0,0,0,0,0,0,0,0,0,0,0,0,0,0,0,0,0,0,0,0,0,0,0,0,0,0,0,0,0,0,0,0,0],"trees":[{"base_weights":[5.6951423E-3,2.6343095E0,-5.2030796E-1,2.8773892E0,1.6658673E0,-2.577451E-1,-9.077106E-1,8.326494E-1,2.9609616E0,2.1512562E-1,1.9952914E0,9.764668E-2,-4.7554934E-1,-4.265915E-1,-1.0046285E0,-1.7722815E-1,1.1024392E-1,3.448809E0,2.6333952E0,1.6274474E0,-4.5981858E-2,1.4709716E0,1.57222E-1,-1.0909015E-1,4.6665964E-1,-3.671095E-1,-6.981314E-1,-5.429452E-1,1.2151448E0,-6.511966E-1,-1.0350366E0,-3.3630356E-2,1.411321E-2,1.6721114E0,1.804922E-1,2.8094094E0,1.6843457E0,1.5178509E-2,1.09279945E-1,1.77306E0,-3.891431E-2,-2.2275953E-1,6.440738E-1,1.1414412E0,5.7565603E-2,-1.6979152E-1,-5.391122E-1,-8.0250967E-1,-2.0413136E-1,3.178905E-2,-6.0884523E-1,1.5178509E-2,7.669442E-2,3.4286922E-1,-8.906631E-1,-1.0870073E0,-7.911702E-1,1.1293019E-1,-8.34685E-3,1.1308441E-1,1.7474952E-1,5.2111905E-2,1.3766745E-1,2.9710872E-2,1.3555013E-1,6.0483772E-2,-1.4294008E-2,5.1376086E-2,-4.1676834E-2,7.729224E-2,-2.1431758E-3,1.9415075E-2,-2.7833132E-2,-1.36487065E-2,6.97796E-2,-3.2650627E-2,-8.681476E-3,-2.2548107E-2,-4.6271976E-2,8.992528E-3,-4.866273E-2,-3.6696102E-2,-2.7238086E-3,-4.1676834E-2,8.946864E-2,-4.95618E-2,2.6919232E-3,-5.481149E-2,-3.1075446E-2,-4.3256726E-2,1.2388784E-3],"categories":[],"categories_nodes":[],"categories_segments":[],"categories_sizes":[],"default_left":[0,0,0,0,0,0,0,0,0,0,0,0,0,0,0,0,0,0,0,0,0,0,0,0,0,0,0,0,0,0,0,0,0,0,0,0,0,0,0,0,0,0,0,0,0,0,0,0,0,0,0,0,0,0,0,0,0,0,0,0,0,0,0,0,0,0,0,0,0,0,0,0,0,0,0,0,0,0,0,0,0,0,0,0,0,0,0,0,0,0,0],"id":0,"left_children":[1,3,5,7,9,11,13,15,17,19,21,23,25,27,29,31,-1,33,35,37,-1,39,-1,41,43,45,47,49,51,53,55,-1,-1,57,-1,59,61,-1,-1,63,-1,65,67,69,71,73,75,77,79,-1,81,-1,-1,83,85,87,89,-1,-1,-1,-1,-1,-1,-1,-1,-1,-1,-1,-1,-1,-1,-1,-1,-1,-1,-1,-1,-1,-1,-1,-1,-1,-1,-1,-1,-1,-1,-1,-1,-1,-1],"loss_changes":[1.100121E3,2.6437805E1,6.720442E1,1.5421692E1,1.3427002E1,3.0742977E1,1.2041458E1,8.014603E0,6.9257812E0,1.1891706E1,9.538284E0,1.1609978E1,5.682522E0,9.557059E0,1.7102661E0,1.1219132E0,0E0,4.5533752E0,5.9858093E0,1.7385616E0,0E0,1.362487E1,0E0,8.526753E0,1.500535E1,5.5951233E0,3.935135E0,3.8193703E0,5.197587E-1,5.131013E0,1.7075043E0,0E0,0E0,5.7039566E0,0E0,1.1856934E1,5.7345695E0,0E0,0E0,1.6292831E1,0E0,8.105743E0,8.2774515E0,9.9099655E0,7.3349066E0,1.3220903E1,3.594057E0,2.4040642E0,4.666335E0,0E0,2.8970118E0,0E0,0E0,9.416959E0,1.6315956E0,2.4124146E-2,2.3909683E0,0E0,0E0,0E0,0E0,0E0,0E0,0E0,0E0,0E0,0E0,0E0,0E0,0E0,0E0,0E0,0E0,0E0,0E0,0E0,0E0,0E0,0E0,0E0,0E0,0E0,0E0,0E0,0E0,0E0,0E0,0E0,0E0,0E0,0E0],"parents":[2147483647,0,0,1,1,2,2,3,3,4,4,5,5,6,6,7,7,8,8,9,9,10,10,11,11,12,12,13,13,14,14,15,15,17,17,18,18,19,19,21,21,23,23,24,24,25,25,26,26,27,27,28,28,29,29,30,30,33,33,35,35,36,36,39,39,41,41,42,42,43,43,44,44,45,45,46,46,47,47,48,48,50,50,53,53,54,54,55,55,56,56],"right_children":[2,4,6,8,10,12,14,16,18,20,22,24,26,28,30,32,-1,34,36,38,-1,40,-1,42,44,46,48,50,52,54,56,-1,-1,58,-1,60,62,-1,-1,64,-1,66,68,70,72,74,76,78,80,-1,82,-1,-1,84,86,88,90,-1,-1,-1,-1,-1,-1,-1,-1,-1,-1,-1,-1,-1,-1,-1,-1,-1,-1,-1,-1,-1,-1,-1,-1,-1,-1,-1,-1,-1,-1,-1,-1,-1,-1],"split_conditions":[1E0,2E-2,4E0,-9.6666664E-2,-6.106E0,-1E-2,-3.6666665E-2,5E0,-3.8333334E-2,2.276E1,1.1E1,3.509E1,1.2E1,5.029E1,-1.0278334E1,3.628E1,1.1024392E-1,1E0,5E0,2E0,-4.5981858E-2,7.358333E0,1.57222E-1,4.359E1,-5.4E-2,3.191E1,1.8E1,1E0,4E0,4E0,4.155E1,-3.3630356E-2,1.411321E-2,3.101E1,1.804922E-1,0E0,1.32E1,1.5178509E-2,1.09279945E-1,8E0,-3.891431E-2,7.14E0,1.4E1,4.078E1,1.3E1,3.14E1,3.952E1,-5.0133333E0,3.8E-2,3.178905E-2,3.841E1,1.5178509E-2,7.669442E-2,2E0,7E0,1.8E1,1.61E1,1.1293019E-1,-8.34685E-3,1.1308441E-1,1.7474952E-1,5.2111905E-2,1.3766745E-1,2.9710872E-2,1.3555013E-1,6.0483772E-2,-1.4294008E-2,5.1376086E-2,-4.1676834E-2,7.729224E-2,-2.1431758E-3,1.9415075E-2,-2.7833132E-2,-1.36487065E-2,6.97796E-2,-3.2650627E-2,-8.681476E-3,-2.2548107E-2,-4.6271976E-2,8.992528E-3,-4.866273E-2,-3.6696102E-2,-2.7238086E-3,-4.1676834E-2,8.946864E-2,-4.95618E-2,2.6919232E-3,-5.481149E-2,-3.1075446E-2,-4.3256726E-2,1.2388784E-3],"split_indices":[1,15,1,15,14,15,15,0,15,3,0,4,0,3,14,4,0,10,9,10,0,14,0,3,15,4,0,11,0,0,3,0,0,4,0,6,7,0,0,11,0,3,11,4,11,4,4,14,15,0,4,0,0,9,9,7,7,0,0,0,0,0,0,0,0,0,0,0,0,0,0,0,0,0,0,0,0,0,0,0,0,0,0,0,0,0,0,0,0,0,0],"split_type":[0,0,0,0,0,0,0,0,0,0,0,0,0,0,0,0,0,0,0,0,0,0,0,0,0,0,0,0,0,0,0,0,0,0,0,0,0,0,0,0,0,0,0,0,0,0,0,0,0,0,0,0,0,0,0,0,0,0,0,0,0,0,0,0,0,0,0,0,0,0,0,0,0,0,0,0,0,0,0,0,0,0,0,0,0,0,0,0,0,0,0],"sum_hessian":[7.936644E2,1.3166783E2,6.619966E2,1.03674355E2,2.799348E1,3.955662E2,2.6643042E2,4.5014644E0,9.917289E1,5.48616E0,2.2507322E1,1.5051772E2,2.4504846E2,4.5577328E1,2.2085309E2,3.0947568E0,1.4067076E0,3.6011715E1,6.316117E1,2.2507322E0,3.2354276E0,1.7021162E1,5.48616E0,9.692216E1,5.3595562E1,1.6655418E2,7.8494286E1,4.3185925E1,2.391403E0,1.9271894E1,2.015812E2,1.2660369E0,1.8287199E0,3.9387813E0,3.2072933E1,5.162617E1,1.1535003E1,1.1253661E0,1.1253661E0,1.5192442E1,1.8287199E0,8.482447E1,1.2097686E1,1.9553236E1,3.4042324E1,7.8494286E1,8.80599E1,6.428654E1,1.42077465E1,1.8287199E0,4.1357204E1,1.1253661E0,1.2660369E0,3.6574397E0,1.5614454E1,1.6331876E2,3.8262447E1,2.8134153E0,1.1253661E0,3.1088238E1,2.0537931E1,8.440246E0,3.0947568E0,7.45555E0,7.7368917E0,2.8134153E0,8.2011055E1,9.846953E0,2.2507322E0,1.4348417E1,5.2048182E0,2.2366652E1,1.16756735E1,7.441483E1,4.079452E0,6.653727E1,2.1522627E1,1.7865187E1,4.6421352E1,9.987624E0,4.220123E0,3.347964E1,7.8775625E0,2.2507322E0,1.4067076E0,1.4067076E1,1.5473784E0,1.5881729E2,4.5014644E0,3.502702E1,3.2354276E0],"tree_param":{"num_deleted":"0","num_feature":"16","num_nodes":"91","size_leaf_vector":"1"}},{"base_weights":[-3.129208E-2,2.2338715E0,-5.3334284E-1,2.37019E-1,2.6226115E0,-7.814097E-1,-8.045202E-2,-5.0968444E-1,1.1442032E0,1.924848E0,3.0236423E0,-5.8515495E-1,-1.0607879E0,2.7920905E-1,-7.0179296E-1,6.138239E-2,-8.156042E-1,1.412925E0,-3.285262E-2,1.5891653E-1,2.3547788E0,3.118581E0,1.2228823E0,-7.834889E-1,-3.2299823E-1,-1.076117E0,-9.027959E-2,6.29592E-2,1.0679082E0,-1.352136E-1,-8.407915E-1,-1.0066271E0,-9.0475984E-2,1.7084451E0,-1.461191E-2,9.401124E-1,-7.9401284E-1,2.578644E0,1.039317E0,1.6777279E0,3.1928294E0,1.5681537E0,-6.280459E-3,5.0902385E-1,-8.1709564E-1,9.411755E-1,-3.8844725E-1,-3.726267E-1,-1.0859933E0,2.6744211E-2,-3.4510776E-2,-4.434172E-1,2.3909174E-1,1.7738281E0,2.5571942E-1,6.666E-1,-5.4369795E-1,-9.125108E-1,2.9218546E-1,-5.4569572E-2,-7.992058E-3,-3.814314E-2,4.2367037E-2,1.7065158E-2,1.06833875E-1,8.613759E-2,-3.779578E-2,-7.5801336E-3,-4.6196733E-2,4.7906663E-2,1.4252588E-1,8.092456E-2,6.2852427E-3,9.489112E-3,1.2209269E-1,7.7098764E-2,1.6288534E-1,9.814309E-2,1.3146996E-2,8.865332E-2,-3.842852E-2,-4.2606294E-2,-2.6394029E-3,7.340724E-2,-3.1787694E-2,6.8470925E-2,-2.1624694E-2,1.5737968E-2,-3.8123544E-2,-5.5899817E-2,-4.1024603E-2,1.8496242E-3,-4.1733857E-2,3.291021E-2,-1.2715859E-3,4.5917436E-2,1.3167648E-1,-1.6344924E-2,5.8809526E-2,8.234899E-3,7.727082E-2,3.9251756E-2,-3.7136756E-2,-5.192067E-2,-3.4116477E-2,-3.0142648E-2,8.6126804E-2],"categories":[],"categories_nodes":[],"categories_segments":[],"categories_sizes":[],"default_left":[0,0,0,0,0,0,0,0,0,0,0,0,0,0,0,0,0,0,0,0,0,0,0,0,0,0,0,0,0,0,0,0,0,0,0,0,0,0,0,0,0,0,0,0,0,0,0,0,0,0,0,0,0,0,0,0,0,0,0,0,0,0,0,0,0,0,0,0,0,0,0,0,0,0,0,0,0,0,0,0,0,0,0,0,0,0,0,0,0,0,0,0,0,0,0,0,0,0,0,0,0,0,0,0,0,0,0],"id":1,"left_children":[1,3,5,7,9,11,13,15,17,19,21,23,25,27,29,-1,31,33,-1,35,37,39,41,43,45,47,49,51,53,55,57,59,61,63,-1,65,67,69,71,73,75,77,-1,79,81,83,85,87,89,-1,-1,91,93,95,97,99,101,103,105,-1,-1,-1,-1,-1,-1,-1,-1,-1,-1,-1,-1,-1,-1,-1,-1,-1,-1,-1,-1,-1,-1,-1,-1,-1,-1,-1,-1,-1,-1,-1,-1,-1,-1,-1,-1,-1,-1,-1,-1,-1,-1,-1,-1,-1,-1,-1,-1],"loss_changes":[9.0849115E2,1.1188849E2,7.3398544E1,1.732688E1,2.8100769E1,2.2536835E1,5.2157764E1,8.574859E0,6.4792013E0,3.5305313E1,9.047363E0,1.2761986E1,2.4772034E0,2.517296E1,6.6223297E0,0E0,1.6704588E0,5.6877785E0,0E0,8.394294E0,8.428299E0,2.2190552E0,2.7170296E0,6.575424E0,9.426561E0,7.782898E-1,1.787756E0,1.0559509E1,1.7768333E1,6.2715425E0,5.831955E0,5.4094124E-1,3.0112925E0,4.4939747E0,0E0,9.403666E0,2.9144764E-1,1.1173355E1,3.5857058E0,5.878235E0,2.0709229E0,1.7420979E0,0E0,8.161186E0,3.6657104E0,5.655726E0,8.709043E0,1.279604E0,5.048981E-1,0E0,0E0,5.7820673E0,9.72946E0,9.962894E0,8.936646E0,2.629418E0,3.8897488E0,1.1652222E0,7.228228E0,0E0,0E0,0E0,0E0,0E0,0E0,0E0,0E0,0E0,0E0,0E0,0E0,0E0,0E0,0E0,0E0,0E0,0E0,0E0,0E0,0E0,0E0,0E0,0E0,0E0,0E0,0E0,0E0,0E0,0E0,0E0,0E0,0E0,0E0,0E0,0E0,0E0,0E0,0E0,0E0,0E0,0E0,0E0,0E0,0E0,0E0,0E0,0E0],"parents":[2147483647,0,0,1,1,2,2,3,3,4,4,5,5,6,6,7,7,8,8,9,9,10,10,11,11,12,12,13,13,14,14,16,16,17,17,19,19,20,20,21,21,22,22,23,23,24,24,25,25,26,26,27,27,28,28,29,29,30,30,31,31,32,32,33,33,35,35,36,36,37,37,38,38,39,39,40,40,41,41,43,43,44,44,45,45,46,46,47,47,48,48,51,51,52,52,53,53,54,54,55,55,56,56,57,57,58,58],"right_children":[2,4,6,8,10,12,14,16,18,20,22,24,26,28,30,-1,32,34,-1,36,38,40,42,44,46,48,50,52,54,56,58,60,62,64,-1,66,68,70,72,74,76,78,-1,80,82,84,86,88,90,-1,-1,92,94,96,98,100,102,104,106,-1,-1,-1,-1,-1,-1,-1,-1,-1,-1,-1,-1,-1,-1,-1,-1,-1,-1,-1,-1,-1,-1,-1,-1,-1,-1,-1,-1,-1,-1,-1,-1,-1,-1,-1,-1,-1,-1,-1,-1,-1,-1,-1,-1,-1,-1,-1,-1],"split_conditions":[1E0,4.3E0,5.69E0,1.3E1,5.55E0,4E0,4E0,6.71E0,6.93E0,-5.6033335E0,5.5E-2,4.74E0,6.327E1,4.18E0,-3.6666665E-2,6.138239E-2,2.8333334E-2,4.12E0,-3.285262E-2,3.462E1,6.89E0,6.66E0,1.51E1,-2.3613333E1,6.65E0,9E0,6.72E0,-6.33E0,-1E-2,1.11E1,7.31E0,1.41E1,3.481E1,6.68E0,-1.461191E-2,2.796E1,-3.8333334E-2,3.011E1,3.358E1,-5.666667E-2,1E0,1.2E1,-6.280459E-3,6.74E0,4.731E1,-2.5E-2,4.75E0,3.355E1,4.333E1,2.6744211E-2,-3.4510776E-2,-1.0583333E1,-1.3333334E-2,6.45E0,3.1666666E-2,3.545E1,6.62E0,1.2E1,1.51E1,-5.4569572E-2,-7.992058E-3,-3.814314E-2,4.2367037E-2,1.7065158E-2,1.06833875E-1,8.613759E-2,-3.779578E-2,-7.5801336E-3,-4.6196733E-2,4.7906663E-2,1.4252588E-1,8.092456E-2,6.2852427E-3,9.489112E-3,1.2209269E-1,7.7098764E-2,1.6288534E-1,9.814309E-2,1.3146996E-2,8.865332E-2,-3.842852E-2,-4.2606294E-2,-2.6394029E-3,7.340724E-2,-3.1787694E-2,6.8470925E-2,-2.1624694E-2,1.5737968E-2,-3.8123544E-2,-5.5899817E-2,-4.1024603E-2,1.8496242E-3,-4.1733857E-2,3.291021E-2,-1.2715859E-3,4.5917436E-2,1.3167648E-1,-1.6344924E-2,5.8809526E-2,8.234899E-3,7.727082E-2,3.9251756E-2,-3.7136756E-2,-5.192067E-2,-3.4116477E-2,-3.0142648E-2,8.6126804E-2],"split_indices":[1,2,2,8,2,1,1,5,5,14,15,2,3,14,15,0,15,2,0,4,5,5,7,14,5,7,5,14,15,8,2,7,3,5,0,3,15,3,3,15,11,11,0,5,4,15,2,3,3,0,0,14,15,2,15,4,5,11,7,0,0,0,0,0,0,0,0,0,0,0,0,0,0,0,0,0,0,0,0,0,0,0,0,0,0,0,0,0,0,0,0,0,0,0,0,0,0,0,0,0,0,0,0,0,0,0,0],"split_type":[0,0,0,0,0,0,0,0,0,0,0,0,0,0,0,0,0,0,0,0,0,0,0,0,0,0,0,0,0,0,0,0,0,0,0,0,0,0,0,0,0,0,0,0,0,0,0,0,0,0,0,0,0,0,0,0,0,0,0,0,0,0,0,0,0,0,0,0,0,0,0,0,0,0,0,0,0,0,0,0,0,0,0,0,0,0,0,0,0,0,0,0,0,0,0,0,0,0,0,0,0,0,0,0,0,0,0],"sum_hessian":[7.968175E2,1.4393935E2,6.528782E2,2.371768E1,1.2022166E2,4.2135785E2,2.3152031E2,1.3249875E1,1.0467805E1,4.5994488E1,7.422717E1,2.4931564E2,1.720422E2,1.4698766E2,8.453266E1,1.5326895E0,1.1717185E1,9.29649E0,1.1713152E0,9.273483E0,3.6721004E1,6.981463E1,4.412541E0,1.4080293E2,1.0851271E2,1.6925993E2,2.7822678E0,1.162056E2,3.0782059E1,1.7041536E1,6.749113E1,8.966821E0,2.7503643E0,7.9216685E0,1.374821E0,5.1033173E0,4.170166E0,3.056004E1,6.1609635E0,4.5776405E0,6.523699E1,3.3833609E0,1.02918E0,3.209746E0,1.3759319E2,4.6827745E0,1.0382993E2,2.8795223E0,1.6638042E2,1.4155861E0,1.3666816E0,2.9597126E1,8.660847E1,1.5834969E1,1.4947091E1,5.5383763E0,1.15031595E1,6.3656178E1,3.8349483E0,7.888326E0,1.0784951E0,1.710524E0,1.0398402E0,2.3180966E0,5.603572E0,3.481163E0,1.6221545E0,1.0660182E0,3.1041477E0,5.0404534E0,2.5519587E1,3.2984302E0,2.8625333E0,1.9767586E0,2.6008818E0,3.4033675E0,6.1833622E1,2.2109025E0,1.1724584E0,1.4184877E0,1.7912583E0,1.3145341E2,6.1397653E0,3.5615733E0,1.1212013E0,1.8025215E0,1.0202741E2,1.1117864E0,1.767736E0,1.4561707E2,2.0763342E1,1.3691468E1,1.5905657E1,3.2936085E1,5.3672382E1,8.973628E0,6.8613405E0,9.548296E0,5.3987956E0,4.280909E0,1.257467E0,1.1150616E0,1.0388098E1,3.8879124E1,2.4777056E1,2.7147365E0,1.1202117E0],"tree_param":{"num_deleted":"0","num_feature":"16","num_nodes":"107","size_leaf_vector":"1"}},{"base_weights":[2.0367347E-2,-3.9747697E-1,8.082091E-1,-4.7481056E-2,-7.149516E-1,1.258012E0,4.6980178E-1,-3.9793E-1,5.295348E-1,-8.969504E-1,-5.550729E-1,6.9185376E-1,1.573514E0,2.544776E-1,1.598119E0,-6.342257E-1,-6.829878E-2,7.924996E-1,-1.6102849E-1,-6.895763E-1,-1.0199927E0,4.3811452E-1,-5.729216E-1,3.7520373E-1,1.7661803E0,1.2543507E0,2.5530922E0,6.6130954E-1,-4.611926E-3,8.897636E-1,2.5104055E0,-6.861088E-1,8.6728215E-1,1.144E0,-1.7740564E-1,3.5155365E-1,1.3501931E0,-7.802595E-1,1.892076E-1,-7.688811E-1,6.6697246E-1,-6.35593E-1,-5.2852344E-2,-3.096958E-2,6.389152E-2,-4.695015E-1,-8.2442045E-1,7.8350616E-1,-6.329047E-1,2.1594305E0,-1.8125543E-3,6.6865396E-1,1.8164234E0,1.7284147E-1,1.8860531E0,1.7396603E0,4.797956E-1,-2.2957511E-1,3.3060282E-1,1.4149687E0,-5.5564564E-1,1.6393496E-1,1.2836847E0,6.581479E-3,-3.730336E-2,6.3679375E-2,7.3102675E-3,1.112197E-1,1.9378683E-2,-1.3901447E-2,3.8602464E-2,2.8863385E-2,-3.3166062E-2,8.120796E-2,-5.7244627E-4,-4.730965E-2,6.899548E-3,7.247443E-2,-1.5367481E-3,-4.1308116E-2,-9.4487466E-4,6.8085544E-2,-1.2093508E-2,1.2600742E-2,-4.490255E-2,-2.5346205E-2,3.20349E-2,-4.430398E-2,2.4254428E-2,-1.9231206E-3,6.0096096E-2,-4.312707E-2,2.4003722E-2,-7.7790837E-3,1.269195E-1,6.998982E-2,-7.347632E-3,9.7453386E-2,-4.482563E-3,7.2663487E-3,1.0439284E-1,9.506096E-3,1.15114726E-1,1.2270347E-2,7.375014E-2,8.697636E-2,-1.6106872E-2,4.5702225E-4,4.6815213E-2,5.972042E-3,9.1309406E-2,-4.3443773E-2,8.887014E-3,-1.6918575E-2,9.842726E-2],"categories":[],"categories_nodes":[],"categories_segments":[],"categories_sizes":[],"default_left":[0,0,0,0,0,0,0,0,0,0,0,0,0,0,0,0,0,0,0,0,0,0,0,0,0,0,0,0,0,0,0,0,0,0,0,0,0,0,0,0,0,0,0,0,0,0,0,0,0,0,0,0,0,0,0,0,0,0,0,0,0,0,0,0,0,0,0,0,0,0,0,0,0,0,0,0,0,0,0,0,0,0,0,0,0,0,0,0,0,0,0,0,0,0,0,0,0,0,0,0,0,0,0,0,0,0,0,0,0,0,0,0,0,0,0],"id":2,"left_children":[1,3,5,7,9,11,13,15,17,19,21,23,25,27,29,31,33,35,37,39,41,43,45,47,49,51,53,55,57,59,61,63,65,67,69,71,73,75,77,79,81,83,-1,-1,-1,85,87,89,91,93,-1,95,97,-1,99,101,103,105,107,109,111,-1,113,-1,-1,-1,-1,-1,-1,-1,-1,-1,-1,-1,-1,-1,-1,-1,-1,-1,-1,-1,-1,-1,-1,-1,-1,-1,-1,-1,-1,-1,-1,-1,-1,-1,-1,-1,-1,-1,-1,-1,-1,-1,-1,-1,-1,-1,-1,-1,-1,-1,-1,-1,-1],"loss_changes":[2.624162E2,5.784771E1,4.1459E1,5.0529716E1,7.4480896E0,1.9990509E1,3.8281902E1,1.20596695E1,1.7280027E1,2.5137024E0,2.8745613E0,1.4310274E1,2.0244247E1,1.4223633E1,1.4135094E1,7.6363106E0,8.932736E0,1.638876E1,5.977275E0,5.8959217E0,4.2551422E-1,3.6147895E0,3.405655E0,1.5011091E1,6.9890614E0,1.8053947E1,4.0079956E0,9.440901E0,6.366329E0,1.278637E1,5.708214E0,4.409172E0,8.276541E-1,3.7011518E0,6.08216E0,9.4651165E0,1.1182667E1,1.6399269E0,5.02674E0,2.0352402E0,2.4124737E0,2.388591E0,0E0,0E0,0E0,4.714199E0,3.753788E0,8.831983E0,3.1535563E0,7.4309807E0,0E0,1.824184E1,7.5788727E0,0E0,3.9992905E0,5.824301E0,1.0441608E1,9.765928E0,6.593828E0,6.1090813E0,1.2871896E0,0E0,6.9932795E0,0E0,0E0,0E0,0E0,0E0,0E0,0E0,0E0,0E0,0E0,0E0,0E0,0E0,0E0,0E0,0E0,0E0,0E0,0E0,0E0,0E0,0E0,0E0,0E0,0E0,0E0,0E0,0E0,0E0,0E0,0E0,0E0,0E0,0E0,0E0,0E0,0E0,0E0,0E0,0E0,0E0,0E0,0E0,0E0,0E0,0E0,0E0,0E0,0E0,0E0,0E0,0E0],"parents":[2147483647,0,0,1,1,2,2,3,3,4,4,5,5,6,6,7,7,8,8,9,9,10,10,11,11,12,12,13,13,14,14,15,15,16,16,17,17,18,18,19,19,20,20,21,21,22,22,23,23,24,24,25,25,26,26,27,27,28,28,29,29,30,30,31,31,32,32,33,33,34,34,35,35,36,36,37,37,38,38,39,39,40,40,41,41,45,45,46,46,47,47,48,48,49,49,51,51,52,52,54,54,55,55,56,56,57,57,58,58,59,59,60,60,62,62],"right_children":[2,4,6,8,10,12,14,16,18,20,22,24,26,28,30,32,34,36,38,40,42,44,46,48,50,52,54,56,58,60,62,64,66,68,70,72,74,76,78,80,82,84,-1,-1,-1,86,88,90,92,94,-1,96,98,-1,100,102,104,106,108,110,112,-1,114,-1,-1,-1,-1,-1,-1,-1,-1,-1,-1,-1,-1,-1,-1,-1,-1,-1,-1,-1,-1,-1,-1,-1,-1,-1,-1,-1,-1,-1,-1,-1,-1,-1,-1,-1,-1,-1,-1,-1,-1,-1,-1,-1,-1,-1,-1,-1,-1,-1,-1,-1,-1],"split_conditions":[4.3666667E-1,1.6666667E-3,-1.6666668E-2,-1.5333334E-1,-4.4666666E-1,8.883333E-1,1.65E0,-5.85E-1,-1.5E-2,-2.4033334E0,-4.3166667E-1,4.225E1,4.4183335E0,5E0,0E0,1.8E1,6.66E0,1.6533333E0,5.5E-2,-2.6933334E0,6.666667E-3,4.8333332E-2,4.8333332E-2,5.05E-1,7.683333E-1,6.76E0,2.877E1,1E1,9.25E-1,1.5E1,4E0,2.105E1,-4.5E-2,1.12E1,1.61E1,-4.15E-1,1.51E1,-1.6666667E-3,1E0,5E-1,3.173E1,2.435E1,-5.2852344E-2,-3.096958E-2,6.389152E-2,7.02E0,4.483E1,4E0,8.4E-1,-8E-2,-1.8125543E-3,1.3E1,1E0,1.7284147E-1,9.85E-1,6.79E0,6.233333E0,-2.1111666E1,6.88E0,-3.4083333E0,3.898E1,1.6393496E-1,1.12E1,6.581479E-3,-3.730336E-2,6.3679375E-2,7.3102675E-3,1.112197E-1,1.9378683E-2,-1.3901447E-2,3.8602464E-2,2.8863385E-2,-3.3166062E-2,8.120796E-2,-5.7244627E-4,-4.730965E-2,6.899548E-3,7.247443E-2,-1.5367481E-3,-4.1308116E-2,-9.4487466E-4,6.8085544E-2,-1.2093508E-2,1.2600742E-2,-4.490255E-2,-2.5346205E-2,3.20349E-2,-4.430398E-2,2.4254428E-2,-1.9231206E-3,6.0096096E-2,-4.312707E-2,2.4003722E-2,-7.7790837E-3,1.269195E-1,6.998982E-2,-7.347632E-3,9.7453386E-2,-4.482563E-3,7.2663487E-3,1.0439284E-1,9.506096E-3,1.15114726E-1,1.2270347E-2,7.375014E-2,8.697636E-2,-1.6106872E-2,4.5702225E-4,4.6815213E-2,5.972042E-3,9.1309406E-2,-4.3443773E-2,8.887014E-3,-1.6918575E-2,9.842726E-2],"split_indices":[13,15,15,13,13,13,13,13,15,14,13,3,14,0,6,7,5,14,13,14,15,15,15,14,13,5,4,7,13,7,0,3,15,7,7,14,7,15,10,6,3,4,0,0,0,5,3,0,13,15,0,8,6,0,13,5,14,14,5,14,4,0,7,0,0,0,0,0,0,0,0,0,0,0,0,0,0,0,0,0,0,0,0,0,0,0,0,0,0,0,0,0,0,0,0,0,0,0,0,0,0,0,0,0,0,0,0,0,0,0,0,0,0,0,0],"split_type":[0,0,0,0,0,0,0,0,0,0,0,0,0,0,0,0,0,0,0,0,0,0,0,0,0,0,0,0,0,0,0,0,0,0,0,0,0,0,0,0,0,0,0,0,0,0,0,0,0,0,0,0,0,0,0,0,0,0,0,0,0,0,0,0,0,0,0,0,0,0,0,0,0,0,0,0,0,0,0,0,0,0,0,0,0,0,0,0,0,0,0,0,0,0,0,0,0,0,0,0,0,0,0,0,0,0,0,0,0,0,0,0,0,0,0],"sum_hessian":[7.9516876E2,5.199177E2,2.7525107E2,2.4783958E2,2.7207812E2,1.170086E2,1.5824246E2,1.5438478E2,9.3454796E1,1.25081085E2,1.4699702E2,4.3014072E1,7.399453E1,1.3391258E2,2.4329882E1,8.9385124E1,6.4999664E1,6.7574844E1,2.587995E1,4.9037773E1,7.604331E1,2.1793885E0,1.4481764E2,3.4264194E1,8.749879E0,5.753058E1,1.6463945E1,5.1497257E1,8.241533E1,1.4807634E1,9.522246E0,8.692459E1,2.4605384E0,4.5837674E0,6.0415894E1,3.864788E1,2.8926966E1,8.905994E0,1.6973955E1,4.6738613E1,2.2991614E0,8.28173E0,6.776158E1,1.0807335E0,1.0986551E0,1.04650566E2,4.016707E1,2.4545578E1,9.718615E0,7.0201697E0,1.7297095E0,2.9245504E1,2.8285074E1,5.2154517E0,1.1248494E1,6.182667E0,4.531459E1,4.9506542E1,3.2908787E1,1.0876574E1,3.9310608E0,4.826611E0,4.695636E0,5.856444E0,8.1068146E1,1.0836844E0,1.376854E0,1.0884653E0,3.495302E0,5.5265972E1,5.1499214E0,3.1968987E1,6.6788945E0,2.3921165E1,5.0057993E0,7.5171666E0,1.3888282E0,1.6914668E0,1.5282488E1,4.3327805E1,3.4108071E0,1.0206579E0,1.2785035E0,1.8990642E0,6.382666E0,1.0176371E2,2.8868556E0,3.8669632E1,1.497436E0,8.586218E0,1.595936E1,8.242904E0,1.4757107E0,1.07044E0,5.9497294E0,1.5043577E1,1.4201928E1,2.6423687E1,1.8613881E0,1.347273E0,9.901221E0,2.00331E0,4.1793566E0,3.768557E1,7.629021E0,1.4238384E0,4.8082706E1,2.2161932E1,1.0746854E1,2.9314938E0,7.9450803E0,2.625123E0,1.3059376E0,1.544201E0,3.1514347E0],"tree_param":{"num_deleted":"0","num_feature":"16","num_nodes":"115","size_leaf_vector":"1"}},{"base_weights":[-1.8250816E-2,-3.8691026E-1,6.876089E-1,7.090526E-2,-6.1472243E-1,1.3344148E0,4.6300757E-1,-6.6659755E-1,4.9903393E-1,-8.4708863E-1,-4.8290944E-1,-4.6732936E-2,1.4618527E0,3.152367E-1,9.6815586E-1,-5.4905076E-2,-3.8825232E-1,3.6576477E-1,1.1981295E0,-6.053627E-1,-9.872825E-1,-3.478904E-1,-7.3461413E-1,-3.3401468E-1,1.5722535E0,1.4033365E-1,9.913171E-1,1.9098473E0,6.080181E-1,-4.6685708E-1,6.6460095E-2,1.6000389E-1,9.534047E-1,1.8512071E0,-2.3725952E-1,-7.1790415E-1,1.000683E-2,-1.0105311E0,1.4480369E-2,-4.406477E-1,9.999031E-2,2.836905E-1,-7.919722E-1,-4.4059988E-2,3.6348347E-2,1.1158848E0,1.8605857E0,1.391671E0,7.9748765E-2,1.6957664E0,4.9848503E-1,-3.6774963E-2,2.3673317E0,-1.619528E-1,1.0542941E0,1.238047E-3,-3.424614E-2,9.157994E-2,3.8080742E-3,9.280551E-2,2.0788008E-2,1.13868095E-1,1.0943776E-2,-4.629857E-2,3.801373E-2,-3.6441367E-3,-4.2684905E-2,-4.735406E-2,5.4516155E-2,-5.347343E-2,-3.357596E-2,-1.7555672E-3,-2.5298854E-2,4.617084E-2,-7.3481635E-3,-2.5270734E-2,5.670141E-2,-4.0639974E-2,1.2321184E-2,1.4594502E-2,8.0371656E-2,1.615885E-2,9.928306E-2,-6.9598453E-3,8.8427976E-2,-1.7518098E-2,1.55801345E-2,1.0971049E-1,1.0150432E-2,3.37151E-2,-3.9517444E-2,4.5480218E-2,1.3945247E-1,3.900219E-2,-4.124573E-2,9.8735236E-2,1.3057274E-2],"categories":[],"categories_nodes":[],"categories_segments":[],"categories_sizes":[],"default_left":[0,0,0,0,0,0,0,0,0,0,0,0,0,0,0,0,0,0,0,0,0,0,0,0,0,0,0,0,0,0,0,0,0,0,0,0,0,0,0,0,0,0,0,0,0,0,0,0,0,0,0,0,0,0,0,0,0,0,0,0,0,0,0,0,0,0,0,0,0,0,0,0,0,0,0,0,0,0,0,0,0,0,0,0,0,0,0,0,0,0,0,0,0,0,0,0,0],"id":3,"left_children":[1,3,5,7,9,11,13,15,17,19,21,-1,23,25,27,-1,29,31,33,35,37,39,41,43,45,47,49,51,53,55,-1,57,59,61,63,65,67,69,-1,71,73,75,77,-1,-1,79,81,83,85,87,89,-1,91,93,95,-1,-1,-1,-1,-1,-1,-1,-1,-1,-1,-1,-1,-1,-1,-1,-1,-1,-1,-1,-1,-1,-1,-1,-1,-1,-1,-1,-1,-1,-1,-1,-1,-1,-1,-1,-1,-1,-1,-1,-1,-1,-1],"loss_changes":[2.0701775E2,5.4545197E1,3.903517E1,5.5439434E1,1.028157E1,2.1556305E1,1.49325485E1,7.324335E0,9.90316E0,3.6386185E0,7.392105E0,0E0,1.3709518E1,1.871154E1,1.4343254E1,0E0,6.1250873E0,1.1293728E1,1.6686834E1,3.3640938E0,2.5943375E0,6.207741E0,4.7610474E0,3.355282E0,6.190338E0,9.579001E0,1.0472546E1,1.6481659E1,1.2038359E1,4.276208E0,0E0,9.85552E0,1.1045633E1,7.867111E0,5.036514E0,3.5282364E0,9.801064E0,8.077545E-1,0E0,3.243431E0,5.4776506E0,3.8461423E0,1.7961197E0,0E0,0E0,1.0394596E1,6.4732056E0,3.616685E0,1.2372489E1,9.22921E0,5.2002487E0,0E0,3.9925308E0,9.098985E0,1.5543039E1,0E0,0E0,0E0,0E0,0E0,0E0,0E0,0E0,0E0,0E0,0E0,0E0,0E0,0E0,0E0,0E0,0E0,0E0,0E0,0E0,0E0,0E0,0E0,0E0,0E0,0E0,0E0,0E0,0E0,0E0,0E0,0E0,0E0,0E0,0E0,0E0,0E0,0E0,0E0,0E0,0E0,0E0],"parents":[2147483647,0,0,1,1,2,2,3,3,4,4,5,5,6,6,7,7,8,8,9,9,10,10,12,12,13,13,14,14,16,16,17,17,18,18,19,19,20,20,21,21,22,22,23,23,24,24,25,25,26,26,27,27,28,28,29,29,31,31,32,32,33,33,34,34,35,35,36,36,37,37,39,39,40,40,41,41,42,42,45,45,46,46,47,47,48,48,49,49,50,50,52,52,53,53,54,54],"right_children":[2,4,6,8,10,12,14,16,18,20,22,-1,24,26,28,-1,30,32,34,36,38,40,42,44,46,48,50,52,54,56,-1,58,60,62,64,66,68,70,-1,72,74,76,78,-1,-1,80,82,84,86,88,90,-1,92,94,96,-1,-1,-1,-1,-1,-1,-1,-1,-1,-1,-1,-1,-1,-1,-1,-1,-1,-1,-1,-1,-1,-1,-1,-1,-1,-1,-1,-1,-1,-1,-1,-1,-1,-1,-1,-1,-1,-1,-1,-1,-1,-1],"split_conditions":[4.3666667E-1,-1.5E-2,-4E-2,-5.466667E-1,-6.666667E-1,5.22E0,6.63E0,-1.2433333E0,4.421E1,3.197E1,3.6666665E-2,-4.6732936E-2,5.0666666E-1,5.502E0,6.75E0,-5.4905076E-2,1.8E1,1.9666667E-1,1.5E1,1.6E1,2.6002E1,5E0,1E0,3.916E1,9.9666667E-1,4.65E-1,-1E-2,1E0,-2.6933334E0,4.02E0,6.6460095E-2,3.94E0,2.7E-1,2.1E-1,4.96E0,2.632E1,3.469E1,4.266E1,1.4480369E-2,1E0,-4.59E0,5.21E0,7.17E0,-4.4059988E-2,3.6348347E-2,3.043E1,1E0,4E0,7.683333E-1,4E0,6.46E0,-3.6774963E-2,2.899E1,2.439E1,1.3816667E0,1.238047E-3,-3.424614E-2,9.157994E-2,3.8080742E-3,9.280551E-2,2.0788008E-2,1.13868095E-1,1.0943776E-2,-4.629857E-2,3.801373E-2,-3.6441367E-3,-4.2684905E-2,-4.735406E-2,5.4516155E-2,-5.347343E-2,-3.357596E-2,-1.7555672E-3,-2.5298854E-2,4.617084E-2,-7.3481635E-3,-2.5270734E-2,5.670141E-2,-4.0639974E-2,1.2321184E-2,1.4594502E-2,8.0371656E-2,1.615885E-2,9.928306E-2,-6.9598453E-3,8.8427976E-2,-1.7518098E-2,1.55801345E-2,1.0971049E-1,1.0150432E-2,3.37151E-2,-3.9517444E-2,4.5480218E-2,1.3945247E-1,3.900219E-2,-4.124573E-2,9.8735236E-2,1.3057274E-2],"split_indices":[13,15,15,13,13,2,2,13,3,3,15,0,13,14,2,0,7,13,8,7,14,10,11,3,13,13,15,9,14,2,0,2,13,13,2,4,4,3,0,10,14,2,2,0,0,4,9,11,13,9,2,0,3,3,13,0,0,0,0,0,0,0,0,0,0,0,0,0,0,0,0,0,0,0,0,0,0,0,0,0,0,0,0,0,0,0,0,0,0,0,0,0,0,0,0,0,0],"split_type":[0,0,0,0,0,0,0,0,0,0,0,0,0,0,0,0,0,0,0,0,0,0,0,0,0,0,0,0,0,0,0,0,0,0,0,0,0,0,0,0,0,0,0,0,0,0,0,0,0,0,0,0,0,0,0,0,0,0,0,0,0,0,0,0,0,0,0,0,0,0,0,0,0,0,0,0,0,0,0,0,0,0,0,0,0,0,0,0,0,0,0,0,0,0,0,0,0],"sum_hessian":[7.9352094E2,5.215667E2,2.7195425E2,1.7352878E2,3.480379E2,6.882141E1,2.0313283E2,6.353138E1,1.099974E2,1.2400664E2,2.2403128E2,3.3228438E0,6.5498566E1,1.584156E2,4.4717228E1,2.3757019E1,3.977436E1,9.366514E1,1.6332264E1,4.7472076E1,7.653456E1,1.4736441E2,7.666686E1,3.6760206E0,6.1822544E1,1.2681575E2,3.1599855E1,1.1180157E1,3.353707E1,3.872993E1,1.0444292E0,7.0316315E1,2.3348824E1,1.1025953E1,5.3063107E0,3.9991615E1,7.4804606E0,7.537087E1,1.1636896E0,1.22094475E2,2.526994E1,3.8777337E0,7.278912E1,2.537033E0,1.1389874E0,2.5821978E1,3.600057E1,4.8417754E0,1.21973976E2,1.2002598E1,1.9597258E1,1.5588127E0,9.621344E0,1.2539488E1,2.0997581E1,1.2172991E1,2.655694E1,2.3627918E0,6.795352E1,7.8001194E0,1.5548704E1,8.429971E0,2.5959823E0,3.1814983E0,2.1248126E0,7.2223163E0,3.27693E1,4.031845E0,3.4486156E0,6.2372654E1,1.2998218E1,1.715309E1,1.0494139E2,5.19819E0,2.0071749E1,2.221673E0,1.6560606E0,7.157088E1,1.2182496E0,1.024382E1,1.5578157E1,2.978098E0,3.302247E1,1.0811135E0,3.7606618E0,4.2542507E1,7.9431465E1,8.645796E0,3.3568015E0,1.7664375E1,1.9328828E0,2.8672366E0,6.754107E0,5.106749E0,7.432739E0,9.029538E0,1.1968044E1],"tree_param":{"num_deleted":"0","num_feature":"16","num_nodes":"97","size_leaf_vector":"1"}},{"base_weights":[1.127577E-2,1.9815567E0,-4.7198817E-1,2.8209534E-1,2.2642388E0,-6.789465E-1,2.1270168E-1,-6.2898475E-1,1.1996369E0,1.824823E0,2.6747692E0,-4.6384135E-1,-9.871385E-1,5.291781E-1,-4.097259E-1,2.756742E-2,-9.0085083E-1,1.4882075E0,-3.410768E-2,2.1037831E0,1.2502865E0,1.1283191E0,2.8031266E0,-8.6463624E-1,-2.7426758E-1,-1.1478573E0,-8.449391E-1,3.0719638E-1,1.3320949E0,-6.164024E-1,6.779341E-1,-5.3639382E-2,3.00422E-3,-4.344338E-3,1.8208752E0,3.178344E-1,2.2260733E0,7.600697E-1,1.7936879E0,1.9189299E0,7.774685E-2,2.8412488E0,4.866528E-2,1.7199054E-2,-9.149E-1,2.259296E-2,-5.089214E-1,-5.7928365E-2,-8.396103E-3,-3.292062E-1,-9.3189424E-1,1.737204E0,1.2420726E-1,1.514193E0,-3.5321057E-2,-8.1674695E-1,-4.122198E-2,-6.8005316E-2,1.496725E0,1.0889496E-1,-1.14959655E-2,5.1105734E-2,-3.434371E-2,8.188225E-2,1.3898967E-1,5.9974577E-2,-3.424382E-2,9.944662E-2,1.9674944E-2,3.187432E-2,1.1469894E-1,2.8920291E-2,-1.9441482E-2,1.4767012E-1,8.922116E-2,3.8726937E-2,-4.1186783E-2,-4.6688758E-2,8.566307E-3,-1.2362439E-2,2.3054747E-2,-3.0659864E-2,-1.0780961E-3,-3.2043647E-2,5.0292637E-2,-4.7501676E-2,9.962367E-3,1.2269898E-1,-3.8436443E-2,-3.1399324E-3,3.579193E-2,4.887649E-2,1.273292E-1,1.1726765E-4,-4.431611E-2,5.5284727E-2,-1.9470463E-2,4.398367E-2,-2.4189267E-2,7.4445046E-3,1.0483557E-1],"categories":[],"categories_nodes":[],"categories_segments":[],"categories_sizes":[],"default_left":[0,0,0,0,0,0,0,0,0,0,0,0,0,0,0,0,0,0,0,0,0,0,0,0,0,0,0,0,0,0,0,0,0,0,0,0,0,0,0,0,0,0,0,0,0,0,0,0,0,0,0,0,0,0,0,0,0,0,0,0,0,0,0,0,0,0,0,0,0,0,0,0,0,0,0,0,0,0,0,0,0,0,0,0,0,0,0,0,0,0,0,0,0,0,0,0,0,0,0,0,0],"id":4,"left_children":[1,3,5,7,9,11,13,15,17,19,21,23,25,27,29,-1,31,33,-1,35,37,39,41,43,45,47,49,51,53,55,57,-1,-1,-1,59,61,63,65,67,69,71,73,-1,75,77,79,81,-1,-1,83,85,87,89,91,-1,93,95,97,99,-1,-1,-1,-1,-1,-1,-1,-1,-1,-1,-1,-1,-1,-1,-1,-1,-1,-1,-1,-1,-1,-1,-1,-1,-1,-1,-1,-1,-1,-1,-1,-1,-1,-1,-1,-1,-1,-1,-1,-1,-1,-1],"loss_changes":[7.5473444E2,7.436426E1,9.034421E1,2.0322414E1,1.924054E1,3.1962128E1,2.9470512E1,4.476167E0,7.535076E0,8.225388E0,1.013324E1,2.1789562E1,3.604065E0,1.7215683E1,1.179723E1,0E0,1.7925482E0,5.7776356E0,0E0,8.930603E0,5.1905136E0,5.5049095E0,1.5020142E0,4.1213074E0,1.382322E1,7.6220703E-1,4.625099E0,2.0396137E1,8.908909E0,4.928549E0,5.3295445E0,0E0,0E0,0E0,7.0170956E0,3.5286531E0,8.85054E0,1.0135951E1,2.2062454E0,3.8409615E-1,1.1511796E0,1.7711182E0,0E0,4.4442325E0,1.957016E0,1.05849495E1,5.616743E0,0E0,0E0,7.8901753E0,2.108986E0,1.7799019E1,7.890312E0,8.427811E0,0E0,1.8191261E0,5.2935634E0,2.5672812E0,3.0227184E0,0E0,0E0,0E0,0E0,0E0,0E0,0E0,0E0,0E0,0E0,0E0,0E0,0E0,0E0,0E0,0E0,0E0,0E0,0E0,0E0,0E0,0E0,0E0,0E0,0E0,0E0,0E0,0E0,0E0,0E0,0E0,0E0,0E0,0E0,0E0,0E0,0E0,0E0,0E0,0E0,0E0,0E0],"parents":[2147483647,0,0,1,1,2,2,3,3,4,4,5,5,6,6,7,7,8,8,9,9,10,10,11,11,12,12,13,13,14,14,16,16,17,17,19,19,20,20,21,21,22,22,23,23,24,24,25,25,26,26,27,27,28,28,29,29,30,30,34,34,35,35,36,36,37,37,38,38,39,39,40,40,41,41,43,43,44,44,45,45,46,46,49,49,50,50,51,51,52,52,53,53,55,55,56,56,57,57,58,58],"right_children":[2,4,6,8,10,12,14,16,18,20,22,24,26,28,30,-1,32,34,-1,36,38,40,42,44,46,48,50,52,54,56,58,-1,-1,-1,60,62,64,66,68,70,72,74,-1,76,78,80,82,-1,-1,84,86,88,90,92,-1,94,96,98,100,-1,-1,-1,-1,-1,-1,-1,-1,-1,-1,-1,-1,-1,-1,-1,-1,-1,-1,-1,-1,-1,-1,-1,-1,-1,-1,-1,-1,-1,-1,-1,-1,-1,-1,-1,-1,-1,-1,-1,-1,-1,-1],"split_conditions":[1E0,4.3E0,7.52E-1,1.3E1,5.0666666E-1,4E0,4E0,-3.8333334E-2,4.6666667E-2,0E0,5.32E0,-5.9833336E-1,-4.4666666E-1,4.063E1,1.7816666E0,2.756742E-2,1.11E1,-1.3033333E0,-3.410768E-2,-9.6666664E-2,1.4E1,2E0,7.6E0,2.06E0,-5E-3,6.14E0,-3.6666665E-2,2E0,7.36E0,3.755E1,4E0,-5.3639382E-2,3.00422E-3,-4.344338E-3,3.81E1,7E0,1.2E1,5.49E0,1.61E1,3.474E1,1.2E1,3.98E1,4.866528E-2,2E0,1.8E1,3.535E1,4.3666667E-1,-5.7928365E-2,-8.396103E-3,4.225E1,7.2E-1,3.1666666E-2,1.6E0,1.65E0,-3.5321057E-2,7.14E0,1E0,6.81E0,3.084E1,1.0889496E-1,-1.14959655E-2,5.1105734E-2,-3.434371E-2,8.188225E-2,1.3898967E-1,5.9974577E-2,-3.424382E-2,9.944662E-2,1.9674944E-2,3.187432E-2,1.1469894E-1,2.8920291E-2,-1.9441482E-2,1.4767012E-1,8.922116E-2,3.8726937E-2,-4.1186783E-2,-4.6688758E-2,8.566307E-3,-1.2362439E-2,2.3054747E-2,-3.0659864E-2,-1.0780961E-3,-3.2043647E-2,5.0292637E-2,-4.7501676E-2,9.962367E-3,1.2269898E-1,-3.8436443E-2,-3.1399324E-3,3.579193E-2,4.887649E-2,1.273292E-1,1.1726765E-4,-4.431611E-2,5.5284727E-2,-1.9470463E-2,4.398367E-2,-2.4189267E-2,7.4445046E-3,1.0483557E-1],"split_indices":[1,2,13,8,13,1,1,15,15,15,2,13,13,3,13,0,8,13,0,15,8,10,2,2,15,2,15,11,2,3,9,0,0,0,3,11,11,2,7,3,11,4,0,10,7,4,13,0,0,3,13,15,13,13,0,3,10,2,4,0,0,0,0,0,0,0,0,0,0,0,0,0,0,0,0,0,0,0,0,0,0,0,0,0,0,0,0,0,0,0,0,0,0,0,0,0,0,0,0,0,0],"split_type":[0,0,0,0,0,0,0,0,0,0,0,0,0,0,0,0,0,0,0,0,0,0,0,0,0,0,0,0,0,0,0,0,0,0,0,0,0,0,0,0,0,0,0,0,0,0,0,0,0,0,0,0,0,0,0,0,0,0,0,0,0,0,0,0,0,0,0,0,0,0,0,0,0,0,0,0,0,0,0,0,0,0,0,0,0,0,0,0,0,0,0,0,0,0,0,0,0,0,0,0,0],"sum_hessian":[7.906681E2,1.5512375E2,6.355443E2,2.240782E1,1.3271593E2,4.8803607E2,1.4750826E2,1.1401299E1,1.1006519E1,6.673277E1,6.598316E1,2.8890054E2,1.9913553E2,9.7886955E1,4.9621292E1,1.9419818E0,9.459318E0,9.724441E0,1.2820786E0,4.3129833E1,2.360294E1,5.8072987E0,6.017586E1,9.1625626E1,1.9727493E2,9.016063E1,1.0897489E2,7.776887E1,2.0118088E1,4.2061977E1,7.5593147E0,7.924937E0,1.5343809E0,1.8245401E0,7.899901E0,2.9946353E0,4.0135197E1,1.3669788E1,9.93315E0,2.8419933E0,2.9653056E0,5.8406292E1,1.7695724E0,4.9764123E0,8.6649216E1,8.749223E1,1.097827E2,8.900556E1,1.1550661E0,1.641328E1,9.2561615E1,7.859063E0,6.9909805E1,1.8704449E1,1.4136374E0,3.0884447E1,1.117753E1,4.43545E0,3.1238647E0,6.6757393E0,1.2241614E0,1.7503507E0,1.2442846E0,2.1376411E1,1.8758787E1,1.0612345E1,3.0574439E0,8.348544E0,1.5846066E0,1.2547123E0,1.587281E0,1.3147911E0,1.6505145E0,5.1180286E1,7.226003E0,2.65989E0,2.3165226E0,8.53072E1,1.34202E0,5.443229E1,3.3059944E1,9.022077E1,1.9561922E1,1.3728385E1,2.6848962E0,9.1258286E1,1.3033285E0,6.1272182E0,1.731845E0,5.379869E1,1.6111116E1,1.3587947E1,5.116503E0,2.4936473E0,2.83908E1,2.0964205E0,9.081109E0,1.0123359E0,3.4231143E0,1.3467114E0,1.7771533E0],"tree_param":{"num_deleted":"0","num_feature":"16","num_nodes":"101","size_leaf_vector":"1"}},{"base_weights":[-1.822181E-2,1.745747E0,-4.8112816E-1,8.460874E-1,2.0852027E0,-6.8386954E-1,1.707459E-1,-6.7172104E-1,1.044287E0,9.993042E-1,2.1659942E0,-5.0445896E-1,-9.5012057E-1,4.3660823E-1,-3.6272272E-1,-4.8135526E-2,1.9607536E-2,1.1926476E0,-1.2686382E-1,-3.5244238E-2,1.3269085E0,2.2233534E0,1.3068043E0,-8.4258926E-1,-3.451714E-1,-1.0090396E0,-4.5704433E-1,1.9138053E-1,1.2662443E0,-5.6325895E-1,7.0475274E-1,1.3260695E0,2.0368595E-1,-4.2635825E-2,6.1817634E-1,3.3749714E-1,1.8933828E0,2.0686057E0,2.687699E0,1.8542231E0,-8.759113E-2,-2.891311E-1,-8.934463E-1,3.32779E-1,-4.2261627E-1,-1.0194087E0,6.3238866E-3,7.2656915E-2,-6.874605E-1,1.3450255E0,4.218926E-2,8.446763E-1,2.215124E0,-6.647734E-1,8.672166E-2,-4.3987617E-1,2.1040394E0,1.9105364E-2,7.737388E-2,-4.4588096E-2,6.5412015E-2,7.128172E-2,-3.0820364E-2,-3.628994E-2,4.9250912E-2,6.096391E-3,1.2125599E-1,1.0532391E-1,2.7749047E-2,1.5209733E-1,8.944717E-2,1.1397083E-1,-9.844327E-3,2.4597218E-2,-3.437451E-2,-3.2363098E-2,5.114296E-2,-3.9810203E-2,-5.1791556E-2,-2.1743968E-2,3.2574106E-2,-3.7284818E-2,-1.5822312E-2,-2.1860048E-2,-5.217129E-2,-4.4683244E-2,2.9336998E-2,9.0223975E-2,-3.5516948E-2,-1.0162072E-2,2.7729312E-2,5.7040937E-2,-2.1712987E-2,1.3530752E-1,4.6821635E-2,5.5444937E-2,-3.73387E-2,-4.4823863E-2,2.0320516E-2,1.2978046E-1,1.815459E-2],"categories":[],"categories_nodes":[],"categories_segments":[],"categories_sizes":[],"default_left":[0,0,0,0,0,0,0,0,0,0,0,0,0,0,0,0,0,0,0,0,0,0,0,0,0,0,0,0,0,0,0,0,0,0,0,0,0,0,0,0,0,0,0,0,0,0,0,0,0,0,0,0,0,0,0,0,0,0,0,0,0,0,0,0,0,0,0,0,0,0,0,0,0,0,0,0,0,0,0,0,0,0,0,0,0,0,0,0,0,0,0,0,0,0,0,0,0,0,0,0,0],"id":5,"left_children":[1,3,5,7,9,11,13,15,17,19,21,23,25,27,29,-1,-1,31,33,-1,35,37,39,41,43,45,47,49,51,53,55,57,59,-1,61,63,65,67,69,71,73,75,77,79,81,83,-1,-1,85,87,89,91,93,95,-1,97,99,-1,-1,-1,-1,-1,-1,-1,-1,-1,-1,-1,-1,-1,-1,-1,-1,-1,-1,-1,-1,-1,-1,-1,-1,-1,-1,-1,-1,-1,-1,-1,-1,-1,-1,-1,-1,-1,-1,-1,-1,-1,-1,-1,-1],"loss_changes":[6.4722986E2,4.855551E1,8.3093094E1,1.4786732E1,8.270996E0,2.2406265E1,2.1396317E1,2.2400758E0,7.4150505E0,6.570528E0,2.5084229E0,1.5240089E1,5.1091156E0,2.0182281E1,1.1175616E1,0E0,0E0,4.638508E0,3.5578487E0,0E0,4.300454E0,1.7375488E0,7.2617865E0,2.3212738E0,1.0521215E1,2.1358185E0,1.0811306E1,1.3482653E1,7.219734E0,1.1169737E1,1.4391239E1,6.2215233E0,7.9469824E0,0E0,4.213616E0,3.761971E0,4.7789497E0,3.4462585E0,1.5762177E0,6.312748E0,1.5817457E0,4.980621E0,3.307724E-1,5.379301E0,5.8656273E0,1.9070892E0,0E0,0E0,5.9298E0,9.758049E0,9.002494E0,7.0672617E0,1.4682236E0,6.9148846E0,0E0,2.4709039E0,2.442892E0,0E0,0E0,0E0,0E0,0E0,0E0,0E0,0E0,0E0,0E0,0E0,0E0,0E0,0E0,0E0,0E0,0E0,0E0,0E0,0E0,0E0,0E0,0E0,0E0,0E0,0E0,0E0,0E0,0E0,0E0,0E0,0E0,0E0,0E0,0E0,0E0,0E0,0E0,0E0,0E0,0E0,0E0,0E0,0E0],"parents":[2147483647,0,0,1,1,2,2,3,3,4,4,5,5,6,6,7,7,8,8,9,9,10,10,11,11,12,12,13,13,14,14,17,17,18,18,20,20,21,21,22,22,23,23,24,24,25,25,26,26,27,27,28,28,29,29,30,30,31,31,32,32,34,34,35,35,36,36,37,37,38,38,39,39,40,40,41,41,42,42,43,43,44,44,45,45,48,48,49,49,50,50,51,51,52,52,53,53,55,55,56,56],"right_children":[2,4,6,8,10,12,14,16,18,20,22,24,26,28,30,-1,-1,32,34,-1,36,38,40,42,44,46,48,50,52,54,56,58,60,-1,62,64,66,68,70,72,74,76,78,80,82,84,-1,-1,86,88,90,92,94,96,-1,98,100,-1,-1,-1,-1,-1,-1,-1,-1,-1,-1,-1,-1,-1,-1,-1,-1,-1,-1,-1,-1,-1,-1,-1,-1,-1,-1,-1,-1,-1,-1,-1,-1,-1,-1,-1,-1,-1,-1,-1,-1,-1,-1,-1,-1],"split_conditions":[1E0,-1.2166667E-1,7.52E-1,-1.3033333E0,6.67E0,4E0,4E0,4.505E0,1.6E1,1E1,6E0,-5.9833336E-1,4.444E1,4.505E0,1.8283334E0,-4.8135526E-2,1.9607536E-2,4.211E1,-7.866667E-1,-3.5244238E-2,7E-1,1.2783333E0,6.95E0,-1.1263333E1,6.69E0,7.2E-1,5.295E0,2E0,1.65E0,5.241E1,0E0,-5.32E0,1.0816667E1,-4.2635825E-2,1.31E1,1.2E1,6.61E0,1.2283334E0,3.542E1,3.755E1,1.41E1,-1.2348333E1,3.514E1,2E0,2.718E1,1E0,6.3238866E-3,7.2656915E-2,3.0666667E-1,1.31E1,4E0,1.405E0,1.2E1,-1.7143333E1,8.672166E-2,3.172E1,2.2483332E0,1.9105364E-2,7.737388E-2,-4.4588096E-2,6.5412015E-2,7.128172E-2,-3.0820364E-2,-3.628994E-2,4.9250912E-2,6.096391E-3,1.2125599E-1,1.0532391E-1,2.7749047E-2,1.5209733E-1,8.944717E-2,1.1397083E-1,-9.844327E-3,2.4597218E-2,-3.437451E-2,-3.2363098E-2,5.114296E-2,-3.9810203E-2,-5.1791556E-2,-2.1743968E-2,3.2574106E-2,-3.7284818E-2,-1.5822312E-2,-2.1860048E-2,-5.217129E-2,-4.4683244E-2,2.9336998E-2,9.0223975E-2,-3.5516948E-2,-1.0162072E-2,2.7729312E-2,5.7040937E-2,-2.1712987E-2,1.3530752E-1,4.6821635E-2,5.5444937E-2,-3.73387E-2,-4.4823863E-2,2.0320516E-2,1.2978046E-1,1.815459E-2],"split_indices":[1,13,13,13,5,1,1,14,11,11,10,13,3,14,13,0,0,3,13,0,13,13,5,14,5,13,14,11,13,3,6,14,14,0,7,11,5,13,3,3,7,14,4,1,4,11,0,0,13,7,10,13,11,14,0,4,13,0,0,0,0,0,0,0,0,0,0,0,0,0,0,0,0,0,0,0,0,0,0,0,0,0,0,0,0,0,0,0,0,0,0,0,0,0,0,0,0,0,0,0,0],"split_type":[0,0,0,0,0,0,0,0,0,0,0,0,0,0,0,0,0,0,0,0,0,0,0,0,0,0,0,0,0,0,0,0,0,0,0,0,0,0,0,0,0,0,0,0,0,0,0,0,0,0,0,0,0,0,0,0,0,0,0,0,0,0,0,0,0,0,0,0,0,0,0,0,0,0,0,0,0,0,0,0,0,0,0,0,0,0,0,0,0,0,0,0,0,0,0,0,0,0,0,0,0],"sum_hessian":[7.9060864E2,1.637698E2,6.268388E2,4.5821514E1,1.17948296E2,4.780957E2,1.487431E2,5.016458E0,4.0805058E1,9.093521E0,1.08854774E2,2.8735748E2,1.9073824E2,9.9391426E1,4.9351685E1,4.0137167E0,1.0027411E0,3.6200806E1,4.6042514E0,1.2805418E0,7.8129787E0,1.005541E2,8.300671E0,9.0646484E1,1.9671098E2,1.6944443E2,2.1293816E1,7.76654E1,2.172602E1,4.1944355E1,7.407332E0,3.1597132E1,4.603674E0,2.2589517E0,2.3452997E0,3.4255877E0,4.387391E0,7.951112E1,2.1042978E1,5.7238164E0,2.5768538E0,8.191089E0,8.245539E1,1.982926E1,1.7688173E2,1.6801245E2,1.4319651E0,1.7208817E0,1.9572935E1,7.975803E0,6.96896E1,1.6351543E1,5.3744783E0,4.0850227E1,1.0941291E0,4.4515595E0,2.9557724E0,6.520995E0,2.5076138E1,2.4080887E0,2.1955853E0,1.3243694E0,1.0209302E0,1.250784E0,2.1748037E0,1.2967232E0,3.0906682E0,7.718811E1,2.3230116E0,1.3383288E1,7.6596894E0,4.648813E0,1.0750039E0,1.4022032E0,1.1746505E0,6.832653E0,1.3584361E0,5.2911304E1,2.9544088E1,5.710319E0,1.411894E1,4.225978E1,1.3462195E2,7.4170427E0,1.6059541E2,1.7103683E1,2.46925E0,6.618397E0,1.3574055E0,4.7527817E1,2.2161781E1,1.3364855E1,2.9866884E0,3.076671E0,2.2978075E0,1.2517526E0,3.9598473E1,2.8529735E0,1.5985858E0,1.9221278E0,1.0336444E0],"tree_param":{"num_deleted":"0","num_feature":"16","num_nodes":"101","size_leaf_vector":"1"}},{"base_weights":[-1.53818745E-2,1.6053777E0,-4.7593883E-1,1.6534435E0,6.527451E-1,-2.4161401E-1,-8.613422E-1,5.209644E-1,1.691599E0,-2.5870195E-1,1.7120562E0,2.4253171E-2,-4.1011295E-1,-4.6796563E-1,-9.432757E-1,-4.2641732E-1,1.0370411E-1,1.7268419E0,7.417348E-1,4.195493E-2,-6.3206E-1,1.3038132E-1,-8.4269274E-4,-9.579238E-2,4.220566E-1,-2.7007708E-1,-5.333472E-1,-5.4062295E-1,5.0176032E-2,-5.893388E-1,-9.733645E-1,-4.6245698E-2,3.5154637E-2,1.5280032E0,2.0077581E0,-3.632924E-2,1.1525569E0,1.0674063E-2,-4.6627913E-2,1.1737281E0,-1.4759526E-1,1.147962E0,6.350438E-3,-3.4307757E-1,5.9979105E-1,-5.667046E-1,2.5904822E-1,-6.5078944E-1,2.720635E-1,-7.7458674E-1,3.0292252E-2,-9.949957E-1,-6.5620613E-1,7.8019604E-2,-3.2178484E-2,1.0239263E-1,3.8807403E-2,7.297433E-2,1.2291449E-2,1.3654266E-1,-3.2212895E-3,-1.4784581E-2,1.1940642E-2,1.0361107E-1,1.2659952E-2,1.87462E-2,-4.4211235E-2,7.3528434E-3,-2.3979548E-2,-2.388113E-2,6.824933E-2,-2.2173434E-2,-3.4870546E-2,4.586549E-2,-2.5405724E-2,-4.182866E-2,-5.800989E-3,7.755085E-2,-3.2230955E-2,-4.373409E-2,6.123371E-3,-3.994092E-2,-5.182391E-2,1.5727142E-2,-3.828613E-2],"categories":[],"categories_nodes":[],"categories_segments":[],"categories_sizes":[],"default_left":[0,0,0,0,0,0,0,0,0,0,0,0,0,0,0,0,0,0,0,0,0,0,0,0,0,0,0,0,0,0,0,0,0,0,0,0,0,0,0,0,0,0,0,0,0,0,0,0,0,0,0,0,0,0,0,0,0,0,0,0,0,0,0,0,0,0,0,0,0,0,0,0,0,0,0,0,0,0,0,0,0,0,0,0,0],"id":6,"left_children":[1,3,5,7,9,11,13,15,17,19,21,23,25,27,29,31,-1,33,35,-1,37,-1,-1,39,41,43,45,47,-1,49,51,-1,-1,53,55,-1,57,-1,-1,59,61,63,65,67,69,71,73,75,77,79,-1,81,83,-1,-1,-1,-1,-1,-1,-1,-1,-1,-1,-1,-1,-1,-1,-1,-1,-1,-1,-1,-1,-1,-1,-1,-1,-1,-1,-1,-1,-1,-1,-1,-1],"loss_changes":[5.868076E2,6.8860474E0,5.5074646E1,6.246277E0,1.0105576E1,1.712644E1,7.0060883E0,1.0921379E1,4.0462036E0,3.0912895E0,7.413787E0,7.1634874E0,3.8927422E0,5.0132465E0,1.4524536E0,3.502965E0,0E0,5.460541E0,5.3289332E0,0E0,1.5286522E0,0E0,0E0,7.7623158E0,1.048278E1,7.2874537E0,3.4084854E0,3.8028955E0,0E0,4.330834E0,5.3952026E-1,0E0,0E0,7.586624E0,1.378128E0,0E0,1.3679991E0,0E0,0E0,9.113742E0,6.4662294E0,9.939156E0,7.917102E0,6.9972305E0,8.070399E0,1.603138E0,3.3299735E0,3.4754753E0,7.494541E0,1.5024185E0,0E0,4.8043823E-1,1.7329063E0,0E0,0E0,0E0,0E0,0E0,0E0,0E0,0E0,0E0,0E0,0E0,0E0,0E0,0E0,0E0,0E0,0E0,0E0,0E0,0E0,0E0,0E0,0E0,0E0,0E0,0E0,0E0,0E0,0E0,0E0,0E0,0E0],"parents":[2147483647,0,0,1,1,2,2,3,3,4,4,5,5,6,6,7,7,8,8,9,9,10,10,11,11,12,12,13,13,14,14,15,15,17,17,18,18,20,20,23,23,24,24,25,25,26,26,27,27,29,29,30,30,33,33,34,34,36,36,39,39,40,40,41,41,42,42,43,43,44,44,45,45,46,46,47,47,48,48,49,49,51,51,52,52],"right_children":[2,4,6,8,10,12,14,16,18,20,22,24,26,28,30,32,-1,34,36,-1,38,-1,-1,40,42,44,46,48,-1,50,52,-1,-1,54,56,-1,58,-1,-1,60,62,64,66,68,70,72,74,76,78,80,-1,82,84,-1,-1,-1,-1,-1,-1,-1,-1,-1,-1,-1,-1,-1,-1,-1,-1,-1,-1,-1,-1,-1,-1,-1,-1,-1,-1,-1,-1,-1,-1,-1,-1],"split_conditions":[1E0,5.666667E-2,4E0,-9.6666664E-2,-1.1683333E0,-1.1666667E-2,-3.6666665E-2,6.75E0,4.57E1,-1.499E1,1.3E1,3.793E1,3.204E1,1.802E1,-1.0278334E1,5E0,1.0370411E-1,1.4E1,4.706E1,4.195493E-2,1.12E1,1.3038132E-1,-8.4269274E-4,-1.08333334E-1,-5.666667E-2,3.151E1,1.8E1,1E0,5.0176032E-2,-1.0793333E1,1.61E1,-4.6245698E-2,3.5154637E-2,6.93E0,7E0,-3.632924E-2,1.31E1,1.0674063E-2,-4.6627913E-2,-8.05E-1,4.0716667E0,6E0,1.3E1,5E-3,-1.02E0,1.2E1,-9.0166664E-1,-4.5E-2,-3.2316666E0,7E0,3.0292252E-2,-1.3333334E-2,6.71E0,7.8019604E-2,-3.2178484E-2,1.0239263E-1,3.8807403E-2,7.297433E-2,1.2291449E-2,1.3654266E-1,-3.2212895E-3,-1.4784581E-2,1.1940642E-2,1.0361107E-1,1.2659952E-2,1.87462E-2,-4.4211235E-2,7.3528434E-3,-2.3979548E-2,-2.388113E-2,6.824933E-2,-2.2173434E-2,-3.4870546E-2,4.586549E-2,-2.5405724E-2,-4.182866E-2,-5.800989E-3,7.755085E-2,-3.2230955E-2,-4.373409E-2,6.123371E-3,-3.994092E-2,-5.182391E-2,1.5727142E-2,-3.828613E-2],"split_indices":[1,15,1,15,14,15,15,5,4,14,8,4,4,14,14,0,0,8,4,0,7,0,0,15,15,4,8,12,0,14,7,0,0,5,9,0,7,0,0,14,14,11,11,15,14,11,14,15,14,9,0,15,5,0,0,0,0,0,0,0,0,0,0,0,0,0,0,0,0,0,0,0,0,0,0,0,0,0,0,0,0,0,0,0,0],"split_type":[0,0,0,0,0,0,0,0,0,0,0,0,0,0,0,0,0,0,0,0,0,0,0,0,0,0,0,0,0,0,0,0,0,0,0,0,0,0,0,0,0,0,0,0,0,0,0,0,0,0,0,0,0,0,0,0,0,0,0,0,0,0,0,0,0,0,0,0,0,0,0,0,0,0,0,0,0,0,0,0,0,0,0,0,0],"sum_hessian":[7.841053E2,1.72958E2,6.1114734E2,1.6395012E2,9.007877E0,3.8107877E2,2.3006856E2,5.821386E0,1.5812874E2,5.248109E0,3.759769E0,1.4815982E2,2.3291893E2,4.0815937E1,1.8925262E2,4.066387E0,1.754999E0,1.5168283E2,6.4459004E0,1.0153106E0,4.232798E0,2.1419806E0,1.6177881E0,1.1439724E2,3.3762577E1,1.10521095E2,1.2239784E2,3.9498238E1,1.3176974E0,1.6441107E1,1.7281152E2,2.9469295E0,1.1194574E0,9.258703E1,5.9095802E1,1.2411815E0,5.204719E0,1.185793E0,3.0470052E0,3.635886E0,1.1076136E2,1.1652875E1,2.2109703E1,1.0252284E2,7.9982557E0,1.1772673E2,4.6711106E0,3.4958527E1,4.5397105E0,1.4539467E1,1.9016398E0,1.59777E2,1.3034532E1,9.150371E1,1.0833238E0,5.659078E1,2.5050268E0,3.4330158E0,1.7717034E0,1.0764892E0,2.5593967E0,8.024218E1,3.0519178E1,5.084656E0,6.568219E0,1.6047354E1,6.0623507E0,2.2317476E1,8.020537E1,3.47757E0,4.5206857E0,6.2856052E1,5.4870678E1,2.4086545E0,2.2624562E0,2.5526154E1,9.432375E0,1.6064317E0,2.933279E0,1.3102414E1,1.4370531E0,3.1424082E1,1.283529E2,1.1316389E0,1.1902893E1],"tree_param":{"num_deleted":"0","num_feature":"16","num_nodes":"85","size_leaf_vector":"1"}},{"base_weights":[-2.100032E-3,1.4884408E0,-4.417062E-1,1.8988156E-1,1.6941562E0,-2.1306199E-1,-8.294763E-1,-3.9798686E-1,7.735432E-1,1.7157696E0,-3.33145E-2,-3.979066E-1,3.262032E-1,-1.0062745E0,-5.15753E-1,-8.9617205E-1,1.1103434E-1,1.5046577E0,2.334409E-1,1.351452E0,1.9084874E0,-1.7195801E-1,-6.4816153E-1,6.461373E-2,1.2278656E0,-1.731787E-1,-1.0179485E0,7.701073E-2,-6.604948E-1,-5.0520595E-2,-5.843031E-3,6.119701E-2,-3.7003854E-1,5.123572E-3,1.9482734E0,8.445611E-2,-4.7754738E-1,3.144011E-2,1.6516248E0,2.120243E0,1.6116755E0,-5.4063845E-1,1.3219343E-1,-8.0606365E-1,-5.2802855E-1,1.257021E-2,7.739513E-2,1.6736306E0,1.9796425E-1,-3.0971328E-2,1.9332772E-2,-5.1178783E-2,-9.783847E-3,-2.994526E-1,8.60475E-1,-7.37514E-1,4.6458626E-1,-3.63183E-2,1.9057484E-2,1.20989464E-1,1.5305149E-2,-3.9623898E-2,1.1290162E-2,2.5452549E-2,-4.8611335E-2,9.0183675E-2,3.9273668E-2,1.0918911E-1,3.7737098E-2,5.275907E-2,9.484441E-2,7.335214E-2,-3.0648235E-2,-4.4465805E-3,2.625452E-2,1.9852247E-3,-4.5137238E-2,-3.141953E-2,5.405994E-3,-2.5628677E-3,6.483096E-2,1.2635748E-2,9.6032955E-2,7.448064E-2,-3.1440716E-2,3.502443E-2,-3.285318E-2,-1.8899142E-3,7.895356E-2,1.0561915E-2,-3.8045134E-2,-3.1488866E-2,4.8268225E-2],"categories":[],"categories_nodes":[],"categories_segments":[],"categories_sizes":[],"default_left":[0,0,0,0,0,0,0,0,0,0,0,0,0,0,0,0,0,0,0,0,0,0,0,0,0,0,0,0,0,0,0,0,0,0,0,0,0,0,0,0,0,0,0,0,0,0,0,0,0,0,0,0,0,0,0,0,0,0,0,0,0,0,0,0,0,0,0,0,0,0,0,0,0,0,0,0,0,0,0,0,0,0,0,0,0,0,0,0,0,0,0,0,0],"id":7,"left_children":[1,3,5,7,9,11,13,15,17,19,-1,21,23,25,27,29,31,33,35,37,39,41,43,45,47,49,51,53,55,-1,-1,-1,57,-1,59,-1,61,63,65,67,69,71,73,75,77,79,-1,81,83,-1,-1,-1,-1,85,87,89,91,-1,-1,-1,-1,-1,-1,-1,-1,-1,-1,-1,-1,-1,-1,-1,-1,-1,-1,-1,-1,-1,-1,-1,-1,-1,-1,-1,-1,-1,-1,-1,-1,-1,-1,-1,-1],"loss_changes":[5.1726416E2,4.7707733E1,5.3872566E1,9.13074E0,9.055084E0,3.8490593E1,1.2003876E1,3.5156002E0,4.8780513E0,8.22995E0,0E0,1.6119747E1,2.3221283E1,1.217865E0,7.208784E0,4.9784327E-1,4.4966145E0,3.1859932E0,9.914393E0,2.2410355E1,2.7589111E0,1.713974E1,2.1511269E0,5.9730945E0,9.842037E0,1.0354369E0,4.5288086E-1,5.351091E0,6.1621456E0,0E0,0E0,0E0,1.8938961E0,0E0,2.4178782E0,0E0,1.6612425E0,6.0182934E0,4.663376E0,3.0526428E0,5.154152E0,1.0919106E1,7.3626957E0,4.6798515E0,5.1784077E0,6.2956553E0,0E0,4.896099E0,9.296344E0,0E0,0E0,0E0,0E0,4.896548E0,3.8441982E0,1.5640755E0,3.3023295E0,0E0,0E0,0E0,0E0,0E0,0E0,0E0,0E0,0E0,0E0,0E0,0E0,0E0,0E0,0E0,0E0,0E0,0E0,0E0,0E0,0E0,0E0,0E0,0E0,0E0,0E0,0E0,0E0,0E0,0E0,0E0,0E0,0E0,0E0,0E0,0E0],"parents":[2147483647,0,0,1,1,2,2,3,3,4,4,5,5,6,6,7,7,8,8,9,9,11,11,12,12,13,13,14,14,15,15,16,16,17,17,18,18,19,19,20,20,21,21,22,22,23,23,24,24,25,25,26,26,27,27,28,28,32,32,34,34,36,36,37,37,38,38,39,39,40,40,41,41,42,42,43,43,44,44,45,45,47,47,48,48,53,53,54,54,55,55,56,56],"right_children":[2,4,6,8,10,12,14,16,18,20,-1,22,24,26,28,30,32,34,36,38,40,42,44,46,48,50,52,54,56,-1,-1,-1,58,-1,60,-1,62,64,66,68,70,72,74,76,78,80,-1,82,84,-1,-1,-1,-1,86,88,90,92,-1,-1,-1,-1,-1,-1,-1,-1,-1,-1,-1,-1,-1,-1,-1,-1,-1,-1,-1,-1,-1,-1,-1,-1,-1,-1,-1,-1,-1,-1,-1,-1,-1,-1,-1,-1],"split_conditions":[1E0,4.29E0,4E0,1.3E1,1.08333334E-1,6.16E0,5.65E0,1.8666667E-1,3E0,5.57E0,-3.33145E-2,5E-3,4.18E0,-1.0333333E-1,-3.8333334E-2,8E0,-3.8333334E-2,3.188E1,2.787E1,-5.6033335E0,-1.6666668E-2,4.83E0,4.64E0,1.0166667E-1,4.365E1,1.9683334E0,2.985E1,-4.5E-2,7.31E0,-5.0520595E-2,-5.843031E-3,6.119701E-2,8.393333E0,5.123572E-3,-1.6666668E-2,8.445611E-2,4E0,2.796E1,5E0,1.7E1,7E0,-2.3613333E1,3.535E1,2.276E1,1.5E1,4.138E1,7.739513E-2,-7.1666665E-2,2.877E1,-3.0971328E-2,1.9332772E-2,-5.1178783E-2,-9.783847E-3,-8.5E-2,3.628E1,5.66E0,2E0,-3.63183E-2,1.9057484E-2,1.20989464E-1,1.5305149E-2,-3.9623898E-2,1.1290162E-2,2.5452549E-2,-4.8611335E-2,9.0183675E-2,3.9273668E-2,1.0918911E-1,3.7737098E-2,5.275907E-2,9.484441E-2,7.335214E-2,-3.0648235E-2,-4.4465805E-3,2.625452E-2,1.9852247E-3,-4.5137238E-2,-3.141953E-2,5.405994E-3,-2.5628677E-3,6.483096E-2,1.2635748E-2,9.6032955E-2,7.448064E-2,-3.1440716E-2,3.502443E-2,-3.285318E-2,-1.8899142E-3,7.895356E-2,1.0561915E-2,-3.8045134E-2,-3.1488866E-2,4.8268225E-2],"split_indices":[1,2,1,8,15,2,2,14,9,2,0,15,14,15,15,0,15,4,4,14,15,2,2,15,3,14,14,15,2,0,0,0,14,0,15,0,0,3,10,8,11,14,4,3,11,3,0,15,4,0,0,0,0,15,4,2,10,0,0,0,0,0,0,0,0,0,0,0,0,0,0,0,0,0,0,0,0,0,0,0,0,0,0,0,0,0,0,0,0,0,0,0,0],"split_type":[0,0,0,0,0,0,0,0,0,0,0,0,0,0,0,0,0,0,0,0,0,0,0,0,0,0,0,0,0,0,0,0,0,0,0,0,0,0,0,0,0,0,0,0,0,0,0,0,0,0,0,0,0,0,0,0,0,0,0,0,0,0,0,0,0,0,0,0,0,0,0,0,0,0,0,0,0,0,0,0,0,0,0,0,0,0,0,0,0,0,0,0,0],"sum_hessian":[7.8741046E2,1.7879555E2,6.086149E2,2.4713968E1,1.5408157E2,3.838384E2,2.247765E2,1.2471102E1,1.2242867E1,1.5295416E2,1.1274128E0,2.860506E2,9.7787796E1,1.4234865E2,8.2427864E1,5.918255E0,6.552847E0,4.4428654E0,7.800002E0,5.568974E1,9.726442E1,1.5121222E2,1.3483838E2,7.662817E1,2.1159632E1,2.1859617E0,1.4016269E2,1.6269014E1,6.6158844E1,4.90298E0,1.0152752E0,1.5116448E0,5.041202E0,1.3636413E0,3.079224E0,2.1081095E0,5.6918926E0,1.0522355E1,4.5167385E1,5.3180367E1,4.4084057E1,6.800351E1,8.320872E1,5.5793694E1,7.9044685E1,7.5004974E1,1.6231925E0,1.4331561E1,6.828071E0,1.1571457E0,1.0288159E0,1.3896686E2,1.1958292E0,1.140606E1,4.862955E0,6.224242E1,3.916424E0,3.4416797E0,1.5995224E0,2.0244215E0,1.0548027E0,3.8439963E0,1.8478963E0,7.463526E0,3.0588288E0,3.7501736E1,7.6656485E0,5.0243217E1,2.9371486E0,1.6530367E1,2.7553688E1,1.6940904E0,6.630942E1,5.3738167E1,2.9470549E1,5.7840466E0,5.0009647E1,6.828404E1,1.0760644E1,7.236779E1,2.63718E0,2.4221714E0,1.190939E1,2.3519661E0,4.4761047E0,2.7520523E0,8.654008E0,2.5823348E0,2.28062E0,1.3042494E0,6.093817E1,1.1486508E0,2.7677734E0],"tree_param":{"num_deleted":"0","num_feature":"16","num_nodes":"93","size_leaf_vector":"1"}},{"base_weights":[-4.7785114E-4,1.3495358E0,-4.2401424E-1,2.5801238E-1,1.5403818E0,-6.068374E-1,3.2806265E-1,-3.4322354E-1,9.226145E-1,1.201773E0,1.8034176E0,-4.0509143E-1,-9.3083686E-1,5.6522125E-1,-2.3099908E-1,5.8338857E-1,-5.956434E-1,1.170527E0,-2.7260336E-1,1.2948264E0,-1.7866117E-1,5.2409106E-1,1.8661088E0,-6.4938754E-1,-1.9341278E-1,-1.1120778E0,-7.972972E-1,3.6235437E-1,1.1891601E0,-5.405004E-1,8.465975E-1,-3.1962313E-2,6.3375555E-2,-5.2390028E-2,-6.2361322E-2,3.5853106E-1,1.765153E0,1.5095837E-2,-3.4429256E-2,8.3315015E-1,1.5562993E0,3.3829045E-2,-5.7405263E-1,-3.7625045E-2,1.0990708E0,2.3382778E0,1.6158711E0,-6.855142E-1,9.44791E-2,-2.609813E-1,5.4509526E-1,-5.6244392E-2,-7.924671E-3,-9.020978E-1,-2.1059926E-1,4.5668823E-1,-6.6057444E-1,6.8573654E-1,1.8562151E0,-7.982335E-1,2.628613E-1,2.6132029E-2,1.6225232E0,-3.2533318E-2,2.6012484E-2,8.600247E-2,-1.2927708E-2,-1.2099335E-2,1.1258938E-1,-1.4894324E-2,5.2974917E-2,8.438416E-2,2.3730423E-3,-2.1689297E-3,-4.2883027E-2,1.0441625E-2,8.315706E-2,5.7968977E-3,1.2261679E-1,-2.1620767E-2,8.8276535E-2,-4.0314454E-3,-3.6526747E-2,-2.8233442E-2,6.2049944E-2,-1.9200342E-2,1.2063368E-2,-7.5053624E-3,8.8828504E-2,-4.6026852E-2,1.4909021E-2,6.964704E-2,-3.3785284E-2,3.317229E-2,-5.5504097E-3,-4.6320777E-2,1.1895505E-3,4.9028303E-2,-1.7612714E-2,1.1573006E-1,1.1202557E-2,4.3913007E-2,-4.835044E-2,-3.9962478E-2,3.943325E-2,4.8369657E-2,-2.9760106E-2,1.105685E-1,-6.152113E-3],"categories":[],"categories_nodes":[],"categories_segments":[],"categories_sizes":[],"default_left":[0,0,0,0,0,0,0,0,0,0,0,0,0,0,0,0,0,0,0,0,0,0,0,0,0,0,0,0,0,0,0,0,0,0,0,0,0,0,0,0,0,0,0,0,0,0,0,0,0,0,0,0,0,0,0,0,0,0,0,0,0,0,0,0,0,0,0,0,0,0,0,0,0,0,0,0,0,0,0,0,0,0,0,0,0,0,0,0,0,0,0,0,0,0,0,0,0,0,0,0,0,0,0,0,0,0,0,0,0],"id":8,"left_children":[1,3,5,7,9,11,13,15,17,19,21,23,25,27,29,31,33,35,37,39,41,43,45,47,49,51,53,55,57,59,61,-1,-1,-1,63,65,67,-1,-1,69,71,-1,73,-1,75,77,79,81,83,85,87,-1,-1,89,91,93,95,97,99,101,103,105,107,-1,-1,-1,-1,-1,-1,-1,-1,-1,-1,-1,-1,-1,-1,-1,-1,-1,-1,-1,-1,-1,-1,-1,-1,-1,-1,-1,-1,-1,-1,-1,-1,-1,-1,-1,-1,-1,-1,-1,-1,-1,-1,-1,-1,-1,-1],"loss_changes":[4.4766675E2,3.8550934E1,8.2142395E1,1.1915238E1,1.1989258E1,3.0983505E1,1.5668629E1,4.0825043E0,4.484603E0,9.542564E0,6.036255E0,1.5255596E1,3.5505524E0,1.0021269E1,1.2336208E1,4.0923743E0,3.0801105E0,5.079977E0,9.7889936E-1,6.9157333E0,2.233512E0,4.8465176E0,6.026245E0,3.7640762E0,8.165243E0,7.4082947E-1,6.5176086E0,6.4536505E0,5.3838253E0,6.0651836E0,5.2648826E0,0E0,0E0,0E0,2.7544813E0,5.70137E0,6.967251E0,0E0,0E0,7.1638927E0,8.301399E0,0E0,6.057986E-1,0E0,1.7526636E0,6.434662E0,1.8381744E1,3.5194778E0,6.183293E0,9.236274E0,1.2082148E1,0E0,0E0,2.316246E0,1.4245032E1,6.9942865E0,1.0757251E0,4.287946E0,5.4217453E0,6.9775257E0,4.886483E0,3.539985E0,4.6593075E0,0E0,0E0,0E0,0E0,0E0,0E0,0E0,0E0,0E0,0E0,0E0,0E0,0E0,0E0,0E0,0E0,0E0,0E0,0E0,0E0,0E0,0E0,0E0,0E0,0E0,0E0,0E0,0E0,0E0,0E0,0E0,0E0,0E0,0E0,0E0,0E0,0E0,0E0,0E0,0E0,0E0,0E0,0E0,0E0,0E0,0E0],"parents":[2147483647,0,0,1,1,2,2,3,3,4,4,5,5,6,6,7,7,8,8,9,9,10,10,11,11,12,12,13,13,14,14,15,15,16,16,17,17,18,18,19,19,20,20,21,21,22,22,23,23,24,24,25,25,26,26,27,27,28,28,29,29,30,30,34,34,35,35,36,36,39,39,40,40,42,42,44,44,45,45,46,46,47,47,48,48,49,49,50,50,53,53,54,54,55,55,56,56,57,57,58,58,59,59,60,60,61,61,62,62],"right_children":[2,4,6,8,10,12,14,16,18,20,22,24,26,28,30,32,34,36,38,40,42,44,46,48,50,52,54,56,58,60,62,-1,-1,-1,64,66,68,-1,-1,70,72,-1,74,-1,76,78,80,82,84,86,88,-1,-1,90,92,94,96,98,100,102,104,106,108,-1,-1,-1,-1,-1,-1,-1,-1,-1,-1,-1,-1,-1,-1,-1,-1,-1,-1,-1,-1,-1,-1,-1,-1,-1,-1,-1,-1,-1,-1,-1,-1,-1,-1,-1,-1,-1,-1,-1,-1,-1,-1,-1,-1,-1,-1],"split_conditions":[1E0,4.35E0,9.25E-1,1.3E1,4.3666667E-1,4E0,4E0,6.73E0,4.18E0,4.328E1,6.64E0,-2.1E-1,-4.4666666E-1,4.505E0,1.8283334E0,3.85E0,6.8E0,3.8E0,-5.733333E-1,7E0,-7.45E0,1.2E1,2.92E1,4.731E1,5E-1,6.03E0,4.225E1,1.7E1,1.65E0,4.035E1,0E0,-3.1962313E-2,6.3375555E-2,-5.2390028E-2,-9.4166666E-1,1.22E1,6.7E0,1.5095837E-2,-3.4429256E-2,6.74E0,1.7E1,3.3829045E-2,5.2E0,-3.7625045E-2,6.65E0,5.33E0,-5.6033335E0,-1.1263333E1,-6.2666667E-1,6.233333E0,3.556E1,-5.6244392E-2,-7.924671E-3,7.36E0,6.0983334E0,6.86E0,6.67E0,1.405E0,6.81E0,-1.7143333E1,3E0,6.76E0,1.3E1,-3.2533318E-2,2.6012484E-2,8.600247E-2,-1.2927708E-2,-1.2099335E-2,1.1258938E-1,-1.4894324E-2,5.2974917E-2,8.438416E-2,2.3730423E-3,-2.1689297E-3,-4.2883027E-2,1.0441625E-2,8.315706E-2,5.7968977E-3,1.2261679E-1,-2.1620767E-2,8.8276535E-2,-4.0314454E-3,-3.6526747E-2,-2.8233442E-2,6.2049944E-2,-1.9200342E-2,1.2063368E-2,-7.5053624E-3,8.8828504E-2,-4.6026852E-2,1.4909021E-2,6.964704E-2,-3.3785284E-2,3.317229E-2,-5.5504097E-3,-4.6320777E-2,1.1895505E-3,4.9028303E-2,-1.7612714E-2,1.1573006E-1,1.1202557E-2,4.3913007E-2,-4.835044E-2,-3.9962478E-2,3.943325E-2,4.8369657E-2,-2.9760106E-2,1.105685E-1,-6.152113E-3],"split_indices":[1,2,13,8,13,1,1,5,2,4,5,13,13,14,13,2,5,2,13,11,14,11,3,4,6,2,3,8,13,3,6,0,0,0,13,7,5,0,0,5,7,0,2,0,2,2,14,14,13,14,4,0,0,2,14,5,2,13,2,14,11,5,11,0,0,0,0,0,0,0,0,0,0,0,0,0,0,0,0,0,0,0,0,0,0,0,0,0,0,0,0,0,0,0,0,0,0,0,0,0,0,0,0,0,0,0,0,0,0],"split_type":[0,0,0,0,0,0,0,0,0,0,0,0,0,0,0,0,0,0,0,0,0,0,0,0,0,0,0,0,0,0,0,0,0,0,0,0,0,0,0,0,0,0,0,0,0,0,0,0,0,0,0,0,0,0,0,0,0,0,0,0,0,0,0,0,0,0,0,0,0,0,0,0,0,0,0,0,0,0,0,0,0,0,0,0,0,0,0,0,0,0,0,0,0,0,0,0,0,0,0,0,0,0,0,0,0,0,0,0,0],"sum_hessian":[7.809347E2,1.8597064E2,5.9496405E2,2.8026722E1,1.5794392E2,4.7877197E2,1.1619207E2,1.4968739E1,1.3057984E1,7.148691E1,8.645701E1,2.9643805E2,1.8233391E2,8.157588E1,3.4616184E1,2.9239564E0,1.2044782E1,1.0831889E1,2.2260952E0,6.703049E1,4.4564223E0,4.4760046E0,8.1981E1,1.3665648E2,1.5978159E2,7.4243034E1,1.08090866E2,6.275314E1,1.8822746E1,2.727953E1,7.3366547E0,1.0726173E0,1.8513391E0,5.9960546E0,6.048727E0,5.2566223E0,5.5752664E0,1.0500536E0,1.1760417E0,2.5750267E1,4.128022E1,1.1840734E0,3.2723489E0,1.2940845E0,3.1819198E0,2.5507376E1,5.6473625E1,1.3040181E2,6.254664E0,1.4698047E2,1.2801114E1,7.308166E1,1.1613823E0,9.125295E1,1.6837914E1,5.7961514E1,4.791625E0,1.1882832E1,6.9399147E0,2.0658339E1,6.62119E0,4.068399E0,3.2682552E0,2.951535E0,3.097192E0,1.0819852E0,4.1746373E0,1.18606E0,4.3892064E0,4.241235E0,2.1509033E1,3.786459E1,3.4156313E0,1.5412972E0,1.7310518E0,1.7656018E0,1.4163182E0,1.3436562E0,2.4163721E1,3.716681E0,5.2756947E1,9.22661E0,1.211752E2,4.293673E0,1.9609909E0,1.182505E2,2.8729969E1,8.743352E0,4.057762E0,9.010184E1,1.1511159E0,3.3372486E0,1.3500665E1,4.2363777E1,1.5597737E1,3.1963289E0,1.5952964E0,9.297348E0,2.5854836E0,5.09179E0,1.8481246E0,1.5050007E0,1.9153337E1,2.0202596E0,4.60093E0,1.3962517E0,2.6721475E0,2.2443116E0,1.0239437E0],"tree_param":{"num_deleted":"0","num_feature":"16","num_nodes":"109","size_leaf_vector":"1"}},{"base_weights":[1.832659E-2,1.277431E0,-3.8819554E-1,5.675E-1,1.5279359E0,-5.5958885E-1,3.3251292E-1,-5.8373636E-1,7.238383E-1,4.216931E-1,1.5594939E0,-3.6924008E-1,-8.7808615E-1,9.458824E-1,1.0790972E-1,-4.788391E-2,1.53986635E-2,8.5928106E-1,-2.8808072E-1,-6.2411004E-1,7.600745E-2,1.5924883E0,3.317747E-1,-7.5590956E-1,-2.1896431E-1,-5.5177916E-2,-7.163772E-1,6.3572186E-1,1.8291903E0,3.4538645E-1,-4.4106355E-1,1.6638733E-1,1.1741123E0,3.0689651E-2,-7.766463E-1,-7.6500564E-3,-3.8044818E-2,1.7564507E0,1.2762197E0,-3.794582E-2,9.017906E-1,-1.8269549E-3,-8.05106E-1,1.263531E-1,-4.5445532E-1,-8.084829E-1,3.8758457E-2,3.51012E-1,1.7146939E0,1.1899798E-1,5.2806515E-1,5.801441E-1,-3.6370906E-1,-7.1789795E-1,4.8135084E-1,2.8279195E-2,-4.8061367E-2,3.823808E-2,9.806841E-2,-4.5241963E-2,-1.0941522E-2,5.4551847E-2,9.273919E-2,6.6724986E-2,-7.622776E-4,6.7052595E-2,3.890425E-3,7.1682274E-2,-4.4929903E-2,-4.1286144E-2,1.5136383E-2,3.2029364E-3,7.8259654E-2,-7.0744165E-4,-2.7103705E-2,1.6092017E-2,-4.255109E-2,5.7393957E-2,-3.7694193E-2,-1.0493088E-3,6.854675E-2,1.9718643E-2,1.11222826E-1,-1.5914343E-2,6.289685E-2,5.6630634E-3,4.971255E-2,-3.0735318E-2,4.8633453E-2,-4.6034165E-2,1.0347756E-2,-1.5499266E-2,8.044424E-2],"categories":[],"categories_nodes":[],"categories_segments":[],"categories_sizes":[],"default_left":[0,0,0,0,0,0,0,0,0,0,0,0,0,0,0,0,0,0,0,0,0,0,0,0,0,0,0,0,0,0,0,0,0,0,0,0,0,0,0,0,0,0,0,0,0,0,0,0,0,0,0,0,0,0,0,0,0,0,0,0,0,0,0,0,0,0,0,0,0,0,0,0,0,0,0,0,0,0,0,0,0,0,0,0,0,0,0,0,0,0,0,0,0],"id":9,"left_children":[1,3,5,7,9,11,13,15,17,19,21,23,25,27,29,-1,-1,31,33,35,-1,37,39,41,43,-1,45,47,49,51,53,55,57,-1,59,-1,-1,61,63,-1,65,67,69,71,73,75,77,79,81,-1,83,85,87,89,91,-1,-1,-1,-1,-1,-1,-1,-1,-1,-1,-1,-1,-1,-1,-1,-1,-1,-1,-1,-1,-1,-1,-1,-1,-1,-1,-1,-1,-1,-1,-1,-1,-1,-1,-1,-1,-1,-1],"loss_changes":[3.9869293E2,3.2941223E1,7.292311E1,9.633057E0,4.2274475E0,2.853891E1,1.5569807E1,2.5197656E0,6.483967E0,6.981739E0,4.9676514E0,1.7250282E1,5.676468E0,7.155348E0,1.1154936E1,0E0,0E0,8.61377E0,3.1734736E0,1.02635264E-1,0E0,4.5963745E0,3.6773067E0,3.0953064E0,1.7723524E1,0E0,7.413616E0,6.7720604E0,4.0160217E0,1.011117E1,6.965279E0,6.747117E0,7.394787E0,0E0,1.1743307E-1,0E0,0E0,3.4847412E0,3.6842346E0,0E0,1.2054E0,9.159624E0,2.0397263E0,7.8648405E0,4.9836636E0,4.8247604E0,1.1848398E1,7.7118025E0,2.3225498E0,0E0,2.5460293E0,8.600397E0,5.765792E0,4.0053673E0,6.3722854E0,0E0,0E0,0E0,0E0,0E0,0E0,0E0,0E0,0E0,0E0,0E0,0E0,0E0,0E0,0E0,0E0,0E0,0E0,0E0,0E0,0E0,0E0,0E0,0E0,0E0,0E0,0E0,0E0,0E0,0E0,0E0,0E0,0E0,0E0,0E0,0E0,0E0,0E0],"parents":[2147483647,0,0,1,1,2,2,3,3,4,4,5,5,6,6,7,7,8,8,9,9,10,10,11,11,12,12,13,13,14,14,17,17,18,18,19,19,21,21,22,22,23,23,24,24,26,26,27,27,28,28,29,29,30,30,31,31,32,32,34,34,37,37,38,38,40,40,41,41,42,42,43,43,44,44,45,45,46,46,47,47,48,48,50,50,51,51,52,52,53,53,54,54],"right_children":[2,4,6,8,10,12,14,16,18,20,22,24,26,28,30,-1,-1,32,34,36,-1,38,40,42,44,-1,46,48,50,52,54,56,58,-1,60,-1,-1,62,64,-1,66,68,70,72,74,76,78,80,82,-1,84,86,88,90,92,-1,-1,-1,-1,-1,-1,-1,-1,-1,-1,-1,-1,-1,-1,-1,-1,-1,-1,-1,-1,-1,-1,-1,-1,-1,-1,-1,-1,-1,-1,-1,-1,-1,-1,-1,-1,-1,-1],"split_conditions":[1E0,-1.3833334E-1,9.683333E-1,-1.27E0,-9.6666664E-2,4E0,-4.1666668E-2,1.3E1,4.211E1,5E0,7E0,-5.9833336E-1,-4.4666666E-1,4.063E1,4E0,-4.788391E-2,1.53986635E-2,3.011E1,3.373E1,1.7E-1,7.600745E-2,6.82E0,3.9E-1,7.14E0,-1.1666667E-2,-5.5177916E-2,4.444E1,-4.6666667E-2,-5.8333334E-2,1.2E1,1.8283334E0,-3.2333332E-1,1.1E1,3.0689651E-2,1.4E1,-7.6500564E-3,-3.8044818E-2,-6.333333E-2,1.8E1,-3.794582E-2,-3.6666665E-2,2.536E1,5.714E1,7E0,1.09E1,1E0,-1.8333333E-2,1.3E1,2E0,1.1899798E-1,4.247E1,6.79E0,3.889E1,5E0,4E0,2.8279195E-2,-4.8061367E-2,3.823808E-2,9.806841E-2,-4.5241963E-2,-1.0941522E-2,5.4551847E-2,9.273919E-2,6.6724986E-2,-7.622776E-4,6.7052595E-2,3.890425E-3,7.1682274E-2,-4.4929903E-2,-4.1286144E-2,1.5136383E-2,3.2029364E-3,7.8259654E-2,-7.0744165E-4,-2.7103705E-2,1.6092017E-2,-4.255109E-2,5.7393957E-2,-3.7694193E-2,-1.0493088E-3,6.854675E-2,1.9718643E-2,1.11222826E-1,-1.5914343E-2,6.289685E-2,5.6630634E-3,4.971255E-2,-3.0735318E-2,4.8633453E-2,-4.6034165E-2,1.0347756E-2,-1.5499266E-2,8.044424E-2],"split_indices":[1,13,13,13,15,1,15,0,3,0,9,13,13,3,1,0,0,3,4,13,0,5,13,3,15,0,3,15,15,0,13,13,0,0,11,0,0,15,0,0,15,4,3,9,8,11,15,0,1,0,3,5,4,10,9,0,0,0,0,0,0,0,0,0,0,0,0,0,0,0,0,0,0,0,0,0,0,0,0,0,0,0,0,0,0,0,0,0,0,0,0,0,0],"split_type":[0,0,0,0,0,0,0,0,0,0,0,0,0,0,0,0,0,0,0,0,0,0,0,0,0,0,0,0,0,0,0,0,0,0,0,0,0,0,0,0,0,0,0,0,0,0,0,0,0,0,0,0,0,0,0,0,0,0,0,0,0,0,0,0,0,0,0,0,0,0,0,0,0,0,0,0,0,0,0,0,0,0,0,0,0,0,0,0,0,0,0,0,0],"sum_hessian":[7.769507E2,1.8910406E2,5.878466E2,5.01746E1,1.3892947E2,4.7508838E2,1.1275827E2,5.6721935E0,4.4502407E1,4.25171E0,1.3467776E2,2.987192E2,1.7636916E2,2.9362045E1,8.339623E1,3.944199E0,1.7279943E0,3.938206E1,5.120345E0,2.3992724E0,1.8524374E0,1.3086375E2,3.8140073E0,8.247513E1,2.1624408E2,7.122924E1,1.0513992E2,2.3004175E1,6.35787E0,5.8472744E1,2.4923487E1,1.2781188E1,2.6600872E1,1.709098E0,3.4112473E0,1.0165817E0,1.3826908E0,8.3184784E1,4.7678963E1,1.195361E0,2.6186461E0,5.1146674E0,7.736046E1,8.78649E1,1.2837918E2,9.3646935E1,1.1492983E1,1.9249977E1,3.754198E0,3.8844273E0,2.4734428E0,4.406587E1,1.4406874E1,1.934069E1,5.582796E0,9.807555E0,2.9736323E0,1.8797915E1,7.802957E0,2.2679367E0,1.1433107E0,1.2267398E1,7.091739E1,4.5588375E1,2.0905874E0,1.2987583E0,1.3198879E0,1.7364445E0,3.3782232E0,7.6197075E1,1.1633844E0,8.521984E1,2.6450593E0,2.1499624E1,1.06879555E2,3.1583695E0,9.048857E1,4.603406E0,6.889577E0,1.4822988E1,4.426989E0,1.5397577E0,2.2144403E0,1.4064507E0,1.066992E0,2.1311653E1,2.2754217E1,1.2583478E1,1.8233961E0,1.5866316E1,3.4743748E0,3.7065253E0,1.8762708E0],"tree_param":{"num_deleted":"0","num_feature":"16","num_nodes":"93","size_leaf_vector":"1"}},{"base_weights":[1.5041387E-2,-3.8069803E-1,4.028514E-1,-7.474089E-1,-1.4958622E-1,6.7493993E-1,9.436312E-2,-5.651029E-1,-8.69462E-1,2.5777408E-1,-4.055094E-1,5.2580583E-1,1.3238589E0,-2.3067611E-1,3.1296614E-1,-5.1548768E-2,-7.0420605E-1,-8.890726E-1,1.4626396E-2,-3.4722697E-2,6.024683E-1,-1.4300558E-1,-5.4760367E-1,-4.753793E-2,5.657404E-1,1.585456E0,4.6322188E-1,5.519338E-1,-3.341048E-1,1.5289934E0,2.4650596E-1,3.2947162E-1,-4.6111014E-2,-7.530846E-1,3.5725433E-2,-2.0487759E-1,-9.148609E-1,1.5890659E0,-1.6913143E-1,7.5898355E-1,-4.2125854E-1,-4.2834783E-1,6.59877E-1,-9.6966004E-1,-4.5317268E-1,7.675963E-1,3.6494204E-1,1.7294747E0,2.6632348E-1,-2.2322682E-1,9.2614226E-2,7.98677E-1,-3.1009233E-2,-6.1101633E-1,-8.955153E-2,1.2512012E-1,2.3793809E-1,1.07232496E-1,8.133061E-1,4.4700507E-2,-9.893834E-3,-5.2838326E-2,-3.0452466E-2,4.516719E-2,-4.0740754E-2,-2.8867368E-2,-4.7966897E-2,1.1845882E-1,5.821198E-3,-1.4500913E-2,6.9822274E-2,2.0061146E-2,8.184149E-2,2.2367753E-2,-3.870057E-2,7.0808353E-3,-3.1945862E-2,6.911047E-2,-2.334423E-3,-5.4227978E-2,1.0669151E-2,-2.8575951E-2,1.6989418E-4,5.2823003E-2,1.3102362E-2,4.7987252E-3,3.9139733E-2,7.1108714E-3,9.040865E-2,4.6479844E-2,-2.1372823E-2,3.6764156E-2,-2.87375E-2,5.681461E-2,-6.997449E-3,7.634356E-3,-3.7038848E-2,-1.3326819E-2,2.8136848E-2,-3.587491E-2,6.4440355E-2,7.884464E-3,-4.586091E-2,2.1863807E-2,8.5570455E-2],"categories":[],"categories_nodes":[],"categories_segments":[],"categories_sizes":[],"default_left":[0,0,0,0,0,0,0,0,0,0,0,0,0,0,0,0,0,0,0,0,0,0,0,0,0,0,0,0,0,0,0,0,0,0,0,0,0,0,0,0,0,0,0,0,0,0,0,0,0,0,0,0,0,0,0,0,0,0,0,0,0,0,0,0,0,0,0,0,0,0,0,0,0,0,0,0,0,0,0,0,0,0,0,0,0,0,0,0,0,0,0,0,0,0,0,0,0,0,0,0,0,0,0,0,0],"id":10,"left_children":[1,3,5,7,9,11,13,15,17,19,21,23,25,27,29,31,33,35,-1,37,39,41,43,-1,45,47,49,51,53,55,57,59,-1,61,-1,63,65,67,69,71,73,75,77,79,81,83,85,87,89,91,-1,93,-1,95,97,-1,99,101,103,-1,-1,-1,-1,-1,-1,-1,-1,-1,-1,-1,-1,-1,-1,-1,-1,-1,-1,-1,-1,-1,-1,-1,-1,-1,-1,-1,-1,-1,-1,-1,-1,-1,-1,-1,-1,-1,-1,-1,-1,-1,-1,-1,-1,-1,-1],"loss_changes":[1.1698381E2,3.1863781E1,3.224862E1,2.74852E0,2.4362366E1,1.9083626E1,1.2974014E1,4.3389854E0,2.2051697E0,9.134239E0,5.266531E0,1.0435406E1,7.716301E0,6.141015E0,8.43116E0,4.992287E0,3.8745403E0,1.2980194E0,0E0,1.1147046E1,6.9768066E0,1.2121778E1,3.2517586E0,0E0,6.3695335E0,4.929695E0,1.0103548E1,3.0887623E0,4.3891625E0,6.2608376E0,8.164535E0,3.3229208E0,0E0,1.4121304E0,0E0,3.6740708E0,6.597061E-1,4.2120867E0,9.288065E0,1.0773293E1,2.231507E0,4.73917E0,7.181161E0,2.413886E0,4.192732E0,1.1538448E1,9.382489E0,2.9154434E0,2.226422E0,3.0149326E0,0E0,2.645032E0,0E0,3.1458378E0,4.308165E0,0E0,4.3889065E0,4.541665E0,6.1636477E0,0E0,0E0,0E0,0E0,0E0,0E0,0E0,0E0,0E0,0E0,0E0,0E0,0E0,0E0,0E0,0E0,0E0,0E0,0E0,0E0,0E0,0E0,0E0,0E0,0E0,0E0,0E0,0E0,0E0,0E0,0E0,0E0,0E0,0E0,0E0,0E0,0E0,0E0,0E0,0E0,0E0,0E0,0E0,0E0,0E0,0E0],"parents":[2147483647,0,0,1,1,2,2,3,3,4,4,5,5,6,6,7,7,8,8,9,9,10,10,11,11,12,12,13,13,14,14,15,15,16,16,17,17,19,19,20,20,21,21,22,22,24,24,25,25,26,26,27,27,28,28,29,29,30,30,31,31,33,33,35,35,36,36,37,37,38,38,39,39,40,40,41,41,42,42,43,43,44,44,45,45,46,46,47,47,48,48,49,49,51,51,53,53,54,54,56,56,57,57,58,58],"right_children":[2,4,6,8,10,12,14,16,18,20,22,24,26,28,30,32,34,36,-1,38,40,42,44,-1,46,48,50,52,54,56,58,60,-1,62,-1,64,66,68,70,72,74,76,78,80,82,84,86,88,90,92,-1,94,-1,96,98,-1,100,102,104,-1,-1,-1,-1,-1,-1,-1,-1,-1,-1,-1,-1,-1,-1,-1,-1,-1,-1,-1,-1,-1,-1,-1,-1,-1,-1,-1,-1,-1,-1,-1,-1,-1,-1,-1,-1,-1,-1,-1,-1,-1,-1,-1,-1,-1,-1],"split_conditions":[1.5E-1,-6.8E-1,-5E-3,3.238E1,-1.5E-2,6.7733335E0,6E-1,6.74E0,2.6002E1,-1.5333334E-1,3.143E1,4.62E0,4E0,6.73E0,5.03E0,1.4E1,1.8E1,-3.995E0,1.4626396E-2,6.64E0,6.69E0,3E1,3.333E1,-4.753793E-2,1.24E1,1.51E1,6.34E0,4.359E1,6E0,3E0,1.6966667E0,3E0,-4.6111014E-2,-1.43E0,3.5725433E-2,7E0,-4.8333332E-2,-8.6666666E-2,-1.6666668E-2,4E0,3.203E1,6.666667E-3,5E0,6.88E0,5E0,-1.5666667E-1,3.474E1,2E0,1.164E1,9.088E0,9.2614226E-2,2E-2,-3.1009233E-2,1E0,3.879E1,1.2512012E-1,4.98E0,7E0,4E0,4.4700507E-2,-9.893834E-3,-5.2838326E-2,-3.0452466E-2,4.516719E-2,-4.0740754E-2,-2.8867368E-2,-4.7966897E-2,1.1845882E-1,5.821198E-3,-1.4500913E-2,6.9822274E-2,2.0061146E-2,8.184149E-2,2.2367753E-2,-3.870057E-2,7.0808353E-3,-3.1945862E-2,6.911047E-2,-2.334423E-3,-5.4227978E-2,1.0669151E-2,-2.8575951E-2,1.6989418E-4,5.2823003E-2,1.3102362E-2,4.7987252E-3,3.9139733E-2,7.1108714E-3,9.040865E-2,4.6479844E-2,-2.1372823E-2,3.6764156E-2,-2.87375E-2,5.681461E-2,-6.997449E-3,7.634356E-3,-3.7038848E-2,-1.3326819E-2,2.8136848E-2,-3.587491E-2,6.4440355E-2,7.884464E-3,-4.586091E-2,2.1863807E-2,8.5570455E-2],"split_indices":[13,13,15,3,15,14,13,5,14,13,3,2,10,5,2,11,7,14,0,5,2,3,3,0,7,7,2,3,0,0,13,9,0,13,0,11,15,15,15,9,3,15,0,2,10,14,3,11,14,14,0,15,0,9,3,0,2,9,10,0,0,0,0,0,0,0,0,0,0,0,0,0,0,0,0,0,0,0,0,0,0,0,0,0,0,0,0,0,0,0,0,0,0,0,0,0,0,0,0,0,0,0,0,0,0],"split_type":[0,0,0,0,0,0,0,0,0,0,0,0,0,0,0,0,0,0,0,0,0,0,0,0,0,0,0,0,0,0,0,0,0,0,0,0,0,0,0,0,0,0,0,0,0,0,0,0,0,0,0,0,0,0,0,0,0,0,0,0,0,0,0,0,0,0,0,0,0,0,0,0,0,0,0,0,0,0,0,0,0,0,0,0,0,0,0,0,0,0,0,0,0,0,0,0,0,0,0,0,0,0,0,0,0],"sum_hessian":[7.602507E2,3.762876E2,3.8396307E2,1.446051E2,2.316825E2,2.033868E2,1.8057628E2,6.0246784E1,8.435832E1,8.939024E1,1.4229225E2,1.6685141E2,3.653539E1,7.2589E1,1.0798728E2,1.3132729E1,4.7114056E1,8.318923E1,1.169091E0,4.8842922E1,4.054732E1,5.067748E1,9.161477E1,3.793155E0,1.6305824E2,2.7372976E1,9.162415E0,7.9672365E0,6.462176E1,4.4556537E0,1.0353163E2,9.567444E0,3.5652843E0,4.5998463E1,1.1155928E0,3.3465214E0,7.9842705E1,2.9065325E0,4.593639E1,3.539454E1,5.1527824E0,3.7733562E1,1.2943916E1,1.5055633E1,7.6559135E1,7.990735E1,8.31509E1,2.439819E1,2.9747858E0,6.6937737E0,2.4686406E0,6.8449144E0,1.1223224E0,2.9603148E1,3.5018612E1,2.0053964E0,2.4502573E0,8.4064575E1,1.9467058E1,4.2849803E0,5.2824636E0,1.2759549E1,3.3238914E1,1.0172299E0,2.3292913E0,1.0924326E1,6.891838E1,1.5020503E0,1.4044822E0,4.339999E1,2.5363998E0,2.6181492E1,9.213046E0,1.4107614E0,3.742021E0,1.0267951E1,2.746561E1,5.927702E0,7.0162144E0,1.3798718E1,1.2569141E0,6.0599537E1,1.59595995E1,5.015802E1,2.974933E1,5.1336067E1,3.181483E1,1.2851568E0,2.3113033E1,1.3470583E0,1.6277275E0,1.5032115E0,5.1905622E0,4.879288E0,1.9656264E0,4.2737E0,2.5329449E1,2.8010052E1,7.00856E0,1.449565E0,1.0006921E0,8.092489E1,3.1396816E0,1.4769889E1,4.6971684E0],"tree_param":{"num_deleted":"0","num_feature":"16","num_nodes":"105","size_leaf_vector":"1"}},{"base_weights":[2.3289694E-2,-3.5515904E-1,3.5051382E-1,-1.2467182E-1,-5.9157497E-1,6.8522483E-1,9.691984E-2,-4.2281583E-1,1.6224253E-1,-9.858012E-1,-5.124379E-1,5.5485207E-1,1.0694261E0,-7.411856E-2,2.5010458E-1,7.7443767E-1,-4.6834666E-1,1.2416117E-1,6.6262305E-2,-5.445251E-2,-7.499663E-3,-1.0908255E-1,-6.6164374E-1,-1.3377188E-1,6.677811E-1,1.3903267E0,1.7315733E-1,3.301238E-2,-5.96082E-1,4.1639268E-1,-1.7459029E-1,8.2916014E-2,-3.1247456E-2,-1.1033992E-2,-5.7037354E-1,1.1300541E-2,5.366575E-1,-3.168748E-2,2.9522652E-2,1.1879098E0,-2.654988E-1,-5.576819E-1,-9.20242E-1,2.3049134E-1,-6.4799094E-1,1.559247E0,5.8484495E-1,-1.2957262E-2,1.4570003E0,-2.7338275E-1,9.491351E-1,2.8858382E-1,-2.3600803E-1,-8.815812E-1,6.610024E-2,1.2084715E0,3.2955635E-1,-5.95793E-1,4.9813813E-1,2.9994175E-2,-1.6491795E-2,-4.2930927E-2,-1.8795406E-2,3.9156894E-3,-3.151922E-2,6.305558E-2,-1.840733E-2,1.5517779E-2,9.855842E-2,1.8181762E-2,-2.2693817E-2,-3.4000814E-2,2.0032285E-2,-4.864984E-2,-1.4199706E-2,-4.134392E-2,2.5229005E-2,-4.929477E-2,-3.6209605E-3,1.1566217E-1,2.604313E-2,4.675924E-2,1.9281875E-2,9.045213E-2,4.9442373E-2,2.2666506E-2,-3.6731508E-2,7.561358E-2,-1.6144281E-2,4.2516615E-2,4.69535E-3,-5.03772E-2,-7.1544982E-3,1.0887675E-2,-4.9057335E-2,1.2592179E-2,7.8752205E-2,-6.7633875E-3,2.5635544E-2,-3.8277525E-2,6.268108E-3,4.9925927E-2,-1.3411306E-2],"categories":[],"categories_nodes":[],"categories_segments":[],"categories_sizes":[],"default_left":[0,0,0,0,0,0,0,0,0,0,0,0,0,0,0,0,0,0,0,0,0,0,0,0,0,0,0,0,0,0,0,0,0,0,0,0,0,0,0,0,0,0,0,0,0,0,0,0,0,0,0,0,0,0,0,0,0,0,0,0,0,0,0,0,0,0,0,0,0,0,0,0,0,0,0,0,0,0,0,0,0,0,0,0,0,0,0,0,0,0,0,0,0,0,0,0,0,0,0,0,0,0,0],"id":11,"left_children":[1,3,5,7,9,11,13,15,17,19,21,23,25,27,29,31,33,35,-1,-1,37,39,41,43,45,47,49,51,53,55,57,-1,-1,59,61,63,65,-1,-1,67,69,71,73,75,77,79,81,-1,83,85,87,89,91,93,-1,95,97,99,101,-1,-1,-1,-1,-1,-1,-1,-1,-1,-1,-1,-1,-1,-1,-1,-1,-1,-1,-1,-1,-1,-1,-1,-1,-1,-1,-1,-1,-1,-1,-1,-1,-1,-1,-1,-1,-1,-1,-1,-1,-1,-1,-1,-1],"loss_changes":[9.437793E1,1.9184692E1,3.4622654E1,1.5485241E1,4.9295616E0,8.222382E0,6.141059E0,5.1957045E0,3.935004E0,2.824175E0,8.784424E0,1.0470039E1,1.2274254E1,6.2365437E0,8.794651E0,5.5200953E0,4.0079174E0,4.2179556E0,0E0,0E0,1.7536627E0,8.619845E0,2.3695068E0,3.8281116E0,7.579296E0,3.8856926E0,4.6304083E0,6.4754305E0,1.1562044E1,5.726527E0,1.0343177E1,0E0,0E0,3.4529E0,3.6190186E0,3.1567495E0,1.3226821E1,0E0,0E0,2.541863E0,4.591173E0,9.53624E0,7.040577E-1,3.9627357E0,1.5634768E0,5.978588E0,7.084049E0,0E0,3.289032E0,3.2770977E0,3.9489565E0,5.1957016E0,3.1500823E0,2.088131E0,0E0,2.5570097E0,7.0184193E0,2.820952E0,5.711672E0,0E0,0E0,0E0,0E0,0E0,0E0,0E0,0E0,0E0,0E0,0E0,0E0,0E0,0E0,0E0,0E0,0E0,0E0,0E0,0E0,0E0,0E0,0E0,0E0,0E0,0E0,0E0,0E0,0E0,0E0,0E0,0E0,0E0,0E0,0E0,0E0,0E0,0E0,0E0,0E0,0E0,0E0,0E0,0E0],"parents":[2147483647,0,0,1,1,2,2,3,3,4,4,5,5,6,6,7,7,8,8,9,9,10,10,11,11,12,12,13,13,14,14,15,15,16,16,17,17,20,20,21,21,22,22,23,23,24,24,25,25,26,26,27,27,28,28,29,29,30,30,33,33,34,34,35,35,36,36,39,39,40,40,41,41,42,42,43,43,44,44,45,45,46,46,48,48,49,49,50,50,51,51,52,52,53,53,55,55,56,56,57,57,58,58],"right_children":[2,4,6,8,10,12,14,16,18,20,22,24,26,28,30,32,34,36,-1,-1,38,40,42,44,46,48,50,52,54,56,58,-1,-1,60,62,64,66,-1,-1,68,70,72,74,76,78,80,82,-1,84,86,88,90,92,94,-1,96,98,100,102,-1,-1,-1,-1,-1,-1,-1,-1,-1,-1,-1,-1,-1,-1,-1,-1,-1,-1,-1,-1,-1,-1,-1,-1,-1,-1,-1,-1,-1,-1,-1,-1,-1,-1,-1,-1,-1,-1,-1,-1,-1,-1,-1,-1],"split_conditions":[5.35E0,1.6666667E-3,-1.6666668E-2,4.44E0,3.6E0,1.3E1,6.12E0,7.14E0,8.881784E-16,1.6E1,3E0,-6.73E0,-3E-2,5.5E-2,3.631E1,3.2E1,6.69E0,5.15E0,6.6262305E-2,-5.445251E-2,2.5E-2,6.75E0,4.505E0,-9.445E0,3E0,-1.6096666E1,6.41E0,1.1E1,1.4E1,-1.2348333E1,3.952E1,8.2916014E-2,-3.1247456E-2,2.913E1,3.79E0,5E-1,5.24E0,-3.168748E-2,2.9522652E-2,3.442E1,1E0,3.733E1,2.14025E1,5.53E0,3E0,-1.5666667E-1,3E0,-1.2957262E-2,-5E-2,5.75E0,3.101E1,2.396E1,-1E-2,1E0,6.610024E-2,2E0,-3.2316666E0,1.4E1,4.328E1,2.9994175E-2,-1.6491795E-2,-4.2930927E-2,-1.8795406E-2,3.9156894E-3,-3.151922E-2,6.305558E-2,-1.840733E-2,1.5517779E-2,9.855842E-2,1.8181762E-2,-2.2693817E-2,-3.4000814E-2,2.0032285E-2,-4.864984E-2,-1.4199706E-2,-4.134392E-2,2.5229005E-2,-4.929477E-2,-3.6209605E-3,1.1566217E-1,2.604313E-2,4.675924E-2,1.9281875E-2,9.045213E-2,4.9442373E-2,2.2666506E-2,-3.6731508E-2,7.561358E-2,-1.6144281E-2,4.2516615E-2,4.69535E-3,-5.03772E-2,-7.1544982E-3,1.0887675E-2,-4.9057335E-2,1.2592179E-2,7.8752205E-2,-6.7633875E-3,2.5635544E-2,-3.8277525E-2,6.268108E-3,4.9925927E-2,-1.3411306E-2],"split_indices":[2,15,15,2,2,0,2,3,15,0,0,14,15,15,4,4,5,2,0,0,15,5,14,14,11,14,2,11,11,14,4,0,0,4,2,6,2,0,0,4,9,3,14,2,9,14,0,0,15,2,4,4,15,11,0,0,14,11,4,0,0,0,0,0,0,0,0,0,0,0,0,0,0,0,0,0,0,0,0,0,0,0,0,0,0,0,0,0,0,0,0,0,0,0,0,0,0,0,0,0,0,0,0],"split_type":[0,0,0,0,0,0,0,0,0,0,0,0,0,0,0,0,0,0,0,0,0,0,0,0,0,0,0,0,0,0,0,0,0,0,0,0,0,0,0,0,0,0,0,0,0,0,0,0,0,0,0,0,0,0,0,0,0,0,0,0,0,0,0,0,0,0,0,0,0,0,0,0,0,0,0,0,0,0,0,0,0,0,0,0,0,0,0,0,0,0,0,0,0,0,0,0,0,0,0,0,0,0,0],"sum_hessian":[7.6010547E2,3.5242523E2,4.0768027E2,1.7922351E2,1.732017E2,1.7500044E2,2.3267982E2,8.7659454E1,9.1564064E1,2.704058E1,1.4616113E2,1.3248714E2,4.2513298E1,1.1017739E2,1.22502426E2,2.6249924E0,8.5034454E1,8.973262E1,1.8314441E0,2.4356785E1,2.683797E0,3.993474E1,1.06226395E2,1.8639814E1,1.1384732E2,3.0898968E1,1.1614331E1,9.2192085E1,1.7985312E1,8.8047295E1,3.4455135E1,1.49542E0,1.1295725E0,1.5712925E1,6.932153E1,7.126235E1,1.8470266E1,1.2816399E0,1.4021571E0,3.588081E0,3.6346657E1,7.801808E1,2.8208311E1,1.1233779E1,7.4060354E0,8.1750145E0,1.0567231E2,1.0882926E0,2.9810675E1,7.783165E0,3.831166E0,4.7240513E1,4.495157E1,1.6125484E1,1.8598263E0,7.4228673E0,8.062443E1,2.1259E1,1.3196133E1,5.0856514E0,1.0627274E1,2.6551086E1,4.2770447E1,6.531885E1,5.9435034E0,1.0038718E1,8.431548E0,2.3506618E0,1.237419E0,8.160907E0,2.8185751E1,6.9443726E1,8.574352E0,2.555974E1,2.6485713E0,1.8973649E0,9.336414E0,4.217276E0,3.1887596E0,4.0247855E0,4.150229E0,3.6966305E1,6.8706E1,1.5380564E1,1.4430111E1,3.0286212E0,4.754544E0,2.5246189E0,1.3065474E0,1.1291237E1,3.5949276E1,3.7736957E0,4.1177876E1,1.2405984E0,1.4884886E1,2.5237556E0,4.8991117E0,2.2862816E1,5.776161E1,1.7158407E1,4.1005936E0,7.800222E0,5.3959103E0],"tree_param":{"num_deleted":"0","num_feature":"16","num_nodes":"103","size_leaf_vector":"1"}},{"base_weights":[1.8019652E-2,1.1631399E0,-3.8318986E-1,1.6094548E-1,1.3109407E0,-5.8548236E-1,1.859704E-1,8.521763E-1,-2.0216459E-1,1.3285089E0,-3.4453776E-2,-2.9882458E-1,-7.932859E-1,4.0894744E-1,-3.147082E-1,1.3315424E0,-2.733021E-2,-7.8299284E-1,1.3982409E0,1.0723677E0,1.497979E0,4.37463E-2,-4.5460236E-1,1.8181296E-1,-8.206233E-1,8.13848E-1,1.2228536E-1,-5.5842125E-1,7.863778E-1,2.0004225E0,3.9720884E-1,-5.5145293E-2,-7.1965136E-2,2.6380787E-2,8.728381E-2,1.1835016E0,-7.1898764E-1,9.936644E-2,1.552616E0,7.714721E-1,-2.5586057E-1,-7.322507E-1,-2.5177917E-1,1.3548218E0,-5.6400186E-1,-9.7149795E-1,-6.8777114E-1,1.106195E0,3.3115596E-1,1.2521616E0,-4.7591023E-2,1.0876141E-1,-7.369642E-1,1.1501166E0,-6.019638E-2,1.4691609E-2,1.2688155E-1,-2.6091253E-2,7.1644716E-2,4.0779773E-2,-3.177033E-2,6.984543E-2,1.889658E-2,-5.0261457E-2,5.6700143E-3,-3.8205102E-2,2.9598659E-2,7.8826495E-2,-3.29456E-3,-1.828551E-2,5.1808197E-2,-2.5648061E-2,1.9566773E-2,-4.655378E-2,-7.6480047E-3,-3.6944076E-2,-7.5098197E-3,1.4298535E-2,9.086847E-2,3.7766208E-3,-4.1940182E-2,-3.870436E-2,-5.3158194E-2,-8.070832E-3,-3.6118407E-2,3.365344E-2,9.849947E-2,3.0602694E-2,-2.1267306E-2,-1.2569812E-2,7.8069985E-2,-2.8072009E-2,3.8158444E-3,-1.7683754E-2,6.0934085E-2,-1.09558115E-2,-4.497649E-2,1.4002035E-2,9.4355136E-2,2.4793908E-2,-3.244637E-2],"categories":[],"categories_nodes":[],"categories_segments":[],"categories_sizes":[],"default_left":[0,0,0,0,0,0,0,0,0,0,0,0,0,0,0,0,0,0,0,0,0,0,0,0,0,0,0,0,0,0,0,0,0,0,0,0,0,0,0,0,0,0,0,0,0,0,0,0,0,0,0,0,0,0,0,0,0,0,0,0,0,0,0,0,0,0,0,0,0,0,0,0,0,0,0,0,0,0,0,0,0,0,0,0,0,0,0,0,0,0,0,0,0,0,0,0,0,0,0,0,0],"id":12,"left_children":[1,3,5,7,9,11,13,15,17,19,-1,21,23,25,27,29,-1,31,33,35,37,39,41,43,45,47,49,51,53,55,57,-1,59,-1,-1,61,63,65,67,69,71,73,75,77,79,81,83,85,87,89,91,93,95,97,99,-1,-1,-1,-1,-1,-1,-1,-1,-1,-1,-1,-1,-1,-1,-1,-1,-1,-1,-1,-1,-1,-1,-1,-1,-1,-1,-1,-1,-1,-1,-1,-1,-1,-1,-1,-1,-1,-1,-1,-1,-1,-1,-1,-1,-1,-1],"loss_changes":[3.5332562E2,2.9344788E1,6.5684456E1,6.8949823E0,7.0203247E0,2.4807785E1,1.6886562E1,7.0416393E0,1.8169224E1,5.884857E0,0E0,9.534778E0,6.630478E0,1.2005339E1,1.3002377E1,3.770031E0,0E0,3.1320343E0,6.6704845E-1,1.5231743E1,7.589752E0,1.2548054E1,6.722622E0,7.28109E0,4.07605E0,5.70899E0,1.200532E1,4.71599E0,2.809729E0,2.9296646E0,4.8358574E0,0E0,3.244127E0,0E0,0E0,1.1230049E1,1.2676105E0,2.5273616E0,3.8761292E0,5.426483E0,7.002463E0,5.7606163E0,3.471498E0,1.0570755E0,9.877634E-1,1.1386795E0,2.2377396E0,8.545834E0,4.0145416E0,4.191662E0,3.548903E0,5.095221E0,2.3982868E0,3.4951324E0,1.5085065E0,0E0,0E0,0E0,0E0,0E0,0E0,0E0,0E0,0E0,0E0,0E0,0E0,0E0,0E0,0E0,0E0,0E0,0E0,0E0,0E0,0E0,0E0,0E0,0E0,0E0,0E0,0E0,0E0,0E0,0E0,0E0,0E0,0E0,0E0,0E0,0E0,0E0,0E0,0E0,0E0,0E0,0E0,0E0,0E0,0E0,0E0],"parents":[2147483647,0,0,1,1,2,2,3,3,4,4,5,5,6,6,7,7,8,8,9,9,11,11,12,12,13,13,14,14,15,15,17,17,18,18,19,19,20,20,21,21,22,22,23,23,24,24,25,25,26,26,27,27,28,28,29,29,30,30,32,32,35,35,36,36,37,37,38,38,39,39,40,40,41,41,42,42,43,43,44,44,45,45,46,46,47,47,48,48,49,49,50,50,51,51,52,52,53,53,54,54],"right_children":[2,4,6,8,10,12,14,16,18,20,-1,22,24,26,28,30,-1,32,34,36,38,40,42,44,46,48,50,52,54,56,58,-1,60,-1,-1,62,64,66,68,70,72,74,76,78,80,82,84,86,88,90,92,94,96,98,100,-1,-1,-1,-1,-1,-1,-1,-1,-1,-1,-1,-1,-1,-1,-1,-1,-1,-1,-1,-1,-1,-1,-1,-1,-1,-1,-1,-1,-1,-1,-1,-1,-1,-1,-1,-1,-1,-1,-1,-1,-1,-1,-1,-1,-1,-1],"split_conditions":[1E0,4.3E0,7.52E-1,6.73E0,1.1666667E-1,3E0,4E0,-1.5E-2,1E1,3.4666666E-1,-3.4453776E-2,6.76E0,6.64E0,7E0,1.8283334E0,-8.92E-1,-2.733021E-2,2E-2,-1.1566666E0,2.9833335E-1,6.64E0,2E0,4.74E0,-8.833333E-2,-3.44E-1,5E0,5.49E0,-4.1666668E-2,1.3E1,-1.225E0,1.2E1,-5.5145293E-2,3.6666665E-2,2.6380787E-2,8.728381E-2,6.89E0,5.53E0,6.02E0,2E0,2.256E1,6.73E0,4E0,-3.65E-1,6.6E0,4E0,4E0,4.32E0,6.46E0,1.1666667E-2,-6.5E-2,5.82E0,-4.6666667E-2,5.81E0,6E0,-1.3333334E-2,1.4691609E-2,1.2688155E-1,-2.6091253E-2,7.1644716E-2,4.0779773E-2,-3.177033E-2,6.984543E-2,1.889658E-2,-5.0261457E-2,5.6700143E-3,-3.8205102E-2,2.9598659E-2,7.8826495E-2,-3.29456E-3,-1.828551E-2,5.1808197E-2,-2.5648061E-2,1.9566773E-2,-4.655378E-2,-7.6480047E-3,-3.6944076E-2,-7.5098197E-3,1.4298535E-2,9.086847E-2,3.7766208E-3,-4.1940182E-2,-3.870436E-2,-5.3158194E-2,-8.070832E-3,-3.6118407E-2,3.365344E-2,9.849947E-2,3.0602694E-2,-2.1267306E-2,-1.2569812E-2,7.8069985E-2,-2.8072009E-2,3.8158444E-3,-1.7683754E-2,6.0934085E-2,-1.09558115E-2,-4.497649E-2,1.4002035E-2,9.4355136E-2,2.4793908E-2,-3.244637E-2],"split_indices":[1,2,13,5,15,1,1,15,0,13,0,5,5,11,13,13,0,15,13,13,5,9,2,15,13,0,2,15,11,13,11,0,15,0,0,5,2,2,12,4,5,9,13,5,1,1,2,2,15,15,2,15,2,11,15,0,0,0,0,0,0,0,0,0,0,0,0,0,0,0,0,0,0,0,0,0,0,0,0,0,0,0,0,0,0,0,0,0,0,0,0,0,0,0,0,0,0,0,0,0,0],"split_type":[0,0,0,0,0,0,0,0,0,0,0,0,0,0,0,0,0,0,0,0,0,0,0,0,0,0,0,0,0,0,0,0,0,0,0,0,0,0,0,0,0,0,0,0,0,0,0,0,0,0,0,0,0,0,0,0,0,0,0,0,0,0,0,0,0,0,0,0,0,0,0,0,0,0,0,0,0,0,0,0,0,0,0,0,0,0,0,0,0,0,0,0,0,0,0,0,0,0,0,0,0],"sum_hessian":[7.670767E2,1.9853238E2,5.685444E2,2.578444E1,1.7274794E2,4.194379E2,1.4910648E2,8.416181E0,1.736826E1,1.7157657E2,1.1713715E0,1.7729858E2,2.421393E2,1.03289665E2,4.5816807E1,6.303889E0,2.1122913E0,1.3118113E1,4.250147E0,7.123624E1,1.0034033E2,5.56462E1,1.2165239E2,6.449262E0,2.3569003E2,4.2052658E1,6.123701E1,3.7917118E1,7.899686E0,3.0088603E0,3.2950284E0,8.667292E0,4.450821E0,1.930694E0,2.3194528E0,6.739448E1,3.841763E0,3.87841E0,9.646192E1,1.5769107E1,3.9877094E1,5.025167E1,7.140072E1,2.1893353E0,4.259927E0,1.07403564E2,1.2828647E2,2.5385792E1,1.6666864E1,7.170931E0,5.406608E1,8.0872755E0,2.9829844E1,5.274774E0,2.6249118E0,1.090751E0,1.9181092E0,2.0087147E0,1.2863139E0,1.5545278E0,2.8962934E0,5.2699554E1,1.4694921E1,2.7041988E0,1.1375643E0,1.2086613E0,2.6697488E0,9.508298E1,1.3789425E0,2.90535E0,1.2863757E1,2.8688076E1,1.1189017E1,3.6959213E1,1.3292457E1,1.1238241E1,6.016248E1,1.1500534E0,1.039282E0,1.4982507E0,2.761676E0,3.7052452E1,7.035111E1,8.261563E0,1.200249E2,1.8092834E1,7.292958E0,1.22932E1,4.3736644E0,1.2551699E0,5.9157615E0,9.818289E0,4.424779E1,6.189738E0,1.8975375E0,7.687953E0,2.2141891E1,3.0518186E0,2.2229552E0,1.4310027E0,1.1939092E0],"tree_param":{"num_deleted":"0","num_feature":"16","num_nodes":"101","size_leaf_vector":"1"}},{"base_weights":[-3.9662685E-2,1.0562937E0,-4.1849202E-1,1.6704401E-1,1.1859818E0,-5.700938E-1,2.142263E-1,8.315994E-1,-1.7572546E-1,1.0696189E0,1.6835299E0,-3.8307106E-1,-8.895293E-1,1.15507975E-1,1.4500888E-1,-3.586057E-2,1.2226074E0,-6.3096684E-1,1.1399157E0,5.513089E-1,1.169643E0,1.7853608E0,3.6691195E-1,-5.3703505E-1,-9.069001E-2,-9.680084E-1,-5.385439E-1,6.815025E-1,-4.314427E-2,1.6212788E0,-4.460104E-3,-9.1338956E-1,1.8078569E-1,3.1482702E-1,8.678787E-2,-1.669503E-1,1.1606433E0,1.204902E0,-2.9265457E-1,2.0716875E0,1.1511195E0,7.318287E-2,-4.1539576E-2,-5.945548E-1,3.9521623E-2,7.2918683E-1,-2.0889637E-1,-5.4780014E-2,-8.3522826E-1,4.4080585E-2,-6.3532627E-1,-2.0004198E-2,1.0457218E0,-2.493332E-1,4.0363836E-1,9.765532E-2,9.440954E-3,1.4432169E-2,-5.4245155E-2,6.2108982E-2,-3.910641E-2,4.1055977E-2,-1.3733833E-2,-5.014828E-2,1.0642887E-2,8.566555E-2,1.7577622E-2,6.154746E-2,-1.3492057E-2,-2.5288496E-2,4.031504E-3,3.1048069E-2,1.0652894E-1,6.8959305E-3,8.3701365E-2,-6.678833E-3,-3.232032E-2,-2.709393E-2,3.0805632E-2,-1.7453246E-2,7.259797E-2,1.7428024E-2,-1.5942158E-2,-2.2503307E-2,-4.650051E-2,-1.7518302E-2,-4.4367176E-2,-2.5606647E-2,2.2639006E-2,-7.1604527E-3,6.325953E-2,-1.6000797E-4,-3.626974E-2,2.3654152E-3,6.308569E-2],"categories":[],"categories_nodes":[],"categories_segments":[],"categories_sizes":[],"default_left":[0,0,0,0,0,0,0,0,0,0,0,0,0,0,0,0,0,0,0,0,0,0,0,0,0,0,0,0,0,0,0,0,0,0,0,0,0,0,0,0,0,0,0,0,0,0,0,0,0,0,0,0,0,0,0,0,0,0,0,0,0,0,0,0,0,0,0,0,0,0,0,0,0,0,0,0,0,0,0,0,0,0,0,0,0,0,0,0,0,0,0,0,0,0,0],"id":13,"left_children":[1,3,5,7,9,11,13,15,17,19,21,23,25,-1,27,-1,29,31,33,35,37,39,41,43,45,47,49,51,53,55,-1,57,59,61,-1,63,65,67,69,71,73,-1,-1,75,77,79,81,-1,83,-1,85,87,89,91,93,-1,-1,-1,-1,-1,-1,-1,-1,-1,-1,-1,-1,-1,-1,-1,-1,-1,-1,-1,-1,-1,-1,-1,-1,-1,-1,-1,-1,-1,-1,-1,-1,-1,-1,-1,-1,-1,-1,-1,-1],"loss_changes":[3.1399405E2,2.2206924E1,5.402424E1,6.0438533E0,8.006073E0,2.6757858E1,1.5528231E1,6.3179183E0,1.14440775E1,6.6144104E0,3.4158707E0,1.2909222E1,4.0717163E0,0E0,1.0821845E1,0E0,4.08963E0,3.362577E0,1.8917546E0,1.0934898E1,6.358246E0,2.6864777E0,5.7327185E0,6.269989E0,9.891808E0,1.3723984E0,5.0579844E0,7.1290255E0,7.4792247E0,2.405857E0,0E0,2.4804144E0,5.5039406E0,1.2108399E0,0E0,4.0677795E0,5.3912315E0,4.708664E0,3.2295644E-1,2.1389008E-1,5.5631895E0,0E0,0E0,4.008892E0,6.376097E0,1.0549248E1,5.5420666E0,0E0,2.1505089E0,0E0,1.9310198E0,2.672356E0,4.9643974E0,6.491758E0,7.790282E0,0E0,0E0,0E0,0E0,0E0,0E0,0E0,0E0,0E0,0E0,0E0,0E0,0E0,0E0,0E0,0E0,0E0,0E0,0E0,0E0,0E0,0E0,0E0,0E0,0E0,0E0,0E0,0E0,0E0,0E0,0E0,0E0,0E0,0E0,0E0,0E0,0E0,0E0,0E0,0E0],"parents":[2147483647,0,0,1,1,2,2,3,3,4,4,5,5,6,6,7,7,8,8,9,9,10,10,11,11,12,12,14,14,16,16,17,17,18,18,19,19,20,20,21,21,22,22,23,23,24,24,25,25,26,26,27,27,28,28,29,29,31,31,32,32,33,33,35,35,36,36,37,37,38,38,39,39,40,40,43,43,44,44,45,45,46,46,48,48,50,50,51,51,52,52,53,53,54,54],"right_children":[2,4,6,8,10,12,14,16,18,20,22,24,26,-1,28,-1,30,32,34,36,38,40,42,44,46,48,50,52,54,56,-1,58,60,62,-1,64,66,68,70,72,74,-1,-1,76,78,80,82,-1,84,-1,86,88,90,92,94,-1,-1,-1,-1,-1,-1,-1,-1,-1,-1,-1,-1,-1,-1,-1,-1,-1,-1,-1,-1,-1,-1,-1,-1,-1,-1,-1,-1,-1,-1,-1,-1,-1,-1,-1,-1,-1,-1,-1,-1],"split_conditions":[1E0,4.3E0,9.85E-1,6.73E0,1.2783333E0,4E0,9.9666667E-1,-1.3033333E0,1E1,-6.451667E0,6.91E0,2.1E-1,4.45E-1,1.15507975E-1,-4E-2,-3.586057E-2,-1.5E-2,2.8333334E-2,-9.4166666E-1,5.59E0,1.2283334E0,6.9666666E-1,3E0,6.48E0,1E0,-4.4666666E-1,4.65E-1,0E0,1.7333333E0,4.0716667E0,-4.460104E-3,-7.6E-2,4.6666667E-2,1.22E1,8.678787E-2,-5.4E-2,6.78E0,7.46E0,3.1166666E0,6.66E0,1E1,7.318287E-2,-4.1539576E-2,-9.51E0,6.85E0,1.3E1,-4.6666667E-2,-5.4780014E-2,6.75E0,4.4080585E-2,5E0,6.62E0,6.64E0,4E0,3.1666666E-2,9.765532E-2,9.440954E-3,1.4432169E-2,-5.4245155E-2,6.2108982E-2,-3.910641E-2,4.1055977E-2,-1.3733833E-2,-5.014828E-2,1.0642887E-2,8.566555E-2,1.7577622E-2,6.154746E-2,-1.3492057E-2,-2.5288496E-2,4.031504E-3,3.1048069E-2,1.0652894E-1,6.8959305E-3,8.3701365E-2,-6.678833E-3,-3.232032E-2,-2.709393E-2,3.0805632E-2,-1.7453246E-2,7.259797E-2,1.7428024E-2,-1.5942158E-2,-2.2503307E-2,-4.650051E-2,-1.7518302E-2,-4.4367176E-2,-2.5606647E-2,2.2639006E-2,-7.1604527E-3,6.325953E-2,-1.6000797E-4,-3.626974E-2,2.3654152E-3,6.308569E-2],"split_indices":[1,2,13,5,13,1,13,13,0,14,5,13,13,0,15,0,15,15,13,2,13,14,10,2,10,13,13,6,13,14,0,15,15,7,0,15,5,2,14,5,0,0,0,14,5,11,15,0,5,0,1,2,5,1,15,0,0,0,0,0,0,0,0,0,0,0,0,0,0,0,0,0,0,0,0,0,0,0,0,0,0,0,0,0,0,0,0,0,0,0,0,0,0,0,0],"split_type":[0,0,0,0,0,0,0,0,0,0,0,0,0,0,0,0,0,0,0,0,0,0,0,0,0,0,0,0,0,0,0,0,0,0,0,0,0,0,0,0,0,0,0,0,0,0,0,0,0,0,0,0,0,0,0,0,0,0,0,0,0,0,0,0,0,0,0,0,0,0,0,0,0,0,0,0,0,0,0,0,0,0,0,0,0,0,0,0,0,0,0,0,0,0,0],"sum_hessian":[7.542186E2,1.9327734E2,5.609413E2,2.489112E1,1.6838623E2,4.5259637E2,1.08344894E2,7.9846E0,1.690652E1,1.3902248E2,2.9363756E1,2.8685056E2,1.657458E2,2.4286592E0,1.0591624E2,1.4412888E0,6.543311E0,1.2946984E1,3.9595358E0,2.3542171E1,1.154803E2,2.692526E1,2.4384956E0,1.8735509E2,9.949547E1,1.3402115E2,3.1724648E1,2.6820133E1,7.90961E1,4.8372993E0,1.7060118E0,9.512288E0,3.4346964E0,2.301257E0,1.6582791E0,1.1138529E1,1.2403642E1,1.12933266E2,2.5470352E0,1.6989147E1,9.936112E0,1.1569841E0,1.2815117E0,1.7033093E2,1.7024153E1,1.1885956E1,8.760951E1,6.4647995E1,6.937316E1,1.5066913E0,3.0217957E1,9.488952E0,1.733118E1,5.4422302E1,2.4673801E1,3.6323962E0,1.2049032E0,1.1025155E0,8.409772E0,1.4958452E0,1.9388511E0,1.0266358E0,1.2746211E0,2.9669979E0,8.171532E0,6.7056346E0,5.6980076E0,1.1113569E2,1.7975819E0,1.3954363E0,1.1515988E0,1.1131061E0,1.5876041E1,3.812554E0,6.1235585E0,1.758355E1,1.5274739E2,8.506701E0,8.51745E0,4.9774733E0,6.908483E0,1.4075098E1,7.353441E1,1.4835415E1,5.4537743E1,1.5303861E1,1.4914095E1,4.60858E0,4.880372E0,2.754837E0,1.4576344E1,3.6538113E1,1.788419E1,1.8179567E1,6.494235E0],"tree_param":{"num_deleted":"0","num_feature":"16","num_nodes":"95","size_leaf_vector":"1"}},{"base_weights":[3.6852849E-3,9.9451417E-1,-3.5993794E-1,4.804138E-2,1.024288E0,-1.5720761E-1,-7.3716885E-1,-4.6196207E-1,8.115621E-1,1.0380296E0,-3.4504015E-2,5.6194343E-2,-3.1155506E-1,-3.0196533E-1,-8.325449E-1,-4.681059E-2,3.2324858E-2,7.5469515E-3,5.557192E-2,8.771968E-1,1.2479496E0,6.7894596E-1,-5.0163962E-2,-1.7637749E-1,-4.372811E-1,-4.8058987E-1,2.3906553E-1,-8.6969906E-1,-3.3848047E-1,4.9133596E-1,1.0188013E0,1.4266664E-1,1.3131057E0,1.568075E0,3.0422345E-1,-2.2120693E-1,3.5037908E-1,-2.3598632E-1,8.459726E-1,-5.579795E-1,-1.2996762E-1,2.7103758E-1,-7.276774E-1,-5.628765E-1,9.5511895E-1,-4.2335162E-1,-9.101813E-1,6.3433456E-1,-7.8978837E-1,3.2468937E-2,-2.9926617E-2,9.051435E-2,4.4034287E-2,2.7950821E-2,-4.1302063E-2,6.8485215E-2,7.757406E-3,1.041308E-1,-1.2849535E-2,-1.0174287E-2,4.4921078E-2,-1.4574786E-2,1.0924841E-2,-2.1549892E-2,4.0059768E-2,-1.6223885E-2,1.8534075E-2,4.1286284E-3,8.24376E-2,-1.7417409E-2,-4.5662086E-2,1.1239229E-2,-2.7586717E-2,5.6058675E-2,-1.8152101E-2,-4.1548576E-2,2.8829917E-3,6.3133794E-3,-4.2868074E-2,-9.196513E-3,8.495761E-2,-3.2113183E-2,3.461252E-2,-3.9396163E-2,-5.0395515E-2,8.496224E-2,-2.2109944E-2,-4.3346867E-2,-4.7310847E-3],"categories":[],"categories_nodes":[],"categories_segments":[],"categories_sizes":[],"default_left":[0,0,0,0,0,0,0,0,0,0,0,0,0,0,0,0,0,0,0,0,0,0,0,0,0,0,0,0,0,0,0,0,0,0,0,0,0,0,0,0,0,0,0,0,0,0,0,0,0,0,0,0,0,0,0,0,0,0,0,0,0,0,0,0,0,0,0,0,0,0,0,0,0,0,0,0,0,0,0,0,0,0,0,0,0,0,0,0,0],"id":14,"left_children":[1,3,5,7,9,11,13,15,17,19,-1,21,23,25,27,-1,-1,-1,-1,29,31,33,35,37,39,41,43,45,47,49,51,53,55,57,59,61,63,65,67,69,71,73,75,77,79,81,83,85,87,-1,-1,-1,-1,-1,-1,-1,-1,-1,-1,-1,-1,-1,-1,-1,-1,-1,-1,-1,-1,-1,-1,-1,-1,-1,-1,-1,-1,-1,-1,-1,-1,-1,-1,-1,-1,-1,-1,-1,-1],"loss_changes":[2.7346805E2,5.6930847E0,4.234832E1,3.2034504E0,5.369217E0,1.1955438E1,7.793892E0,3.2295866E0,4.8037696E-1,5.5339966E0,0E0,1.0165632E1,3.4999046E0,3.6336794E0,2.6135635E0,0E0,0E0,0E0,0E0,5.75737E0,5.7759247E0,6.980239E0,9.092207E0,6.482628E0,3.947239E0,5.342632E0,6.110701E0,2.265358E0,6.0842013E0,6.0174613E0,7.462837E0,2.7733948E0,4.904297E0,6.5410366E0,5.3074145E0,2.9324126E0,1.4351772E1,5.3921957E0,3.4785285E0,5.4541855E0,4.8916445E0,4.4947352E0,1.7613764E0,1.1650333E0,4.972027E0,3.880325E0,8.02475E-1,6.007232E0,4.077468E-1,0E0,0E0,0E0,0E0,0E0,0E0,0E0,0E0,0E0,0E0,0E0,0E0,0E0,0E0,0E0,0E0,0E0,0E0,0E0,0E0,0E0,0E0,0E0,0E0,0E0,0E0,0E0,0E0,0E0,0E0,0E0,0E0,0E0,0E0,0E0,0E0,0E0,0E0,0E0,0E0],"parents":[2147483647,0,0,1,1,2,2,3,3,4,4,5,5,6,6,7,7,8,8,9,9,11,11,12,12,13,13,14,14,19,19,20,20,21,21,22,22,23,23,24,24,25,25,26,26,27,27,28,28,29,29,30,30,31,31,32,32,33,33,34,34,35,35,36,36,37,37,38,38,39,39,40,40,41,41,42,42,43,43,44,44,45,45,46,46,47,47,48,48],"right_children":[2,4,6,8,10,12,14,16,18,20,-1,22,24,26,28,-1,-1,-1,-1,30,32,34,36,38,40,42,44,46,48,50,52,54,56,58,60,62,64,66,68,70,72,74,76,78,80,82,84,86,88,-1,-1,-1,-1,-1,-1,-1,-1,-1,-1,-1,-1,-1,-1,-1,-1,-1,-1,-1,-1,-1,-1,-1,-1,-1,-1,-1,-1,-1,-1,-1,-1,-1,-1,-1,-1,-1,-1,-1,-1],"split_conditions":[1E0,-9.6666664E-2,4E0,6.75E0,1.1666667E-1,-1E-2,-3.8333334E-2,5E0,3E0,0E0,-3.4504015E-2,3E0,3.214E1,-4.5E-2,1.61E1,-4.681059E-2,3.2324858E-2,7.5469515E-3,5.557192E-2,4E0,1E0,6.71E0,4.6633334E0,5E-1,3.952E1,-8.833333E-2,3.365E1,-1.0278334E1,2.877E1,6.88E0,2.688E1,8.4833336E-1,5.5E-2,3E0,0E0,1.5E1,1.22E1,3.101E1,1.51E1,3.663E1,-4.5333335E-1,6.68E0,6.87E0,-2.4033334E0,-6.2166667E-1,-1.0793333E1,6.81E0,1.1E1,1.7E1,3.2468937E-2,-2.9926617E-2,9.051435E-2,4.4034287E-2,2.7950821E-2,-4.1302063E-2,6.8485215E-2,7.757406E-3,1.041308E-1,-1.2849535E-2,-1.0174287E-2,4.4921078E-2,-1.4574786E-2,1.0924841E-2,-2.1549892E-2,4.0059768E-2,-1.6223885E-2,1.8534075E-2,4.1286284E-3,8.24376E-2,-1.7417409E-2,-4.5662086E-2,1.1239229E-2,-2.7586717E-2,5.6058675E-2,-1.8152101E-2,-4.1548576E-2,2.8829917E-3,6.3133794E-3,-4.2868074E-2,-9.196513E-3,8.495761E-2,-3.2113183E-2,3.461252E-2,-3.9396163E-2,-5.0395515E-2,8.496224E-2,-2.2109944E-2,-4.3346867E-2,-4.7310847E-3],"split_indices":[1,15,1,5,15,15,15,0,0,6,0,11,4,15,7,0,0,0,0,0,11,5,14,6,4,15,4,14,4,5,4,14,15,1,6,11,7,4,7,4,14,5,5,14,14,14,5,0,8,0,0,0,0,0,0,0,0,0,0,0,0,0,0,0,0,0,0,0,0,0,0,0,0,0,0,0,0,0,0,0,0,0,0,0,0,0,0,0,0],"split_type":[0,0,0,0,0,0,0,0,0,0,0,0,0,0,0,0,0,0,0,0,0,0,0,0,0,0,0,0,0,0,0,0,0,0,0,0,0,0,0,0,0,0,0,0,0,0,0,0,0,0,0,0,0,0,0,0,0,0,0,0,0,0,0,0,0,0,0,0,0,0,0,0,0,0,0,0,0,0,0,0,0,0,0,0,0,0,0,0,0],"sum_hessian":[7.570318E2,2.0277089E2,5.5426086E2,6.263873E0,1.9650702E2,3.6143585E2,1.9282506E2,3.992194E0,2.271679E0,1.953358E2,1.1712103E0,1.5196451E2,2.0947134E2,3.541077E1,1.5741428E2,2.9047866E0,1.0874072E0,1.178593E0,1.093086E0,1.135312E2,8.180461E1,2.1382372E1,1.3058212E2,1.020994E2,1.0737194E2,2.6705505E1,8.705265E0,1.4569739E2,1.1716888E1,3.1678808E1,8.185239E1,4.73147E0,7.7073135E1,5.3954945E0,1.5986878E1,9.182013E1,3.8762005E1,9.7201195E1,4.8982105E0,7.650763E1,3.086431E1,6.583107E0,2.0122398E1,4.207267E0,4.4979987E0,1.3068199E1,1.326292E2,3.5845904E0,8.1322975E0,2.80198E1,3.6590078E0,1.0362425E1,7.148996E1,3.6049793E0,1.1264911E0,7.3307175E1,3.7659636E0,4.0988007E0,1.2966934E0,8.975424E0,7.011454E0,7.9455795E1,1.2364329E1,1.4197741E1,2.4564264E1,8.523375E1,1.19674425E1,3.0759785E0,1.8222319E0,4.9361294E1,2.7146336E1,1.7017643E1,1.3846667E1,2.4842212E0,4.0988855E0,1.7732027E1,2.390371E0,1.4306147E0,2.776652E0,2.0746639E0,2.4233346E0,1.1279197E1,1.7890016E0,6.2946278E1,6.9682915E1,1.5112327E0,2.0733578E0,7.0975275E0,1.03477E0],"tree_param":{"num_deleted":"0","num_feature":"16","num_nodes":"89","size_leaf_vector":"1"}},{"base_weights":[1.815331E-2,9.414311E-1,-3.3155942E-1,1.6177428E-1,1.0885024E0,-4.9818695E-1,3.031584E-1,5.957825E-1,-3.0819684E-1,-1.1307128E-1,1.1223158E0,-3.107846E-1,-8.3385754E-1,5.983596E-2,8.8481003E-1,1.1874369E0,2.2463495E-1,-8.793766E-1,6.714891E-2,-4.6211686E-2,7.739228E-1,1.1536931E0,1.4450498E-1,-6.852924E-1,-1.781213E-1,-5.424576E-2,-6.6081303E-1,1.6990414E0,-3.455545E-2,3.036656E-1,1.4603453E0,1.4476279E0,3.9948425E-3,-2.9462534E-1,1.0205234E0,-4.9518008E-2,-8.530863E-3,6.126754E-1,-4.6017995E-1,6.845489E-2,-1.2166554E-2,9.899918E-1,1.3576642E0,-2.9825723E-2,6.119828E-1,-5.061455E-1,-9.256471E-1,4.175003E-2,-3.9583912E-1,5.8120257E-1,-7.191128E-1,1.6694421E-2,1.015134E-1,7.9170626E-1,-1.3411847E-1,9.964972E-1,-2.2090608E-1,1.707494E0,-1.0067596E-2,1.8510593E-2,8.9548044E-2,-3.8983136E-2,1.2103869E-2,-1.8391026E-3,7.412859E-2,7.100311E-2,-9.138305E-3,1.2250067E-2,-4.8366632E-2,5.2845534E-2,-2.8056083E-2,1.9298643E-2,7.296014E-2,6.5525435E-2,-2.5922522E-2,-3.0863946E-2,7.139355E-3,-5.0714713E-2,-6.8937424E-3,-5.7043013E-4,5.8772344E-2,9.878914E-3,-2.2572137E-2,6.729485E-2,-3.320729E-2,-9.898482E-3,-4.13112E-2,-1.3150196E-2,7.757946E-2,-1.7031739E-2,1.6635023E-2,7.335603E-2,-1.6664242E-3,-4.8742965E-2,1.46726845E-2,2.8115178E-2,9.744974E-2],"categories":[],"categories_nodes":[],"categories_segments":[],"categories_sizes":[],"default_left":[0,0,0,0,0,0,0,0,0,0,0,0,0,0,0,0,0,0,0,0,0,0,0,0,0,0,0,0,0,0,0,0,0,0,0,0,0,0,0,0,0,0,0,0,0,0,0,0,0,0,0,0,0,0,0,0,0,0,0,0,0,0,0,0,0,0,0,0,0,0,0,0,0,0,0,0,0,0,0,0,0,0,0,0,0,0,0,0,0,0,0,0,0,0,0,0,0],"id":15,"left_children":[1,3,5,7,9,11,13,15,17,19,21,23,25,27,29,31,33,35,37,-1,39,41,43,45,47,-1,49,51,53,55,57,59,-1,61,63,-1,-1,65,67,-1,-1,69,71,-1,73,75,77,79,81,83,85,-1,-1,87,89,91,93,95,-1,-1,-1,-1,-1,-1,-1,-1,-1,-1,-1,-1,-1,-1,-1,-1,-1,-1,-1,-1,-1,-1,-1,-1,-1,-1,-1,-1,-1,-1,-1,-1,-1,-1,-1,-1,-1,-1,-1],"loss_changes":[2.4129019E2,2.3363724E1,5.74783E1,7.068518E0,7.136963E0,2.677208E1,1.5986709E1,3.6616302E0,3.6746855E0,4.766724E0,4.9848175E0,1.3657753E1,5.9456406E0,1.2588072E1,1.0712437E1,1.8043852E0,5.3536124E0,3.6267042E-1,3.4768493E0,0E0,2.2911506E0,4.0832825E0,2.5694926E0,2.640213E0,9.885152E0,0E0,7.176853E0,1.3248034E0,6.4856973E0,6.7106857E0,7.118225E0,1.3111582E0,0E0,2.3169053E0,2.522306E0,0E0,0E0,4.040844E0,2.4608777E0,0E0,0E0,1.0336174E1,6.3114777E0,0E0,4.1503873E0,3.2304811E0,1.9289875E0,6.249403E0,3.5102444E0,5.405995E0,4.8382072E0,0E0,0E0,7.2079396E0,6.8678865E0,3.866395E0,4.5449395E0,2.904602E0,0E0,0E0,0E0,0E0,0E0,0E0,0E0,0E0,0E0,0E0,0E0,0E0,0E0,0E0,0E0,0E0,0E0,0E0,0E0,0E0,0E0,0E0,0E0,0E0,0E0,0E0,0E0,0E0,0E0,0E0,0E0,0E0,0E0,0E0,0E0,0E0,0E0,0E0,0E0],"parents":[2147483647,0,0,1,1,2,2,3,3,4,4,5,5,6,6,7,7,8,8,9,9,10,10,11,11,12,12,13,13,14,14,15,15,16,16,17,17,18,18,20,20,21,21,22,22,23,23,24,24,26,26,27,27,28,28,29,29,30,30,31,31,33,33,34,34,37,37,38,38,41,41,42,42,44,44,45,45,46,46,47,47,48,48,49,49,50,50,53,53,54,54,55,55,56,56,57,57],"right_children":[2,4,6,8,10,12,14,16,18,20,22,24,26,28,30,32,34,36,38,-1,40,42,44,46,48,-1,50,52,54,56,58,60,-1,62,64,-1,-1,66,68,-1,-1,70,72,-1,74,76,78,80,82,84,86,-1,-1,88,90,92,94,96,-1,-1,-1,-1,-1,-1,-1,-1,-1,-1,-1,-1,-1,-1,-1,-1,-1,-1,-1,-1,-1,-1,-1,-1,-1,-1,-1,-1,-1,-1,-1,-1,-1,-1,-1,-1,-1,-1,-1],"split_conditions":[1E0,4.39E0,9.85E-1,-1.5E-2,-9.6666664E-2,4E0,1.7333333E0,6.71E0,-9.3333334E-1,5E0,7E0,-6.0833335E-1,-4.2166665E-1,9.9666667E-1,0E0,8E0,1.2E1,4.505E0,4.06E0,-4.6211686E-2,-1.0333333E-1,7.1E-1,-3.825E0,4.14E0,-3.3333334E-3,-5.424576E-2,4.08E0,5.79E0,5.49E0,7E0,2.3416667E0,3.58E0,3.9948425E-3,1.8666667E-1,6.81E0,-4.9518008E-2,-8.530863E-3,4E0,2E0,6.845489E-2,-1.2166554E-2,6.75E-1,5.57E0,-2.9825723E-2,4.4183335E0,1.5E1,1E0,7E0,1E0,2.5E-2,-3.6666665E-2,1.6694421E-2,1.015134E-1,5.23E0,6.63E0,4E0,6E0,-5.4E0,-1.0067596E-2,1.8510593E-2,8.9548044E-2,-3.8983136E-2,1.2103869E-2,-1.8391026E-3,7.412859E-2,7.100311E-2,-9.138305E-3,1.2250067E-2,-4.8366632E-2,5.2845534E-2,-2.8056083E-2,1.9298643E-2,7.296014E-2,6.5525435E-2,-2.5922522E-2,-3.0863946E-2,7.139355E-3,-5.0714713E-2,-6.8937424E-3,-5.7043013E-4,5.8772344E-2,9.878914E-3,-2.2572137E-2,6.729485E-2,-3.320729E-2,-9.898482E-3,-4.13112E-2,-1.3150196E-2,7.757946E-2,-1.7031739E-2,1.6635023E-2,7.335603E-2,-1.6664242E-3,-4.8742965E-2,1.46726845E-2,2.8115178E-2,9.744974E-2],"split_indices":[1,2,13,15,15,1,13,5,13,0,9,13,13,13,6,0,0,14,2,0,15,13,14,2,15,0,2,2,2,11,13,2,0,14,5,0,0,11,10,0,0,13,2,0,14,0,12,9,9,15,15,0,0,2,2,0,0,14,0,0,0,0,0,0,0,0,0,0,0,0,0,0,0,0,0,0,0,0,0,0,0,0,0,0,0,0,0,0,0,0,0,0,0,0,0,0,0],"split_type":[0,0,0,0,0,0,0,0,0,0,0,0,0,0,0,0,0,0,0,0,0,0,0,0,0,0,0,0,0,0,0,0,0,0,0,0,0,0,0,0,0,0,0,0,0,0,0,0,0,0,0,0,0,0,0,0,0,0,0,0,0,0,0,0,0,0,0,0,0,0,0,0,0,0,0,0,0,0,0,0,0,0,0,0,0,0,0,0,0,0,0,0,0,0,0,0,0],"sum_hessian":[7.453348E2,2.0429166E2,5.4104315E2,3.275425E1,1.715374E2,4.2871185E2,1.1233128E2,1.6889479E1,1.5864772E1,4.6309385E0,1.6690646E2,2.7635233E2,1.5235953E2,7.997726E1,3.2354027E1,5.6628466E0,1.1226632E1,5.758687E0,1.0106085E1,2.3969378E0,2.2340007E0,1.615428E2,5.363659E0,7.119724E1,2.0515509E2,6.0016476E1,9.2343056E1,3.4290075E0,7.654825E1,1.6858673E1,1.5495355E1,4.3369207E0,1.3259256E0,7.175166E0,4.0514665E0,4.6355047E0,1.1231819E0,4.8877826E0,5.2183022E0,1.1911855E0,1.0428152E0,9.286538E1,6.867743E1,1.9680269E0,3.395632E0,4.257215E1,2.862509E1,1.0247486E2,1.0268022E2,3.7380779E0,8.860497E1,1.06161E0,2.3673975E0,7.484388E0,6.9063866E1,6.87665E0,9.982022E0,1.3465095E1,2.0302596E0,1.5502754E0,2.7866454E0,3.5312023E0,3.6439638E0,1.5119846E0,2.5394819E0,2.0359788E0,2.851804E0,2.3991964E0,2.819106E0,8.933007E1,3.5353093E0,6.9518394E0,6.1725586E1,2.000296E0,1.3953359E0,3.6389088E1,6.183065E0,2.5471285E1,3.1538057E0,9.8830666E1,3.6441965E0,8.578178E0,9.410204E1,2.265952E0,1.4721259E0,1.559188E1,7.301309E1,3.4080026E0,4.0763855E0,4.8068928E1,2.0994936E1,4.4283113E0,2.4483385E0,3.685093E0,6.2969294E0,2.9246855E0,1.0540409E1],"tree_param":{"num_deleted":"0","num_feature":"16","num_nodes":"97","size_leaf_vector":"1"}},{"base_weights":[1.4894544E-2,8.98196E-1,-3.39606E-1,8.345571E-2,1.0101386E0,-5.520738E-1,2.1684085E-1,6.15672E-1,-2.312819E-1,7.9099065E-1,1.2248076E0,-2.9513237E-1,-7.5123596E-1,4.2323023E-1,-2.707743E-1,1.4027187E0,-5.2880004E-2,-6.2170196E-1,8.8143516E-1,7.525033E-2,9.168593E-1,5.1720345E-1,1.3641336E0,-6.7725277E-1,-1.5718414E-1,3.666644E-1,-7.930736E-1,8.516403E-2,7.207057E-1,-5.4694176E-1,7.412617E-1,1.0096983E-1,-1.21147605E-2,7.4842113E-1,-4.561718E-2,-9.022042E-1,1.5597744E-1,-1.2769169E-2,6.6565864E-2,3.2930294E-1,-4.589785E-2,1.056254E0,1.9067828E-1,8.3468986E-1,-7.178615E-1,1.3965316E0,1.2666722E-3,2.882692E-2,-7.303812E-1,1.4075236E-1,-3.7452412E-1,-4.0854592E-2,1.0801244E0,-5.503379E-1,-8.961954E-1,4.5530245E-1,-4.528217E-1,1.9563662E-1,9.700846E-1,6.067385E-2,-6.386955E-1,1.4201446E0,2.2339554E-1,-3.9775926E-3,6.92509E-2,1.3141318E-2,-5.3856988E-2,6.6006884E-2,-3.9756134E-2,-3.3136655E-2,3.064245E-2,3.9973162E-2,6.862665E-2,5.7722904E-2,-6.0378206E-3,1.693484E-2,9.773549E-2,-4.980577E-2,-1.5844054E-3,2.0031711E-2,7.076539E-2,-3.8399126E-2,2.1067185E-2,1.8026765E-2,-3.1255793E-2,6.494066E-3,-2.4406984E-2,7.816101E-2,-2.9703349E-2,-3.386865E-2,9.987138E-3,-4.54154E-2,1.9289214E-2,4.176423E-3,7.683827E-2,5.08594E-2,-3.6192305E-2,4.5313332E-2,-3.6811456E-2,5.766475E-2,-5.396578E-3,-4.1997995E-2,-3.400555E-4,1.00363055E-2,9.213654E-2,4.8151176E-2,-3.2095827E-2],